0.027137052,-0.14141226,-0.06231653,-0.626384,-0.07459976,0.07361975,0.07975494,-0.02728912,-0.046389315,-0.47366336,0.08703113,0.025291635,-0.029604143,-0.16723478,0.21781795,-0.004904277,-0.21865503,0.95920384,-0.04935081,0.04212613,-0.013312101,-0.026979053,-0.020374054,-2.2097306,0.0020571442,0.024628475,0.10468277,-1.1386924,0.1327205,-0.07328447,0.079830274,0.0036317804,-0.14258996,-0.01168272,0.0,-0.16758919,-0.072319075,-0.42047733,-0.19528614,-0.22708139,0.11735948,-0.009359119,-0.44164705,-0.101276994,-0.34518895,0.07918464,0.009801034,-0.021221677,-0.042534485,0.010701963,-0.6012321,-0.08059491,0.01551472,-0.060416248,-2.0151165,-0.51424026,-0.062427316,0.13518783,-0.021316612,0.046745155,-0.20680325,0.007206759,0.003157499,-0.035009522,0.052359127,-0.19300927,-0.11303565,-0.49085,-0.068304226,-0.035814878,0.014872744,0.14645755,0.12229105,0.0008307993,-0.120264396,0.03646204,0.073830314,-0.04950536,-0.03749312,-0.2963961,-2.1664574,0.018389879,-0.1762531,0.013329927,-0.15863483,0.02910828,-0.04207706,-0.038317937,-0.019981513,-0.022313023,0.03428814,-0.74480885,-0.01809613,0.0085135745,0.04014113,-0.023411388,-0.0078055016,-0.030343477,-0.031636577,0.0048555234,-0.20837276,-0.065031104,-0.3347803,-0.5481149,0.1362141,-0.11653692,-0.05476956,-0.39325422,-0.16697825,-0.08083825,-0.05935892,-0.068014294,-0.036902837,-0.09380256,-0.21209705,-0.06234125,-0.023139805,0.02818672,0.15089487,-0.031181756,0.110864416,-0.15145652,-0.044463567,-1.343344,-0.021656264,-0.24512394,-0.07253932,0.15020995,-0.08887069,-0.0029905913,-2.4104598,0.060162365,-0.10334562,0.34281042,0.13720551,1.0835495,-0.06441626,-1.8199239,0.064575605,0.12543975,0.36154404,-0.03453172,-0.16361174,0.15249166,-0.030114558,0.045548283,-0.043159164,-0.013440078,-0.034400746,-0.075433105,-0.23144473,-0.025499977,0.2191603,-0.2522309,-0.17646909,-0.10007949,-0.24629186,-0.28062022,-0.011268809,-0.07000143,-0.668759,-0.008943337,-0.4879417,-0.031678554,-0.06220231,-0.06393163,0.09761749,0.056856897,-0.27655247,0.059926026,0.3937483,0.05168915,-0.008421353,0.0018544755,-0.055979975,0.038392767,-0.08480415,0.21016821,0.16355313,-0.00922648,0.6097888,-0.1934568,0.5182185,-0.035123393,-0.0014365881,-0.1049819,0.17669226,-0.09105557,-0.07553038,-0.1306476,-0.057182077,-0.027025973,-0.032831587,-0.0071027777,-0.014840362,-0.19485822,-0.3087015,0.23552449,0.0004562131,0.37478694,-0.21768588,0.01795619,-0.6456713,0.026219545,-0.1557364,-0.026879286,-0.007500866,-2.3199232,0.26632595,0.07921035,0.047833264,-0.029273067,0.0,-0.4038357,-0.020160327,-0.113063104,0.18691722,-0.023676302,0.008039605,0.27705285,-0.04263518,-0.08339657,-1.1791761,-0.00012914815,0.13783889,-0.10952297,-0.005678521,-0.101416536,-0.043902587,-0.07744443,-0.5654612,-0.16538425,0.1671235,0.41813087,-0.04420342,0.015630906,-0.7728895,-0.019927109,0.30783468,-0.3034631,-0.09625084,-0.015579771,-2.5793107,0.19878021,-1.8424153,0.45363647,-0.024347212,-0.03619661,-0.0900554,-0.17947975,0.0,-0.021659357,-0.12471336,-0.056456193,-0.15595536,-0.15568379,-2.0985866,0.14079086,-0.013136294,-0.041810784,0.23988125,-0.024701204,0.9121802,-0.3968268,-0.076896936,-0.065316886,0.05258022,-0.07963505,-0.011701211,-0.10031764,-0.30314103,-0.52411455,0.019367643,-0.05300004,0.029314008,-0.13234097,0.21583752,0.056612715,0.14867711,0.2176523,-0.09466117,0.12515259,0.13833222,-0.046304516,0.9430416,-0.029487459,0.76315576,-0.18915494,-0.018583603,-1.4199389,-0.039228655,-0.02443169,0.05191774,-0.028399793,0.76086664,-0.021034341,0.029004456,-0.23923464,-0.42754766,-0.098073184,0.09976643,0.19341978,-0.048129626,-0.07097466,-0.016534247,0.017223917,0.002506341,-0.08282205,-0.06603049,-0.024332052,0.35902944,0.030229101,0.0,0.10987408,-0.19401988,-0.039685544,0.07694208,-0.0054055564,0.05238754,0.011106467,-0.017481513,0.19420087,0.16432665,0.15869002,0.094721906,0.036196392,-0.08954319,-0.26554784,-0.061312847,-0.16037345,-0.024796477,0.19251779,-0.046637613,-1.720054,0.10195702,-0.012934621,-0.07176151,-0.032904472,-0.11956071,-0.046910625,0.0023751964,-0.03519825,-0.11848359,-0.014480346,-0.05403369,-0.34759542,0.22246204,0.038737226,-0.05862001,-0.031235613,0.04702484,-0.06608606,-0.28130335,0.06939847,0.29043955,-0.024836037,-0.20805198,-2.0591788,-0.015797835,-0.06566516,-0.055832896,-0.059474126,0.0,0.16143288,0.06784334,-0.0010339373,-0.09758323,-0.018564248,-0.026325004,-0.0732793,0.2002974,-0.01820497,-0.015210936,-0.056608666,-1.7589842,0.008391337,-0.014508159,-0.008157061,-2.1582797,-0.061847102,0.055472836,-0.10854739,-0.2793525,-0.3000245,0.17201006,0.30087128,-0.030890368,0.6407017,-0.03718751,-0.2173419,0.026876686,-0.0075374865,0.020340052,-0.053658064,-0.0508207,-1.8620892,0.02859655,-0.054904513,-0.03335777,0.20950833,-0.007891016,0.008537576,0.046361323,-0.10565832,-0.022316929,-0.0064328806,-0.07379901,0.22173803,0.47482118,0.35359988,0.67332447,-1.9794608,-0.02752747,0.0,0.012102766,-0.0013441762,-0.058909535,0.4312915,-0.13654494,0.07999356,-0.012129679,-0.2600494,0.09263466,0.029619971,-0.035579346,-0.08690231,-0.08607893,0.0035092654,0.009539464,-0.19412456,-0.4005215,0.12093351,-0.06146893,-0.09965631,-0.26440674,-1.9649316,0.06893722,-0.050844774,-0.36375722,-0.021263303,-0.013464958,-0.10427092,-0.058761273,0.017449712,-0.052278902,-0.33144322,-0.29005364,-1.8329668,-0.04361785,0.02714739,0.22239049,0.03072746,-0.045883726,-0.095614046,-0.102100916,0.09434066,-0.0013929893,-0.013907568,-0.31545344,0.038682137,-0.03633272,-0.036817193,0.04461948,-0.06070258,0.14657481,0.08766783,0.06734011,-0.035057046,1.0671412,-0.05672287,-0.022990607,0.12539789,-0.07019707,0.3478709,-0.031076748,0.11395117,-0.0006960886,0.0532389,0.1251166,-0.04694392,-0.008246178,-0.15604094,-0.06108937,-0.10599099,-0.1565187,0.3529244,-0.923114,-0.07326477,-0.05217463,-0.17852643,-1.3385772,-0.00058579387,0.106931224,-0.01594507,-0.028964605,-0.057577495,0.13625112,0.6314975,-0.006078869,-0.05859873,-0.25938934,-0.15419781,-2.2190614,0.035840843,-0.021738432,-0.06857457,0.091745,-0.030205522,-0.7089813,-0.03282009,0.149088,-0.015684258
