-0.06302848,-0.2140337,-0.06175152,0.07709099,-0.12187381,0.006866859,-0.02019921,-0.039563563,-0.13960056,-0.11672816,-0.14568046,-0.055992573,-0.088080086,-0.048516255,-0.19529451,0.0068574194,-0.007474889,0.14331818,-0.11803794,-0.21067117,0.0558135,-0.018888397,-0.12513894,-0.04459234,-0.1298368,0.0879719,-0.08770623,-0.2440351,-0.114957,0.024169782,0.005781118,-0.0965084,-0.07677724,0.039555427,-0.08335778,-0.03965524,0.03676638,-0.3983726,-0.03578516,-0.15412359,-0.05227403,0.0625297,0.2857789,-0.034124505,0.023733314,0.031204963,0.033579536,-0.094421096,0.039930563,-0.13789569,-0.1339416,0.025398958,0.037370108,-0.020673841,-0.3438892,-0.015105854,-0.11835278,-0.08745283,0.0401155,0.026056558,0.052384626,-0.12547204,-0.14687906,-0.04216664,-0.12617365,-0.09973181,0.0078084674,0.006620626,-0.13815537,-0.027763622,0.006479481,-0.08309744,-0.19469447,-0.05069165,-0.12840548,0.022663398,-0.13427824,-0.034378875,-0.030279122,-0.13543972,-0.022100424,-0.09218024,-0.17612498,-0.07191355,0.007310355,-0.07248047,0.022285532,-0.0306529,-0.086944304,-0.1573496,-0.18173845,-0.032146532,-0.15398115,-0.05753954,-0.15924214,-0.13055634,-0.19147114,0.03714167,-0.06989747,-0.13979322,-0.103637554,-0.0353738,-0.069483444,-0.065489955,-0.33618823,0.034150496,0.32914636,-0.13553376,-0.059879776,-0.22605935,-0.0944395,-0.14136273,-0.045079395,0.025771083,-0.082998216,-0.08016201,-0.08820084,-0.13769951,-0.101177074,0.0739707,0.0038225413,-0.11768715,-0.0124004865,-0.22924614,-0.09220459,-0.08377313,0.028174704,-0.05491686,-0.15730746,-0.099061996,-0.44243854,-0.07118261,-0.18183742,-0.1192068,0.024649862,0.22560033,0.074768044,-0.25973117,-0.1294252,0.152882,-0.15146051,-0.04907022,-0.14804909,-0.17656283,-0.076620705,-0.13423027,-0.08639606,-0.00041393618,0.0032942055,-0.09333603,-0.3231897,0.002665551,0.046297394,0.021083301,-0.08199983,-0.03967929,-0.095207945,0.056281872,0.0955922,-0.047175474,-0.16745165,0.010957786,-0.058518432,0.06481806,-0.10402738,0.05165632,0.038031448,0.021398557,-0.08112423,-0.14471167,-0.061521474,0.020185873,-0.055836868,-0.0036086563,-0.008467806,-0.10087246,0.010142319,-0.113543116,-0.046891153,-0.09434032,-0.240318,-0.0019886445,-0.093279205,-0.034044914,-0.00022035229,-0.12029495,-0.023080176,0.048063736,-0.085558526,0.071027905,-0.14112905,-0.06994196,-0.039122116,-0.11564733,-0.05725717,-0.13934985,-0.10974906,-0.14034076,-0.0943071,-0.3374515,0.014823135,-0.08009964,-0.10554998,0.033398096,-0.070228286,-0.07458361,-0.13985668,0.9312688,-0.006488539,-0.14462516,-0.105244994,0.022892293,-0.105490185,-0.036732644,-0.09445256,-0.08235151,-0.06297052,0.01313735,-0.061616585,-0.18982637,-0.08552517,-0.100748055,0.2132017,-0.15527317,-0.15539186,-0.10417491,-0.003919351,-0.040624846,-0.006236527,-0.060001887,-0.21755213,-0.042312108,-0.12547636,-0.19721304,-0.13223802,-0.020792792,-0.2701432,0.021968862,-0.12022423,-0.10720629,-0.13049752,-0.06201438,0.686766,-0.048555516,-0.051369183,-0.014187886,-0.048676297,-0.16808912,-0.14422266,-0.10627649,0.058926,-0.100158915,-0.15545128,0.057660602,0.017525438,0.026751217,-0.28012332,-0.010744289,-0.12278895,-0.2831425,-0.14086409,0.0072372337,-0.1853501,-0.06791886,-0.024649369,0.101302035,-0.08118603,-0.051995207,-0.11540303,0.010700634,-0.18372776,-0.022907985,-0.03742667,-0.0676571,-0.17143357,-0.09428988,-0.11487975,0.053208426,-0.13935004,0.1847848,-0.16459005,-0.09843131,-0.016076699,-0.10576726,0.123781405,-0.08723026,0.03633508,0.020489674,-0.13964254,0.21870126,-0.0074475952,0.015156978,-0.0877526,0.039285604,0.19730154,-0.083647296,-0.015114688,-0.10072603,-0.09398177,-0.033346213,0.1324018,-0.16071084,-0.08707745,-0.3117229,-0.22778541,-0.11424939,0.015605013,-0.07618381,-0.07297142,0.013701414,0.0020854308,0.011031129,-0.012874603,-0.14666311,-0.12955958,-0.17966455,-0.06649785,0.063557915,-0.025465189,-0.11572574,-0.021311859,-0.20196603,0.017571354,0.0022097812,0.0872946,-0.19024497,-0.17054398,0.016259134,-0.14866638,-0.035667576,0.11014998,-0.16646747,-0.0012563295,-0.12890705,-0.09296855,-0.08662705,-0.1321006,0.039906874,-0.13213965,0.02022051,-0.1015645,-0.116324104,-0.10153522,-0.02385622,-0.13527125,-0.11723346,-0.0043188324,-0.046202373,-0.04892892,-0.13872208,-0.0860013,-0.11601965,-0.07757842,-0.09909873,-0.035307787,-0.08009442,-0.06089515,0.014734338,-0.06343633,-0.032783642,0.03163793,-0.12437543,-0.073278755,-0.04381595,-0.07557427,-5.114202e-05,-0.21621287,-0.093372524,-0.0036374417,-0.0807404,0.0005662068,-0.10449818,-0.03709196,-0.1766454,-0.379521,-0.15370521,-0.090731956,0.03760109,0.080571756,-0.14402616,-0.08117397,-0.08143198,-0.13632916,-0.02256802,0.04219334,-0.18813962,-0.07303967,0.18908255,-0.09669736,0.017299453,0.047556344,0.03455352,-0.17760807,-0.012440338,-0.030794173,-0.073287465,-0.12364305,-0.10457891,-0.1416433,-0.0060816724,-0.03423296,0.042092785,0.0017547983,-0.15005367,-0.024951506,0.0006407241,-0.07207562,0.047293384,0.007070968,-0.588987,-0.22690222,0.033866342,-0.070078574,0.049839407,-0.042522613,-0.13934143,-0.05149627,-0.10116656,0.009801435,-0.18816087,-0.06510235,0.03943567,-0.12090729,-0.1292255,-0.015696146,-0.156252,-0.13242766,-0.13698372,0.008706058,-0.16109125,-0.034558035,-0.042427734,-0.04365791,-0.07754313,-0.12340018,-0.13461939,-0.009170932,-0.3201373,-0.115578696,0.030735442,0.043714583,-0.074862175,-0.055086683,0.011119332,0.023731634,-0.062732324,-0.027712194,-0.1521193,-0.0710374,0.047167942,-0.04880139,-0.039566737,-0.08946622,-0.16505966,0.045995083,0.008467744,-0.024109876,0.056430597,-0.0019690606,0.014319954,-0.035143957,-0.100761704,0.0990071,-0.008814244,-0.063499905,-0.083899975,0.00065427,-0.15217142,-0.080773905,-0.03855601,-0.098930374,0.007241748,0.0146472845,-0.54865474,0.0054188934,-0.09848598,-0.13484883,-0.04165893,-0.13394108,-0.07760659,-0.030141244,0.055803217,0.039138477,-0.12214661,-0.0077971644,-0.11345175,-0.16153038,0.003498517,-0.13932653,-0.15635079,-0.012234624,-0.07911197,-0.05567513,0.0029052903,-0.026763009,-0.08032569,-0.049333204,-0.35068828,-0.03127258,0.12281681,-0.119542524,-0.01713113,1.1171103,-0.08342686,-0.094770595,-0.08279879,0.02397475,0.025631722,-0.17139634,-0.03047552,-0.115762785,-0.12025652
-0.04030482,-0.42350572,-0.07402642,-0.74953485,-0.003265406,0.04381596,0.025488677,-0.078897454,-0.10640687,-0.17579079,-0.0633481,-0.050010014,-0.055751875,-0.041410446,-0.18107161,-0.115225576,-0.028750464,0.11280471,-0.09861951,-0.12197089,-0.11506403,-0.017472709,-0.015649283,-0.08324851,0.021580696,-0.03309678,0.009957822,0.0056718164,0.044576354,-0.08555051,0.09402073,-0.04718643,-0.09560072,-0.13656771,0.011189453,-0.05005097,0.038404513,-0.49367973,-0.0058890185,-0.06831152,0.020550929,-0.09420362,0.5847377,-0.037636098,0.0063257515,-0.11460338,-0.040941015,0.0145570375,-0.07462871,0.01444477,-0.2992454,-0.07548206,-0.0745723,-0.04152445,0.72027105,0.018762166,-0.09079916,-0.008187709,0.00931374,0.028954266,0.025747318,-0.03524115,-0.105296396,0.08109988,-0.084973074,-0.08223706,-0.026611127,0.009030458,-0.030406479,-0.10591947,-0.07442345,-0.089346275,-0.032900907,-0.1286448,-0.0023270762,-0.11031332,-0.094440185,-0.1234325,-0.05145616,-0.06078293,0.13885868,0.02361964,-0.0011685228,-0.09863081,-0.047956057,0.03875465,-0.12090284,0.05330408,0.012361689,0.0061771427,-0.18770069,-0.33617952,-0.011899131,-0.057559706,-0.02254868,0.045232203,-0.031174066,-0.0015327999,0.016583614,-0.06201821,0.013947738,-0.0498287,-0.14202377,-0.20259075,-0.10345136,0.036691066,-0.99311835,0.008139626,-0.09227799,-0.013562747,0.0026681493,-0.1032577,-0.019728497,0.020424915,0.02255069,-0.08769856,0.071808524,-0.0039458764,0.013195747,0.059745908,-0.09771497,-0.07484837,0.041766707,-0.073527575,-0.117640935,-0.062322903,-0.14058106,-0.17685148,-0.26336756,-0.103284165,0.1213906,-0.010001117,-0.20688672,-0.1882804,-0.032210793,-0.3222144,-0.12609753,0.1532586,-0.14582253,-0.024216697,-0.12297724,-0.13649657,0.012266019,-0.2668014,-0.07807018,-0.09207552,-0.06661378,-0.01836641,-0.07382204,-0.008525111,-0.14325118,-0.022125592,-0.048433796,-0.14499584,-0.16275203,-0.09716307,-0.09365305,-0.07812906,0.026406845,-0.12931831,0.17658107,-0.07541672,-0.19893618,-0.14292714,0.048099976,-0.18684776,-0.111065194,-0.18321998,-0.0833963,-0.08263767,-0.15273038,0.028707668,-0.021501524,-0.10486952,-0.037782624,-0.41161016,0.056857552,-0.1649904,-0.1101169,-0.27127352,0.062142223,-0.023960037,-0.035353243,-0.11183141,0.06980654,-0.25485444,-0.13729687,-0.15859999,0.074339725,-0.07436156,-0.11678637,-0.06687264,0.020651013,-0.028452577,0.036604714,-0.06719098,-0.0063951346,-0.09666448,-0.07510943,-0.41044462,-0.0077214525,-0.00075527147,0.06918071,-0.0328809,-0.07937346,0.023741126,-0.07257623,-1.0037068,-0.036045164,0.01734323,-0.016572678,-0.044303965,-0.080290735,0.035911918,-0.09230266,-0.08537791,-0.12698779,-0.09099552,-0.14015488,-0.05958902,-0.107021786,-0.11562342,-0.83427715,-0.100916184,-0.11416839,-0.12353954,-0.02253831,0.04232095,-0.1421418,-0.022554215,0.08081874,0.048084408,-0.17256893,0.18584913,-0.05445194,0.024073461,0.1084848,0.063788705,0.004815229,0.01573911,-0.026023943,-0.035325874,0.97376055,-0.198218,-0.012763879,-0.09597033,-0.07658414,-0.05831771,0.06336314,-0.036459766,-0.028836101,-0.16867712,-0.19136083,-0.12214143,0.012669161,-0.08177264,0.49856523,-0.118736014,-0.02004936,-0.28325173,0.0050728954,-0.11645015,0.07491873,-0.14052293,0.040160522,-0.038116705,0.029869752,-0.041239236,-0.12488924,-0.16780198,-0.017297214,-0.12363236,0.015472737,0.021363227,-0.120561115,0.026537323,-0.07558409,-0.027473329,0.011584845,-0.06956857,-0.1122135,-0.11364645,-0.05766379,-0.0058423383,0.38202795,-0.103312105,0.046147674,-0.0046988623,-0.11447215,-0.49044186,-0.050029166,-0.08553703,-0.036339067,-0.03989352,0.12014874,-0.09388815,-0.12935784,-0.02134696,-0.010166866,-0.12763445,-0.39663404,-0.19210726,0.10297079,-0.106762186,-0.2082241,-0.122508176,-0.111299135,-0.13791473,-0.16259767,-0.028204141,0.20373574,-0.013512159,0.004410431,0.020343572,0.012301358,-0.17561941,0.088795446,-0.0993828,-0.09899444,-0.09765598,0.07039475,-0.14103416,-0.121818386,-0.103918456,0.10914255,-0.0768022,-0.13304472,-0.01704283,-0.006238709,-0.14984521,0.029386118,-0.17127359,-0.14042577,0.1266524,0.04496182,0.01890602,-0.10545634,-0.018066725,0.023841847,-0.04997186,-0.00016218715,0.03200221,-0.009983707,-0.046483118,0.02711911,-0.05627866,-0.08061161,-0.014523794,-0.11085896,-0.054380544,-0.08525922,-0.058157615,-0.016478226,-0.05418982,0.0033875294,-0.13951309,-0.08339924,0.24661407,-0.08952057,-0.12447342,-0.12033051,0.008976828,-0.046007175,-0.050169125,0.018424038,0.11585734,-0.20652016,-0.053069796,-0.049102776,-0.06743167,-0.051058114,-0.10783926,0.0672497,-0.009867304,-0.371034,-0.00051983143,0.00936311,0.060479004,0.8075357,-0.10627061,-0.04470726,-0.060857892,0.030566202,-0.14282328,-0.13536839,-0.08849562,0.04461046,0.11068561,0.06792032,0.021776488,0.02876848,0.008476797,-0.13382162,-0.06150625,-0.065603845,0.072415434,-0.043087456,-0.20965384,-0.06445321,-0.13157107,-0.07003231,-0.1917092,-0.17389534,-0.019211486,-0.05649536,-0.0868976,-0.14758974,0.029058188,-0.15314241,-0.3346361,0.6789268,-0.5654965,0.037187852,-0.08528173,0.062397636,-0.001301685,-0.10199892,-0.07266369,-0.12622085,-0.12204785,0.030192567,-0.026293764,0.046009045,-0.224554,-0.024083342,-0.017493835,-0.11111614,-0.06291296,-0.16331,0.06300446,-0.4591272,-0.026681378,-0.04480652,-0.09063351,-0.08823493,-0.14594266,0.0017185512,-0.16737048,-0.07197671,0.029101772,-0.17510772,-0.038571734,-0.04848577,-0.11296965,-0.01055246,-0.02323529,-0.16121423,0.46224493,-0.059201475,-0.007083238,-0.11283547,-0.09985064,-0.011420364,-0.046807695,-0.113808565,-0.007462423,0.0429238,0.056203105,-0.08636209,0.04365353,-0.1192716,0.03411217,-0.008858741,-0.124390185,-0.112259865,-0.0014445344,0.016974142,-0.05558065,-0.31734574,-0.07492116,-0.06300116,0.04505243,-0.04344652,-0.26857308,-0.0900216,-0.04325359,0.0317692,-0.044195864,-0.06263278,0.012574793,-0.030046437,-0.016827445,-0.1879381,0.001446603,-0.021525057,0.07505565,-0.14789009,-0.13807161,-0.16093533,0.050425068,0.3428399,-0.004017605,0.033736862,-0.00819159,-0.21210063,-0.0012517736,-0.10799497,-0.33846018,-0.0014739411,-0.14856295,0.08766246,-0.022285834,1.0821972,-0.06831702,-0.04188872,0.0036955078,-0.06767632,-0.12122746,0.4259922,0.006452085,-0.11567875,-0.05454973
-0.003639793,-0.19097637,-0.09352785,-0.53146625,-0.0010533332,-0.18822943,0.0046041775,-0.12766233,0.015413676,0.104642026,0.05174154,-0.14583232,-0.04969644,-0.0023477061,0.101050444,0.022818442,-0.05720849,-0.0492632,-0.01830618,-0.089312546,-0.14838833,0.0018854525,0.059419613,-0.5799694,-0.054076105,-0.112855315,-0.052514877,-0.41716903,-0.073476605,-0.037079815,-0.14802048,-0.22577111,-0.038809173,-0.15035921,-0.010025531,-0.016285332,-0.079977565,-0.16356996,-0.023055114,-0.16046865,-0.01238676,0.072171696,0.9514813,-0.0421236,0.00676444,0.04468553,-0.0033924258,-0.08066173,-0.051925473,0.04704139,0.19014981,0.05205496,0.24375087,-0.06958593,-0.5369782,-0.14311188,0.050624557,0.048744444,-0.13644992,-0.11950014,0.03371831,-0.12366842,-0.06464872,-0.049689196,-0.16566181,-0.11276968,0.04578111,-0.11816,0.008720323,-0.059949663,-0.052696656,0.07422376,-0.089111045,0.066363886,-0.0009766865,-0.066462815,-0.027937727,0.04042722,-0.11329494,-0.08023904,-0.49032512,-0.02307985,-0.07308904,-0.10936986,-0.16341327,-0.092035726,-0.12262787,-0.0017988263,-0.04650255,-0.091379546,0.052395374,-0.12444126,-0.009750027,-0.024451014,0.08278431,0.01466034,-0.17391917,0.092681706,-0.16783622,0.02761912,-0.071437284,0.0052854107,-0.13243248,-0.096398845,-0.12876056,-0.023661768,-0.8081237,-0.24634625,-0.12169863,-0.10608816,-0.028499959,-0.036734715,0.046445556,-0.14965619,-0.058049556,-0.0037489394,-0.09381897,0.07681592,-0.0018319053,-0.14270814,0.05642438,-0.02683869,-0.137998,-0.2374054,-0.07485014,-0.04041583,-0.088963695,-0.11298462,-0.116837084,-0.06557388,0.31396168,-0.17836003,-0.07828891,0.13722593,-0.12304531,0.17363706,-0.10905501,-0.23650977,0.13550518,-0.10246429,-0.0644235,0.011046435,-0.035007734,-0.1483959,-0.08069763,-0.05129134,0.047804434,-0.00068098406,-0.11137223,-0.010177017,-0.15727201,-0.07064849,0.16686589,0.011174866,-0.07471724,-0.14292489,-0.046905644,0.010981955,-0.06771213,-0.04221558,-0.26053554,-0.0981218,-0.29830477,-0.006359282,0.013739713,-0.1436225,-0.019777104,-0.16015193,-0.12748124,0.03236999,-0.2332684,-0.069932655,-0.14243059,-0.07695719,0.011700094,-0.13675597,-0.046834726,0.058325,-0.12976469,-0.10252392,-0.25095212,-0.049670838,-0.38951138,-0.012026725,-0.030317087,-0.19856575,0.08495058,-0.10433378,-0.10230264,-0.031732682,-0.08541918,0.054714516,-0.054524336,0.013782853,0.006536033,-0.008179155,-0.025238028,-0.08075987,-0.11170106,-0.22544353,0.018021563,0.0004586803,-0.27617386,0.004559274,-0.055034664,-0.002778944,0.06547905,1.0884359,-0.105001375,0.042768832,-0.02008295,-0.008046303,-0.03908831,-0.13309504,-0.029430192,-0.0585973,0.03272196,-0.0455713,-0.041900057,0.15803874,-0.007046698,0.044605047,-0.41748407,0.06641327,-0.0439272,0.02596127,0.07591789,-0.09566169,-0.050367393,0.033767857,-0.07467891,-0.0148882875,-0.09520721,0.087387525,0.01393745,-0.12154534,0.082884595,-0.13669495,-0.049689822,-0.12289375,-0.10819812,-0.02781566,0.81226534,-0.1062749,-0.54328763,-0.3994097,0.044920564,-0.15357473,0.02188294,-0.011903219,-0.024150193,0.06317442,-0.077652335,-0.077878706,-0.0951786,-0.0798109,-0.944501,0.027293079,0.010459732,-0.03733215,0.05924383,-0.089560404,-0.17828856,-0.06255574,-0.090307795,0.025725178,-0.4258446,-0.04034249,0.00015221984,-0.017293267,0.047727708,-0.20030184,-0.13279493,-0.13125159,-0.024046069,-0.10888175,0.062437378,-0.15675063,0.05075923,0.06652993,0.035907324,-0.046993226,-0.017939884,-0.03513205,-1.14283,0.003865987,0.3510354,-0.10090915,-0.06348696,-0.4183752,-0.06703706,-0.08451253,0.008563069,-0.1001686,0.09564218,-0.051417828,-0.042745966,-0.13043799,0.03830567,0.017013136,-0.14223976,-0.08312928,-0.10209008,0.108717956,-0.13343121,-0.078268774,0.08755722,0.0040465533,0.06583853,-0.24127278,-0.69097894,-0.0032683038,-0.06484306,0.048644215,-0.060272515,-0.050520156,0.035852242,-0.036863618,-0.11711809,0.053261977,-0.036162835,-0.09290573,-0.111825325,0.04627277,0.026244028,-0.04439597,-0.057464648,-0.031413045,-0.15343985,0.07045955,-0.01596924,0.008799838,0.014056162,-0.65636593,-0.13271801,0.008965789,0.040819157,0.022574631,-0.007756834,-0.014876175,0.05498652,-0.023523523,-0.09875376,0.009761103,-0.07521129,0.012284353,-0.07370187,0.018233107,-0.10178206,-0.0045147445,-0.144935,-0.013470633,-0.08154098,-0.22236687,0.024371045,-0.029195258,-0.10466365,-0.3904325,-0.09823567,-0.24374159,-0.09135732,-0.08164862,0.025495186,-0.09850744,0.08317873,0.026894076,-0.031898193,-0.09248197,-0.00011520472,-0.11652973,0.07784815,-0.10926367,0.044959314,-0.045195658,0.52340746,-0.017866647,-0.08036444,-0.076537155,0.6072436,-0.08408649,-0.021719517,-0.051624753,-0.10131064,-0.28990775,-0.068704806,0.13773812,-0.04470881,0.10490719,-0.044094376,-0.08150506,0.017316258,-0.066820644,0.035554346,0.047810733,-0.0130861085,-0.27261102,-0.08225132,-0.4846303,-0.0973738,0.07803325,-0.020546615,-0.07177941,0.07846593,0.04052161,0.012658427,0.040284358,-0.064315334,-0.19706926,0.18974926,1.273421,-1.9080293,0.6230726,-0.04079032,0.07039961,0.025766887,0.007960638,0.0050772512,-0.11413116,-0.077108294,-0.2079987,-0.03755733,-0.08623652,0.040281627,-0.19605279,-0.046687204,-0.042424887,-0.14532283,-0.0015192378,0.035878647,0.010139963,-0.47650072,-0.091220364,0.0322142,-0.055812407,0.020332552,-0.4476465,-0.061919324,-0.23682263,-0.12800442,0.01873743,-0.19799447,0.008120459,-0.035872314,-0.04838523,-0.02321062,-0.05648501,0.037950095,0.69948506,-0.10394811,-0.13060778,-0.22157075,-0.14362034,0.052233182,-0.12143496,0.013977715,0.0022723493,0.0711386,-0.11827704,-0.024299867,-0.24215975,0.046105813,0.030952303,-0.042078476,-0.0041432753,-0.013184629,-0.14268741,0.054525357,0.036726758,0.52572095,0.046420038,0.08252861,-0.064469874,-0.056384433,0.65607816,0.010943268,0.0070422674,0.019460872,-0.0121145975,-0.17605188,-0.12538628,-0.16214637,-0.15097038,-0.0204717,-0.15834446,-0.094836816,-0.16034429,0.2215377,-0.123730235,0.01764618,-0.093645416,0.1610933,0.029609997,0.015247448,0.06993093,-0.36828905,-0.078233264,0.074343346,-0.2860571,-0.10863912,0.021684363,-0.032369535,-0.008527161,0.48561007,0.020789523,-0.13902271,-0.11313846,-0.10120319,-0.09599245,0.73120147,-0.086995676,0.024154464,-0.079445966
-0.07298819,0.27601928,-0.13336538,0.5291617,0.068529874,-0.20420346,0.025051493,0.038467333,0.017887264,-0.009832856,-0.036561977,-0.052282404,-0.059082117,0.06699544,-0.038488116,-0.119408466,-0.046295956,-0.028610842,0.023063498,0.08558131,-0.13258864,-0.22413155,-0.019485181,1.4949243,-0.026257437,-0.18582794,-0.14095706,0.616927,-0.27139932,0.10108546,-0.09758932,0.12432298,-0.033226244,-0.14540856,0.0057537183,0.115141176,0.069444425,0.21616569,-0.12363136,-0.082840696,-0.15133119,-0.115302145,1.7697688,-0.01909957,0.057759713,-0.09646999,-0.07567922,-0.068753846,0.018818568,-0.17061663,-0.24962837,-0.022146787,-0.024034662,-0.07867138,0.8289387,0.16467862,-0.122512974,-0.08627127,0.02874248,-0.029334607,-0.15102902,-0.124930814,-0.019780835,-0.026860092,0.040553164,0.0015619401,-0.044423617,0.19350076,-0.17769189,-0.012406956,-0.08345384,-0.101463936,-0.13346168,-0.13627239,0.018315308,-0.054861363,-0.09636344,-0.20061676,-0.11364716,0.11376464,1.4888937,-0.0870714,0.005522851,-0.021227948,-0.0724178,0.08600787,-0.047999248,-0.028733572,-0.027113955,-0.14514539,-0.30264726,0.08637951,-0.13493378,-0.06759663,-0.060946107,-0.116656646,0.21963018,-0.06966757,-0.006312563,-0.045353964,0.025010433,-0.13561085,0.14956714,0.011873897,0.121212795,0.024777116,0.8348038,0.254016,-0.03295221,-0.066582076,-0.09146823,-0.16027918,-0.05716718,-0.04628017,0.102753036,0.04818047,0.05678393,-0.11007267,-0.13151424,-0.02848267,-0.09761747,-0.14794022,-0.09765263,-0.13507004,0.082873955,0.08014447,0.08305616,-0.0870962,0.14629158,-0.08644003,-0.6490487,-0.11152807,0.06609147,-0.27006528,-0.09015239,-0.16175488,-0.14878915,0.1663666,-0.17350289,0.13527137,-0.21205446,0.09010976,0.033274107,0.22977476,0.027814213,-0.09270691,-0.123585515,0.05358851,-0.050342795,-0.030490855,0.28263128,-8.869674e-05,-0.070741564,0.0016941918,-0.097658746,-0.16714396,-0.075581335,0.07529636,-0.16467153,0.049681406,0.4538528,-0.029175363,0.38361412,-0.0042643915,0.32928148,-0.08856256,-0.08780464,0.030276567,0.07938418,-0.048838176,-0.19685356,-0.0858464,-0.08865851,-0.07379885,-0.046314918,0.101605184,-0.0897558,-0.13879636,-0.19283375,0.204156,-0.054990213,0.09092741,-0.14996286,0.0292646,-0.10803857,0.48758146,-0.15064831,-0.09260129,0.010709484,0.1090686,-0.26621595,-0.075686686,-0.11734389,-0.099671125,-0.07637122,0.016719574,-0.012917424,-0.15283202,0.008689292,-0.21571872,0.032315947,-0.08166777,0.3407802,-0.10963825,0.11354024,-0.10996108,-0.12990353,-0.52993405,-0.09515578,-0.13673945,-0.021340886,-0.012537744,-0.0021619424,0.028658973,-0.14732322,0.098186366,-0.16967775,-0.07289155,0.029025767,-0.2111445,0.041833494,0.015583015,0.49390528,-0.012682863,-0.08964777,-0.07429175,-0.11388865,-0.26131746,0.0119859595,0.056129437,0.050266534,0.03794003,-0.074995585,0.033775687,-0.13417168,-0.05274244,-0.48121628,-0.098658085,0.5624498,0.06674278,-0.05450225,-0.040572565,-0.16819471,-0.3174881,1.4543617,-0.40716228,-0.061877668,-0.15306683,-0.057914626,-0.004683385,-0.06709564,-0.080136366,0.036067728,-0.03096312,0.04641805,-0.0071222433,1.7892454,-0.21092857,-0.08478736,0.22488976,-0.06356432,0.05850057,-0.64572644,0.03415905,0.032182366,-0.048873283,-0.3700041,-0.08161929,0.020761643,0.012125977,-0.018854663,0.17858692,0.014136995,-0.061940137,-0.13376582,-0.052970417,-0.1372392,-0.11934939,-0.14731623,-0.21282868,-0.15463293,-0.08970879,-0.045044456,-0.0783021,0.057322063,0.018932238,-0.099699326,0.1346994,-0.1251799,1.2388767,-0.094457656,0.05889819,-0.058405984,-0.045491766,-0.6082247,-0.002155942,-0.023321845,0.017593287,-0.117554225,0.029089568,0.15639937,-0.04853043,-0.14153431,0.044307675,0.12358296,-0.08886818,-0.09303445,-0.094416186,0.06854153,-0.12925236,-0.12332887,0.02631645,0.029073536,-0.13825968,-0.03593742,0.07472927,0.061903287,-0.10038157,-0.04332365,-0.09044228,-0.06945759,0.120194994,-0.120928496,-0.1260699,-0.20406151,0.11398148,-0.044649623,0.048147634,-0.05180757,-0.11942757,-0.06429261,0.37571412,-0.0074864663,1.5962384,-0.08646205,-0.052172493,-0.0031507746,-0.1124599,0.028352765,0.033682253,-0.14688669,-0.032280456,0.021198498,0.009206918,0.02661893,-0.14787303,-0.08813779,-0.06595186,0.04381301,0.0035638057,-0.1713576,0.053976562,0.071934015,-0.23596893,-0.113462254,-0.028212087,0.1382984,0.53637,0.07804526,-0.15989417,0.048405174,0.010325486,-0.06369233,-0.15232,-0.12592319,-0.11698203,0.14652815,-0.0823828,-0.07278741,0.061726134,-0.091304354,-0.01893303,-0.099865675,-0.034799635,-0.20331556,-0.027701601,-0.12611762,-0.12682891,0.7858064,-0.059823826,-0.10080899,0.11472537,0.021600373,-0.03212425,-0.06341607,-0.5138162,-0.083569035,-0.43257585,-0.010079386,-0.07649109,-0.066406004,-0.09298058,-0.036456756,-0.047167342,0.02439436,0.47827864,-0.09300333,1.300116,-0.009107943,-0.17988846,-0.09189297,-0.05538708,-0.05911211,0.08651049,-0.044408202,-0.08097385,0.0003167586,-0.41764948,-0.05757513,-0.52179223,-0.1319001,-1.0914981,-0.10336507,-0.02370049,-0.10921838,0.016721694,-0.12390417,-0.047564898,0.067824475,-0.21318623,-0.10427632,0.09860275,-0.1775492,0.10792179,-0.019839585,0.0010962578,-0.1310516,-0.019214641,-0.05120214,-0.09244223,0.54486895,-0.022306396,0.033479925,0.091212,-0.26633543,1.4826341,-0.06897284,0.1642284,0.07866249,-0.061453998,-0.23960428,-0.15831982,0.056977276,-0.14186691,-0.16801098,-0.033719745,0.037546646,1.4136597,-0.12298739,-0.08121462,-0.16978858,-0.010223368,0.011639797,0.11592081,0.0038850403,-0.05364039,-0.0779242,-0.09157175,0.00796375,-0.20078737,0.0060260287,-0.104524285,-0.20299983,-0.016685857,-0.14618926,-0.14512973,-0.034947924,-0.0712551,-0.8354044,0.016906457,-0.09574572,-0.10588306,0.008298425,-0.14574324,-0.052279714,0.0011461573,-0.002359819,-0.10370985,-0.06628036,0.008870381,-0.030037241,0.08836729,-0.003243595,-0.03468131,-0.14349873,-0.22250451,-0.64175636,0.029103307,-0.032981303,-0.1840518,-0.9198346,-0.08231933,-0.119083025,-0.052655842,-0.5686084,-0.11561725,-0.1122729,-0.14157143,-0.014352222,-0.3228096,-0.01304535,0.02185038,-0.76640874,-0.12612125,0.027452812,-0.099278785,-0.18286176,-0.04606306,1.7379503,-0.0012363131,-0.06553407,-0.06597558
-0.0011669657,-0.27196622,-0.20028599,-0.18501565,-0.037096746,0.09520034,-0.034084857,-0.11494878,-0.030722212,0.110357784,-0.0072910977,0.0101348255,-0.12782349,-0.031555124,0.044779655,0.0050286734,0.023960996,-0.18639696,-0.14308532,-0.16321838,-0.07527157,0.00698842,-0.19594078,-0.678736,-0.09210733,-0.1690383,-0.07969982,-0.2131433,-0.28087112,-0.095886424,0.027949747,-0.15216216,-0.0034550831,-0.017923443,-0.051380012,-0.12199293,-0.02483626,-0.2061917,-0.100769036,-0.03612183,-0.085160255,-0.045121018,0.8212432,0.03994657,-0.044100687,-0.066591,-0.06407092,-0.0066634924,0.030713027,0.08261701,-0.010919996,0.021752996,-0.17524639,-0.008245522,-0.21932152,-0.1763174,0.030619415,-0.034585655,0.004567993,0.087924935,-0.13080437,-0.07779039,0.021916397,-0.12599438,-0.026670838,-0.033390816,0.02646257,-0.14620146,0.0002921773,-0.0911942,-0.09109592,-0.035853904,-0.16853471,-0.11840145,-0.019947033,-0.030812044,-0.082655326,-0.21183954,-0.022056034,-0.15584224,-0.3453365,-0.009769582,0.014077907,0.03227485,-0.07803648,-0.11186252,0.0020330034,0.034985896,-0.08975621,-0.0065893224,-0.07996602,-0.30810845,-0.16698474,-0.07139955,-0.023125833,-0.05238109,-0.19537811,-0.034923997,-0.10886533,-0.13996811,-0.046746466,0.04227395,-0.14699033,-0.068452545,-0.1001663,-0.06806554,-0.5240757,-0.24061713,-0.06860933,0.015597526,-0.1511318,0.06581673,-0.1333903,0.0919828,0.0031966355,-0.020778982,-0.0392614,-0.1394452,-0.09541559,-0.0029375637,0.041651197,-0.007501953,-0.017696572,0.33868676,-0.1079562,-0.116521575,-0.046303727,-0.092967264,-0.14737959,-0.042620517,0.87506324,0.037082266,-0.0069449167,0.15934342,-0.13879931,-1.5061204,-0.1651296,-0.58644015,-0.051022664,-0.377845,0.03161876,-0.11530888,-0.13420683,-0.2992663,-0.08236061,-0.09363414,-0.11855558,-0.09465054,-0.09375501,-0.032384567,-0.28107247,0.042391993,0.04978414,-0.014154923,-0.012681122,-0.32134154,-0.09405073,-0.11071781,-0.061155394,0.020950539,-0.40308473,-0.00741027,-0.4839736,-0.037221942,-0.21431378,-0.06386465,-0.034277964,-0.036069307,-0.08996671,-0.019698514,0.09867478,0.04194768,-0.07062851,-0.14433105,0.04573786,-0.166603,-0.1132452,0.061015777,0.112651765,-0.12352531,0.3904116,-0.040774904,0.24849841,-0.017535543,0.033116516,-0.22230257,-0.09393543,-0.032579087,0.056373626,-0.068096586,-0.06997952,-0.010010625,-0.031421486,-0.0119605,-0.11524842,-0.06565701,-0.036397703,-0.24266703,-0.14322764,0.08751255,-0.07483001,-0.03711233,-0.28526065,-0.14207272,-0.13163753,-0.054490138,-0.017165015,0.64152366,-0.081616364,-0.0014737529,-0.10901206,-0.09333418,0.0075872913,-0.088139914,-0.073687956,-0.09058021,-0.008463387,-0.020243969,0.002141613,-0.3996835,-0.011344337,0.04949032,-0.3620764,-0.21313228,0.027247911,-0.02103363,0.008745501,-0.044387527,-0.037823122,-0.056341186,-0.09033836,-0.15582527,0.053997934,0.0626856,-0.12694332,0.01304735,0.009477414,-0.026075881,-0.44199708,-0.12193717,-0.03562938,0.031843387,0.7006201,0.013800759,-0.628501,-0.38421264,0.061097372,-0.11689333,0.07275146,0.025013058,-0.09463316,0.011447979,-0.028089087,0.0379068,-0.06272115,-0.15230228,-0.8345475,-0.019005522,0.018282289,-0.03393675,-0.11837406,-0.04302188,-0.18388633,-0.027375435,-0.100015774,-0.036891792,0.21593441,-0.10224541,-0.050429627,-0.18623608,-0.04841877,-0.038104113,-0.010349217,0.055875152,-0.16881225,0.038011942,-0.11803959,0.07759703,0.019870112,0.25914332,-0.05192919,-0.17465535,-0.048726104,0.04554339,-0.7192069,0.022597663,0.085863404,-0.10905814,0.036459748,-0.4820305,-0.009094116,-0.09403365,-0.13020185,0.025912855,0.12128027,0.03002823,0.025718054,-0.031151969,0.014854756,-0.10436723,-0.24862888,-0.04654822,-0.07184507,-0.05409399,-0.1153381,-0.077073134,-0.0492389,-0.0015698452,-0.0601146,-0.07798741,0.1623889,-0.0058726827,-0.083726,0.021874256,0.061640996,-0.23048788,-0.1893206,0.060313378,-0.05099837,0.074458815,0.014445086,-0.21180934,0.013419109,-0.051344965,-0.16291356,-0.14007345,0.035458483,-0.033422098,-0.03346658,0.09789341,-0.0626652,-0.16352412,-0.12531957,-0.5172928,-0.06277579,-0.053584162,-0.084408194,0.032328907,0.013921374,-0.11251086,0.014753193,-0.033567928,0.03288309,-0.13170718,-0.03723704,-0.026121108,-0.15162034,-0.05337337,-0.08104981,-0.09933417,-0.059793085,-0.03202988,-0.091037445,0.019456524,0.003110101,-0.133786,-0.14655465,-0.37068623,0.025465207,-0.009706071,0.04191783,-0.018251937,0.0149789825,-0.033679616,-0.17887253,0.019865079,-0.21523966,-0.04322421,-0.015918722,-0.024944486,-0.2224936,-0.03168618,0.020545924,-0.011264981,0.4891978,-0.055422775,0.045061376,-0.10568482,0.66213816,-0.0217808,-0.101951666,-0.026874324,-0.11272839,-0.21894096,0.05371067,0.03997947,-0.114331126,-0.1896038,-0.074715,0.030083155,-0.09289047,-0.038564418,0.09247549,-0.090309486,0.033609856,-0.21360475,0.035278592,-0.42973554,0.02382039,-0.10396562,-0.109473325,-0.049780175,-0.11217725,-0.07206445,-0.0069870693,-0.113854066,-0.03147709,-0.17733935,0.20687748,-0.22800286,0.40958205,0.6250907,0.029528452,-0.09384752,-0.06501251,-0.018859182,-0.02379265,-0.090427086,0.034550335,0.08580877,-0.06686344,-0.06561179,-0.16954656,-0.102158576,0.042889357,-0.0009288716,-0.035132457,-0.18560803,-0.16446511,0.018694686,-0.43200496,-0.028756367,-0.06518664,-0.04628581,-0.028066354,-0.3640834,-0.048915125,-0.2645784,-0.06543124,0.0022550274,-0.22038993,-0.04899726,0.06831213,0.031567063,-0.0776979,-0.021914087,-0.00089263875,0.53996557,0.011881567,-0.05900634,0.11034393,-0.10210746,-0.11322191,-0.017548094,-0.091802485,0.04086113,-0.1393598,0.011026094,-0.015464517,-0.011425988,-0.06590388,-0.016834073,-0.11336881,0.01395242,-0.16702221,0.06822919,-0.0037970624,-0.0894017,1.2298886,-0.10215702,-0.11793803,-0.12638146,-0.035992675,-0.5461827,-0.059704732,-0.04598953,0.0011663573,-0.00117205,0.0401572,-0.10393991,-0.059066143,-0.065295324,0.019533943,0.062708706,0.045578882,0.015062051,0.041709192,-0.016347487,-0.119622014,0.027491482,0.2940517,-0.040789906,-0.0057523865,-0.042972475,-0.03226357,-0.13426334,0.056498498,0.07178853,-0.019588614,-0.28050035,-0.17128737,-0.06410756,0.859342,-0.13246642,-0.059970602,-0.13325676,-0.13864248,0.0032925908,0.74757314,0.039923746,0.0011092104,0.0017014525
0.0026442704,-0.32567668,0.0029645239,-0.27615884,0.033834115,-0.014723878,-0.15142055,0.045633107,0.06620113,-0.239076,0.027908456,0.061526235,-0.0043440256,-0.14030534,-0.112446375,-0.01649239,-0.18218797,-0.12444726,-0.12208317,0.060888536,-0.13216732,-0.003114881,0.07771028,0.40982497,-0.034409985,-0.064228676,-0.16568576,-0.0880115,0.047262173,-0.08326674,-0.07825815,-0.3462831,-0.10588361,0.02507246,0.03652768,-0.1154324,-0.012909002,-0.21131511,-0.14690302,-0.0021892004,-0.039194033,-0.024274843,0.5844999,0.012989144,-0.17146154,-0.017768683,0.008670652,0.020653622,0.029408777,-0.02620653,-0.114345215,-0.105201565,-0.2659756,-0.13375194,-0.32672524,0.061380975,0.012022003,-0.043344066,-0.029353017,-0.11266281,-0.12980478,-0.010527532,0.04554977,-0.06821568,0.022782225,-0.040761586,-0.09658558,-0.043834224,-0.18072702,0.021401227,-0.08808053,-0.28062883,-0.09356164,-0.0528048,-0.10556326,-0.024563374,-0.11440676,-0.24734728,-0.0862614,0.007698087,0.17312583,-0.008587459,-0.034929108,0.0039558434,0.0404914,-0.040030256,-0.07820015,-0.016514085,-0.0777288,-0.06924948,-0.15450065,-0.056221582,-0.024597809,-0.086744994,-0.008215585,-0.0037202553,-0.28820223,-0.02875396,0.011606638,-0.005685381,-0.17167777,0.033538964,-0.009971108,-0.12900689,-0.26569983,-0.026880499,-0.6623831,-0.32928115,0.08826497,0.077743925,-0.13005708,0.05696353,-0.10289299,-0.027898699,-0.109709986,-0.082584575,0.045874197,-0.11942758,-0.06570016,-0.05830013,-0.10562923,0.024617365,-0.13085845,-0.19055349,0.053447787,-0.1466931,0.001658473,-0.0637338,-0.13928512,-0.027677618,-0.49019244,-0.016257396,-0.14356665,-0.20874052,-0.02969762,0.5089302,-0.06803341,1.0118346,-0.058570247,-0.16884296,-0.22505873,-0.09969924,0.03383246,-0.40426558,0.0050860564,0.015723102,0.04666442,0.04063385,-0.05314379,0.054450694,-0.23947093,-0.13466883,-0.2033195,-0.101393156,0.07014281,-0.018128837,0.057861187,-0.049632665,-0.12660196,-0.12459284,-0.50618714,-0.12585425,-0.4408038,-0.119928055,-0.34590316,0.00980146,0.012550137,-0.17783391,0.03627079,0.023618402,-0.039223228,-0.011166314,-0.043392878,-0.022517132,-0.023412662,0.028112987,-0.03785456,-0.08201367,-0.17795776,-0.33367723,-0.16133898,-0.0035397846,-0.26287064,-0.14212401,-0.018875098,-0.22697999,-0.13294354,-0.10333175,0.004812415,0.024073092,-0.030397147,-0.14848149,-0.06320853,-0.063244656,-0.1084108,0.028954672,-0.059736587,-0.02696497,0.042441536,-0.23848124,0.018712118,0.0020221223,0.008359684,-0.029345494,-0.07762432,-0.1339668,-0.0618135,-0.6594656,-0.07863167,0.03758772,-0.074968405,-0.031045096,-0.029068224,0.065418,-0.051646013,-0.10934388,0.07322582,-0.02004612,-0.09994327,-0.03304205,0.033348028,-0.08505342,-0.0881028,-0.027773438,0.02376715,0.009987402,-0.20009944,-0.052180465,-0.018629218,-0.009175286,-0.050325762,0.0039399266,0.028546967,-0.15110886,-0.09356261,0.027751174,-0.06699709,-0.10488786,-0.43032897,-0.01990327,0.03805291,0.079644926,0.92486405,0.0514951,0.45515466,0.004434994,-0.071890585,0.017937345,-0.019158514,0.030960493,-0.014088325,-0.0008129395,0.017363487,-0.10008725,-0.026283888,-0.20176381,0.33261707,-0.2567154,-0.04246212,-0.22276168,-0.1258223,-0.11900671,0.10984333,0.040093146,-0.07328275,-0.06225508,-0.09762714,-0.032754198,0.054005582,-0.023866978,-0.11635619,-0.08628331,-0.136268,0.027026465,-0.09867208,-0.0712257,-0.047469296,-0.10815707,-0.11720062,0.11924276,0.035670847,-0.106524244,-0.017597804,-0.14263894,0.20720749,0.026330827,-0.51321894,-0.014583565,0.017029488,0.1463394,-0.06859297,-0.031408638,-6.5176246e-05,0.016550448,0.1175825,-0.080391295,-0.001049788,0.015025237,-0.066517614,-0.15522368,-0.32440984,-0.013919442,-0.12487595,-0.11952258,-0.18307765,0.064096354,-0.14363837,0.029919608,-0.035344787,-0.13232186,0.06703965,-0.06356913,-0.10604233,-0.15228772,0.02741172,-0.28751215,-0.2880251,-0.014356931,-0.06381851,-0.021760173,-0.09450095,-0.29063818,-0.050066255,0.00942452,-0.11672165,-0.1074998,-0.045198213,-0.004706837,-0.015340105,0.0117527265,-0.08751369,-0.015878443,-0.03297076,-0.5731645,-0.073417336,-0.054368857,-0.13266852,-0.114210516,-0.12639108,0.023501432,-0.06629595,0.006469114,-0.048340585,0.045795664,-0.05096821,-0.1057466,-0.19822866,0.028794715,-0.022811739,-0.15138552,-0.0009924867,-0.10319683,-0.015662232,-0.034386493,-0.11335032,0.020432597,-0.06688769,0.25779468,-0.07479928,-0.14437261,-0.076116726,0.033249144,-0.052864075,-0.05996476,-0.06283159,0.07422777,-0.4103152,-0.046389114,0.056666166,-0.07687332,-0.06300713,0.022596344,-0.12359454,0.05963257,-0.32021785,-0.047313824,-0.050259538,-0.05748059,0.48351032,-0.16630553,-0.050085064,0.032997124,-0.035598792,-0.13205625,-0.07551525,-0.07942935,-0.052244358,-0.21882908,0.0071271327,0.0029750473,-0.08957751,0.03644029,-0.044709556,-0.12568685,-0.08209856,0.06458843,-0.12869272,-0.22062604,0.015132527,-0.029200548,0.020128854,-0.07471294,-0.13332489,-0.047738682,0.031850975,-0.022525037,0.026901776,-0.17777987,0.22129507,-0.15638152,-0.20247829,-0.34300625,-0.05106874,-0.031063236,-0.070260264,0.060197905,-0.012647701,-0.106547,-0.16125472,-0.04700141,0.06794016,-0.03382279,-0.063460134,-0.10026906,-0.013369694,-0.13480942,-0.084959015,-0.09637214,0.005332223,-0.081915565,-0.54037976,-0.014199637,0.026505373,-0.06867641,-0.0054634265,-0.2619129,-0.0036080708,-0.29059437,0.06777414,0.0064915116,-0.03113913,-0.05493277,-0.054568563,0.04129113,-0.14957093,-0.009510265,0.04533099,0.32949457,-0.045922115,-0.1314447,-0.035907783,0.031539552,0.04791897,-0.057911284,-0.024786865,-0.11597652,-0.10235705,-0.0385374,0.039532784,-0.04140534,-0.009454084,-0.114983305,-0.07824348,0.02203616,0.022769066,-0.06400929,-0.15637352,-0.04137747,-0.48941848,0.030341644,-0.007296621,-0.010302285,-0.08723707,0.10898846,0.054235496,-0.16291331,-0.0029665579,0.041546218,0.0020829658,-0.09168057,-0.072212815,0.081213705,-0.10557067,0.032863148,-0.12455137,-0.022858994,0.022333024,-0.16885868,0.038156237,0.00010401025,0.35564503,0.04502318,0.001666506,-0.094601616,-0.09541036,-0.067401275,-0.02631837,-0.32422045,-0.14016968,0.052526485,-0.13436972,-0.171993,0.9644863,0.03643862,-0.10506677,-0.1281983,-0.09038706,-0.05872774,0.23302712,0.039416477,-0.0012048509,-0.078558736
-0.06367033,-0.12331443,0.016100693,0.0139648225,-0.16252197,-0.10218474,-0.098848745,-0.11595419,-0.0137449065,0.028480615,-0.17744245,-0.095534876,0.018264132,-0.15108551,-0.013872821,-0.034789838,-0.08162566,-0.16152847,-0.12205101,0.007889786,-0.031492617,0.01870471,-0.019484038,-0.2831808,-0.06561822,0.0058012735,-0.049021155,-0.22402965,0.019155147,-0.093450345,-0.087438054,-0.23219761,0.02382902,-0.08659797,-0.054892335,-0.102023296,-0.030924477,-0.2426674,-0.031181106,-0.104412325,-0.09500965,-0.088495426,0.15559557,-0.012661901,0.022842446,0.062079538,0.018570578,0.000285691,-0.035314705,-0.09761515,-0.033908423,-0.0631552,-0.026041657,-0.038449515,0.0013513111,-0.07074557,-0.15693416,-0.21199423,-0.07112452,-0.086470574,-0.06950341,0.05052296,-0.059640735,0.011446644,-0.065320075,-0.1654478,-0.13644212,-0.017593699,-0.019094275,-0.018857647,0.026713997,-0.14987986,-0.15876521,-0.027293634,0.030481363,0.008040082,-0.0112449,-0.14531748,0.046698194,0.026949164,-0.07086151,-0.09593917,-0.094936855,-0.03562017,0.020390507,-0.11727564,-0.14001684,-0.11826156,-0.09796742,-0.028433075,0.09734341,-0.17319329,-0.012822707,-0.05491674,-0.048328273,-0.0040048053,-0.24558663,-0.12925439,0.050401267,0.024429215,-0.027700223,-0.13134448,-0.09304547,-0.07525126,-0.11453524,-0.08452283,0.20462133,-0.2576098,-0.103177845,-0.017351676,-0.044337615,-0.12561382,-0.058017462,-0.10152078,-0.11335699,-0.09070266,-0.09899598,-0.030834056,-0.038111098,0.03483807,-0.039552703,-0.05163482,0.007987657,-0.054450553,-0.039242186,-0.12973712,-0.15721065,-0.13557406,-0.17256695,-0.062756285,-0.111296445,0.013434047,-0.15191281,-0.21515802,-0.13209642,0.32717872,-0.18230616,-0.951629,-0.1409297,-0.30663055,-0.04639123,0.008443149,-0.06917095,-0.24202412,-0.08155329,-0.04325257,-0.12819901,-0.017532488,-0.11584986,0.009896802,-0.12202024,-0.1274627,-0.1854578,0.01449628,0.022108156,0.14280528,-0.13598552,0.012637952,-0.09899835,-0.07088752,-0.13345186,-0.1268724,-0.20947659,-0.12367777,-0.18078423,-0.13152613,0.025440732,-0.15226814,-0.22263135,-0.13366076,-0.0881287,0.0231335,-0.07451517,-0.086114645,-0.087959915,-0.37365967,0.009769941,-0.050112106,-0.16559808,0.05805583,-0.6158985,-0.054456383,-0.09546718,-0.06861288,-0.052968953,-0.18465619,-0.14788075,-0.076230675,-0.105295554,-0.072080456,0.033281904,-0.0070856176,-0.107539736,-0.17532459,0.03797698,0.033819284,0.011365387,-0.06133958,0.05278328,0.06095993,-0.026696086,-0.0041694255,-0.07343305,0.01745935,-0.06842009,-0.12699439,-0.10593777,0.81058675,-0.14962295,-0.047486156,0.038470592,-0.053825017,-0.08823125,-0.18230434,-0.09565261,-0.07285051,0.05613603,-0.0756597,-0.14410993,-0.07090107,-0.083001025,-0.09699472,-0.121760026,-0.06978256,-0.096851766,-0.07748297,0.03989935,0.019581743,-0.11426025,-0.08638334,0.023324562,-0.018930998,-0.019911818,-0.18401697,-0.10728233,-0.1515604,-0.011829447,-0.037319764,0.12831159,-0.12602694,-0.19556135,-0.11970168,0.48148873,0.14119872,-0.40941092,0.06025314,-0.07589079,-0.1542913,-0.05651499,0.034185532,-0.080076486,0.06546507,-0.013368648,-0.044460483,0.02990806,-0.050370455,-0.06582386,0.028912462,-0.13208641,-0.23326442,-0.027696023,-0.03551444,0.0683984,-0.09135588,0.034274496,0.034302596,-0.13706516,0.010203221,0.0065015377,-0.08588715,-0.08156355,-0.0746098,0.06187305,0.0017100698,-0.04953405,0.021010924,-0.028743107,-0.0289418,-0.04332964,0.13791777,0.06150312,-0.121467255,0.033382747,-0.15047127,0.03603365,-0.12888628,-0.52300346,-0.060081664,-0.10049932,-0.12196885,0.007715251,-0.07582582,-0.024106389,-0.096162215,-0.24306051,0.008024608,-0.052404672,-0.01693687,0.0074371346,-0.0806409,-0.061460733,-0.032184716,-0.0929751,-0.21485713,-0.055834785,-0.0021670454,0.06895176,-0.07703608,0.020124806,-0.00855142,-0.07249216,0.063349985,-0.026747301,-0.099061295,-0.1355326,-0.28673312,-0.2033007,-0.045252874,0.020773742,0.020593157,-0.029920982,-0.15288702,-0.16318403,0.0030168504,0.036309045,-0.19662435,-0.15404339,-0.09780006,0.04890513,-0.14693895,-0.034057353,-0.09924219,0.02803239,0.107885756,-0.13905536,-0.05990259,0.053686894,-0.013254585,0.036970116,-0.10700968,-0.057493117,0.0414357,-0.0008408907,-0.053956293,-0.055514894,-0.10044608,-0.14775491,-0.123965435,0.005659025,-0.010351429,-0.0060546957,0.017597912,-0.001034824,-0.15068832,-0.0692746,0.036652416,-0.059295863,-0.1474087,0.007700564,0.037815765,-0.02671997,-0.01526939,-0.045271445,0.0074055027,-0.18273294,-0.15490098,-0.18022105,-0.027957855,-0.085886165,-0.015527292,-0.062051725,0.06530227,-0.11571273,0.01869054,-0.84070444,-0.10212816,-0.043994106,0.027694244,0.45070225,0.01623671,0.0150588965,0.011840425,-0.11356365,-0.010898264,-0.124176994,-0.21742162,-0.058909904,-0.10338963,-0.036114085,0.014045771,-0.0012212899,0.0010990691,-0.00037938738,0.041199375,-0.02015602,-0.05118704,0.026686287,-0.16789714,-0.047537025,-0.06313415,-0.13894974,0.033119783,-0.06899568,0.0075272424,0.049350426,-0.019877106,-0.119336806,0.079575054,0.30777928,-0.34181228,0.09625689,-0.04693302,-0.12704828,-0.040355936,-0.043184116,-0.09985747,-0.12216903,-0.06619826,-0.016962476,-0.23018426,-0.027826697,-0.095997386,-0.020812768,-0.08352876,-0.012157029,-0.024896825,0.03072397,0.026458308,-0.13074946,-0.061842836,-0.036863253,-0.09752777,-0.04424662,-0.044531185,-0.106717415,-0.032455746,-0.11483139,-0.027924785,-0.16554976,-0.10221913,-0.112708874,-0.22063029,-0.044555653,-0.08339376,-0.07504785,0.0063186176,0.04027434,0.023445021,-0.11800711,-0.0362203,-0.03653635,0.012788833,-0.08442566,-0.18436177,-0.03676642,0.043522034,-0.0308449,-0.11356359,-0.099418715,-0.090885274,-0.03325316,0.005701175,-0.090382226,-0.0808647,0.030130045,-0.0415475,-0.066877946,0.046361834,-0.17764951,-0.0071622017,-0.10755886,-0.12273219,-0.124872826,-0.7304524,-0.088599406,-0.1272767,-0.07012268,-0.12622827,0.037535824,0.034100175,0.004386345,-0.028673112,-0.11192056,-0.16200016,-0.11444828,-0.072031245,-0.3009172,-0.22348543,0.048664816,-0.079567924,-0.14390711,-0.040748116,0.019210516,0.013520247,0.11579356,-0.12529932,-0.0055425107,0.02876427,0.026794834,-0.004248726,0.034718253,-0.13771224,1.0749164,-0.060133364,-0.028099796,0.0153869465,0.020502973,-0.09624005,0.118952654,0.024362078,-0.17460021,-0.051536627
-0.07552004,-0.14797482,-0.16306862,-0.0012516966,-0.11791881,-0.16314176,-0.094068386,-0.08241415,0.05329476,-0.124929324,-0.050543133,-0.1299859,-0.016467981,-0.13465184,-0.11480899,-0.020023752,0.008225156,0.038424287,-0.16230388,-0.12431108,-0.11907239,-0.12239091,-0.07725513,-0.06134728,0.022800935,0.04380958,-0.049686495,-0.049227867,0.003052468,-0.037114892,0.0036249326,-0.044829015,-0.007125805,-0.07617104,0.0015997291,-0.024904672,-0.046872035,-0.377128,0.063827686,0.011401625,0.033768788,-0.08755289,0.52791804,0.022000553,-0.02263154,-0.16664305,-0.031338833,0.03140285,-0.06133231,0.01737846,-0.0337224,-0.010365105,0.012303561,0.0465516,-0.079788566,-0.0065161814,-0.114914976,-0.10776024,-0.14000914,0.03098481,-0.10033819,-0.060491793,-0.10986565,0.030773694,0.015012416,-0.00086198584,-0.1090351,-0.11067504,0.03974378,-0.12263906,-0.101513155,-0.12314576,-0.019867184,-0.015078717,-0.066937976,0.018983213,-0.090363696,0.005549657,-0.047390208,-0.15006614,0.011476879,-0.12461642,-0.15075563,-0.11595947,-0.043891195,-0.06374927,0.038941283,-0.10019912,-0.033444677,-0.03583857,0.12728001,-0.08574448,-0.03168596,0.004565731,-0.02146243,-0.01159764,-0.27920848,0.056388527,-0.10119981,-0.017160181,0.011438567,-0.13496289,-0.07034064,-0.11081843,-0.13235821,0.02634129,-0.04268621,-0.17947818,-0.1329808,0.052481387,-0.06294961,-0.10430652,-0.10467669,0.042792235,-0.036038496,-0.11068986,-0.110158645,-0.1568472,-0.033263683,-0.099702,-0.09084839,0.06320257,-0.14598407,0.10510846,-0.075803034,-0.093888454,0.004540533,-0.13225925,-0.10048583,0.0060353694,0.3824951,-0.01910347,-0.17475536,0.0409883,0.021837356,-0.33467394,0.032786384,0.26786235,-0.037331313,-0.41596696,0.10104852,0.033413023,0.03450827,-0.23660003,-0.048811182,0.03331581,0.01636324,-0.10307644,-0.112437226,-0.008687256,-0.218586,-0.0069201677,-0.10659967,-0.15059446,-0.13163729,-0.027005732,-0.006808956,-0.082947806,0.014458734,-0.024151348,-0.23021297,-0.030082278,-0.12970664,0.006450597,-0.32895112,-0.031019641,-0.00039035224,-0.0935279,-0.120063,-0.034512218,-0.2650806,-0.08770875,0.049551554,0.067865975,-0.13411497,-0.20692144,0.0031370367,-0.20220082,-0.13182482,-0.11272558,0.26547664,0.036569454,-0.027957983,-0.076579995,0.022626452,-0.2457972,-0.055793457,-0.06902862,-0.022910535,-0.07451773,0.08787029,-0.041160926,-0.067604855,-0.10592431,-0.1243846,0.02059228,-0.06934993,-0.08423019,0.07135188,-0.0720069,0.040194396,-0.11170075,-0.0624705,-0.08406147,0.023956481,0.027264932,-0.107632495,-0.9396244,0.02090747,-0.029523969,0.04038185,-0.027412508,0.07817006,-0.0051249503,0.07224306,0.026436623,-0.056617346,-0.08273593,-0.09558899,-0.09508054,-0.096434586,0.014499315,0.02584305,-0.1593547,-0.08663577,0.002984816,0.086767875,0.044904232,-0.019528564,0.04994495,-0.13026078,-0.003853535,-0.10404733,0.11471392,0.008288338,-0.041144975,-0.08207707,0.012613281,-0.08912085,0.027987467,-0.009360669,-0.105300605,0.75966924,-0.032762077,0.10655943,-0.26016924,-0.114175595,-0.10695877,-0.1421571,-0.13738668,-0.051211152,0.0034028455,-0.08632289,0.03975148,0.008453501,-0.08075304,0.13696805,0.07867133,-0.0372712,-0.09615503,-0.115450785,-0.06919448,-0.11598326,-0.067325935,0.055507578,-0.04992439,-0.15105659,-0.04875983,-0.049602784,-0.01571014,0.025814956,-0.08216205,-0.10875961,-0.075276524,-0.110631295,-0.033862107,-0.027100528,-0.11666751,-0.009542551,-0.10179159,-0.055924542,-0.10140194,0.003184301,0.024192838,-0.09469799,-0.021159405,-0.0629115,-0.065714814,-0.036985885,-0.09305838,-0.11846575,0.028785612,0.008743549,0.03192655,-0.15556403,-0.0732459,0.0049475627,0.061512716,-0.118323855,-0.015260969,-0.22637707,-0.070556924,-0.09348645,-0.21398278,-0.18502945,-0.05649356,-0.16597375,0.028918238,-0.07733645,-0.14099997,-0.31816417,-0.1842478,0.018209547,0.04225401,-0.059862047,-0.17652649,-0.13203318,-0.08542557,0.052985083,-0.06533181,-0.0033981206,-0.068701476,0.028863557,0.0097370045,-0.047052678,-0.17680871,0.023567954,-0.06999358,-0.09104794,-0.1404788,-0.13024022,0.007317442,0.0028692216,-0.08938401,0.04642026,-0.08088145,-0.15606073,-0.06901745,0.0027027596,-0.10064876,0.03181844,0.03425801,0.055616863,0.0674988,-0.065538086,-0.02107308,-0.0035163714,0.07193191,0.002465151,0.0183849,-0.1976422,0.00231845,-0.049981534,-0.059644077,-0.020746369,-0.04678165,-0.009008556,-0.023494184,-0.050563663,-0.06886874,-0.025385983,-0.13723762,-0.08869262,-0.108537026,-0.040938746,-0.19712882,0.006500861,-0.009750021,-0.09484764,-0.04036715,0.018585637,-0.11948011,0.008243821,0.038889267,-0.036968507,-0.076501854,-0.031375624,-0.071755044,0.8079245,0.013849991,-0.053049564,-0.08219598,-0.12443628,0.08096906,-0.082049996,-0.022173861,0.0083683655,-0.23196882,-0.022639416,-0.1320777,-0.04509978,-0.07633051,-0.046223637,-0.100241706,-0.13721308,0.075418964,0.028133407,-0.19506772,-0.07447089,-0.064396776,0.0038371715,-0.016951662,-0.0027133762,-0.17361991,-0.0748321,0.02648394,-0.055714734,-0.08494071,-0.08847158,0.40106547,0.0033201454,0.054823395,0.03964923,-0.040602386,-0.0113814585,0.05885664,-0.09451655,-0.27339604,0.056650054,-0.23705012,-0.075017184,-0.022625832,-0.18746805,-0.12678957,-0.093494646,-0.1093409,-0.007443124,-0.11524874,-0.08526486,-0.1642828,-0.0022636913,-0.016464787,0.0630079,-0.04358779,-0.14596789,0.13723664,0.0065831584,-0.13031173,-0.04186727,-0.068311624,-0.03591353,0.04770208,-0.06985592,0.009780375,-0.005635832,2.6307951e-05,0.0022847895,0.57875264,-0.071445204,-0.07382959,-0.24514872,0.02139792,0.027641267,-0.11736804,-0.091198824,-0.131824,0.0047681127,-0.030914474,-0.11919059,0.003722396,0.03133664,-0.10503894,-0.028773544,0.008972755,-0.0057628555,0.058136802,-0.103690706,-0.06644575,0.17405586,-0.090585455,-0.060684692,-0.10129455,0.041145604,0.37831175,-0.12040807,-0.13065404,-0.022216985,0.0356394,-0.13083398,-0.15162505,0.00077290024,-0.045010958,-0.071028754,0.019707305,-0.034529045,-0.25860983,-0.1523083,0.0069379737,-0.06082043,0.019304467,0.011503233,-0.061854474,-0.085806035,-0.04044649,-0.044479124,-0.0052365446,0.06437817,-0.09181433,-0.034374323,0.013284219,0.036153607,-0.12645683,1.0430808,-0.092478134,-0.077911735,-0.114512786,-0.059168816,-0.05801651,0.53026825,-0.009528288,0.061822258,0.07581586
-0.13823043,-0.36138076,0.020112446,-0.14168297,0.018699482,0.004037886,-0.045845836,-0.11963873,-0.024167467,-0.069158435,-0.070785776,0.03495033,0.039134983,-0.041736003,-0.19498608,-0.08275529,-0.14333348,-0.21330944,-0.0757465,-0.1721638,0.08030138,-0.045987956,0.061915595,-0.18782352,0.051433645,0.03804725,-0.07218168,-0.291502,-0.016587649,-0.050170574,0.027096326,-0.34793872,-0.024716271,-0.08435516,0.062128082,0.016510135,0.023822468,-0.16953297,-0.117579885,-0.10725617,-0.036501843,-0.13072576,0.4431371,0.03622276,0.0055663995,-0.15803052,-0.055459466,-0.060746245,-0.11952438,-0.12241795,-0.041093692,-0.115973845,-0.12676363,0.018583959,-0.09629451,-0.10443397,-0.06933987,-0.13662754,-0.07060146,-0.09178772,-0.09081056,0.04590995,-0.01402341,-0.057944965,0.030255925,0.009617874,-0.1383125,-0.05573756,-0.15313807,0.043427497,-0.112199105,-0.30769163,0.050128415,0.024695257,0.0160182,-0.10118665,-0.03169201,-0.24883859,-0.10007906,-0.11722237,0.039425448,0.0379302,-0.1936004,0.050684772,-0.08773353,-0.015774652,0.09203703,-0.056014378,0.024267714,0.012494974,-0.13449495,0.014760997,-0.0087744035,0.009786257,-0.17942336,-0.03979055,-0.38501257,-0.053180292,-0.09823218,-0.0034164921,0.020428486,-0.12705003,-0.07989546,-0.16401978,-0.35708663,-0.04801665,-0.123887524,-0.21706814,-0.08222337,-0.12164582,-0.012065398,0.04881713,0.015133371,0.01242425,-0.046829168,-0.18287995,0.051943596,-0.10275699,-0.006819195,-0.054755185,-0.09654255,-0.08104085,0.0063847727,-0.107568264,-0.10959156,0.0075272475,0.01863833,-0.10480403,-0.29711685,-0.074161015,-0.08083964,-0.13722283,-0.0883255,-0.12968217,-0.08698709,0.10111935,0.05010901,-0.26203087,0.037402406,-0.20534468,0.010272954,-0.17174238,-0.13398096,-0.22100277,-0.0141735915,-0.0067934706,-0.13306758,-0.09601639,-0.062847644,-0.09398172,-0.28014797,0.02837248,-0.11225507,-0.13409023,-0.007391239,-0.15633562,0.0068411087,0.014840785,-0.029002002,-0.062727146,-0.028463243,0.0016102486,-0.2664202,-0.14096202,0.066585585,-0.15287597,-0.027878983,-0.053330507,-0.13171561,-0.063476354,0.10193136,-0.043342657,0.048277985,0.015088729,-0.1318495,-0.42103258,-0.12291399,-0.1305391,0.036257915,-0.17803878,0.24566653,-0.10486539,-0.18955563,-0.02278444,-0.10604109,-0.0032829444,-0.13947207,-0.07917854,-0.038039006,-0.08885493,-0.02812125,-0.1499619,-0.12478268,-0.031125022,-0.032778796,0.046149533,-0.019495318,0.00751887,-0.04067789,0.1378886,0.033550896,0.011101964,-0.048213564,-0.08136648,-0.14333771,-0.09542348,-0.0117516965,-0.27259678,-0.08563549,-0.012167714,-0.009528926,-0.14967947,-0.053693384,-0.12183423,0.024033817,-0.06927876,0.04261897,-0.09582336,-0.17007782,-0.120900124,-0.09130486,-0.10975111,-0.021814516,0.03458864,-0.13929172,0.033539247,-0.03296157,-0.098017074,-0.13307083,0.04397528,0.022222571,-0.09307076,-0.15313284,0.108051,0.04521643,-0.12091966,0.07280815,0.03616858,-0.063410535,-0.14525715,0.05474714,-0.070205405,0.95210797,-0.21492898,-0.32924828,-0.32497415,-0.117642075,-0.05592786,-0.18500848,-0.018847836,-0.010961279,0.041819595,-0.14330198,-0.15643992,-0.11398906,0.01648508,0.12289309,0.028828762,-0.020157864,-0.1858119,-0.07105671,0.016078223,0.07489253,-0.024457188,-0.05483738,0.060825516,0.05927359,-0.11386484,0.023844142,-0.026882626,-0.12489389,-0.20076104,-0.0007836666,-0.125252,-0.06118831,-0.09242225,-0.048350193,-0.13304357,0.0039916094,-0.2055812,-0.043790523,0.07680791,-0.041616753,-0.03982184,-0.08054666,-0.063854024,-0.3510144,-0.022995358,-0.1356789,0.31686932,-0.09128826,0.044073276,-0.016575523,-0.12697513,-0.2491096,-0.042686615,-0.14729974,-0.012282412,-0.07440508,-0.05361291,-0.098861106,-0.046756838,0.06397671,-0.21930611,-0.03692937,-0.023178382,-0.10432739,-0.14727573,0.022166053,-0.0028175116,0.19582875,-0.101407096,-0.092097074,0.010059182,-0.0002982961,-0.13900217,-0.08891685,0.021680595,-0.03406203,-0.10907652,-0.12671113,-0.24561787,-0.121274956,0.015115437,-0.22640556,-0.3542431,0.03878333,-0.13499494,-0.04368473,-0.13220729,-0.16661936,-0.0072234836,-0.055487342,-0.21083984,-0.12846099,0.019209178,-0.17873779,-0.047241174,-0.13448709,-0.078981735,-0.07481062,-0.11408072,0.041931715,-0.13802175,-0.07172734,-0.15754269,-0.077599466,-0.096075475,-0.12043315,0.10866576,0.051973164,0.051825326,-0.0217149,-0.16251728,-0.10558436,0.015021608,-0.051803574,0.6385957,-0.056082044,-0.18469718,0.021398025,-0.035865456,0.05511038,-0.0087702405,-0.11826839,-0.13916257,-0.24417509,-0.029398482,-0.0014456017,-0.13288544,-0.011433175,-0.08731975,-0.119918436,-0.16760127,-0.054071743,0.017638583,-0.04597684,-0.061889444,0.48506534,0.00948888,-0.021497013,-0.050813455,-0.036792096,-0.21609725,0.040070012,0.050465748,-0.12145358,0.15210038,-0.034450766,0.008923798,0.017345503,-0.027768092,-0.009299023,-0.05950766,-0.13681212,-0.16950177,-0.0067891404,-0.11293447,-0.03638008,-0.03445339,-0.066661894,-0.037065007,-0.14393525,0.002765155,-0.07164141,0.06263114,-0.044792272,-0.051110018,-0.091984786,-0.19546063,-0.17199054,-0.15153302,-0.095217906,-0.09409852,-0.02873291,0.008919119,-0.092902176,-0.0752941,-0.05662003,-0.11424079,0.061951242,-0.029127005,-0.18378626,-0.1997345,-0.052263305,-0.07466515,0.002170042,-0.13383512,0.029497286,-0.13894093,-0.110250205,-0.01547786,-0.011371688,-0.042559,-0.028615799,0.006130051,0.064304926,-0.18722747,-0.0035431748,-0.088392645,0.10246808,-0.20038627,0.036099847,-0.12870371,0.0034125464,0.006676418,-0.08235776,0.19745709,0.023694921,-0.023952339,-0.21584652,-0.108253576,-0.098524325,-0.19177218,-0.11637724,-0.07056651,-0.1495476,-0.104842395,-0.07054622,-0.018307965,-0.02764606,-0.118309066,-0.15358205,-0.06901275,-0.12567319,-0.08382468,-0.16776098,-0.07945411,0.1802147,-0.12019615,-0.050966658,-0.074499846,0.00709454,-0.06470079,0.04614491,-0.11666625,-0.07754188,-0.1491695,0.05089229,-0.07537705,-0.017133527,-0.00080409105,-0.08072399,-0.054634247,-0.0072371447,-0.035462268,-0.18779096,-0.116272345,-0.16208924,-0.19957009,0.061583884,-0.044231758,-0.06765004,-0.08960838,0.16716439,0.008980503,-0.045675624,0.013735462,0.006846516,0.14915021,-0.021867495,-0.023064833,1.1084605,-0.15252475,-0.04334382,-0.15668811,-0.02300361,0.0006059655,0.24114744,-0.13760535,-0.13967685,0.0791341
-0.08121374,-0.38914865,-0.1111674,0.19964316,-0.13758032,-0.116281666,-0.13252732,-0.009068587,-0.05927499,0.07425753,0.029487,-0.0020223907,-0.083240524,-0.1412442,-0.13966769,-0.075831145,0.029552035,0.012229025,-0.15146884,0.014155656,0.0056088427,-0.117879495,-0.122414604,0.12655248,-0.035689857,0.016302718,-0.029760743,0.030074948,-0.040201463,0.048265096,-0.09619747,-0.13666916,0.01653812,-0.11975812,-0.08828198,-0.04213716,-0.042159647,-0.11573802,-0.06622043,-0.19370534,0.019648187,-0.05659661,0.710365,-0.14443585,0.0402618,-0.123189375,-0.007730666,-0.009170417,-0.015745685,-0.043265294,0.047544766,-0.025139373,-0.16853198,-0.06801681,-0.0665195,-0.11358856,-0.08441456,-0.09165819,-0.024380624,-0.16493747,0.063975215,-0.027114447,-0.15094437,-0.021417163,-0.036754403,-0.0065310462,-0.09682167,0.04879723,-0.0542941,-0.13370968,-0.10072714,0.103962116,-0.032116827,0.031062346,-0.14413546,0.005708037,0.039751276,-0.1341889,-0.042657573,0.032803353,-0.08303943,0.07898034,-0.19588715,0.03330577,-0.032376375,-0.15926965,0.023601191,-0.0047181244,-0.013608858,0.05596322,-0.055533044,0.100906424,-0.014220512,-0.045446303,-0.089577876,0.003422505,-0.32128435,-0.07272061,-0.047308758,-0.019515317,-0.1409459,0.040106405,-0.10433329,-0.041611023,-0.18989746,-0.09565008,0.16811173,-0.27075967,-0.1499277,-0.047253955,-0.12119882,-0.061518136,0.037528545,-0.080455534,-0.013877401,0.008140024,-0.12007539,0.0024617019,-0.14041981,-0.06291345,0.029634267,0.014035696,0.00083630794,-0.3928815,0.024503166,0.017604485,0.024524977,-0.013451269,-0.22832957,-0.03921625,0.18537235,0.04758629,-0.05439948,-0.25896424,-0.014759586,0.01786453,0.0069479905,0.112447724,-0.13208906,-0.28909022,-0.053153038,-0.06891697,0.07687067,-0.1849215,-0.08606887,-0.069552734,0.037782453,0.0073858956,0.019595494,0.05154754,-0.26918808,-0.05385876,-0.1860693,-0.05849203,-0.02727161,-0.10496821,-0.08711709,0.03539195,0.028520923,-0.082917266,0.038306985,-0.09622225,-0.1527304,-0.10124217,-0.3620789,-0.16451086,-0.11798503,-0.002893959,-0.22010285,-0.01980396,-0.043973446,0.02685704,-0.11212308,-0.13072301,-0.048122942,-0.58599454,-0.10957079,-0.08219105,-0.015113819,-0.15140831,0.72488004,-0.010911981,-0.08192934,0.03649914,-0.09740145,0.16694665,-0.006198433,-0.15360186,-0.008567923,-0.14826506,-0.0708587,-0.016823243,-0.10557523,-0.07076722,0.00030449496,0.0041785873,-0.10625279,-0.067751214,-0.122276604,0.10984649,-0.014963771,0.021456549,-0.08488104,-0.057861168,-0.06617605,-0.13353096,0.022322707,0.27073053,-0.076814026,-0.030339178,-0.041361794,0.007334533,-0.018444747,0.048476856,0.06799136,-0.040918887,-0.17695114,0.020855423,0.061954066,-0.044256233,-0.112866126,-0.11204693,-0.08338065,0.0650729,0.025643326,0.028995926,-0.1255322,-0.17068456,0.032596447,0.019363811,-0.071721904,-0.028577842,-0.13858593,-0.23833996,0.020398432,-0.12254195,-0.21483271,-0.059929863,-0.4887862,0.008363001,-0.11793452,-0.03424377,1.0190015,-0.15397069,0.6732667,-0.16017239,-0.12460322,-0.018358266,-0.027507493,0.040712904,0.012556888,-0.05564626,-0.107505396,-0.010839791,-0.012486598,0.040584486,-0.14933595,0.01633654,0.0371426,-0.22111297,0.037362754,0.03152447,0.00325549,-0.053301394,-0.064096935,-0.102447525,-0.2205379,-0.025347393,-0.109276965,0.015879909,0.04738067,0.050211668,0.011258152,-0.14561476,-0.0037651146,0.056720812,0.02290661,-0.086586885,-0.13381691,0.009549853,-0.120566145,0.021864336,-0.13238928,-0.027126452,-0.071742795,-0.12205006,-0.11161773,-0.14598094,-0.09265112,-0.6092322,-0.09892394,-0.0609915,-0.1591223,-0.027742011,-0.11326127,0.060827103,-0.116399154,0.026648192,0.03652415,-0.010753959,-0.3208797,-0.1307034,0.03088436,-0.20158619,-0.015746837,0.053231485,-0.0069013094,-0.0450166,-0.14389345,-0.021914316,-0.06659911,0.0055641434,0.052496135,-0.031150522,0.023387482,-0.4522599,-0.14588484,-0.0826846,-0.053864572,0.03232604,-0.056479722,-0.23817629,-0.0275889,0.017798264,-0.21558242,-0.21120806,-0.1472708,0.018290754,-0.14354496,-0.0073890425,-0.12257234,-0.3442084,-0.07863189,0.16965501,-0.06774042,-0.13513719,-0.075113654,-0.043440286,0.054061107,-0.023044776,-0.03655168,0.024571063,-0.08303506,-0.00425295,-0.047666315,-0.028521718,-0.16705354,-0.12377256,-0.14074855,-0.08196144,-0.029468426,-0.048252836,0.0123076,0.015099159,-0.08376033,-0.12550022,-0.071811095,-0.69443905,0.013437497,-0.21267399,-0.123417124,-0.14565992,-0.037961923,-0.07941913,-0.1574854,-0.11433406,-0.15192333,-0.0052333213,0.019335357,-0.04885224,-0.114876986,-0.019714074,0.027569132,-0.049801398,-0.14938295,-0.050717432,-0.0035293126,0.022196203,0.9935175,-0.063299,-0.029247604,-0.06120939,-0.15214917,-0.14348859,-0.10602142,-0.3120827,-0.020327635,0.109035656,-0.042771496,-0.14190908,-0.06549706,-0.0451026,-0.0661155,0.025428513,-0.05073405,0.4154078,-0.027688084,-0.16411068,-0.12393432,-0.011339633,-0.009729159,-0.03882189,-0.084042855,-0.06710565,-0.11793381,0.050989095,0.079085775,0.05658072,-0.08530467,0.012536783,0.0052936543,0.13070987,-0.07894499,0.009154186,-0.07588782,-0.019195165,0.020177864,-0.24429144,-0.0052794055,-0.24004479,0.011301952,-0.011980639,0.020353837,-0.040334653,-0.06257566,-0.0020909214,-0.062267285,-0.100415535,-0.05443942,-0.033941396,-0.19420306,0.07177275,0.0013747204,-0.109130025,-0.08976813,-0.11508217,0.014292576,-0.35916916,0.027877785,-0.070274964,0.13998707,-0.024148706,-0.06760642,0.08562691,-0.05679719,-0.026723443,0.067152716,0.71354663,0.02256048,0.02364044,-0.10892736,0.032601267,-0.101228796,-0.15367572,-0.12394289,-0.021375393,-0.17470925,0.077951245,0.014923631,-0.07348561,-0.04368954,-0.09939291,-0.00889591,-0.19372348,-0.015830347,-0.08265623,-0.098977365,-0.028228266,-0.37313467,0.009231136,0.059156936,-0.1392876,-0.14817308,-0.42980888,-0.018689422,-0.07288488,-0.056129,-0.11004467,-2.6687678e-05,-0.09996424,0.009378533,-0.08229501,-0.102486044,-0.1145301,-0.037604623,-0.048258353,-0.20959245,-0.06919788,-0.10821269,-0.1261041,-0.38707802,-0.10367789,-0.12737043,0.034027785,-0.05361215,-0.029452728,-0.19646381,0.064147584,0.012204752,0.019744376,-0.08389157,-0.01809532,1.0327443,-0.0006988638,-0.007514662,-0.002004505,-0.034533814,0.02912982,0.5207939,-0.13746664,-0.029782511,-0.1441718
0.045989726,-0.25980762,0.030727094,-0.112411544,-0.049814045,0.096688986,-0.068638936,-0.01832522,0.03630139,-0.08083604,-0.099369794,-0.07112803,0.07093355,-0.017413883,0.041675635,-0.068895176,0.020724095,-0.6133726,-0.033150617,-0.048772246,-0.102160305,-0.069203295,-0.17398818,-0.46988857,-0.062522255,-0.121538684,-0.010365944,0.23318057,-0.13041273,-0.04895745,-0.0796351,-0.016602542,-0.170631,-0.035453502,-0.08960069,-0.02431804,-0.08619967,-0.100051954,0.020445393,-0.06845097,-0.14379969,0.016428614,0.3708643,-0.14025122,-0.030180838,-0.20220922,-0.047707595,-0.005867212,-0.09327663,0.06096057,-0.029199809,0.0030419403,-0.1867221,-0.0922604,-0.60302037,-0.04830528,-0.02346157,-0.12644632,-0.041051462,0.065863416,0.076518886,-0.046885177,-0.013954887,-0.13055669,0.013296137,-0.10836,0.036956605,-0.10061434,-0.021095537,-0.04287579,-0.0063730623,0.15372145,0.018236022,-0.060498044,-0.123138934,-0.13135466,-0.11799849,-0.017578384,-0.11388086,-0.04141818,-0.38180655,-0.121157385,-0.23514712,-0.061847776,-0.06789512,-0.059936628,-0.063757494,-0.12849073,0.02849936,0.003224262,-0.2906196,-0.11005702,-0.032491654,-0.10023515,0.083032295,-0.021485066,-0.1485034,-0.05302425,0.011564697,-0.14177342,0.028100133,-0.12863253,-0.16065694,-0.31400064,-0.061250485,-0.09945721,-0.094326034,-0.21929948,-0.0112367375,-0.1763116,0.027407223,-0.0063006124,-0.061214156,-0.20730913,-0.039094158,-0.074484006,0.002708629,-0.13894019,-0.025622237,-0.005913242,0.029269286,-0.08189583,-0.025148444,0.40309468,-0.12386807,-0.027765725,0.019478012,0.0051863277,0.004884911,0.065953955,-0.33728394,-0.02517846,-0.010531693,0.13090083,0.008307104,-0.15833864,0.07103271,-0.058525547,-0.20600912,-0.15189335,-0.29978538,-0.1260954,0.01448125,-0.23230463,0.0024919747,0.07026515,-0.13260925,-0.01716116,0.00051663356,-0.0064238617,-0.26696154,0.03360593,-0.041560747,-0.035266526,-0.06228457,-0.09483317,-0.12859586,-0.10043643,-0.03670607,-0.03919913,-0.11561503,-0.098832324,-0.14105727,-0.048771955,-0.182858,-0.06971025,-0.12683122,-0.0020075354,-0.04344143,-0.06577955,-0.38815343,0.0020625053,-0.10676786,0.032542523,-0.12385958,-0.06670693,-0.0022054908,-0.121225,-0.01554013,-0.13381872,-1.9100254,-0.0070572537,-0.04152226,0.030718789,0.07703832,-0.16013923,-0.028724393,-0.08349563,-0.10178279,-0.0660038,0.0007604063,0.033781122,0.03432236,0.025543582,-0.07398296,-0.080387,-0.09477331,0.027525356,-0.11699721,0.24402568,-0.03894117,0.0065114615,-0.0014514907,-0.0923547,-0.07177072,-0.06563395,0.056725327,-0.28851816,-0.07876302,-0.1475164,-0.06604147,-0.060403988,-0.09072266,-0.0969335,-0.010097841,-0.023091963,-0.14781529,-0.001707667,-0.052480716,-0.16995174,-0.019163352,0.04759653,-0.2896989,-0.0026055519,-0.09240165,0.030756487,-0.18182878,-0.107308276,-0.06239927,-0.06914807,0.010352099,-0.13058336,-0.028245822,0.0641661,0.042287927,-0.15766744,-0.22700728,-0.041898824,-0.36776656,-0.09819879,-0.097617954,-0.11723133,0.3584524,0.0054768897,-0.56475997,0.23277518,0.04562761,-0.07788773,-0.08258667,-0.10526589,0.021460116,-0.060666937,-0.0061499625,-0.025109509,0.043400005,0.009871175,0.19887851,-0.23144254,-0.07047173,-0.10658456,-0.030720614,0.06141182,-0.24152638,0.029277163,0.036144495,-0.17386077,0.20593734,0.016282307,0.032958087,-0.055266015,-0.07723054,-0.1267505,0.00957253,-0.023282086,-0.0026899744,-0.09133436,-0.09410179,-0.07617321,-0.09246475,-0.9386816,0.021328876,0.043622408,-0.06346053,0.0480578,0.2686982,-0.013607374,0.33329117,-0.059148807,-0.13535914,-0.31548193,0.028368415,0.056060728,-0.088261835,0.030614909,0.03565689,-0.09200924,-0.06459745,-0.071914606,-0.083859846,-0.06840522,-0.14393578,-0.006081997,-0.1512496,0.05549751,0.015931476,-0.043475505,-0.04243548,-0.039501674,-0.0963843,-0.040504266,0.08453288,0.018002486,-0.00019109994,-0.019760594,0.029672295,-0.12527409,0.006203624,-0.102482975,-0.068029694,-0.15002182,-0.020493466,-0.2064579,0.0007487795,-0.04644952,0.072043724,-0.07006592,-0.13746457,-0.07989701,-0.018733006,0.06682137,-0.0852605,-0.0992962,-0.1504352,-0.16804953,-0.052303087,0.02368083,-0.09483015,-0.076610774,-0.070232354,-0.046984565,-0.050963443,-0.044158112,-0.15222971,-0.06759459,-0.049023543,0.001449187,-0.13562904,-0.045390572,0.032551207,-0.06217707,-0.13404879,-0.06264376,-0.12829511,0.00043571973,0.09068433,-0.10650698,-0.002180074,0.8928521,-0.075265534,-0.18791078,-0.12231705,-0.029027931,-0.09978252,0.0048076194,0.031032655,-0.07645407,-0.17537245,-0.02300913,-0.045075364,-0.042499937,-0.09298916,-0.053043745,-0.07616572,-0.108455524,-0.14454335,-0.07557058,-0.023989545,-0.08083918,0.5215945,-0.03767568,-0.019276988,-0.1800758,-0.20188853,0.06239942,-0.123403415,-0.18680063,0.057485856,-0.016783936,-0.040343508,0.08114653,-0.06003856,-0.0036690885,-0.037496433,0.0014510411,-0.12586023,-0.94820374,-0.04922477,-0.5167857,-0.091980055,-0.035552885,0.06089574,-0.0746416,-0.1848761,-0.12889922,-0.09747727,-0.109950624,-0.12600325,-0.09559372,-0.97013134,-0.30524495,0.06925442,-0.40494284,0.00046387356,-0.06294798,-0.092855535,-0.12947635,0.012557224,-0.35918865,-0.028632047,-0.17738084,-0.002723344,-0.06570671,-0.007974319,-0.109503806,0.0112049375,0.025420267,-0.033589285,-0.06411917,0.006843306,0.025813235,-0.20725465,-0.10055035,-0.19541281,0.038207628,-0.010263331,0.481733,0.00025037074,-0.16173396,-0.121868104,-0.09034345,-0.1388045,0.08534356,-0.051768776,0.004379781,0.043615412,0.001099757,-0.17545938,0.33010715,-0.12981485,-0.14533009,0.17066309,0.0467421,-0.12764442,-0.11580724,0.018213153,-0.0068062986,-0.12368963,-0.10399936,-0.15147747,-0.041842557,-0.020940455,-0.022420479,-0.25969008,-0.09826181,0.041713748,0.11042129,-0.04201078,-0.15991879,0.5818652,-0.112217404,-0.025720181,0.1269507,-0.04525019,1.1146721,-0.12443005,-0.06091799,0.06913554,0.076257296,-0.0141654,0.041456472,-0.05431327,-0.0072375913,-0.028130876,-0.0040281336,0.029619893,-0.021879971,-0.16782238,-0.097116955,0.039559603,-0.022446936,-0.40260553,-0.09458979,-0.10773008,-0.10376224,-0.27487865,0.016330315,-0.23756227,0.13156806,0.054603938,-0.16398324,-0.13187091,-0.12934376,1.0276872,-0.12045035,-0.15442465,-0.048554678,-0.06680879,-0.09925808,0.58584285,-0.186833,0.07104691,-0.10891753
-0.13638845,0.33342296,0.015033266,-0.4477504,-0.08337568,-0.11810276,-0.10220309,0.04752463,-0.10567646,-0.14093438,-0.0167405,-0.10895363,0.00064203725,-0.13384895,-0.12329725,-0.108107336,-0.16901647,-0.45823714,0.026646905,0.073010266,0.018774629,-0.038064454,-0.12689252,1.0134659,-0.0634792,-0.19328551,-0.050750315,-1.1150998,-0.2533344,-0.08755658,-0.17504102,0.047483012,-0.116761595,0.013229507,0.05603853,0.0112305265,-0.0084845275,0.18612647,0.11896433,0.12443272,-0.116400264,-0.058876015,1.8398476,-0.034187492,-0.05972043,-0.13818525,-0.029512806,-0.04442101,-0.11464599,-0.12418177,-0.03704889,0.010172725,-0.26159474,-0.011238425,1.4540937,0.13808024,-0.02691556,-0.16260463,-0.122449264,-0.10954985,-0.012253789,-0.05689234,0.026069237,-0.094626404,-0.09965405,-0.024295017,-0.005415547,0.08040971,-0.00643507,-0.014412158,0.032645952,-0.19048652,-0.058555663,0.027475411,-0.030737078,-0.039302524,-0.12150774,0.035270795,-0.0542301,-0.24299318,1.4315854,-0.095402256,0.3324674,-0.082914256,0.014113844,0.04671764,-0.07419958,-0.07540575,-0.062886685,-0.17142127,0.006946791,-0.24231523,-0.048890673,-0.14149487,-0.23688339,-0.04434753,0.25629643,-0.13754882,-0.14562967,-0.10158933,-0.0911114,0.064497225,0.19985193,0.48738736,0.17115587,-0.03243872,0.119073264,0.43614858,0.09469046,-0.19896564,-0.0069390046,0.040862583,0.0018570621,-0.08243969,-0.16038746,0.093850575,-0.068344034,-0.029276295,-0.14617264,-0.052672733,-0.12261637,-0.0059491675,-0.010857993,-0.16889162,-0.11098086,-0.08350562,-0.07820409,-0.008654914,0.05866589,-0.04730389,1.1249025,-0.06329419,0.11043594,-0.2877458,-0.0892212,-0.01000134,-0.14252688,0.46506625,-0.17332396,0.22160843,-0.22072874,0.015436583,-0.07975236,0.15127413,-0.121578634,-0.13398841,0.015740309,-0.11109954,0.055144627,-0.085165694,0.40123045,0.0171671,-0.3095605,0.0089225415,0.12325045,-0.22001174,0.056938343,-0.11941429,-0.09117352,0.072546124,-0.114659235,0.043244116,0.30578065,-0.15207024,0.2838202,0.09822583,-0.097665384,-0.08256629,0.08878034,-0.06857574,-0.7126128,-0.14520015,0.012669677,-0.099018954,-0.08482079,0.11972351,-0.035789557,-0.13739577,-0.06852461,0.06889109,0.43671265,-0.106955275,-0.19813654,0.009950192,-0.0876304,0.2119276,-0.09054128,0.05828684,-0.037104018,-0.055778883,-0.34754956,0.05726708,0.04474682,-0.06410861,-0.0016182639,-0.0088677835,0.091565885,-0.008977676,-0.034359988,-0.12695362,-0.010110268,-0.1229395,-0.19716772,0.019918004,0.108656004,0.039201032,0.032788023,0.5148776,-0.037288155,-0.033552196,-0.087561615,0.085107096,0.00077115744,0.06948623,0.017393792,0.04303384,-0.24797964,-0.11794361,0.061325524,-0.20693342,-0.024453536,-0.087280504,0.20383953,-0.11051043,-0.20995885,0.017731458,-0.22791386,0.007349824,0.055714425,-0.10050754,-0.088075586,0.03233568,-0.062153082,0.032427736,-0.090012304,-0.17099708,0.48831272,-0.12316308,0.6807199,-0.0656883,-0.082625344,0.020792449,0.039485045,-0.3034772,0.90434694,-0.16229227,-0.022069084,0.0069318707,-0.19481193,0.07487969,0.061578438,-0.030649155,0.01194535,0.009696779,-0.02256683,-0.028769562,-0.25404617,-0.41527274,0.044567514,0.12205006,-0.0459317,-0.07910694,-0.35260376,0.05422673,0.022807095,0.053064015,-0.7372492,0.020291412,-0.03393392,-0.19456556,-0.13173527,-0.006881648,-0.092342116,-0.013918675,0.08637296,0.0234771,-0.045583308,0.006929059,-0.07943547,-0.3297439,-0.14584787,-0.09911018,-0.13871591,0.041116316,-0.05196431,-0.070438236,-0.2529917,0.03328786,-0.13011338,1.1629854,-0.022138273,-0.010275845,-0.14458632,-0.05617497,-0.29580605,-0.0412616,0.053234626,0.021842105,0.1245898,-0.09272387,0.29218605,-0.021830851,-0.06696365,-0.06372759,0.11511938,-0.046908002,-0.12711807,0.08122376,0.049876265,-0.036836762,-0.7459633,-0.107124195,-0.07020426,-0.11964989,-0.031653997,0.23631306,0.059452593,-0.10593017,-0.10694659,-0.10760382,-0.017683558,0.12317739,-0.117127195,-0.12530367,-0.287097,0.2762283,0.024274474,0.04453609,-0.09837869,-0.0673997,-0.16414256,0.37340286,-0.045078233,0.4385837,-0.107182495,-0.049192008,-0.05927677,0.033177614,-0.1213299,-0.07908359,-0.06618899,-0.09191404,0.028254852,0.004989528,-0.08594153,0.060786862,-0.20860715,-0.03637713,0.03392341,-0.15711844,-0.1824375,-0.11310985,0.011567717,-0.09458522,-0.19565094,-0.009068487,0.07008391,-0.64522517,-0.1002732,-0.0057630907,-0.029549338,0.012114491,-0.010114022,-0.10178794,-0.13962163,-0.14484796,0.15248708,-0.0954297,0.05149845,0.085607104,-0.09881775,-0.03749296,-0.20789361,-0.021477703,-0.009888806,-0.102280684,-0.050779615,0.058497436,1.2288066,0.036884878,-0.070260406,-0.0009463186,0.22882205,0.04300082,-0.037553664,-0.5079304,-0.0050463043,-0.41685873,-0.0195936,0.0024804063,-0.13548683,-0.056522008,-0.070185974,-0.040333327,-0.10002698,1.9173836,-0.113529764,1.2808677,-0.13049483,-0.14910626,0.054900248,-0.27442625,-0.049292255,-0.09805334,0.00035063154,-0.095464356,-0.014275727,-0.20525688,-0.24656267,-0.27466592,0.07233401,1.2828157,0.084077746,0.034074664,0.0068737715,-0.13507241,-0.007905616,-0.21995619,-0.21223645,-0.0029100017,-0.10442135,0.09465993,-0.17384687,0.21645579,0.020490432,0.067023605,-0.026879514,-0.14889456,-0.10685857,-0.053010866,0.16989848,-0.18467285,-0.059611157,-0.046445847,0.14183582,-1.2174139,-0.14471698,0.23892143,0.1873143,-0.08255768,-0.38655752,-0.09410279,-0.01599002,-0.005421846,-0.060677607,-0.0422,-0.11015933,1.7607225,-0.02146467,0.003621055,-0.1355151,-0.12398294,0.00162546,0.113203704,0.061568268,-0.029406903,-0.13752834,-0.0721856,0.17236541,-0.1235366,-0.115159586,0.014605041,-0.28360856,0.057453517,-0.036347076,-0.06076325,-0.13314101,-0.09863082,-0.7209479,0.008198117,-0.028988538,-0.1534218,0.033789963,-0.20451066,-0.08753555,0.011901784,-0.028809108,-0.093923144,-0.14846551,-0.007664535,-0.16395774,-0.049817592,-0.19344023,-0.11603061,-0.05390533,-0.4135003,0.43163288,-0.14582278,0.06987321,0.030122308,1.3547552,-0.003209615,-0.07687313,-0.04474295,-0.4699519,0.0038886205,-0.32676205,-0.3997348,-0.14741369,-0.2828715,0.033768266,-0.049923226,-0.594313,0.011544992,-0.039050806,0.040989272,-0.2145574,-0.025441976,1.986217,-0.07956717,-0.1061178,0.029818013
-0.124758385,-0.017778689,0.01527407,-0.028993588,0.003706973,0.041284587,-0.026479606,-0.077805266,-0.03481693,-0.5212106,-0.013349139,-0.111648776,-0.13305467,-0.04982149,-0.32582864,-0.028436193,-0.068376325,-0.21689926,-0.029064257,-0.09283248,-0.077977344,-0.088760674,-0.016713297,-0.38923985,-0.079450645,-0.034294352,-0.05299204,0.46611467,0.002385284,-0.0081924815,0.055225164,0.08528013,-0.13576865,-0.01888961,-0.060466234,-0.14319006,-0.12181566,-0.13288368,-0.058234263,-0.14881071,-0.091679394,0.07654036,0.46305925,-0.11014202,-0.12202764,-0.16929568,-0.112443164,-0.05144367,-0.04725252,-0.024928018,0.044558633,-0.106482096,-0.111970685,0.046058476,-0.54329544,-0.16395454,-0.08485825,-0.23987582,-0.121076986,-0.08803866,-0.12196574,-0.09516307,-0.08592317,-0.07040754,-0.00059133937,-0.121994264,0.048544105,-0.08660973,-0.051469706,-0.06364916,-0.09028584,-0.10877863,0.07103378,-0.03842541,-0.054984882,-0.030718328,-0.086964466,0.001666136,-0.13153177,-0.04761327,-0.3829024,0.013806949,-0.21432519,-0.106282905,-0.024998544,0.0148610035,-0.08121014,-0.022993615,-0.098601714,-0.023407383,0.0775914,0.14991607,-0.15407798,0.09170214,0.12647791,-0.11509292,-0.23274584,-0.10962824,-0.050824728,0.033774994,-0.00026670328,0.027296985,-0.17006561,-0.33328414,-0.12581751,-0.06495507,-0.11375494,-0.3133813,-0.011869436,-0.0102163255,-0.075621836,-0.029081061,-0.12474626,-0.19157717,0.051859137,-0.03717764,-0.05899441,-0.16149297,-0.06795762,-0.118126266,-9.8884e-05,-0.11250641,-0.028255315,-0.7869867,0.06627568,-0.03474936,-0.04739684,-0.008957189,-0.23512296,-0.07561777,-0.5078906,-0.04852949,-0.037602864,0.07678475,-0.14034492,-0.07738192,-0.15220878,-0.67419666,-0.09081527,-0.3121804,0.08097767,-0.10561156,-0.027718343,-0.18240139,-0.03756333,-0.05419755,-0.080430284,0.041786037,-0.11426367,0.054691046,-0.27073255,-0.12632848,-0.36902666,-0.13861078,-0.10099184,-0.37172908,-0.173736,-0.047083687,-0.036457244,-0.10473535,-0.0993478,-0.063958354,-0.17376573,-0.10648489,-0.17499022,0.0064781075,-0.016511552,-0.1443459,-0.010502859,0.057172094,-0.09571654,-0.09277397,0.026429316,0.035957277,-0.021170076,-0.01235939,-0.105570495,0.10201546,0.09142454,0.0069575887,0.17022598,0.036681954,-0.12926544,-0.051369645,-0.112323076,0.006275086,0.062371727,-0.009501852,-0.04633066,-0.025094992,-0.28846404,-0.1383639,-0.07582506,-0.16662297,0.024959277,-0.09655352,-0.11914137,0.099600255,-0.07794497,-0.21359922,-0.06534398,-0.15624343,-0.09112432,-0.041862275,-0.06846324,-0.1252551,-0.14812961,-0.2031063,0.07867492,-0.002581714,-0.017214073,-0.01787359,-0.045895576,-0.068360515,-0.064075164,-0.02180218,-0.12590542,-0.08668172,-0.083956935,0.017216053,-0.08870689,-0.11766593,-0.25508,-0.12182664,-0.16672267,-0.046353582,-0.034138434,-0.15047081,-0.06526787,-0.06346982,-0.095514946,-0.016247481,0.062331423,-2.3091094,-0.04464943,-0.02152828,-0.48065382,0.053815532,-0.49739823,-0.094887175,-0.10759588,-0.069154724,0.26629066,-0.07340057,-0.1430412,0.049327012,0.06632637,-0.024171945,-0.104576,-0.07259127,-0.101571746,-0.13937376,-0.123130254,0.029721146,-0.11724847,-0.0049221856,-0.045221694,-0.15367262,-0.049836442,-0.33314502,-0.038487796,-0.12048707,0.1451441,-0.06630186,-0.12850836,-0.09051919,-0.023218388,-0.046548203,-0.046218622,0.017282682,-0.027517049,-0.24878946,-0.012230499,-0.09227031,-0.03288481,0.017871238,-0.0049040727,0.09247432,0.024661114,-0.14788601,-0.06233051,-0.0742488,-0.0365299,-0.11786972,0.046897475,-0.013497931,-0.34118778,-0.03362111,-0.06390487,-0.47573155,-0.12827478,-0.078226484,-0.12945591,-0.02022054,-0.09080456,-0.04433866,-0.027032465,-0.106522225,-0.065924875,0.032560457,-0.1610391,-0.008137033,-0.109071195,-0.2741935,-0.14784677,-0.03627237,-0.06981026,-0.1057334,-0.09889432,-0.08444325,-0.046584737,-0.06496873,-0.026895627,-0.15344332,-0.12831047,-0.16053969,-0.11919059,-0.08094426,-0.0019205129,0.033105392,-0.09182043,0.008676729,-0.17171448,-0.15485933,-0.16701683,-0.18860707,-0.12977639,-0.12083419,-0.12278893,-0.13040201,0.008322042,-0.22117952,-0.11869851,-0.25143906,-0.06113922,0.007774875,0.06489487,0.03182931,-0.11384259,-0.113730446,-0.086375,-0.12163295,0.044594392,-0.09130492,0.018877963,0.028820211,0.1645359,-0.04804449,-0.11709548,-0.16083047,0.050767906,0.028116664,-0.044925924,-0.10307972,-0.20146225,-0.058894515,-0.050588515,1.265826,-0.025721332,0.023954764,-0.12423852,-0.10465823,-0.05252803,-0.08144538,-0.06755104,-0.12060284,-0.044539385,0.024032155,-0.056055963,-0.10000736,-0.03133488,-0.11578778,-0.112880416,-0.006190984,-0.0016837963,-0.10033,-0.023575488,-0.13042241,0.27038363,0.0045998693,-0.06952791,-0.06256514,-0.13537876,0.014501711,0.03321309,0.30303156,0.031399455,-0.18689653,-0.015892917,-0.046874333,0.002812662,-0.09232787,-0.011229557,-0.106751636,-0.14771962,-0.9190438,0.018698163,-0.5065648,-0.124900304,0.07203779,-0.04640415,-0.29296055,0.08181393,-0.047270764,-0.114517,-0.05566267,-0.1265062,0.072363056,0.10237453,0.64818966,0.06362839,-0.30555293,-0.069859535,-0.016440809,-0.11230266,-0.051922448,-0.08546089,-0.018075133,-0.019354511,0.03708792,-0.09453233,-0.047819234,-0.004112106,-0.10065639,-0.071051404,-0.058712855,0.0021815044,-0.10096469,0.013123133,-0.12623487,-0.2163051,-0.13626431,-0.12657766,-0.026734494,-0.080188625,0.6253378,-0.09488856,-0.17688634,-0.14493808,-0.0053302418,-0.028672358,-0.10100015,-0.1037401,-0.12859358,-0.09817615,-0.04108162,-0.16616988,0.3140721,-0.12480037,-0.10919936,-0.1166525,-0.041359164,-0.0128194345,-0.04253519,-0.03415888,-0.15174925,-0.09239345,0.014495564,-0.12805842,0.03941559,-0.11179192,-0.13896365,-0.03041292,-0.0442952,0.06244272,-0.11594096,0.03053607,-0.054851625,0.4260622,-0.0017549752,-0.056787737,-0.31055146,-0.117291205,-0.2118086,0.0013337785,-0.12970966,-0.13503331,-0.0996048,-0.10520096,-0.055484794,-0.081267186,-0.026446542,0.041292146,-0.04677238,-0.06224654,-0.47313738,-0.38764986,-0.032441624,-0.09836809,-0.06300545,-0.5538745,-0.1022483,-0.008638392,-0.07756018,-0.15623446,-0.14885905,0.031842723,-0.253265,-0.06299004,-0.14020109,-0.13214114,-0.09333581,0.8104286,0.021047588,-0.054860245,-0.09987141,-0.037555102,-0.08552149,0.49649838,0.028526455,-0.0036467249,-0.07978013
0.02786833,-0.10254173,-0.097566076,0.14468478,-0.055661947,-0.12538849,-0.06358895,0.046153426,-0.048511922,0.106664926,-0.019581731,-0.01943063,-0.009329933,-0.0051483405,0.0056488398,0.03355083,-0.10696704,-0.2386459,-0.013630868,-0.13981304,-0.02117808,0.028629983,-0.058614142,0.2062718,0.08684588,-0.1649715,0.003918897,-0.53271514,0.034249973,-0.12908323,-0.13688438,-0.107169904,-0.1440288,-0.08766453,0.02095285,0.0047466923,-0.041045398,-0.24015376,-0.18506768,0.051344156,-0.09049524,-0.024588551,0.75823927,-0.123097874,-0.049446344,-0.015266383,-0.0934879,0.0022865916,-0.10627288,-0.06909849,-0.10052176,0.010306484,-0.07157978,-0.081822686,-0.06872779,-0.09588667,-0.0099181915,0.015201119,-0.062375017,-0.13455759,-0.028454626,-0.09493104,-0.1536624,0.013294665,0.027597701,-0.12950726,-0.047678385,-0.116426595,-0.021906124,-0.08918857,0.003034879,0.010764796,0.021235349,0.03715342,-0.06241049,0.014428362,-0.008599941,0.045690835,0.065267995,0.04347985,0.12236536,0.03178743,-0.16189502,0.037705336,-0.071829595,-0.06868997,-0.13417043,-0.09191359,0.00023239151,0.028806454,-0.27998552,-0.19702591,-0.13875799,0.0001305124,-0.13313018,-0.088013485,-0.25506958,-0.044619706,-0.09299374,-0.1018155,-0.15863018,-0.12412776,-0.07282259,-0.2834937,-0.19572435,0.046136416,0.00013080181,-0.26107323,-0.05870163,-0.00835289,-0.041332822,0.01565463,0.017304312,-0.092165306,-0.08391302,-0.11205853,0.00491906,0.008727583,-0.10551108,-0.15872362,-0.06850235,0.089018755,-0.063415475,0.16656093,-0.048663538,0.06632487,-0.005844066,-0.031248754,-0.09300952,-0.1071053,0.54569757,-0.0617726,-0.152163,-0.25240237,-0.10338513,0.0504767,-0.09615843,1.0963533,0.08157889,-0.42657605,-0.056371998,0.028382385,0.04673515,-0.15433832,-0.03605321,-0.07525357,-0.08207912,-0.1152051,-0.0007314245,-0.09007276,-0.375344,8.129958e-05,-0.16203272,0.075274125,0.045331072,-0.009278727,0.030641923,-0.026798693,-0.1567396,-0.1379948,-0.109981835,-0.09184739,-0.68538374,-0.054529723,-0.082104765,-0.068311565,0.042072892,0.0063073025,0.10501017,-0.0014175059,0.01233395,-0.07704732,0.017568659,-0.060400356,-0.14178708,0.08324402,0.046432637,-0.0058975075,-0.12716855,-0.1748911,-0.04209131,-0.1495797,-0.084733814,-0.0373592,-0.11140357,-0.005347756,-0.073631845,-0.06537361,-0.13745287,-0.08277755,-0.10139675,-0.07846977,0.01540064,0.005921928,0.048322223,-0.02793736,0.056962866,-0.14828616,-0.09750919,-0.057075627,-0.035187066,0.017046127,0.009426326,-0.048519645,-0.014431437,0.07301148,-0.021020379,0.13504744,-0.10690434,-0.12330021,-0.057476997,-0.14647798,0.05568771,0.029352602,-0.04627174,-0.090981856,-0.018119687,-0.098147176,0.03075032,-0.020524705,-0.108315915,-0.14821117,-0.3654193,-0.04644512,0.050387334,-0.00021352437,-0.031754766,-0.17450432,-0.07982014,-0.093332455,-0.0016305505,-0.0049670497,0.041171912,0.8861766,-0.10266967,-0.028115015,-0.5484565,-0.050737392,-0.9342322,-0.06872108,-0.15966083,0.020864716,0.6569462,-0.19422713,-0.42519897,-0.075850844,-0.07538711,0.092977606,-0.164099,-0.07239495,-0.09551211,-0.053882495,0.012601418,-0.14463958,-0.008714816,-0.103467315,0.064462245,-0.13965712,-0.059292614,-0.2375402,-0.120552726,-0.01620479,-0.12541676,0.05569751,-0.113160424,-0.14007677,0.020918116,-0.09422774,0.025080604,-0.069147445,-0.03352522,0.12272327,-0.083042175,-0.10163337,-0.078285016,-0.041788194,-0.050109766,-0.06789028,-0.0016617551,0.0040104515,-0.102358006,-0.088928185,0.0053594033,-0.11472221,-0.023145266,-0.10334713,-0.040482413,0.04351669,-0.06964306,0.26019022,-0.010966573,-0.11432434,-0.02410961,-0.038580604,-0.07455082,-0.042718533,-0.03566384,-0.07470192,0.078847244,-0.14043504,-0.43223086,-0.011175813,-0.08153307,-0.19729456,-0.22190732,-0.119660564,-0.08532547,-0.11610513,-0.14981745,-0.11615996,-0.2268895,-0.042863794,-0.019642271,-0.028392019,-0.17252894,-0.35934994,-0.07376962,-0.034293085,0.033421975,-0.15435177,-0.06536242,-0.07247592,-0.028894275,0.0008200113,-0.14247885,-0.40583292,-0.09202719,-0.18573642,0.04082144,0.019953204,-0.09351306,-0.22590518,-0.00867913,0.41903847,0.04102973,-0.14228477,-0.013621539,-0.07189411,0.029441934,0.013987728,-0.13423756,0.01656213,-0.15880685,-0.09478919,-0.02239819,-0.039945774,0.046428468,0.05196691,-0.098435126,0.029669449,0.073419236,-0.07712069,-0.077557445,-0.097602464,-0.085108824,-0.039736368,-0.090788074,-0.76591426,0.084092885,0.11639164,0.012601079,-0.12092492,-0.101489455,-0.05867459,-0.028615428,-0.06727273,-0.29440442,-0.102002464,0.050668955,-0.07096438,-0.12925105,0.07423711,-0.10287978,-0.18333074,-0.12882006,-0.048581082,-0.026573097,-0.05152113,0.48923913,0.0039314637,0.028294358,-0.10248812,-0.22507578,0.017641574,-0.10005377,-0.017932478,-0.11986195,-0.026497886,0.028965466,-0.11230551,-0.100070655,-0.08483505,-0.12010773,0.0067112185,-0.055649966,0.33267418,0.0045313174,-0.20297584,-0.079208635,-0.15209417,-0.05508427,0.0792638,-0.042990047,-0.11345226,-0.017518494,-0.07751828,-0.061144866,0.07834138,0.17133935,-0.35761946,0.05018132,-0.2281891,-0.0639151,-0.076216556,0.03454538,-0.13289122,-0.0015884163,-0.0559822,-0.10666589,0.068390355,0.01294369,-0.14383301,-0.00222452,-0.26735952,-0.03102279,-0.067768075,-0.08354107,0.017972762,0.017698681,-0.07106175,0.050467502,-0.034774754,-0.18223393,0.055412326,-0.021310605,-0.33832216,-0.0396777,-0.1276638,-0.17505093,0.008107036,0.091254465,-0.02591868,-0.05630356,-0.055179033,0.01780834,-0.00963813,-0.012633982,0.46514505,-0.10573418,0.019936064,-0.12095796,-0.073115386,-0.08052927,-0.21152416,-0.09634242,-0.023106417,0.08774989,-0.064636104,-0.13545989,-0.16403386,-0.11389544,-0.14698541,0.11311313,-0.12340943,-0.03446311,-0.019122638,0.03496572,-0.06768486,-0.26589337,-0.018188627,-0.11522264,0.020791808,-0.15627472,-0.22982469,0.033847563,0.008349552,-0.07470409,-0.0992086,-0.011033431,-0.1457744,-0.05441329,-0.16696136,0.017129233,0.025235664,-0.0020282478,-0.06800892,0.13136286,-0.18238021,-0.124554306,-0.13186188,-0.53732395,-0.021658467,-0.023469154,-0.095516756,0.05751115,-0.049230967,-0.14493647,-0.14918055,0.026240049,-0.06844249,-0.042433675,0.008896908,0.900041,-0.063858226,0.04384146,-0.08712692,-0.099435054,0.026493974,0.4035837,-0.12868866,-0.099517226,-0.060249858
-0.11754452,-0.3435384,-0.14442393,-0.33152243,0.0400995,0.0014817897,0.033752825,-0.12000861,-0.10517922,0.10576529,0.020640627,-0.15497725,-0.15982519,-0.07104233,-0.011864257,-0.045669332,-0.06279112,-0.039502382,0.033746146,-0.04476981,-0.1237259,-0.1282561,-0.079318695,-0.13598013,-0.108608626,-0.08908423,0.10834404,-0.060755268,-0.09646428,-0.078467935,0.0032046875,-0.1329349,-0.070419684,-0.053622197,-0.10461693,-0.101172924,-0.034890592,-0.028943533,-0.018808741,-0.15943494,0.046423707,-0.09640963,0.48294413,-0.15357217,-0.19571228,0.03407857,-0.031883873,-0.11691105,-0.13480954,-0.014438045,-0.043014012,-0.0015812205,-0.12509453,-0.074196644,-0.17104347,-0.014608576,-0.17010614,-0.0058915312,-0.06699515,-0.13230035,-0.09979414,-0.11897928,-0.20109534,-0.12824585,-0.06636879,0.012601061,0.011882892,-0.026707144,-0.06894852,0.052905463,-0.017991839,-0.2260225,-0.10735219,-0.13454856,0.004544288,-0.053232428,0.0741106,-0.09758185,-0.13152394,-0.101407856,-0.09960256,-0.058633167,-0.105466045,0.022706915,-0.042800922,-0.10033779,-0.012246085,-0.09323642,-0.065965004,0.018599907,-0.068758115,0.04335537,-0.09805327,0.041141946,-0.05098627,-0.04017159,-0.35976207,-0.047069665,-0.001155956,-0.006352509,-0.13439195,0.051524688,-0.10935768,-0.08861943,-0.35766423,-0.043708406,0.036563683,-0.119367965,-0.07191963,-0.016634103,-0.08537075,-0.1324819,0.054312065,-0.06032578,-0.027196307,-0.07944192,-0.12406169,0.03452308,0.014662842,-0.12970649,-0.12774004,-0.04268178,0.06353305,0.033602368,-0.01562622,0.029264674,-0.11594673,-0.034838177,-0.022942962,0.08204994,-0.18371569,-0.011475904,-0.034921378,-0.3192112,0.04484328,-0.116833195,-0.028708378,-0.9647526,-0.0913556,-0.07870259,-0.23011115,-0.014372617,-0.15975264,-0.20138788,-0.087941326,-0.003531882,-0.040822465,-0.082431026,0.07246819,-0.09156519,-0.31091627,-0.112830676,-0.047352154,-0.023276247,-0.117100015,0.09186939,-0.013808317,-0.04335995,-0.12990573,-0.03389045,-0.08759616,-0.008312612,-0.04416157,-0.05057019,-0.025471354,-0.037907064,-0.019538034,0.0059418604,-0.12148009,-0.11913452,-0.04003532,-0.0816068,-0.092192456,-0.03237579,-0.08558725,-0.18999994,-0.0072651533,0.032541756,-0.027051141,-0.1171391,-0.009854422,0.02297064,-0.0016335833,-0.086801946,0.023227159,-0.20105235,0.061562806,-0.045609724,0.023773814,-0.15769987,-0.15301889,0.023602633,0.050505556,0.05166459,-0.054209102,-0.037428956,-0.10167188,-0.10610485,-0.081481606,0.07442245,-0.08584552,-0.14474563,-0.18007597,-0.039833173,-0.1467294,-0.022859052,-0.038561482,-0.13625088,-0.14456429,-0.12747623,-0.007750063,-0.08051141,-0.07377781,-0.0070140646,-0.10577768,-0.16116057,-0.013317111,0.07096825,-0.13064289,-0.17525251,-0.033261005,0.032357153,-0.1430618,0.043762475,-0.049966853,-0.10107979,-0.11594754,-0.12952133,0.012776644,-0.047798373,-0.07277166,-0.060053557,-0.26832637,0.0045128507,-0.109988205,-0.09155039,0.044798687,0.005133909,0.2263216,0.002245862,0.004535902,-0.1050806,0.90422803,-0.04661857,0.04928032,0.06752556,-0.14027008,0.007713421,-0.18545145,-0.13902102,-0.08219062,-0.047351632,-0.06846261,-0.08154177,-0.027196318,-0.12780038,0.034006987,-0.08320974,0.049389,-0.1740381,-0.110781565,-0.001681173,0.010308244,-0.057883304,-0.08512899,-0.052630138,0.018940648,-0.106770925,-0.022750556,0.021534972,-0.063233875,-0.05740054,0.04181514,-0.10619146,0.0067742504,-0.032511193,-0.057160202,0.06693134,-0.058085542,0.10333331,-0.1551739,-0.20750567,-0.0007401183,0.057354927,-0.002997653,0.06600223,-0.32060903,-0.02528939,0.012124165,-0.21023627,-0.019099487,-0.07222833,0.011628723,-0.025918161,-0.081465706,-0.1162034,-0.047317896,-0.03267217,-0.09890742,-0.03635464,-0.15494667,-0.0365859,-0.06953776,0.034398176,-0.08130355,-0.03588714,-0.16738163,-0.11902706,-0.1633954,-0.07241371,-0.111511454,-0.10342369,-0.027657486,0.044890612,-0.029815674,-0.14524019,-0.035242382,-0.0878975,-0.08861824,0.013667873,0.037432555,-0.036263235,-0.08039869,-0.088900924,-0.04056954,-0.39053747,0.0039785826,-0.12108011,-0.041036956,-0.10691693,0.089899234,-0.23370016,-0.0082061365,-0.24734558,-0.09663067,0.038790453,0.0149115445,-0.06978288,-0.033442702,0.014507195,-0.1261437,-0.03289449,-0.11155365,-0.12739968,-0.148448,-0.016504807,-0.09740527,-0.08784943,-0.09320058,-0.039702673,-0.15577948,-0.12782903,0.026724983,0.04103094,-0.12093739,-0.08762173,-0.07229703,0.42186162,-0.11649722,-0.11583889,0.011800202,-0.1558809,-0.019720703,0.10231223,-0.0064711217,-0.09306328,-0.17599922,-0.076106444,-0.05797847,-0.118912235,0.05975745,-0.104808986,-0.12497982,-0.18438916,-0.23279181,-0.052342348,-0.10550415,0.031428512,0.44255644,-0.04082979,-0.00060375786,-0.07285542,0.034804285,-0.03879908,-0.06104495,-0.14924994,-0.038490087,-0.23197585,-0.07203953,-0.020076662,-0.15215105,0.009273143,-0.17313991,-0.05325192,-0.033781223,-0.18674874,-0.08918859,-0.11395876,0.028381884,-0.13010272,-0.17024694,0.17670465,-0.124221034,-0.14068907,-0.0672963,-0.13470112,0.026385345,-0.16987817,0.13793427,-0.061216284,-0.15558028,-0.23498625,-0.04797057,-0.06431079,0.011812316,0.020095313,0.013706029,-0.03665183,0.056079663,-0.17324415,-0.051252257,0.032262437,0.04641412,-0.26226014,0.035544414,-0.08124227,-0.005558527,0.015150599,0.04299254,-0.019384276,-0.13225047,0.04677907,-0.004876089,-0.05978818,-0.096034296,0.004401291,-0.03977624,-0.04857338,-0.12732144,-0.028920474,0.0051518064,-0.034936186,-0.102393255,-0.081050225,-0.07173394,-0.01712899,-0.060686607,0.40714508,-0.13663256,0.062252443,-0.018585261,-0.000785482,0.075142115,-0.3404831,0.037833665,0.029315675,-0.05542843,-0.06741904,0.014474091,0.017677082,0.02384484,-0.016676106,-0.009261354,-0.09984194,-0.13566637,-0.04655395,-0.11425109,0.0435025,-0.14125928,-0.006510441,-0.065084055,-0.09525404,0.05195919,-0.42924193,-0.020564077,-0.005160269,-0.06832212,0.023495022,-0.07434625,-0.017774662,-0.06673768,-0.058660336,-0.082068995,-0.2286264,-0.0015126211,0.0011657185,-0.32550108,0.041686162,0.015969573,-0.053935256,0.16201192,0.06373724,-0.08260052,-0.07971292,0.073844306,-0.045368448,-0.026318539,-0.0136378305,0.018551374,-0.19156756,-0.10311437,-0.002897324,1.3088026,-0.0686284,-0.059313785,0.0324328,0.10519603,-0.03223538,0.24271089,-0.068149574,-0.17723177,-0.13703027
-0.080451176,-0.21513726,-0.16701114,-0.05316325,-0.1040876,-0.102434166,0.034870133,0.0865486,0.012052163,-0.23226215,-0.00890655,-0.12177259,0.009207943,-0.0786115,-0.060304675,0.014704675,-0.0069264662,-0.3325056,-0.10338992,-0.057617534,0.06913397,0.041938793,0.041950386,0.106373146,-0.119984575,-0.05267504,-0.08699911,-0.20425951,0.08870081,0.05718895,-0.06371843,-0.3612284,0.019744972,-0.057087585,-0.047480613,-0.109363325,-0.059272636,0.08165736,-0.013699348,-0.059485804,-0.09981326,0.020131648,0.7112461,-0.075275406,-0.036365815,0.015895745,-0.04680845,0.073289715,0.041772004,-0.044717576,-0.11036269,0.02849479,-0.2724351,-0.040036187,0.029574847,0.01428255,-0.0035139855,0.043495078,-0.09384177,-0.004235695,-0.10552139,0.064439125,-0.2424878,-0.13142785,-0.11097395,0.02360322,0.010048317,-0.06508675,-0.06253877,-0.010733977,0.046695605,-0.33975217,-0.02985786,-0.09537914,-0.095335715,0.04629761,-0.02709481,-0.10900505,0.013576354,-0.17013606,-0.06364306,-0.08120364,-0.041427072,-0.073847935,-0.108313814,-0.11819607,-0.01404415,0.00578023,-0.056734875,-0.05199075,-0.13578483,-0.08152531,0.03186892,-0.13067466,-0.038405325,-0.012977153,-0.18261148,-0.11202794,-0.059719894,0.0108523015,-0.032756418,-0.07399317,-0.00011104944,-0.067821965,-0.2256186,-0.065501004,0.1441632,-0.084184125,-0.10492763,-0.009814157,-0.018885847,-0.0148936575,-0.13016629,0.017626897,-0.029651556,-0.15053414,-0.120995,-0.16105366,-0.032150783,-0.03521031,-0.02059307,-0.14807987,0.011438743,-0.15887094,-0.05791366,-0.043419305,-0.031215679,-0.1383871,-0.20400782,0.027492024,-0.05786751,-0.09353738,-0.16511916,-0.056453347,-0.10017157,-0.16724208,0.023960708,0.3355356,0.05800711,-0.026443614,-0.038104553,-0.08893915,-0.060873102,-0.12530343,0.050041713,0.023807524,-0.06645073,-0.0728466,-0.053159174,-0.03127185,-0.16521831,-0.10246005,-0.025373308,-0.016206931,-0.03357214,-0.075759195,-0.07422724,-0.028905656,-0.0114809675,-0.12631871,-0.042650554,-0.0027023628,-0.10319186,-0.09995934,0.20332506,-0.066932306,-0.03327756,-0.023686336,-0.101915136,0.0038473727,0.026949573,-0.13689733,-0.13974708,0.023835486,-0.096430905,-0.1547894,0.04444621,-0.09268624,0.026712405,-0.19832262,-0.18807653,-0.09876298,-0.14463472,-0.03797132,-0.08872414,0.057505958,-0.08921201,0.04025614,0.0058202464,0.033573907,0.11954012,-0.041229825,-0.011069403,-0.1506127,-0.12209829,0.015188791,0.025416756,-0.09787786,-0.09222898,0.14266944,-0.046259828,-0.036863998,-0.049841974,-0.0382389,-0.16993262,0.06500031,-0.063629985,0.2579969,0.032359265,-0.0661619,-0.06371549,-0.085508555,-0.0888394,-0.040962838,-0.054366086,-0.0070614023,-0.16872118,-0.09698569,-0.047031447,0.12473233,0.013604817,-0.060798645,-0.09705856,-0.108795956,-0.14864539,-0.071466364,-0.18698318,-0.10256062,-0.08174844,-0.09819825,-0.036252372,0.014187696,-0.023116684,-0.17856336,-0.030026931,0.025975723,-0.1074553,-0.056279153,0.014101819,-0.036390863,-0.010332493,-0.01538432,0.8788021,-0.008779575,-0.17267372,-0.20065862,-0.021286335,-0.032009657,-0.057607044,-0.021732677,-0.0146681,-0.13892072,-0.1261101,-0.03344316,-0.019315109,-0.11813609,0.10851809,0.06448549,-0.018628018,-0.08009748,-0.13349707,-0.07196302,-0.027090669,-0.09110022,-0.12462283,-0.05687476,0.042620204,-0.04376886,-0.06860867,-0.18033846,-0.1005886,-0.027227506,-0.062717855,-0.04392868,-0.0857562,-0.03672922,-0.013236621,-0.13876042,-0.006599889,0.11896412,-0.12822506,0.0037385826,-0.13554011,-0.14567102,-0.13585798,-0.10464137,0.009978921,-0.09315808,0.018435922,-0.06333686,0.018343799,0.0036768273,-0.020474328,-0.15222254,-0.21045865,-0.0147165125,-0.092177525,-0.07662419,-0.06386082,-0.055476118,-0.19372608,-0.039659373,0.070643224,-0.09736767,-0.021924723,0.028919535,0.01129937,-0.084150925,-0.10194824,0.077777974,0.012989239,0.005347506,-0.10643709,-0.07772583,0.04933112,-0.080608025,-0.12436169,-0.028242027,-0.07678249,-0.07244674,0.026713625,-0.10643274,-0.07622871,-0.072100125,-0.17367601,-0.5177831,0.04093407,0.003983344,-0.013061225,-0.12491627,-0.020137686,-0.15016568,-0.026524248,0.010478905,0.026825469,-0.0889221,-0.008155348,-0.035075236,-0.00032288293,-0.09885831,-0.011449446,-0.05821267,-0.052390397,-0.059078597,-0.119617485,0.02325483,-0.025078539,0.01829596,-0.0039399886,-0.016690174,0.045676164,0.00090946973,-0.14283831,0.051649336,0.08146391,-0.06367479,-0.021907128,-0.59049535,-0.06426165,-0.06757814,-0.06704039,-0.16546908,0.027372926,-0.0094813,-0.1772177,-0.21566573,-0.12221536,0.07619449,-0.102992125,0.0026013884,-0.040605083,-0.03431306,-0.061441403,-0.049478076,-0.14771847,0.027569482,-0.027052056,-0.04408401,0.5156431,-0.14189997,-0.035303865,-0.15275405,-0.013279705,0.010923935,0.015460064,-0.0911265,-0.0906333,-0.32211637,-0.11880595,-0.014795351,-0.14882836,-0.046794377,-0.061827216,0.017748822,-0.10754818,0.104269,0.02696311,-0.18962848,0.008736683,-0.1038918,-0.13812722,-0.25456,0.120841675,0.017274773,0.058454882,-0.042671595,-0.03613791,-0.12096784,0.09169824,0.113935225,0.06713725,0.019052342,0.066370025,-0.028521866,-0.08038373,-0.0609026,-0.08002843,0.08405213,-0.017248778,0.020115972,-0.09453574,-0.10157415,-0.06833361,-0.010025503,-0.12703848,-0.091259785,0.05102423,0.040705893,-0.1528859,-0.021642327,-0.08961706,-0.06857982,-0.013099159,-0.14524806,0.038818862,0.03800607,-0.08466036,0.051693484,-0.045609996,-0.10094228,-0.11956817,-0.031880002,-0.16880041,-0.067119196,-0.15110095,-0.035812873,-0.16110197,0.36786106,0.028629025,-0.03438659,-0.06407275,-0.02005441,-0.041475512,-0.110743344,-0.064162545,-0.06357965,-0.106100075,-0.061875965,-0.020995395,-0.0637986,0.02325387,-0.14210574,-0.10211407,-0.16308492,-0.11061667,0.009946304,-0.13831936,-0.0011949071,0.056598257,-0.051181544,-0.045085102,0.081621714,-0.037930164,0.12450936,-0.020471338,-0.093242936,-0.05238746,0.022717642,-0.038667414,-0.122698076,-0.052797485,-0.042268816,-0.14534861,-0.05489371,-0.030750759,0.050945967,-0.23382029,-0.001103257,-0.13174209,-0.048780564,-0.005538218,0.0035558536,-0.122980244,-0.003973763,-0.027537357,0.003507742,-0.12532954,-0.035899203,-0.112145156,-0.31033805,-0.14958175,0.027915793,0.88770044,0.030243367,-0.047931507,-0.005444784,-0.08263986,-0.11280451,0.2215571,-0.04928077,0.0431916,-0.019297874
