-0.050425693,0.009258592,-0.004727454,0.0045534372,-0.04906812,0.0070537976,0.017625019,0.046949085,0.057273693,-0.02914933,0.039761778,0.059388235,0.004089452,-0.0243968,0.058717865,0.033842836,-0.08885384,0.07297825,0.0652283,0.02420984,-0.025005208,0.033526074,-0.026471918,-0.05661122,0.05062703,-0.06995616,-0.085428454,-0.034324266,-0.09062476,0.0695603,0.04191588,-0.06767301,-0.016980877,-0.07039487,0.0834578,-0.020605842,0.0528086,0.06323243,-0.029296713,-0.045725036,0.011624628,0.0046665524,-0.018984701,0.103388645,0.040411912,-0.07938751,0.048073187,-0.022318946,0.043001354,0.10897647,-0.10874326,0.047664177,0.12552023,-0.0054252176,-0.074672006,0.036583006,-0.07448563,0.0021548579,-0.04569837,-0.026348062,-0.039811928,-0.0829169,-0.047010824,0.04073598,0.04174557,0.027358307,0.023241077,-0.0025951837,-0.07227938,-0.041579388,0.008635194,-0.09875762,-0.00067232765,-0.04188093,-0.052278996,0.058714133,0.052488327,-0.027221326,-0.0632755,0.032137237,-0.020930089,0.06870474,0.012896988,0.030495701,0.014229033,-0.03116292,-0.019391607,0.0046443385,0.041391503,-0.06341014,0.013300803,-0.04646974,-0.04723763,0.016948653,-0.025359495,-0.020577805,-0.068684086,-0.04375607,-0.034883264,0.0250544,0.11662115,-0.045646735,-0.0045514535,-0.05178307,0.04553072,0.034621574,-0.009855524,0.001484593,-0.09522975,0.07391486,-0.070151605,-0.03605442,-0.027527925,-0.026153171,-0.04230112,-0.0482707,0.165628,-0.038674638,0.057554066,0.047822766,-0.013182446,0.062312882,0.013119053,0.012648859,-0.050427016,0.0069839973,-0.0887087,0.068088554,-0.049532864,0.08306758,-0.014209206,-0.029044027,0.021417262,0.06511095,0.0111008845,-0.08323721,-0.06426488,0.07969212,0.01187175,0.048801344,-0.019003378,-0.08253133,-0.039017804,-0.03246814,-0.067342915,-0.082278736,-0.0064939307,0.080640495,0.09006973,0.06695216,-0.08751307,0.08954188,-0.04770157,-0.011697285,0.022940252,0.085435525,-0.0948902,0.015000949,0.08243651,0.012717171,0.006907113,0.072965495,0.025965672,0.07446349,-0.07266592,0.008614251,0.042668223,0.048045035,0.042720027,-0.06997389,-0.060562097,-0.06231448,-0.083232984,0.040756926,0.034533553,-0.074973814,0.06373514,-0.07685937,0.070262514,0.07314231,-0.05769318,0.070939206,-0.01351646,0.010052285,0.04310681,-0.0604349,0.057444923,0.09178125,0.005524561,-0.072135836,0.057766076,0.033299945,-0.025581896,0.045376327,-0.096813716,0.049500667,-0.05923832,0.014846873,-0.05074261,-0.058595102,-0.080727726,0.033202786,0.051759858,-0.008280659,0.055168565,0.014901183,-0.04152479,-0.07885618,-0.06489926,0.085853115,0.051287953,-0.029983507,-0.011877517,0.057953317,0.087753095,-0.1185293,0.06081886,-0.017204877,0.019699842,-0.04590724,-0.060893256,0.05850215,-0.08221741,0.030412266,0.0516958,-0.07132327,-0.023227636,-0.03876729,0.061901677,0.07889945,0.054175004,0.061483618,0.009484434,-0.06770902,-0.03818619,-0.073576,0.08071394,0.04962699,-0.04694245,-0.0051446054,0.055755384,-0.0958327,-0.029277867,0.034584135,0.030110916,-0.07703965,-0.01387845,-0.11287715,-0.0051942477,-0.0024426384,0.05959531,0.06206754,0.02139399,-0.017767433,0.05509271,0.015430315
-0.20965132,-0.051831782,0.09575629,0.048175093,0.060521398,-0.08683428,-0.11625111,-0.11545704,-0.019328158,-0.12853508,-0.039211977,-0.05984307,-0.05535827,0.974782,-0.12929438,0.0408321,0.08608516,0.37258348,-0.022802776,-0.20856847,0.04360272,-0.04394793,-0.069202095,0.23412412,-0.14606649,0.017806496,0.2439116,-0.03396607,-0.0049414868,-0.00018294588,0.025995502,-0.13642965,-0.045520715,0.5183366,0.020999504,0.096653,-0.0761332,-0.10131035,-0.09398211,0.019714838,-0.15947752,-0.029482009,-0.15975176,-0.069415264,-0.09543353,0.8377389,0.07111152,1.2075,-0.04467597,0.102026194,0.47672707,0.027597465,-0.081211865,0.39074144,-0.06378036,-0.0068810345,0.031171123,-0.032203276,-0.049873047,-0.07204701,1.1229573,-0.16981506,-0.15724295,-0.11778263,-0.06067159,-0.10564462,-0.12951145,-0.044843398,-0.059453502,1.5417374,0.86076236,-0.07618472,-0.046360794,0.09716004,-0.121626236,-0.0027095105,0.010968278,0.45950127,1.0788594,0.01738244,-0.022360556,-0.10464892,-0.10058229,-0.117241226,-0.006740207,-0.008897818,-0.14920567,-0.012637935,0.08794176,0.04254981,-0.17807741,-0.062382855,0.034368142,-0.20788643,-0.051415015,0.039384842,0.05115228,0.05073571,-0.11890773,0.045936383,-0.058550026,-0.116543986,-0.033225127,-0.26771963,-0.06973887,-0.018919297,0.0053458298,-0.091724746,0.3166445,0.07689958,-0.060290072,0.022603499,-0.10343692,0.006794824,0.82099247,0.041982457,-0.08960695,-0.10374432,0.060363945,-0.018418478,-0.17394389,-0.009062069,0.92995775,-0.06606729,-0.013377311,0.0077312673,-0.184461,-0.17533873,0.06753729,0.087133184,-0.0026888675,-0.0055248314,-0.09316482,0.03109863,-0.03382033,-0.025471263,-0.009316739,-0.10576635,1.3070134,-0.016063053,-0.040856913,-0.074530154,-0.07662639,-0.09778184,-0.11277845,-0.06457106,-0.063324936,-0.022182755,0.11521503,-0.11939725,0.45956835,2.0318213,-0.012694848,-0.14981343,-0.083775535,-0.08691223,-0.040668894,0.22865921,-0.032827806,-0.05306044,-0.11274428,-0.081959404,-0.10920831,0.069489606,0.05200267,1.3251425,-0.20033309,-0.021616424,0.021239726,-0.08377825,0.7229271,-0.08267999,0.044301536,-0.21821938,0.0002673281,-0.1688325,0.20790355,-0.022300057,-0.09028038,-0.41923222,0.02484028,-0.079096526,-0.09499489,-1.5017735,0.51222783,-0.20725827,-0.06779447,0.00486965,0.21318768,-0.19390118,-0.026129868,-0.01593686,-0.149856,1.5744233,0.050115097,-0.07176975,-0.110450074,0.10700106,0.021558717,0.0427858,-0.31376672,0.2363211,0.04364166,-0.053060435,-0.041122984,0.40356424,2.0477328,0.788998,-0.07678802,0.026949558,0.021091465,-0.06524697,-0.00024940097,-0.24282077,-0.051890306,0.018980293,-0.014489812,0.08351925,0.03024652,0.04815903,-0.0050567854,-0.035284642,0.36669382,0.028501814,-0.09786739,-0.075669944,-0.090903506,-0.08776511,0.030490192,0.021269428,0.073611125,-0.010686315,0.033379797,-0.08013994,-0.12253153,0.0443954,-0.051209524,0.35608405,0.070300944,0.07866958,-0.089430906,-0.12785953,0.011018347,0.090407364,-0.08674669,-0.062181678,-0.0033541156,-0.03230324,0.09190407,-0.092384554,0.08735877,-0.03022998,0.07017662,0.2446912,0.41573715,0.14638612
0.041573975,-0.04832673,0.0053023975,0.073441215,-0.0015653503,0.0082753,0.06044475,-0.067668,-0.03748528,0.084018074,-0.05439809,0.013537259,0.08727306,-0.10455635,-0.011074316,0.012442221,0.060252234,-0.08750372,-0.0047448813,-0.10458184,-0.0114235105,0.101713516,-0.04442333,-0.059443146,0.025675854,0.026635692,0.07225905,0.033629257,-0.05524205,-0.0048483,0.04288538,0.07072644,0.05184483,-0.1288154,-0.07121636,-0.00035743357,-0.01012152,0.033422105,0.03825053,-0.051976167,-0.06285512,-0.045988027,0.05663033,0.08782769,-0.01802502,-0.0430458,-0.027914057,-0.097864695,0.08071845,-0.063597366,0.0036182115,-0.08400621,-0.056186594,0.0240103,0.03143834,-0.02180318,-0.046260584,-0.018527491,0.006095549,0.07195748,-0.08421344,0.059756763,0.007444387,0.017964058,-0.02051636,0.0077599646,0.04396597,-0.060415592,0.012049803,-0.07553695,-0.015599065,-0.0015926674,0.045171585,0.011728301,-0.025613457,-0.093341514,-0.07892934,-0.011341472,-0.111333825,0.049277242,0.063278176,-0.012739639,0.08137688,-0.10642482,-0.02167838,0.00018382721,-0.012198754,0.04340073,0.0048869415,-0.073127486,0.039595086,0.07849051,-0.029507877,0.0038569951,-0.05275781,-0.016048994,-0.059907235,-0.055053566,0.06693542,0.0732253,0.040474366,-0.046601042,-0.05069548,0.031605277,0.07770818,0.021885365,0.051853187,0.045646533,-0.005891058,-0.03169808,0.036835562,0.0875313,0.03778702,-0.047462255,-0.011992155,-0.0515862,-0.08583031,0.010832182,-0.06975832,0.02239296,0.025358919,0.015638232,-0.03825464,-0.08818536,-0.078840405,0.031960227,0.079127334,0.015881797,-0.05379363,0.020336693,0.04217627,-0.010029381,-0.051859315,-0.05299443,-0.058602694,0.068014376,0.070162825,0.053165957,-0.038216494,0.010646312,0.00064195954,0.08156966,0.013078274,0.017722514,-0.06506952,0.046410814,0.04031164,-0.03763769,0.07144341,0.075623885,-0.0050128624,0.02682866,-0.07616301,-0.012181915,-0.0546327,0.04358682,0.049135152,-0.0053412733,0.05387578,0.056085993,-0.085455135,-0.049293693,0.008062917,-0.06968582,-0.07420001,-0.06987901,-0.07094547,0.05119186,0.05231708,-0.011783958,-0.05227553,0.08562066,-0.069000944,0.008030339,0.074886814,0.02252938,0.03964472,-0.08105983,-0.06520644,-0.06411047,-0.10159569,-0.048110507,0.018398367,0.019696131,-0.010184995,0.06382564,-0.061475128,0.031134807,0.0030477962,0.031893093,-0.041857563,0.0015780502,0.007823974,-0.025408668,0.034789532,-0.025940439,0.045082822,-0.064835526,0.016272679,0.0029987693,0.07495337,-0.022945091,-0.028174397,-0.051811896,-0.04617174,-0.114561535,-0.023731286,0.027803242,0.01952891,-0.032291133,0.015395299,-0.08306638,0.012487646,0.020786297,-0.015889373,0.032109123,0.059709262,0.02089298,-0.037364308,0.031974185,-0.023294693,-0.016046917,0.03556185,0.047098704,0.07034588,-0.066838995,0.13144667,-0.024516143,0.0507491,-0.049973324,0.047535185,-0.06750752,0.004847288,-0.0023340723,0.007845235,-0.03459236,0.07189892,0.011519451,0.10268656,0.030044107,0.06278532,-0.08240873,-0.06834798,-0.044000864,-0.060556684,-0.0065476904,-0.11480481,0.06029072,-0.045450013,-0.00710689,0.035737883,-0.018373761,0.0821395,-0.092597306,-0.108177245,0.056854453
-0.14312041,0.036286846,0.23785925,-0.056764565,0.5314378,0.03997683,-0.043265376,-0.082393125,-0.12279621,-0.105462134,0.07765491,-0.07536163,-0.0040020216,1.5997484,-0.1282375,0.51159686,-0.036425307,-0.055274177,0.0055923257,-0.013809772,0.04828988,0.19591027,-0.0041054883,0.0652923,-0.060706045,-0.035609335,1.5643336,-0.07216775,0.38571453,0.21978042,-0.27482748,0.009210839,-0.069563985,0.28799006,-0.0039349194,0.10403847,0.050668593,-0.06942754,0.011030737,-0.07715277,0.58314204,-0.009830591,-0.08346977,-0.12775582,0.036894333,0.09249529,-0.0296036,1.2773046,-0.15935056,0.1736085,0.6646997,-0.12220906,-0.05871781,-0.0029271357,0.10710145,0.17641032,-0.054090254,0.015816841,-0.058464106,-0.13346279,0.5031719,-0.111145444,-0.06678293,-0.15313514,0.012103172,-0.04356337,0.0001620955,-0.18088362,-0.13154443,0.837578,0.368818,0.16800168,0.04943827,0.010484218,-0.10130174,0.023796314,-0.042907454,-0.13516718,0.16242461,-0.004819035,0.13788246,0.0010790015,-0.04402505,0.547876,-0.0009167882,0.14775823,-0.016640168,-0.114262596,0.07225373,0.16328084,-0.17333141,-0.074579954,0.06308442,0.19415481,-0.23666528,-0.13794936,0.8322776,0.053483877,-0.006153003,-0.045014966,-0.0842111,-0.12061951,0.13900962,0.79966456,-0.055365402,-0.050079383,0.06507388,-0.081064016,1.2133745,0.17485064,-0.082227595,0.3130068,-0.06673651,0.20145671,1.0488709,0.5833246,-0.08241424,-0.038285647,-0.029017411,0.047189463,0.089185745,0.26400417,0.5414345,-0.07604426,-0.12989789,-0.31747457,0.21197726,0.3723153,-0.12699337,0.0013587096,0.12201802,0.039470434,-0.026771262,0.024584847,-0.039262258,-0.014575787,-0.09868391,-0.064326145,1.0262679,-0.04974177,0.0544729,0.026804915,-0.018902369,-0.11090113,-0.01701679,-0.03111404,-0.042639762,0.027945582,0.25818595,-0.05049356,1.7561629,0.4287954,-0.058585346,-0.10724529,-0.13996792,-0.10281583,0.061852966,1.6299909,-0.06605301,0.8557359,0.07999865,0.0033889448,-0.11190462,-0.013868043,0.004946715,1.2332383,0.22267969,0.071986355,0.05428606,0.06141274,0.25224197,0.05850645,-0.10708742,0.27221963,-0.1146219,0.008901232,0.2544835,-0.040670764,0.11181193,0.16360776,-0.07419457,-0.120499,-0.0907404,0.43692258,-0.04188911,-0.13445023,0.680152,0.009746054,-0.12522799,-0.00080093363,-0.061670583,-0.057311364,-0.13745831,1.0844309,0.048412107,1.2528908,0.035286855,0.3430131,-0.08648622,0.059356656,0.42948106,0.14485753,-0.13518392,-0.01538311,-0.015107762,0.16097353,1.0350598,0.8069116,0.042655572,0.2726565,0.007929358,-0.07164153,0.036853343,0.0062915804,-0.060116418,-0.054205,-0.1867264,-0.044573374,-0.03833089,0.015554467,0.12264299,0.16990742,1.0284835,-0.09026415,0.19514489,0.029756045,-0.068625405,0.08012834,0.28874078,0.009672322,0.049853224,-0.066617504,-0.10754254,0.20966427,-0.09218421,-0.08688507,-0.10840492,0.15974641,0.023198161,0.17775533,0.022788374,-0.08404726,0.25311264,0.055877246,-0.10316876,-0.09973757,-0.010450523,-0.019912278,-0.014841509,0.02106421,0.30300403,-0.1914776,-0.11996201,0.5812808,0.45977402,0.5529753
0.06795045,0.079787835,0.016719455,-0.031688776,0.044892926,-0.04274088,0.03720945,0.062107224,-0.0103824185,-0.07523221,0.061982512,-0.045627337,-0.029125309,-0.02852638,-0.03242892,0.01413609,-0.03654622,-0.07684555,-0.07523254,-0.010702772,-0.08468143,0.052701972,-0.0697563,0.047948837,0.043151878,-0.020036593,-0.17108338,0.042441662,-0.076232925,-0.07747079,0.072416656,0.009502433,-0.039744876,0.059976462,-0.070607655,-0.06826855,-0.06379252,0.00439628,0.086810164,-0.027061198,0.07715926,-0.08448696,-0.0055108713,0.026278967,0.06337614,-0.0052436814,-0.050116513,-0.00490318,-0.01210817,0.07815581,-0.09474922,0.035241067,-0.018290041,0.01274852,-0.08817352,-0.0068932674,-0.06319879,0.06401581,-0.04183521,-0.027133685,0.041720223,0.004586734,0.012755612,0.022383895,-0.006235667,-0.07637108,-0.024988689,-0.1014291,0.0012193378,0.0897581,-0.08532271,-0.057089046,0.037639983,-0.07889692,-0.04010893,0.0293194,0.00015537102,-0.026253717,0.08169779,0.06884371,0.028895497,0.076372735,-0.02901425,-0.05243014,-0.07774661,-0.07702119,0.026976015,0.061820567,-0.04647297,-0.023816023,-0.06549793,-0.049141217,-0.07313849,0.053724214,0.020897176,0.08293847,0.060044933,0.07633389,0.10342905,0.061476517,-0.017286826,-0.049152166,0.049192473,-0.020848967,-0.037289854,0.024337426,0.010990888,-0.08134813,0.08970614,0.059057668,-0.07313445,-0.061349947,-0.05108841,0.00040626366,0.0004548759,-0.017700722,0.019317856,-0.045598976,-0.019938646,-0.08589113,0.11851061,0.004023553,-0.026751062,0.063132696,-0.076885104,-0.02431967,-0.08557445,-0.012683574,-0.07876659,-0.005423503,-0.025506213,-0.067754865,-0.009967679,-0.0774346,0.037632134,0.068493456,0.048746996,-0.03597182,-0.0076017994,-0.0040685013,-0.0012809569,-0.07780257,-0.07944903,0.034638003,0.080717295,0.053055406,0.032280568,0.033680975,-0.0059953653,0.08236984,0.019297916,0.069956705,0.0427614,-0.020948924,-0.03880461,-0.015869148,-0.025282905,0.040420193,0.078584395,-0.067453854,-0.047044374,0.074852414,0.06448848,-0.03601414,-0.060683884,0.0027330252,0.050754733,-0.0029259645,0.06335388,-0.018802928,0.03733879,0.055597365,0.058492295,-0.016644698,-0.038575362,0.043080818,-0.08263295,0.012589036,0.0132826315,0.07488481,-0.017101508,0.0053826673,0.061713137,-0.03706015,-0.0863246,0.0019831357,-0.04672419,0.0517231,0.021056976,-0.092207566,-0.03895976,-0.07090367,-0.041677468,0.079417676,0.033281066,0.014028523,0.047256757,-0.034913868,-0.039081458,0.0012061673,0.050691616,-0.044181548,-0.02223052,-0.032613967,-0.06987328,0.055046346,0.069693014,-0.009518126,-0.028188817,0.00021681,0.020836614,-0.053023133,0.14054145,-0.07030232,0.02726532,0.017799841,0.0026680145,0.032381363,0.0038083242,-0.031225735,-0.06644494,0.006918235,-0.05595312,0.02009653,-0.008244251,-0.026456637,-0.05124499,0.029989604,0.016869482,-0.03215655,0.07499224,0.05664179,-0.062461115,0.051523246,0.0025125442,0.020204015,0.07053367,0.12030149,0.0044514146,-0.08850716,-0.007658735,-0.08416659,-0.05031995,0.041793026,0.007843995,0.038886085,-0.026330486,0.036585156,-0.0059661805,0.037700746,-0.08252366,-0.08401524,0.064107716,0.064539246,0.00036244333,-0.07411534
0.098409206,-0.072867684,-0.018280856,-0.058996897,0.08921798,-0.12837835,-0.10825717,-0.024144521,-0.034224812,-0.091534965,0.076914355,-0.09267939,-0.11944268,-0.22089025,0.018439312,0.07777582,-0.093288906,-0.10808965,-0.067180656,0.12426802,-0.019452374,-0.038267896,0.032852553,-0.040187977,0.11724612,0.020967115,-0.075469986,0.013502681,0.13676845,0.012542316,-0.0822636,0.009035075,0.03646937,0.04679812,-0.088541515,-0.0741948,-0.021120066,-0.013135855,0.05244403,0.08736552,0.0022413186,-0.031615634,0.054885752,-0.063443646,-0.08395375,0.056716606,0.1534878,-0.12646504,-0.12544964,-0.21422984,-0.07753207,0.03779536,0.10299377,-0.04755005,-0.09377479,-0.12635157,-0.10212046,-0.025236577,-0.0013863948,0.006706908,-0.086253494,-0.14935036,0.06322004,0.08597964,-0.010884,-0.0948826,-0.0131822685,-0.051177178,-0.11501968,-0.1730087,-0.063508615,0.028842699,0.030388847,-0.028753897,-0.056673214,-0.062350918,-0.08259864,-0.04004358,-0.053271133,0.06344333,-0.27655697,0.048588894,-0.074618824,-0.113570735,-0.09120216,-0.0033772741,0.05648301,0.037592284,-0.056487404,-0.024856787,0.031216964,-0.02766538,-0.0006902027,0.06579834,-0.04446281,-0.08886978,-0.10355139,0.052325893,-0.0925226,-0.06966628,0.058614783,0.094347745,0.0060720886,-0.06255187,-0.09158747,-0.053898312,-0.030018512,0.0019886564,-0.06595012,0.02058066,-0.03342442,0.011263477,-0.0737539,0.104572676,0.0010706125,-0.1473844,0.017933698,0.040363405,0.033865977,0.014600051,-0.12313643,-0.07749441,-0.14029136,0.003551698,-0.024107583,0.05721529,0.12513949,0.10435533,-0.03847061,-0.08558803,0.00040023928,-0.03701803,-0.11076163,-0.081814766,-0.044838805,-0.108806476,-0.093671046,0.010045348,-0.06178237,0.0071994,0.010240152,-0.077324696,0.035661347,-0.017250225,-0.054730237,-0.04730094,-0.047689024,0.07257603,-0.07270957,0.094005786,-0.04392114,-0.020395102,-0.010287272,-0.076280385,-0.016561415,-0.09916061,-0.14624216,0.016743442,0.08249476,-0.025492886,0.044021502,-0.035862964,0.09459454,-0.06123264,0.01633576,-0.14333694,-0.006866308,0.03337589,0.011608178,-0.08634612,-0.094664946,0.12676886,-0.11615407,-0.015322241,-0.10614074,-0.047222503,0.17656648,-0.09183154,-0.005151884,-0.018272791,-0.152067,0.046560917,-0.057847787,0.0087805325,-0.08835863,-0.0041496325,-0.03283187,-0.029441435,-0.04380407,0.012650621,-0.029020015,-0.05853268,0.045536753,-0.27141848,0.06074766,-0.025169736,-0.04745282,-0.072340265,-0.029131437,-0.005018849,-0.10310239,-0.13740239,-0.06306852,-0.08658542,0.003096357,-0.046555612,-0.13098739,-0.07960879,-0.032280944,0.004821673,-0.09389279,0.045426067,-0.08987688,0.030186748,0.03738252,0.037380684,-0.05079517,-0.035341885,0.011849199,0.061992645,-0.01388482,-0.07474522,-0.00084541016,-0.061353143,0.11109081,0.06320684,-0.048574205,0.04913035,-0.026259987,-0.048047382,-0.12327526,-0.11459594,-0.020481516,-0.07921953,-0.012252321,0.034306183,-0.126177,-0.06429652,0.048002675,0.085499786,-0.08443647,0.081772394,0.037382606,-0.07163536,-0.081640825,-0.043796457,0.06602713,-0.119738884,0.072196364,0.08143939,-0.09736746,-0.01626106,-0.09765593,0.015974322,-0.041479316,0.044873066
-0.012775948,-0.010426194,-0.03682181,0.05924356,0.069488704,0.09043612,0.0824631,0.04360627,-0.06514795,-0.102527864,0.03543503,0.013276161,0.06464933,-0.052937645,0.13146384,-0.038582493,0.07182063,-0.054808315,-0.019715026,-0.052415118,0.06058558,-0.04670745,0.051400103,-0.086968675,-0.04542453,0.03412936,0.08802289,-0.024063384,-0.0875914,0.09853886,0.030391168,0.07147917,-0.06946005,-0.023599591,-0.08155745,0.023088695,-0.07834131,-0.07158703,-0.015823238,0.007222117,-0.01882516,0.04710541,-0.016169485,-0.01725827,-0.03933546,-0.059136692,-0.05188397,0.038797915,0.025410602,-0.0025396417,0.02634131,0.022721238,0.0308871,-0.041284934,-0.035550527,-0.016715964,-0.01740911,-0.01483913,0.03348425,0.036655474,-0.05746127,0.13472697,-0.07130116,-0.02982441,0.11036707,-0.032474373,0.0086468905,0.10912452,-0.07208153,-0.013802093,-0.018334866,0.007539423,-0.06658886,0.08791593,0.111692436,0.027592188,0.0637045,0.17268157,0.09598554,-0.04634427,-0.007134735,-0.024696784,0.043528326,-0.013205373,0.048346903,0.06236464,-0.10971599,-0.02791404,-0.010751277,0.03726009,-0.03729634,-0.023152133,-0.00039797905,-0.089022875,0.06352173,-0.06449833,0.091558754,-0.06201937,0.038401883,0.07666392,0.0018018738,-0.008256284,-0.07910748,-0.049284477,0.06633012,0.05013648,-0.096012674,-0.07268248,0.056142498,0.0146643305,-0.065383315,0.03315635,0.057920747,-0.012963041,0.11824466,0.08465581,-0.100787364,-0.080829136,0.048861723,0.009710719,0.02892599,0.023619318,-0.05367296,0.044036657,0.003164804,0.028731871,0.046102732,-0.08000062,-0.005867519,0.09868508,0.015088099,-0.030564537,-0.056524128,-0.0055544223,-0.014451154,-0.09078717,0.067213826,0.05188847,0.09028226,-0.062239893,0.0647046,-0.104523495,-0.061545767,0.10005108,-0.0052292407,-0.083737165,-0.08064047,-0.0022155682,-0.043032687,-0.083552346,-0.008290158,-0.012473629,-0.037643813,0.0454201,-0.054939263,-0.08102588,0.024930237,-0.028099123,0.04386945,0.08184407,-0.012712953,0.07480896,-0.050097182,0.07101186,-0.010931166,0.015911816,-0.07915772,0.07427215,-0.08999544,-0.014416162,-0.0060161953,0.093528494,0.07212292,0.05194512,-0.00028691936,-0.053387508,-0.084218405,-0.08473524,0.046097424,-0.063871585,0.124512196,0.021933954,-0.02123747,-0.0143787805,0.047718257,-0.00768794,-0.0038714327,0.031062469,-0.037986033,0.08233212,0.048198797,-0.019845776,0.0050242036,0.10742653,-0.008329621,-0.039473597,0.082845815,-0.03182432,-0.060457963,-0.020880833,0.12709968,0.056029927,-0.04130074,0.002229827,0.068906546,0.098993,0.0544224,0.03855888,0.007652663,-0.04216806,-0.018907417,0.04341857,-0.012922537,0.059657175,-0.043426875,0.0002599702,-0.04702841,0.0657439,0.018292427,-0.0444918,-0.01880897,-0.010189817,-0.017932251,0.0047484334,-0.009787025,0.033649404,-0.12578343,0.04368149,0.07576074,-0.089124225,-0.006022308,-0.0716628,-0.061363023,-0.07284971,-0.059122372,-0.0661913,-0.08064728,-0.05303048,0.05263444,0.0045439512,0.006364049,-0.072335996,-0.07060717,-0.07605903,-0.014648522,0.06428666,0.005499512,-0.058172375,-0.072284296,0.058434404,-0.060062524,0.002475223,0.030991053,-0.010766334,-0.01325714,-0.049779788
-0.061911467,-0.061265968,-0.013988906,-0.054515325,0.064603336,-0.08607668,-1.0390116e-05,0.0045978883,0.0666539,-0.018209316,-0.016438348,0.057669546,0.020424077,-0.04245335,0.0060476474,0.095870405,0.030724915,0.013747167,-0.072881505,-0.06133665,-0.11182577,-0.05541765,-0.069449134,0.004043849,0.018906277,-0.06716619,0.06343198,0.052449558,0.037988905,-0.07397735,-0.045257077,0.0502344,-0.044033732,-0.09590017,0.06383192,-0.009442993,-0.060753696,-0.002614633,0.06893275,0.004874365,0.0030732262,-0.03467891,0.08852175,-0.08579804,-0.07040965,0.13506298,-0.0085287765,0.043104984,0.083444156,-0.021877207,0.06367711,-0.05507767,-0.024696829,0.06896089,-0.027648237,0.03287132,0.087244906,0.04047486,0.017002521,-0.05331785,0.01711254,-0.032602318,0.025868194,0.048897706,0.08294122,0.07093187,0.05397873,0.041265413,0.041779093,0.014595457,-0.015843833,0.008937666,0.03997785,-0.046747744,0.004852909,0.037621655,0.055081416,0.032685243,-0.036811247,-0.033691734,0.057604726,-0.09517938,0.035678376,0.07714634,-0.08524168,0.042830124,0.07321839,0.0011919389,-0.05886593,-0.080756105,0.06737265,-0.02223848,-0.045701727,-0.08351977,-0.075300485,0.050068654,0.05105097,-0.03641478,0.08190218,0.060659293,-0.059930377,-0.060805425,-0.08218544,0.010387164,-0.078174874,0.017894015,-0.07892999,0.011170073,0.092972085,-0.054865666,0.036176946,0.077418946,-0.06872054,0.011621022,-0.10512121,0.06630391,0.057224166,-0.020935608,-0.058833852,-0.014314721,0.0218054,0.05824124,-0.0763434,-0.05866409,-0.045311302,-0.0482853,-0.077490866,0.012622344,0.02733788,0.020819895,-0.040405057,0.019436602,0.031088166,-0.08295331,-0.005846724,0.05991956,-0.05998144,0.01002344,0.050413873,0.023511618,-0.037162673,0.0018167499,-0.017096318,0.056819618,-0.036267575,0.07195431,-0.07925074,-0.075743414,0.074196756,-0.060041703,-0.045968454,-0.032331783,0.045149393,0.036459953,0.04245515,0.07723842,0.007550493,-0.086325705,0.032844223,0.01584105,0.08543139,0.041003343,-0.00066019857,0.016834179,-0.044482313,0.049635336,0.056157514,0.03560718,-0.025986321,0.0030515394,-0.0096208835,0.06519811,0.07409078,0.065284714,0.06007591,-0.021487292,-0.04903575,-0.07473561,-0.056618802,-0.049288873,-0.022575408,0.06786933,0.08315482,-0.051531393,-0.09486503,0.0009271228,-0.012620938,-0.056396127,0.0009925779,0.06614068,0.05164459,-0.07067966,-0.09651441,0.009836146,0.025548235,0.0077094617,0.023925988,-0.07687224,-0.06201898,0.062148817,-0.069316745,0.060229693,-0.032661144,-0.00025372088,-0.07732825,-0.05901886,0.047970586,0.05483005,0.05763735,0.03646211,-0.059763685,0.071756594,0.08376626,0.0560982,-0.032839194,-0.07057293,0.026045624,-0.013850346,-0.06913187,0.006210322,-0.034343492,-0.0013366529,0.021153962,0.046594672,0.0155627,-0.055125616,0.044060554,0.06974884,0.0844467,0.08064384,-0.07879117,0.023920717,-0.037500516,0.111904345,0.01229674,0.08000561,-0.03331435,0.027937314,-0.045787316,-0.06196947,-0.013890609,-0.040097814,-0.087521896,-0.07768752,0.08242399,0.009286173,-0.0753824,-0.09244817,-0.042560164,0.088315755,-0.02375085,0.07393784,0.049607176,-0.04935139,-0.087423384,-0.0038326401
0.079759866,0.037196822,-0.010999471,-0.045030028,0.08788391,-0.044760942,-0.031814214,0.059762623,0.029878465,0.07656181,-0.01639793,-0.07468731,0.0421422,-0.04600467,-0.08588051,0.032826565,0.08720867,0.007356971,-0.089359306,0.012540543,0.0074689724,-0.03417634,-0.012242032,0.035793446,-0.012849066,-0.078867,0.023448952,-0.066253155,-0.0028353771,-0.099863864,0.027653644,-0.019862529,-0.038457714,2.1474541e-05,-0.021619117,0.06642243,0.0782028,0.06893501,0.07297466,-0.026743878,0.063184224,0.057245497,-0.022194609,0.10267106,-0.0076425252,0.06114865,0.023036435,-0.07125537,-0.011942637,-0.0159916,0.053297855,-0.07319698,0.040622808,-0.03456303,-0.042662986,0.049963884,0.027531328,0.06703086,-0.05798472,-0.08612342,-0.07377915,0.009821417,0.06704366,0.10048696,0.08214895,0.016624978,-0.00230578,-0.08389795,0.02377258,-0.034785256,-0.0047290027,-0.0687859,-0.017408734,0.035182282,-0.032483622,-0.007484549,-0.0008626697,-0.013314704,0.049169775,0.043399762,-0.03311843,-0.061894204,0.03612483,-0.049620338,0.03244555,-0.012833366,-0.040781133,-0.058646236,-0.020291565,-0.08402803,0.058267556,0.08638754,-0.086219095,-0.038049906,-0.035420805,-0.06932135,-0.084351666,-0.063864015,0.07086976,0.052885443,-0.000456661,-0.047784895,-0.08425471,-0.06352106,0.019616842,0.012159005,-0.034879632,0.07867206,0.034092315,-0.035335645,0.043289308,0.026733464,-0.08260757,-0.028437436,0.040920876,-0.010812098,0.0053235134,-0.07158815,0.03617393,0.08434839,-0.030829845,-0.07325523,-0.03845819,0.065176435,0.044517044,-0.035874084,-0.0152273355,0.025256839,0.011872986,-0.056351982,0.004400001,-0.0019397215,-0.08120995,0.007920875,0.012879183,0.06739284,0.03917844,0.042159688,0.08836747,0.07531821,-0.09105812,0.052109938,0.069451675,0.0787552,0.06931392,-0.041599758,0.06126192,0.005017117,-0.080401026,-0.031191511,0.07171205,-0.055951007,-0.02976718,0.01139836,0.011078601,-0.032381576,-0.053639017,-0.06625764,-0.052919872,0.06282551,0.0254725,0.020127669,-0.012715038,-0.081405446,0.007367936,-0.03882464,0.022663329,0.05238897,-0.027555346,0.07797158,-0.050534274,-0.004403587,0.056291696,-0.009010389,-0.022279752,-0.113783725,-0.02886022,0.035050206,0.083749525,0.039730284,-0.079335935,0.053705793,-0.014468715,0.07259015,0.07155308,0.07211019,-0.019493349,-0.08195389,-0.058683068,0.059836797,-0.056778327,-0.030695919,-0.064005226,0.03598791,-0.037984982,0.01865357,-0.041007593,0.06003197,0.06821943,0.044084556,0.065900564,-0.07105631,-0.066916384,-0.0927385,0.021020856,0.056024604,-0.009383548,0.03580515,0.005277364,0.08338034,-0.024891041,-0.09162594,-0.05475395,0.04277637,0.006659982,-0.055400103,-0.07064855,0.0017106247,-0.012227733,-0.007776426,-0.020263003,-0.08331212,-0.040516432,0.012315772,-0.055710934,-0.07274881,-0.05991897,-0.064360134,0.027522275,0.058134306,-0.043985713,-0.0015305314,-0.07500527,0.0055728923,0.051633008,0.012468599,-0.014739199,0.064958125,-0.0022033541,0.008764221,0.04846763,-0.01873526,-0.031506315,0.039960235,0.07235101,0.011540964,-0.034671158,0.054167595,-0.072809994,0.012532724,0.08701669,0.0615941,-0.018909087,-0.0010534497,-0.07461782,0.054693583
-0.10929168,-0.06267016,0.1663781,-0.09039635,-0.29599118,-0.13259968,-0.04734423,0.026475182,0.0025867503,-0.0069622057,0.36534315,-0.10123634,0.03701504,0.16473082,0.24554472,0.32093588,0.060868643,0.012233006,-0.17381757,-0.11783702,0.004768621,0.32341215,-0.06383195,0.34745246,0.2857792,-0.050379258,0.029835144,-0.015875561,-0.12796839,0.058410328,-0.1263581,0.091459565,-0.049771093,-0.12091476,-0.091345295,0.070782855,-0.07512763,-0.07611817,0.41354582,0.018093273,-0.10156365,-0.056902807,-0.09572455,-0.052460153,-0.06425922,0.116082385,-0.10245358,0.27286658,0.039160673,-0.0076217595,-0.02797739,0.0905259,-0.043237627,0.016140977,-0.0695954,0.48532456,-0.008166793,-0.04495236,-0.03468357,0.04319279,0.07120038,0.21154122,-0.020131042,-0.11356984,-0.07261653,0.07318171,-0.01743535,0.21091883,-0.06486108,-0.014708566,0.55401385,0.18900819,0.019217614,0.05076318,-0.07792065,-0.059388466,-0.018847927,-0.08122766,0.074235976,-0.04010258,-0.22012661,0.017822804,-0.037062943,0.102231495,-0.03465468,0.09316135,-0.17601126,0.24058118,0.11041005,0.5138021,0.067786254,0.06801935,0.046024684,-0.039326303,0.059453424,0.11791852,0.22479375,-0.012645324,-0.037752558,0.030206554,-0.15360357,0.25122723,-0.05364487,0.06525335,-0.18534374,0.047683,-0.06323595,-0.087238416,0.05763293,-0.0008843481,0.04745466,0.22022967,-0.00787398,0.36366042,0.2764535,0.0697967,-0.039281745,0.026921656,-0.03462156,0.053444717,0.15868846,0.4196058,-0.2099436,-0.11148939,-0.03704282,-0.026098572,0.025170827,-0.06937287,-0.04050913,-0.051430814,0.13990054,0.027079577,-0.117527515,-0.08800291,0.06871008,0.035701595,-0.0618688,-0.019946855,-0.15746623,-0.06801213,-0.09647221,-0.08327406,0.015081858,-0.11607127,-0.043280546,0.025781315,0.11335243,-0.06629235,0.58706707,0.0012552743,0.0713094,-0.16133922,-0.02195303,-0.00887057,0.005782469,-0.0047682505,0.3046513,-0.013547178,-0.006722693,0.14394692,0.015444489,-0.0040770685,-0.048399325,-0.019085899,-0.19568594,0.0046702046,0.27635923,0.07565544,0.044612076,-0.045162074,-0.060289614,0.00917242,-0.08035325,0.015463359,-0.010287146,0.2153155,-0.029602468,-0.1136512,0.06404382,-0.046677195,-0.1067221,0.022601644,0.058264673,-0.37995592,-0.050958104,0.09968316,0.0667288,0.0075197294,-0.093292765,-0.07287204,-0.020185297,-0.059423983,0.007294603,0.45320073,-0.05387862,0.5777773,0.022720985,-0.07988113,-0.08486542,-0.055678304,0.16351141,-0.080266595,-0.090753935,-0.108838886,-0.09906015,-0.1756718,0.18015148,-0.08648138,-0.11802108,0.053646587,-0.08970156,-0.0138342595,-0.10535862,0.41796318,-0.052109346,-0.03908679,-0.10288947,-0.0982585,0.020722931,0.02750783,-0.00499989,0.33324635,0.42067552,0.027135903,-0.08737741,-0.029980242,-0.153211,0.033504143,0.05120214,-0.11991596,-0.045935072,0.04846796,-0.008444242,0.09114228,-0.058785487,0.034547046,0.0404813,0.2752505,-0.08606666,0.08415401,-0.010274623,0.009230038,-0.19984749,-0.014832585,0.06984102,-0.13437244,-0.11196687,-0.03838346,-0.078713305,-0.032146815,0.10480415,-0.023964435,-0.15013506,-0.24255207,-0.09850321,0.04953739
0.02020337,0.0057536555,0.029234912,-0.019376824,-0.015456331,-0.05464913,0.053695627,-0.015845207,-0.0007437389,0.044531606,0.03117199,-0.029113257,-0.052686844,0.034274954,-0.02127975,0.037471723,-0.016295057,-0.03370976,-0.01024092,-0.016469546,-0.1256862,0.12359981,-0.06447712,0.036848452,0.025071632,0.005094625,0.10512028,-0.074005105,0.0145429745,0.05408272,-0.0041445745,-0.14382084,0.05185362,0.0076440168,-0.041607503,0.027935155,-0.010036101,-0.017664718,0.07119648,0.030437976,-0.06730572,0.017761141,0.16893254,-0.02904274,0.058320474,0.0719605,0.043904852,0.08814252,-0.006271973,-0.0652901,-0.0067992993,-0.021814236,0.072517,-0.049240526,0.045806892,0.10830629,-0.029771576,0.06653004,-0.07035509,-0.05233883,0.117995694,0.04502587,-0.09390251,0.040301204,-0.010366528,-0.018424368,0.08343412,0.025017085,-0.09398796,0.02230744,0.1615509,0.011245662,0.041670196,-0.06319381,-0.038114958,-0.07236881,-0.043731123,-0.0037866666,0.10563548,0.036536727,0.008259347,-0.08335239,0.058566846,-0.08185666,0.0780377,0.05376938,0.047501072,0.074061304,0.07544545,0.056758888,0.1825926,-0.071076326,0.021030331,-0.14363018,0.014583626,0.04151611,-0.017293312,-0.0975385,0.051566005,0.026839886,0.07520124,-0.03955819,-0.021119935,-0.010392852,-0.07093245,-0.07031839,0.063678525,0.16530862,-0.023079729,0.0010802692,-0.094287075,0.06331095,-0.019810382,-0.02652124,0.068901025,0.0005456463,0.36336514,-0.071826175,0.047309257,0.077617854,0.045498915,0.08886897,0.071496904,0.039088782,0.006545433,0.013757427,-0.026354697,-0.075052254,-0.10143212,-0.077840745,-0.035212535,0.0051475973,-0.017500827,0.025156317,0.0025368684,-0.08908131,-0.016716382,0.0430073,-0.084412456,0.0060076937,0.03566845,0.04535624,0.04119409,0.11409023,-0.055369187,-0.08841186,-0.018388508,0.06596648,-0.07801353,-0.04212187,0.11891486,0.051506456,0.027825322,-0.0859339,-0.05238668,-0.014342584,0.12475527,0.09560809,0.06873098,0.08543177,-0.07469804,0.0787279,-0.026230592,-0.09676507,-0.035291784,0.052708544,0.049775705,-0.021996967,-0.07197791,-0.036777325,0.059479896,-0.028168198,-0.07497846,0.000583016,0.0107712755,0.081163704,-0.04175212,-0.025973968,0.020013178,0.054344703,0.07031753,0.02241762,-0.046976287,0.11816438,0.0036302772,0.009300342,0.12878758,0.036254052,-0.023616573,0.03584765,0.027601296,-0.013584247,0.03704184,-0.004143874,0.07150701,0.0125978105,-0.055837415,-0.037996102,-0.07786951,0.019869871,-0.004899704,0.07410645,0.05858231,0.014910435,-0.02680509,0.022620833,0.10232102,0.027505329,-0.006987659,-0.036431532,-0.015785512,-0.0068429504,-0.024254454,0.012866932,-0.06851892,0.03278237,-0.032464016,-0.024557006,-0.08457859,-0.011007079,-0.06787148,0.13470624,0.007835461,-0.07752106,-0.061332166,0.01166131,-0.019446936,-0.09791881,0.053261567,-0.002617682,0.04362239,0.059478868,-0.036307562,0.005968283,-0.045360137,-0.06100149,-0.08442733,0.18193412,0.06555524,0.094109595,-0.034651432,-0.040948886,0.010419321,-0.007603846,0.06869054,-0.04884203,0.012636598,-0.010232545,0.058556724,0.015716838,0.087587714,0.13195407,-0.0726447,0.033479415,0.033275224,-0.006820608
0.10716598,0.06977365,-0.024329538,-0.096387446,0.104897864,-0.036587134,0.013760651,-0.028887704,0.13235614,0.002649679,0.24143182,-0.09072128,0.036684807,-0.07236357,0.02051913,-0.06918184,-0.029706849,0.022193199,0.027940283,-0.13637753,0.0028007042,0.032746714,0.09973641,0.03519911,0.102376156,-0.03785181,0.0050063753,0.012509409,0.022811174,0.027086439,-0.026848087,0.13546516,-0.08264188,0.028031811,-0.090920866,-0.05562364,0.013423312,-0.041482348,0.017281912,0.05916899,0.1264456,0.06590148,0.060189825,0.11055835,0.07195306,-0.10641988,0.14532274,-0.103717595,-0.05329552,0.08226527,0.004717492,-0.027079243,0.0622018,-0.03601535,0.022411035,0.0731502,-0.07456898,0.06343146,-0.040027257,0.07566476,0.042000104,-0.07700584,-0.04747496,0.08995356,-0.04540887,-0.008691274,-0.058179844,-0.103489876,0.056604505,-0.004087881,-0.00971584,0.124170125,0.081062585,0.060494423,0.060794786,0.055122588,0.015760742,-0.035572503,-0.0375874,0.050074562,-0.048572276,0.08153753,0.025616502,-0.023925675,-0.05315132,-0.025960352,-0.01739751,0.052074425,0.06729739,-0.05895019,0.10374456,0.012131074,0.009992424,-0.021122871,-0.028667076,-0.02213863,-0.02716074,0.2845949,-0.03591092,-0.024803475,0.022675132,0.12550858,-0.072794005,-0.03456268,0.045408797,-0.07165382,0.022619031,-0.010772894,0.045885917,0.07091869,-0.08665184,0.05773471,-0.006832262,-0.0060610026,-0.006100503,0.024467045,0.27403677,-0.012662384,0.07325855,0.11200563,0.037077624,0.030444784,-0.040335968,-0.027615098,0.053419955,-0.07288294,0.056936067,-0.0037142313,-0.042937193,0.0026708683,-0.061094172,-0.0094520915,-0.021809628,0.11774268,0.05791512,-0.0392192,-0.021295832,-0.0001664552,0.055875942,-0.025131956,0.07976195,0.020884626,-0.058480963,0.15411228,-0.0021639252,-0.03720911,-0.04061364,0.064539194,-0.049291298,-0.07777036,0.01366196,-0.027706599,-0.021400332,0.09217963,-0.055116463,0.08002788,0.008530636,0.013057589,0.0845197,0.058161438,-0.04038768,-0.045196075,0.027594853,-0.060125817,-0.05699476,0.02220466,-0.07498517,-0.048561208,0.061449476,-0.029999858,-0.030932736,0.09934411,0.013617684,0.06483454,0.009125032,0.021429872,0.049052678,0.059522472,0.07795098,-0.06184818,-0.04038028,0.10282459,0.07490765,-0.04378543,0.07130367,-0.034501288,0.017380012,-0.046880804,-0.021126729,-0.008889783,-0.07632953,-0.035246618,-0.06792525,0.022430254,0.02364804,-0.045447588,0.04715615,-0.0070905183,0.07546149,0.03503826,0.2059023,0.01926561,-0.068856135,-0.032765467,-0.046465576,-0.009968487,0.03236465,-0.08286364,0.018342914,0.033532564,0.008528343,-0.07165147,0.046706866,0.023778196,0.04310567,-0.010528059,-0.10833622,-0.016994536,0.052421123,0.08220613,0.030170988,0.07282386,0.049635384,0.07634922,0.05777667,-0.13686451,-0.03516853,-0.10439736,-0.015753917,-0.015234255,-0.066863105,-0.003854133,-0.0081369355,0.044314455,0.081226274,0.032580838,-0.11213758,-0.01928628,0.05801896,-0.06143245,0.05869458,0.046787757,-0.091402024,-0.10820664,0.0073669604,-0.0417667,-0.047371138,-0.008641917,-0.06689734,0.088671066,-0.032867916,-0.029413782,0.11348566,0.087662354,-0.07262201,0.09754253
-0.033147234,-0.074016176,-0.060859893,0.012050792,0.0131235225,0.07030001,0.059958458,0.01930552,-0.07553649,0.06216996,-0.07811625,-0.0032134335,0.03263423,-0.08065429,-0.04986004,0.04138723,0.0077529773,-0.084731966,0.043080717,-0.082783885,-0.006779428,0.009152411,0.06675518,-0.037895195,0.07120967,-0.026728923,-0.044255998,-0.06063808,0.068841904,0.07891645,0.047524106,0.017231425,0.052568767,-0.0016262096,0.048114408,-0.0625672,0.053204607,0.0015699089,-0.099769935,-0.02561083,-0.071341954,-0.07909401,0.040987212,0.0879246,-0.099119626,0.009031573,-0.061700035,-0.123554334,0.024877355,0.05099748,-0.06769357,0.013006381,0.0054384302,0.054525662,-0.07745316,0.056799483,-0.060691956,-0.05501712,0.07279556,0.0034717119,-0.07007178,-0.08279773,-0.012919727,0.03727946,-0.034216255,-0.038948447,-0.04408963,-0.0719915,0.080518,-0.038665384,-0.010492317,-0.055401053,0.022644546,-0.06961846,0.016411457,-0.06888307,-0.086186066,-0.030061506,-0.05345305,-0.064026706,0.0071993014,-0.005781211,-0.016382018,0.048504554,0.060256448,-0.087248325,-0.062089786,0.07780439,-0.0237665,0.0737275,-0.028160626,-0.046706025,-0.08299803,0.034977887,0.0009786364,0.060863137,0.019920517,0.074371055,-0.07132045,0.03683587,0.103217855,-0.09024145,0.032880694,-0.052448526,0.016201036,0.0076023587,-0.10247121,-0.12705019,-0.036127333,-0.007018034,0.061450172,-0.02739086,0.027229073,0.026453162,-0.025061868,-0.083634675,-0.092883416,0.043497622,-0.008463834,0.037864774,0.052444495,-0.073401734,-0.032526996,-0.054508034,0.0136344815,-0.08022391,0.07403097,-0.07857813,0.062560365,-0.068569034,0.024229052,-0.0062562795,-0.026382295,-0.04058763,-0.08277168,-0.06130819,-0.044421185,0.028090544,-0.0048534744,0.0652811,0.0290816,0.08010134,-0.047673278,0.007118617,0.025597181,-0.027402565,0.0341261,-0.007592935,-0.012556521,-0.038871378,0.044362046,-0.03284738,0.026113847,-0.06191457,0.059909258,-0.0057412973,0.022281328,-0.030406713,0.08523426,-0.030217385,0.011232759,-0.053914797,-0.06168762,-0.087578334,-0.048504047,-0.024298634,-0.08117159,0.09243758,-0.008734927,0.005167018,0.018855656,-0.011837183,0.0045126486,0.013649797,0.040637683,-0.017816242,0.037916157,0.025484115,0.017984841,-0.009943145,-0.046201244,0.0061670463,0.011284644,-0.0965677,0.035250455,0.034430455,-0.058469996,0.02321074,0.013683802,0.05800528,0.070873015,-0.018251231,-0.043337982,-0.09327663,0.045596674,0.0446926,-0.038864244,0.033175245,-0.029272309,0.085750274,0.08269723,0.025976665,-0.02995664,-0.016560663,0.042679086,-0.153298,-0.0060682795,-0.06702684,0.04456077,0.014135563,0.024077166,0.002117848,-0.0742395,-0.067732245,0.040587287,-0.06191738,0.069972254,-0.006354869,-0.058786172,-0.007755559,0.040871248,-0.050760332,-0.03196888,-0.083996326,0.04950792,0.07837797,0.06762338,-0.014161692,0.023143593,-0.02727731,0.065172054,-0.07264952,0.02182347,-0.016216358,-0.06974326,-0.09274133,0.036552977,0.047004133,-0.03880395,-0.045366067,-0.00347667,-0.032184716,-0.06899442,0.048971187,-0.033285365,-0.10530136,-0.09195908,-0.098290354,-0.022665236,0.017330425,0.010908922,0.018875465,-0.02626403,0.046021428,-0.027059661,0.053263627
-0.027013034,0.0069523104,0.045861825,-0.073095605,0.011120775,0.033774126,-0.010237989,0.031809576,-0.024812683,-0.03941794,-0.06329177,0.06190399,-0.061345283,-0.064947404,-0.0560309,0.048248857,0.040273536,0.030326597,-0.03850859,0.017095948,0.04242568,-0.07710978,0.056300204,-0.105712414,0.037885297,-0.075903624,-0.045021676,0.071889974,0.07065577,0.017730735,0.0430545,-0.07260877,-0.09137878,0.030770576,-0.029099993,0.037714675,0.034597617,0.014028895,-0.064165965,-0.07505319,-0.02281796,0.04371033,-0.0915226,0.0023728576,0.04581037,-0.117962755,-0.036101267,-0.037825357,-0.08198798,0.089026846,-0.02564931,0.08705516,0.008477036,0.006655451,-0.03680696,-0.05242125,-0.08233142,0.035283986,-0.08389333,0.04762626,0.038199417,0.047142666,-0.081791855,-0.048796073,0.007525157,0.05095635,-0.059654154,-0.021682156,-0.026317516,0.05635336,-0.048040982,0.043531727,0.02527576,-0.048347954,0.08372192,0.066846326,0.027212676,0.1087772,0.08236289,0.00865964,0.02489167,-0.042137522,0.013865185,-0.0075100875,0.060865715,0.015175874,-0.056254942,-0.101474665,0.049054664,-0.012451031,-0.07449386,0.052278295,0.08582999,-0.056203004,-0.077259414,-0.011252341,0.029034615,-0.08722843,-0.08670411,0.08245477,-0.10060685,-0.076611385,-0.027887298,-0.04175833,-0.07487458,0.03503876,-0.052870244,0.039098654,0.0045951377,0.06688465,-0.086622186,0.0073614307,-0.08492196,-0.0599989,-0.038891997,0.056642078,-0.022040829,0.00788445,-0.093534306,0.042071432,0.0004479987,-0.056305867,0.027477581,0.077232786,0.0010719502,0.02132957,-0.026366714,0.0065197414,0.05161892,0.016100906,-0.04212667,-0.08226206,-0.10938007,-0.019396966,0.050350394,0.030051243,-0.085935146,0.06935904,0.07078442,-0.039946835,0.008989498,0.047355942,-0.019553764,-0.025637666,0.025076475,0.06632714,0.018964503,-0.08009382,-0.04454207,-0.055020925,-0.02250645,0.030104024,-0.06356938,-0.07498408,-0.03039181,0.0036941622,-0.084297776,0.06480441,-0.070731565,-0.035535075,-0.06257439,-8.032216e-05,-0.0047922996,-0.07705198,-0.062270083,0.021624524,-0.039521072,-0.0045275213,-0.020579517,-0.08903715,-0.04165663,-0.023622917,0.024733678,0.056785222,-0.033078488,0.04889469,-0.03674151,0.03737297,-0.042689137,-0.05772886,0.075417735,-0.003437353,0.037082992,-0.059204422,-0.01960155,0.06514066,0.055574324,0.01808438,0.044302125,-0.026802009,0.09069495,0.0023704139,-0.04960551,0.059260547,-0.09327313,0.06495492,0.07979645,0.052322492,0.009223172,-0.076572776,0.0049895365,0.05214948,-0.029810715,-0.010608532,0.07834831,-0.028466878,0.010524662,0.007537043,0.03393605,0.09525312,-0.120793745,0.04668153,-0.03794314,-0.047515865,0.038264837,0.097565345,-0.024973344,-0.049640127,0.048288032,-0.008402424,-0.047232874,0.049958758,-0.05288712,-0.06287489,-0.0055432464,0.024897996,-0.10187349,-0.060748577,-0.056741912,-0.08451695,-0.06975893,-0.06935451,0.038622417,-0.03873441,-0.091005035,-0.066447884,0.025182365,-0.08829666,-0.02704944,-0.032196634,0.0077279806,-0.0780299,0.091117054,0.011081366,-0.0077476255,0.078814976,0.011205846,-0.08282472,0.0035959056,0.005237489,0.058089454,-0.07095279,-0.049842782,0.067793936,-0.015158219,-0.07742447
0.22603676,0.0056859488,0.016235262,-0.06942461,-0.24507861,0.053463213,-0.10789367,-0.09070037,-0.08152452,0.046368625,0.39158764,-0.08722195,-0.074274175,0.24629657,0.11428001,0.0717502,0.21316816,0.1924637,0.0709375,0.35829583,0.23145299,0.30469286,-0.009253569,0.21148191,0.23286411,-0.0886752,0.33559775,-0.076992065,0.24417855,0.16935095,-0.035338126,0.049343914,0.015160296,-0.023399254,0.018700546,0.045777734,-0.008289602,-0.072066404,-0.021026993,-0.01543423,0.33458105,-0.050176222,0.19692859,0.28627938,0.058290236,0.5397614,0.124460906,0.29953125,0.07302602,-0.07951174,-0.053832076,0.1113734,-0.19686782,-0.038365126,-0.0068873977,0.18479265,-0.10936851,0.0036958284,0.25334257,-0.015966827,0.12334038,0.17632386,-0.07130261,-0.049743984,-0.08415653,0.043039575,-0.097788066,0.38672027,0.004969541,0.31657314,0.36256394,0.109170355,0.061572976,0.07278729,0.10780581,-0.033352442,-0.051521167,-0.27518585,-0.11162058,0.0029220313,-0.0066091777,-0.065798625,-0.094570234,0.23910658,0.011368775,0.004050999,-0.21798375,-0.10071866,-0.15460995,0.20002633,0.9334089,-0.08317904,-0.004353153,0.24423778,-0.17734364,0.20021406,0.16838212,0.040604927,0.0026016575,0.061086766,-0.06488136,0.09275661,0.29308927,0.06623273,0.04342384,0.02919843,-0.0061757113,0.037356492,0.28814918,0.30392668,-0.11529248,0.14033851,-0.04831218,0.16424617,0.24060105,-0.0102296425,0.012847316,-0.03496321,0.03254225,0.8974917,0.30648562,0.33285937,0.074788496,-0.030010352,-0.05245145,0.3156073,-0.124872506,0.2994157,0.009385973,0.12846966,0.14622259,-0.074759476,0.039787017,-0.10223965,0.39285856,-0.05746242,0.02365784,-0.056248657,-0.12644777,-0.085712455,0.026773239,0.011223335,0.08833674,0.20476446,-0.059228025,-0.03678573,-0.014598005,-0.035686098,0.43661425,-0.046398815,0.3633902,0.19057368,0.097025186,-0.07906215,0.02704965,-0.085181504,0.17220534,0.036195237,-0.062600814,0.003998704,-0.039558273,0.0867362,-0.06528128,-0.12460807,-0.085867964,-0.0016367342,0.26014054,0.5493839,-0.04891865,0.01033174,-0.21731527,-0.11823699,0.32272515,0.0806822,0.11477676,0.0795615,0.8923379,0.011437222,-0.0043875775,0.038079638,-0.036123943,0.16593882,-0.031166688,0.013177925,-0.066655554,0.27211422,0.25034648,0.0006413061,0.55484366,0.041541807,-0.0449245,0.007245383,-0.038366996,0.15153047,0.05330423,0.14348201,-0.06964798,0.019428452,0.026229976,-0.008281392,0.03946084,0.10443871,-0.051445354,0.036156558,-0.039937943,0.043075338,0.28571138,0.12384135,0.1968208,0.10338708,-0.01757974,0.013847664,-0.043287158,0.045045562,-0.0008424386,0.08426517,-0.0984186,-0.05706987,-0.03632893,-0.016232299,-0.09436754,0.0839931,0.14229746,-0.003966842,0.73083097,-0.13016747,-0.03822675,-0.08378138,0.6193087,0.05280642,-0.04670308,-0.077022545,0.0028180704,0.11938106,-0.07126624,-0.048101798,0.0010400779,0.01638255,0.11356087,0.32383314,0.083683155,-0.050556667,-0.053621083,-0.060749788,0.05060598,0.12655133,0.010517471,0.023799025,-0.12958947,-0.06980041,-0.052592058,0.09706833,0.16283394,-0.025484545,-0.094053775,0.09276707
0.09487048,-0.06528684,0.061519157,-0.056553315,0.03141098,0.07951994,0.0009944448,-0.023356672,-0.014909812,0.12102218,0.087180786,-0.01586489,-0.06729607,-0.049786765,0.07036504,0.04847159,0.07777006,0.043977648,-0.0081603,-0.05642007,0.037714504,-0.07839395,-0.029191427,0.023589391,0.045160975,-0.031220272,0.061010636,0.03861585,0.027189584,-0.079253666,-0.061650626,-0.06697729,-0.057991616,-0.017838994,-0.03985779,-0.06418791,0.035968266,-0.063334726,-0.024894264,-0.016734581,-0.042126834,-0.062840864,-0.005195268,-0.08049936,0.071126044,0.0018812243,0.030830642,-0.07083738,-0.072029,0.017104475,0.0061736973,-0.07145884,0.017473714,0.014568817,0.07652381,0.01976153,-0.051053766,-0.036098555,0.026780484,-0.0031722656,0.07674884,0.010069464,-0.05448606,0.07777428,-0.06308373,0.0048582805,-0.034713037,-0.024155866,0.017717944,-0.06715236,0.046282835,0.03536165,-0.0072637214,0.038598876,-0.024261195,-0.025645386,0.04047302,0.0042514694,0.024199778,0.009103543,0.028765649,-0.033669375,-0.069894396,-0.04124471,0.011214618,0.036136504,0.006355318,0.06326708,-0.0576167,-0.008976729,-0.027909152,0.07308375,-0.052758727,-0.04323887,-0.033243384,-0.07028603,0.05417026,0.07527943,-0.09558201,-0.09121192,0.091775075,0.005802424,-0.07406026,0.063309774,0.023151,-0.055672318,0.038960185,-0.054207206,-0.08807925,-0.07492289,-0.041410036,0.057465073,0.038534846,0.052272554,-0.08331452,0.06541092,-0.016881866,0.023988798,0.017874913,-0.032328144,0.016989136,-0.06650841,-0.04499458,-0.03784992,0.020034947,-0.03720043,0.025755126,-0.07206298,0.0049390765,0.052599497,0.019491974,-0.054919794,0.061432064,0.024656676,-0.056559306,0.056939114,-0.003466499,0.01732661,0.025857793,0.04300178,-0.053749148,-0.05613234,0.049621392,-0.074520685,0.029611858,-0.049784113,0.021222245,-0.04872271,-0.0432985,0.045209255,0.027367571,0.03168614,0.04211331,0.048506,0.066489734,-0.047667358,-0.014012017,-0.023140626,-0.05520289,0.05576383,-0.029726971,-0.02099066,0.036234867,0.0817995,-0.038804144,0.047965165,0.0027749133,0.09775094,-0.043354638,0.087938994,0.050203938,0.08324361,0.08107851,0.030053081,0.021133257,0.041101795,0.0064279283,0.0437435,-0.043312423,0.059686814,0.028378287,0.02449232,0.056042235,-0.002694776,-0.027348885,-0.07203655,-0.075217485,0.08328087,-0.0019552775,0.05177596,-0.024372134,-0.046154633,0.057523087,-0.072487764,-0.08124276,-0.0053994297,-0.08395948,-0.05056151,-0.0050995387,-0.019408517,-0.03588551,-0.032475315,-0.071764,-0.05188919,-0.08595747,-0.07155262,0.028438793,-0.042720005,0.061392937,-0.047572047,0.06302595,-0.018583877,-0.01437217,0.048408326,-0.057460755,0.055922884,-0.021868328,0.010704143,0.030656373,0.074531645,0.07149853,-0.06730201,0.028409882,0.041373625,-0.038782224,-0.05319741,0.022773989,0.06515829,-0.020239294,-0.02341792,0.022774452,-0.08664035,0.015727162,0.053915363,0.03605467,0.0037382613,0.043940496,-0.083930664,-0.07651352,-0.028466849,-0.081743136,-0.037205998,0.08533615,0.0009558456,-0.007044679,0.0790597,-0.058784313,0.0302007,-0.025675688,0.00076189335,-0.08532513,0.036526408,0.15450057,-0.04761999,0.04019062,-0.052136566
0.04385845,0.0007645195,-0.021054689,0.014408252,0.03996142,-0.08396158,-0.0026757617,0.014560257,-0.018554011,0.035987053,-0.01563846,0.0298509,0.024770593,-0.091741726,0.031873573,-0.046555307,-0.068225935,-0.05434519,0.016847316,0.047599725,0.053280957,-0.05413796,-0.024280535,0.0077360836,-0.07047648,-0.07815522,0.055650663,-0.032284796,0.13316616,0.0050611077,-0.051893264,-0.08767848,0.07850803,-0.00020846429,-0.03680364,0.02704305,-0.08850307,0.057809465,-0.08145558,0.0721522,-0.027677702,0.013131092,-0.08582334,0.030826867,0.026498701,-0.08654703,0.06542742,0.03594104,-0.052005257,0.054701213,0.005228768,0.03517269,-0.12159061,0.009302259,0.035090998,-0.064167425,0.024750974,0.048118595,-0.08104563,-0.07466364,0.07105504,-0.07569859,0.089338824,-0.020788547,0.006625411,0.038283993,0.06267564,0.016466849,-0.016991565,-0.0887081,-0.0058838837,-0.0135030225,0.0018683679,0.02260604,0.010105112,0.03357401,0.02398905,-0.0072208256,0.025098395,0.0059458334,0.046599876,-0.085939184,0.03861978,0.06810078,-0.06531199,-0.027727889,-0.046361525,0.008690977,0.009773041,0.07078744,-0.017192977,-0.074777275,-0.024718761,-0.00096441724,0.013004418,0.039314535,0.089286186,-0.017280916,-0.08779599,-0.06831768,-0.10270823,-0.101175025,-0.021565398,-0.01035343,0.026818214,0.03243631,-0.058963038,-0.058062878,0.012755795,-0.056188893,0.06164183,-0.015828045,-0.04037696,0.015548784,-0.0048601017,-0.0033617055,0.019292288,-0.041024398,0.056852862,-0.021763677,0.058402937,-0.08019701,-0.04860221,-0.049206167,-0.053510368,-0.039765753,-0.048827976,-0.032627802,0.042481896,0.07064592,-0.04612164,0.07227496,-0.07096929,-0.09149214,0.04069065,-0.052374866,-0.02599173,-0.055803683,0.036807388,0.07001488,-0.020669375,0.051356025,0.05132903,-0.11228663,0.034098294,-0.083071105,0.049169462,0.0026761482,0.017382415,-0.08068363,-0.061638743,-0.050124384,0.07067773,0.0023413775,-0.018465796,-0.027711364,0.035988066,-0.081694506,0.018013472,-0.012806998,-0.047065776,-0.063255616,-0.059832644,0.05718611,-0.079635665,0.059568428,0.06549333,-0.054643553,0.03050625,-0.08941705,0.033939194,-0.08697509,-0.08746525,-0.031010348,0.0006149705,0.027490038,0.031165995,-0.081643656,-0.061461676,0.04922002,-0.06559371,-0.037381046,-0.07014658,-0.08771698,-0.07324976,-0.025246194,-0.1175894,0.047117736,-0.09272705,-0.025775481,-0.011140758,-0.10728661,0.019845232,-0.069774665,-0.09325066,0.1272962,-0.09212679,-0.023302991,0.06072913,-0.026750887,-0.008896877,-0.0024689578,-0.08949246,-0.06463148,-0.039464235,-0.020453367,-0.007970991,-0.010065297,0.05255007,0.03332279,-0.078365035,-0.042195875,-0.002484077,0.01670075,-0.00087063224,0.048124507,0.07792082,-0.06451265,-0.05054816,0.06648111,0.05693804,0.055937536,-0.07672461,-0.1252956,0.06260217,-0.013024633,-0.046537314,0.009571102,-0.045661144,-0.010818808,0.03231796,0.0855841,0.06741762,0.0842989,0.0071299016,-0.096775934,0.013855577,-0.023413543,0.04808591,0.0704479,0.041138407,-0.094253704,0.042453855,-0.055849798,0.059140936,0.044835784,-0.051558636,0.05482966,0.0013835721,0.0873059,-0.0046044127,-0.123958185,0.047413517,0.09541435,-0.067386515,-0.006262065
0.48291725,0.037378598,0.51809126,0.057157673,-0.021392213,0.07908828,0.09256119,-0.058197033,-0.07310252,-0.00859144,-0.016671129,-0.067211434,-0.072349824,0.18415312,0.81519425,0.17420281,0.64360106,-0.019712115,0.040159874,0.10989707,-0.036442537,3.5493646,-0.088893406,1.0539051,0.53455794,0.02898077,1.1436961,0.042832475,0.7032728,1.9116518,0.07762157,0.012102295,0.035311334,-0.59009105,0.047729187,2.3221204,-0.044964798,0.021019211,-0.011526401,0.26946425,3.0267515,-0.058546547,0.058459613,0.06044142,0.002318316,-0.17473072,0.16890769,0.039777502,-0.0879814,0.09054493,-0.026244773,-0.041394055,-0.05625412,-0.09465981,0.025581315,0.35103366,-0.003960303,-0.10457973,0.23263398,-0.009065596,0.046963517,0.13839947,0.06450992,0.09540817,0.20532008,0.016665619,-0.017309979,-0.103921935,0.024862409,1.0186278,0.058426023,0.56427336,0.07691755,0.019199416,0.04926687,-0.0034035628,-0.050729234,0.027409771,0.32242247,0.03202393,-0.050217252,-0.013495274,-0.0022764907,3.0294254,0.054373577,0.123661034,0.49067026,0.052600663,0.121439844,1.8923936,0.07099087,-0.006594563,0.006687029,1.141613,-0.034812067,-0.07127609,4.272446,-0.014553962,0.025256753,0.0172705,0.03372831,-0.15825395,0.58557856,0.15684496,0.061180916,0.017704315,0.07997794,0.08280988,0.6978911,0.5929547,-0.06787223,0.466676,-0.054598585,0.107075706,0.6298366,0.09323118,0.06880667,0.020272527,-0.14309852,-0.11838937,-0.19832559,1.7683043,0.108473636,-0.09499626,0.02039967,-0.32787803,-0.11357221,3.4613214,0.0829364,-0.16273649,0.522504,0.057361234,-0.027341811,-0.13554634,-0.09470474,-0.0846689,-0.42313704,-0.042601645,0.6621431,-0.09423131,0.06191636,-0.022750039,0.07872633,-0.02716095,-0.038640875,-0.015056112,0.043589313,-0.025573814,-0.4618638,0.00063981133,0.536845,0.7938805,-0.1617171,0.015747461,0.008610371,0.05117023,-0.16648158,1.9672731,0.047036927,0.2632793,0.043620493,0.0054393644,-0.009459707,0.057814896,-0.099483915,1.3130745,1.4024967,0.80650336,-0.06588442,-0.036922976,1.460615,0.37861893,-0.18131411,0.4179145,-0.099593915,-0.30113968,0.33488244,-0.02054682,-0.03792978,0.5912521,-0.042376947,-0.006826165,-0.10443896,0.7105151,0.40325415,-0.0983997,1.2564894,-0.0295381,0.43637523,-0.02316445,-0.048530947,0.09696039,0.06659206,0.7433712,0.10677744,3.6300263,-0.108325556,0.16589609,-0.02074228,-0.06511874,0.27964222,0.4180038,0.0058410284,-0.03821484,-0.040345304,-0.47620782,2.2132587,0.29927397,0.08946592,0.505861,0.025675729,-0.09443399,-0.0037797752,0.15350914,-0.045364488,1.929051,-0.095630445,-0.04333905,0.07864467,0.05597541,0.056277387,0.13539596,1.220893,0.042282693,-0.20025793,-0.08469319,-0.13018253,-0.02107302,1.1391443,-0.06643939,-0.052625287,0.013166253,0.010724371,0.6022255,0.024799818,0.05327841,-0.0016117869,0.30440447,-0.017950296,0.58370584,-0.07054476,0.037403226,0.2899203,0.061842162,-0.12459321,-0.07369312,-0.059330307,-0.09213221,0.012898895,-0.039395355,0.1802084,0.3013006,0.00975463,-0.8847056,0.76473916,4.6013894
-0.03613523,-0.015709693,-0.080680214,0.0050387066,-0.05045871,-0.060173735,0.07894364,0.03198106,-0.028636012,0.06903257,0.102090694,0.042777684,0.06105918,0.046505246,0.03896746,-0.043519024,0.10461585,-0.016671646,0.034509078,-0.032914404,0.025030175,0.043470796,0.078761674,0.050152354,0.03886387,0.06501069,0.038228184,-0.054192293,-0.085689075,-0.032177504,-0.025057662,0.06469985,-0.084109195,-0.010126773,-0.04713652,0.061116677,0.07232421,-0.06816534,-0.07726699,0.011090829,0.0075636446,-0.021654882,-0.02914805,-0.0058403537,-0.025069961,-0.0027331088,0.0032350868,-0.028427226,-9.845672e-05,0.047288228,0.006505375,-0.050708897,0.025723593,-0.0024315577,-0.00040941953,0.053725805,0.06384374,-0.06294363,0.05898848,0.03611984,-0.059170198,0.0736623,0.03803001,0.04891261,0.047952525,0.016303416,0.042123277,-0.0024875791,0.040534787,0.0038622827,0.018707272,-0.0029577722,-0.0026005893,0.034875307,-0.023855522,-0.016714374,0.052272324,0.08585093,-0.048718195,-0.052010287,-0.048606027,-0.09006596,0.083544396,-0.013411026,0.0153831765,-0.06661959,-0.031956118,-0.07907895,-0.019292997,0.086876065,0.018390335,-0.010376694,-0.107046336,0.061696745,-0.032507163,-0.031142887,0.046246875,0.021236416,0.023543485,-0.057831675,0.033198874,0.024892306,-0.055504348,-0.011496986,0.0009645411,-0.019885093,0.02381737,0.08771646,0.19833027,-0.08947465,0.036947668,0.0432109,0.02964293,0.018111844,0.0035818913,-0.07571056,0.06346243,-0.057959102,0.016974773,-0.0154348975,-0.05637146,-0.09084534,0.092395574,0.08256138,0.05633147,0.06317941,0.07904198,0.026993226,-0.08120676,-0.060695045,-0.10776351,0.027620727,0.01387145,-0.091861084,0.032729127,0.059259348,0.02320195,0.052591924,-0.039806597,0.038319997,0.016076189,0.04332081,0.049162872,0.0020212587,-0.011980176,-0.041429356,-0.03943518,0.039886568,0.02315588,0.07809059,0.056880515,0.05357965,0.020605307,-0.033005364,-0.010440641,-0.010506026,-0.09301859,0.017391343,0.0033672028,-0.053848457,-0.042548697,-0.006774249,0.07300472,-0.062398974,0.062062506,0.08736789,0.030256124,-0.08989592,0.07058451,0.056669764,0.03497445,-0.04582361,0.08601318,-0.032443035,0.032592867,-0.049075544,0.03836013,0.080996014,0.07573578,0.010796474,0.04291461,0.062886454,-0.013148464,0.035432328,-0.042183198,0.02779363,-0.01739523,0.02640304,0.00544332,0.051863384,-0.022689205,-0.011943933,-0.01250957,0.009913448,-0.011394373,-0.1009706,-0.031193864,0.01920168,-0.046288397,-0.07351833,-0.020806631,-0.040693156,-0.030909453,-0.09029941,0.07517377,-0.015985686,0.1151933,-0.038691934,0.05056814,-0.022590565,0.07193855,0.048361696,-0.03754633,-0.028356332,-0.041671604,0.010030624,0.052556653,0.02429378,0.011855625,0.044653676,0.085521944,0.0083118,-0.040488098,-0.04427182,0.054892067,0.010310811,-0.0065674707,0.072191305,-0.0046662088,0.03782233,0.02170191,0.031464793,-0.05124317,0.049173135,0.025697969,-0.026027028,-0.08462212,0.053154416,-0.022721982,0.057922807,-0.034557864,0.06499312,-0.06493294,0.0005605845,0.039806306,0.011968316,0.04927253,0.1029016,0.031760816,-0.0013454786,0.04160069,0.057046052,-0.0136135025,-0.039500657,0.084027246,0.041708242
0.0064821993,-0.017550526,0.025013162,-0.048226915,-0.004931871,0.16287445,-0.042161766,0.02283501,-0.052059226,-0.015083485,0.25432518,-0.048143547,0.04496073,-0.10495898,-0.074538305,0.11780973,-0.0053123976,0.028946683,0.021808967,-0.031458948,-0.04246489,-0.0018339125,-0.0013519955,0.03972721,0.10439323,-0.034241498,0.035125695,-0.015738236,0.19221216,0.06268042,-0.02379717,0.09204843,0.01032067,0.00096614915,-0.073925875,0.015641438,0.05446478,-0.02267748,-0.007664934,0.044284057,0.0325097,-0.10307463,0.023803845,-0.081472784,0.054737955,0.04289996,-0.030720795,0.20002408,-0.011068459,-0.06490453,-0.011813014,-0.0060499003,-0.014754157,-0.09144125,-0.052978072,0.198185,-0.02163437,-0.069665365,0.07916666,-0.057841297,0.019293359,0.023281487,0.012113309,0.31910467,-0.05158524,0.021246798,0.008651214,0.07274126,-0.008643094,0.2298418,-0.044279937,-0.050453614,0.023940187,0.03496645,-0.017178055,0.02561709,-0.060731713,-0.07351961,0.061515853,-0.029445551,0.11590491,0.029784868,0.03314615,0.14401297,-0.07126983,0.116321094,0.078382276,-0.015277458,-0.08638228,0.094850145,0.0019376002,-0.038102727,0.019640176,0.09142206,0.15551998,0.016812846,0.105821736,-0.013875762,-0.023091508,-0.07627261,-0.10227732,0.029275551,-0.09927421,-0.027125346,0.06124822,0.0465639,0.012697298,-0.06620077,0.14261693,-0.06986898,-0.0027213164,0.2113283,0.04796408,-0.015783949,0.12830167,0.016428612,-0.03757951,-0.06049445,0.047583118,0.017748432,-0.122023486,0.11815599,-0.14660653,-0.03703964,-0.04933675,-0.0778005,-0.07724615,0.08178738,0.011215565,0.09768574,0.115480505,-0.054862097,0.06582935,0.029384738,0.018626012,0.043713264,-0.093274176,9.453696e-05,0.01199833,0.017868739,0.002818892,-0.0048300656,-0.08609194,0.022614757,-0.078935124,-0.020777682,-0.009008143,-0.014606568,-0.10038358,-0.022650996,0.010121527,0.19800264,0.0118917,-0.011441276,0.2014658,-0.055928376,0.029751187,0.100023136,0.10350694,-0.04210298,0.038469978,-0.06749496,-0.07691827,-0.092536665,-0.011933777,0.052032616,-0.022608994,0.2569196,-0.0070429174,-0.01529034,-0.09262472,0.15701914,0.15957515,-0.039505366,0.069267154,-0.07665991,-0.050250866,-0.0003308382,0.029601123,0.007633577,0.12278438,-0.08012834,-0.065161474,-0.074329466,-0.090958655,0.017896576,0.2381379,0.05183249,0.34670138,-0.003909682,-0.013334516,0.0066451486,0.06920832,0.33907688,0.029206801,0.061560947,-0.025107492,-0.041276287,-0.08123795,0.0748138,0.020933313,-0.12948495,-0.016093837,0.06222005,0.061700538,0.032683235,0.04167932,0.222434,0.061413243,-0.11867543,0.005295866,-0.04495484,-0.02481945,0.052792165,0.01934049,0.09532336,0.0020205833,-0.056043252,-0.01689221,-0.028958851,-0.09640741,0.05027576,0.22121938,-0.032735277,0.08858336,0.010856959,-0.087838106,-0.116746165,0.06574804,-0.04180994,-0.0031157488,-0.03730036,-0.05765391,0.049311474,0.0852405,0.039743103,-0.02316542,0.051142212,-0.068895675,-0.076062836,-0.036644343,-0.017468639,-0.16790557,0.068738736,0.07930239,0.058211084,-0.091367275,0.08507683,0.19427617,-0.099820875,-0.0040285583,0.038075346,-0.07366184,-0.032711733,0.059254818,0.037686255
0.07311015,-0.031023234,-0.015832383,0.08302901,0.06824769,-0.009863199,0.021728434,0.0019734204,0.039010186,-0.021459237,0.042196587,0.09029838,-0.009834665,0.06958778,-0.049433198,0.054638367,-0.045091685,0.08452653,-0.04651343,0.080606624,0.002273974,0.1261458,0.053195834,0.037689857,0.17186803,0.08154211,0.013465102,0.030569635,0.13950077,0.00050559314,-0.051973276,0.00902597,-0.0499657,-0.12925063,-0.062321197,0.13641636,0.055234097,-0.019687962,-0.07389841,0.025403889,0.034077015,0.06631408,-0.04496207,0.012706668,0.05127912,-0.061486036,-0.0078063877,-0.039132927,-0.044254005,0.033763517,0.04733824,-0.06294018,-0.110812835,0.10402332,-0.072116815,0.05295,-0.08739667,0.08131733,0.08067707,-0.06213855,0.05584706,-0.07276443,-0.06273084,0.06669002,-0.0003176378,0.081122,0.048800357,-0.013126984,0.04946641,-0.006742839,-0.03202756,-0.08251187,0.040971674,-0.0057462156,-0.05927294,0.00301259,-0.020397097,0.14608097,-0.0013687812,0.0772861,0.004798021,-0.05453841,-0.10793331,0.13592693,0.056538545,0.084876604,0.054039128,-0.11902255,0.13439646,0.20904012,-0.041387215,-0.05138373,-0.009442754,-0.03409241,0.048407048,-0.060784142,0.06513345,-0.07998021,0.061481126,-0.069349855,-0.059216782,0.04105689,0.13857673,0.0437018,0.0015356839,0.088382296,0.020704724,0.054452337,0.008553373,0.11522045,-0.02590514,0.0973237,0.022619309,-0.014238238,0.07307265,0.03570887,0.0570549,-0.07034368,0.07641821,-0.07239988,0.071502365,0.23005627,0.039922148,0.06696621,-0.03505052,0.07498043,0.056440424,0.04735218,-0.06045489,0.08129178,0.15399496,0.07193374,-0.08786286,0.029744025,-0.0052888514,-0.0516623,0.020994583,0.044553094,-0.042112872,-0.0668609,-0.049425673,0.061558187,-0.07344084,-0.03764429,-0.012519486,-0.04768551,-0.027418999,0.045529403,-0.016872175,-0.05618636,-0.07303477,-0.03407765,0.03642495,0.052047353,0.08301657,-0.02750029,0.016682437,0.0059922975,0.04285165,-0.06839061,0.026502952,0.006278448,0.014899845,0.044608273,0.06266064,0.12984392,0.11281634,0.10899387,0.07171843,-0.0761843,-0.01037854,0.0037586829,-0.039921135,-0.033064414,0.020465478,0.08823733,0.009385664,0.030631445,0.04091397,0.006580612,0.061969776,0.073704064,0.055210374,0.050665498,-0.06517292,-0.05337363,0.010707837,-0.034579232,0.12199396,0.06956605,0.007240556,-0.002170749,0.0035002348,-0.06341939,0.074226886,0.17153418,0.07204235,0.055100136,-0.0072059333,-0.03601585,-0.0239166,0.008239304,0.0420166,-0.067181,0.060264297,0.05704272,0.11790697,0.050750766,-0.0013810024,0.014753089,-0.0006419793,0.03326533,-0.064790286,0.04921012,-0.011606125,0.20916888,0.09175785,0.009524083,0.057769462,0.06597758,-0.09303035,-0.0024651848,-0.058215644,0.0667798,0.21547219,-0.050840188,0.029186144,-0.029590901,0.08954388,0.07070333,-0.07074953,-0.053014245,-0.014197968,0.123951495,0.019444235,0.008905925,-0.07308874,0.03949737,-0.073052034,0.10189612,-0.045626387,0.08793895,0.063955665,-0.04473894,0.07953174,-0.009549804,-0.046535853,-0.046310134,0.02175136,0.01027352,0.030147213,-0.066202395,0.07924835,-0.012763187,0.08868261,-0.0036201952
-0.03018656,-0.036218908,0.07277432,-0.091790386,0.019835854,-0.01297266,0.069404274,0.022764457,-0.021783862,-0.011525661,-0.13598478,-0.07090247,0.054518633,0.002285923,0.021365197,0.2434382,-0.07418648,-0.046942823,0.021196276,0.59792835,-0.06090669,-0.07723099,-0.07853668,0.50739366,-0.03687794,0.016903192,0.022791376,0.060733788,-0.04870656,0.09901875,0.056742046,0.025547527,0.04862685,0.02689145,0.054848757,0.39633286,0.068533115,-0.017308775,0.08592092,0.026645398,0.2529921,0.058361147,0.046705194,-0.019371659,-0.0095230155,0.16882291,0.005568368,0.032466907,-0.0975418,0.06325228,0.107071646,0.034761127,-0.10429395,-0.1274799,-0.1088655,-0.018238224,0.01930949,0.07258061,0.09978951,0.075782925,0.038666405,-0.016822616,-0.029438138,-0.10548576,-0.061767984,-0.081667885,-0.050017115,-0.07997961,0.051020652,0.0040553655,0.037028216,-0.055055656,0.06441086,-0.051976945,-0.05239809,0.06980683,-0.050036263,-0.06829289,-0.11878746,-0.045167986,-0.1390413,0.006451292,0.010539678,0.19729413,-0.06539787,-0.057122298,-0.15546809,0.09983634,0.2145469,0.04959795,0.21688436,0.022813618,-0.016851345,0.0023867956,-0.022113806,0.024441613,0.18949346,-0.1065123,-0.01670655,0.07746925,0.008724467,-0.034078334,-0.03634511,0.17262271,0.011725172,-0.0070486837,-0.06261554,0.053665653,-0.054252293,0.033800147,0.038331684,-0.02807295,-0.08086759,0.009702562,0.098893635,0.06301718,0.30120486,0.053263944,0.03338897,-0.040231213,0.029759424,0.4321002,0.056579966,-0.10882093,-0.07256336,-0.05917478,0.40807638,0.35400182,0.07747646,0.04555717,0.16800275,-0.019330693,-0.028646424,-0.029091401,-0.041423142,-0.019739106,-0.13077249,0.025008122,0.030397046,0.017242745,-0.047562752,-0.06719273,-0.087918915,0.084541224,-0.05727843,0.041108295,0.03685394,-0.090921834,0.12742847,-0.007391242,-0.022910802,0.008736156,0.045435164,-0.17989513,-0.019764874,-0.033769883,-0.06385317,0.088570856,0.068023,-0.0019710755,0.061881837,0.00810515,0.06213167,0.046593986,0.033373553,0.007989779,0.09735664,0.25318655,0.0020913985,-0.076033145,0.018341541,-0.051915802,-0.09499872,0.08109891,0.007548408,-0.02007517,0.07089422,-0.005325415,-0.06659859,0.24410325,0.023291035,0.038727105,-0.0038132118,-0.09838503,0.10955201,-0.076828375,0.12849413,-0.05244018,0.04561074,-0.057072546,0.03375809,0.046057247,0.10743893,-0.07683618,0.06530119,0.47630274,-0.088497244,-0.08899839,0.021593556,-0.028910834,0.13050029,-0.13229626,0.01926034,-0.06358803,0.022029236,0.03863819,-0.0019649868,-0.009127073,-0.06214128,0.01809107,-0.028806847,-0.041231383,0.010336689,0.10156364,0.007207695,0.028831102,-0.028035887,-0.014178163,-0.06597075,-0.0101655,0.07136769,0.07547346,-0.051291987,0.03522453,0.2536988,-0.030010508,-0.027717695,-0.12140081,0.036561165,-0.05400596,-0.04884875,-0.07741497,0.052031513,0.07723029,0.053572826,0.019571997,-0.08175678,0.025426831,0.062363133,0.20688601,0.030509852,-0.0702147,0.20988597,-0.03597164,0.053426396,-0.021175845,-0.008778995,-0.04856025,0.09364254,0.09953309,-0.023429682,0.032824516,-0.04428199,0.04156728,-0.09369041,-0.032523487
0.07329057,-0.028306812,0.07259873,0.050745092,0.028994655,0.05088763,0.033970866,-0.067982845,0.044743355,-0.076174885,0.030484423,-0.023763744,-0.011479082,0.06909287,0.09914084,-0.014459366,-0.10927178,0.0654054,-0.02708254,-0.062655464,0.010439088,0.028124152,0.026851444,0.059289455,-0.042681668,-0.06299536,0.20237827,0.033581074,-0.042495262,0.1159573,0.022596011,-0.08029583,0.05930517,0.11274839,0.049684875,0.1360207,0.065535374,0.058084074,-0.06317593,-0.055280406,-0.08475529,0.009594649,0.055724356,-0.075117454,0.06361114,-0.10104139,-0.06709544,0.06641277,-0.013846248,0.11657217,-0.0021872828,0.0805432,0.011714172,-0.01288229,-0.0129985055,-0.013647394,0.06093573,0.010466114,-0.014793668,-0.031822752,0.04806739,0.04122085,-0.048671015,0.013070986,0.04364724,0.012229137,-0.082851194,0.032526627,-0.010393873,0.0735165,0.03728133,-0.044194236,-0.04618447,0.019311937,0.058482118,-0.06948403,-0.042745166,0.03406214,-0.011802364,-0.023829492,0.07244441,-0.03262229,-0.021961935,0.06150871,0.059144445,-0.020286987,-0.014995724,0.036015365,-0.011330337,0.09206385,-0.02220571,0.08962144,-0.07604085,0.05728431,-0.043467496,0.05303314,0.14056432,-0.016604275,-0.013473712,0.05039217,-0.07650738,-0.07498567,-0.0069051892,-0.03042417,-0.04202717,-0.02090817,0.047704898,-0.062482208,0.04420743,0.03130552,-0.0030408353,-0.007986827,-0.06294134,0.07017179,-0.026944615,-0.005704421,0.08661584,-0.0071970373,-0.046052843,-0.038959954,0.09380419,0.14405097,0.026101071,0.032422557,-0.071030185,0.10641446,0.0983475,0.11062733,0.02690252,-0.062384147,0.05477169,-0.045543462,-0.031534355,0.025340453,0.034138884,0.045967676,0.015608483,0.03523194,0.086230956,0.07511211,0.0020350218,-0.0739344,0.04759174,-0.012940891,0.08501146,-0.03514355,0.037376538,-0.050683223,-0.034748364,-0.007101477,0.0562171,0.11872943,0.06414158,0.066161096,-0.0723651,-0.0001911968,0.0562715,-0.04678949,-0.0564106,0.016941197,0.03546594,0.0051610195,0.08808745,-0.05661777,0.051609673,0.06978568,0.03210314,0.075401135,-0.071780086,-0.06443857,-0.025613483,0.031774126,0.03371507,0.07865296,-0.01084584,-0.07026451,-0.042184673,0.054741405,0.07443746,0.072505265,-0.051551074,-0.033203393,0.019394718,0.029211951,-0.06516341,-0.024205992,0.056086626,0.01367332,0.042324837,0.039152846,0.058385108,-0.0452002,-0.04862264,0.09063393,-0.02846897,0.14701074,0.038976178,0.0065044328,0.0771999,0.04131902,-0.009065946,0.058501437,0.054591637,-0.06635943,-0.008010536,-0.049196653,0.038121264,-0.02181301,0.08518592,0.025137886,0.047283344,-0.036415488,-0.025387371,0.10109316,-0.036343813,0.008100021,-0.08530704,-0.010420116,0.0396363,-0.0051579326,-0.021554431,-0.07358903,-0.018685779,0.040017255,0.06616309,0.038555276,-0.058619983,-0.08809878,-0.047849737,0.07599918,0.093864456,-0.047110777,-0.057361796,0.044814285,-0.09089089,-0.0053105876,0.055849858,0.13463588,-0.027385168,-0.10824235,-0.00308007,0.029669307,0.06633644,0.090924285,-0.0014474215,-0.022988997,0.061235346,-0.019451741,0.078537464,0.006864752,0.17287664,0.08717497,-0.087316975,0.021863362,-0.06818709,-0.0064168293
-0.15845168,-0.0070886603,-0.29104772,-0.016002713,-0.09029552,-0.15942927,-0.023817679,-0.11028944,-0.14974801,0.0073266053,-0.15260465,-0.042578015,-0.008418583,-0.11534212,-0.18422635,-0.1640727,-0.24663568,-0.04074424,0.035474714,-0.23567872,-0.03105827,-0.032746103,0.08926586,-0.09387334,-0.16662467,-0.04983823,-0.13339429,-0.10368014,-0.05766052,-0.054159567,0.041774627,0.015131209,0.012644526,2.216689,0.021249926,-0.12550342,0.03198196,-0.120617785,-0.18597329,-0.12370456,-0.17023182,0.012087894,-0.05795965,-0.0508533,-0.033237763,0.08941396,-0.21551886,-0.010451648,-0.14248478,-0.035276953,-0.0048348657,-0.112542234,-0.0431197,-0.14034754,0.00930813,-0.1696048,0.055410475,-0.117781885,-0.21172123,0.046667393,-0.06495138,-0.104414284,-0.07090918,-0.23484437,-0.101494715,-0.07975468,-0.029186524,-0.29534498,-0.048911363,0.16060334,-0.088837005,-0.057334397,0.022057893,0.006720647,-0.10578319,0.0034331966,-0.1099766,0.1368926,-0.09911347,-0.03696658,0.008931268,-0.114022985,-0.19174473,-0.021705436,-0.13012931,-0.1345158,-0.13643856,-0.0908399,-0.039660245,0.06858186,-0.07761304,-0.06828735,-0.16841158,-0.40334842,-0.11885991,-0.044929665,-0.35483956,-0.03570789,0.028462708,-0.102622114,-0.1322381,-0.14228329,0.01664622,-0.08122636,-0.035303053,0.055596504,-0.07414545,0.0017414241,-0.065610655,-0.1936387,-0.11828837,-0.11549008,-0.04082004,-0.28688803,0.06522054,-0.029124923,0.011162464,-0.12538546,-0.28645957,-0.09639736,-0.32918224,-0.26617882,-0.0981285,-0.031550914,-0.1092479,-0.25812423,-0.14287177,-0.5531005,-0.04814852,-0.11635181,-0.10259978,-0.022484591,-0.07616998,-0.07225976,0.005169236,-0.05282079,-0.12336907,0.03247371,0.122080274,0.015997214,-0.16952094,-0.045244027,0.022636885,-0.15355697,-0.11200076,-0.1155674,-0.10136819,0.033363808,-0.12918186,-0.21190451,-0.00016422497,0.06619411,-0.024167335,-0.012271264,-0.06164105,-0.016403044,-0.01512753,0.20417958,0.05081615,0.15313697,0.016171345,0.00048173053,-0.06397165,0.034009673,-0.04211968,0.1779765,-0.2584917,-0.26894823,-0.0770645,-0.11059978,0.10385129,-0.226728,-0.19912031,-0.18728274,-0.051838923,-0.032257777,-0.07589558,0.009917812,-0.26392084,-0.13415357,-0.07977185,0.0060443394,0.03676442,0.17116395,-0.009434209,-0.06367904,-0.3113762,-0.0037030205,-0.0032676328,-0.054424267,-0.10112661,-0.04272435,0.0061333263,-0.064851806,-0.16528296,-0.56963354,-0.090816215,0.03852091,-0.19043498,-0.062381648,-0.2937358,-0.050543867,-0.036883272,-0.100004666,-0.29819036,0.40326023,0.3379485,0.09557507,-0.12903349,-0.2154099,-0.08715083,-0.10551296,-0.11337641,-0.30236167,-0.16955513,-0.05194141,-0.18996032,-0.0927756,-0.042293116,-0.047513146,-0.09853363,-0.21615101,-0.15823793,-0.084068924,-0.18427265,0.04938447,-0.21243991,-0.08986418,-0.25219738,-0.123417996,-0.0038880724,-0.110797904,-0.045808945,-0.18226504,0.009191824,0.06355325,0.07000369,-0.068069935,0.028585633,-0.07086671,-0.08873822,0.05084127,-0.15039033,-0.11878816,-0.066010356,-0.03918149,-0.14907216,-0.07419892,-0.16925815,-0.116112106,0.053142685,-0.08492758,-0.040171087,0.643596,0.08576774,-0.023668764
-0.08209502,-0.059024088,-0.05901437,0.07341658,0.029444212,0.072809845,-0.016502088,0.11145376,0.066409566,0.08288333,0.020123545,0.03785599,0.010341237,0.012620522,-0.06523898,-0.08855125,0.10756462,-0.015928455,-0.004441031,0.054513395,-0.048053008,-0.032089137,-0.01689216,0.032789424,0.05610348,0.04765477,-0.046406228,-0.03615105,-0.058430675,0.065581,0.054546475,0.027818877,-0.049487945,-0.13936229,-0.076166116,0.09694239,-0.05624109,-0.01982861,0.050033875,-0.016476408,0.084437735,0.026819259,0.04114045,-0.032613233,0.047761567,0.08961092,-0.03032843,0.051348954,0.048119687,0.025190964,0.04770364,-0.036984555,-0.0694899,-0.003438701,0.047031064,0.14342907,-0.059911195,-0.06415342,0.021769596,0.0993002,-0.023865541,-0.052691247,0.05224736,0.036245696,0.0049564303,0.021359831,-0.098025456,0.045181513,-0.086296916,0.10321,0.043957867,-0.06840181,-0.10694172,0.09600288,0.123698145,0.15497619,0.009074889,-0.0029367139,-0.019100849,-0.09994159,0.019578781,-0.09256215,-0.08549329,-0.01324791,-0.04527347,0.025449855,-0.051140007,-0.081193596,0.10622317,-0.09558009,-0.0724897,-0.03436789,0.026275186,0.074053146,0.04317349,0.13579585,-0.08428997,-0.026602857,0.08609541,-0.04753486,-0.023896156,0.01860366,-0.11345212,-0.034566317,-0.039537914,-0.035855252,0.072542466,0.040347792,0.034612525,-0.0945225,0.009248402,0.04436537,0.024776656,0.0009230986,0.041696806,0.13216956,0.011093974,-0.036862686,0.014784373,0.10402093,-0.030878728,-0.005087037,-0.06767748,-0.042989805,0.005475733,0.121073954,-0.04419664,-0.028657535,0.041938283,0.030118763,0.069023445,0.036068264,-0.031104127,0.048157617,0.07673959,0.08377423,0.045570824,-0.011726201,0.029989181,0.0023369193,-0.011260077,-0.02578114,0.08302554,-0.041315682,0.053888507,-0.044552423,0.034691855,-0.11512649,0.034760717,0.008322848,-0.035715517,-0.0024288073,0.0013286327,-0.022103053,-0.07182175,-0.05685458,0.054524798,-0.019116,0.084943295,-0.020137118,0.035733007,0.0344758,0.039214104,-0.04152679,-0.07263057,0.015899876,-0.07457706,0.06649144,0.042175926,0.057578556,0.059488036,-0.040209223,0.075387545,0.053950343,-0.048628107,0.057642136,-0.014421378,-0.06428243,0.012265068,0.06416847,0.017147418,-0.08358453,-0.0065386444,0.034881394,0.043017115,0.0011978266,0.010520765,0.058082364,-0.001315933,-0.06641136,-0.020937322,-0.058877684,-0.041178666,-0.027267667,0.10846922,-0.051810168,0.03221002,-0.0786734,-0.049735535,0.062437497,0.019347416,-0.039468125,0.12625167,-0.022536576,0.043945223,-0.053037867,0.013027976,0.116243385,0.057716317,-0.047643006,0.0024181867,0.05965089,0.030253869,-0.07361445,-0.045499377,0.04055709,-0.12363694,-0.073108725,0.0020473988,-0.081141405,-0.0389011,0.090052135,0.09931575,-0.013047396,-0.08083746,-0.034292936,-0.0070239827,-0.032963872,0.04961482,0.041253112,-0.040891398,0.061802424,0.07261091,0.08208303,0.07929257,0.08104501,0.082005695,0.06502598,-0.0314967,-0.045047212,0.06089031,0.03532875,-0.043060835,-0.049628332,-0.022134427,0.038953904,0.033450432,0.11147065,0.026758889,-0.06310875,0.10204306,0.029557703,-0.028999776,-0.021079589,-0.029150277,0.09076116
0.043288354,0.16019517,-0.06855885,-0.090693936,0.0899601,0.048638895,0.043278433,-0.024470886,-0.013771924,0.056228504,0.089403436,-0.082041256,-0.05452045,0.13090833,0.11899545,0.09844403,-0.06681502,-0.08476679,-0.104352064,0.16738158,-0.08171502,0.02365526,-0.032734804,-0.029073987,0.1271406,0.032575488,0.002017348,-0.0711796,0.021433363,0.08887696,-0.12248842,0.21592201,-0.08254779,-0.04682071,0.0054320907,-0.007657983,-0.09318584,0.06785785,0.016397359,0.1793043,0.018793618,-0.04802533,-0.12560941,0.06609504,-0.063116156,-0.011760913,0.05645291,-0.037979145,-0.02895523,-0.10791174,0.082085736,0.12845516,0.0013391722,-0.040515132,0.019412389,0.17028008,0.04506805,-0.09414047,0.09610593,-0.11372252,0.072995536,0.091590725,0.09343625,-0.0247532,0.16646454,-0.090702035,-0.050434947,0.5511087,0.009457508,0.007083784,0.050538473,0.20167342,-0.07398266,0.014694724,-0.077680804,0.055378724,-0.022912866,-0.18111333,-0.05213973,-0.012463855,0.11164797,0.04450246,0.085219815,0.07392443,0.07535634,-0.117487825,0.146955,-0.07046863,-0.06748631,0.063345164,-0.031023499,-0.077685386,-0.052217316,-0.0051385905,-0.13147406,0.045315906,0.11644538,-0.014601824,0.030540513,0.011356455,-0.0061972593,0.12147107,0.081760556,0.023826923,-0.010776948,0.03811375,0.011255513,-0.013408503,-0.0954957,-0.13943192,-0.0030870624,0.004645564,-0.055411942,0.05407903,0.10952809,-0.099680126,0.2326326,-0.030909482,-0.001499664,0.15176211,-0.010324049,-0.12995844,0.14045744,-0.027502818,-0.017953912,-0.06570042,0.2253424,0.20913516,-0.06322669,0.04263707,-0.009104655,-0.09606683,-0.049499486,-0.047885597,0.016362106,-0.08075483,0.117013976,-0.092296556,0.010505179,-0.02884831,-0.05514695,0.065888725,-0.038886227,0.06504638,-0.0034781902,0.020868253,0.12905669,0.02650517,0.0017357514,0.09584068,0.028723914,0.09391433,0.04217773,0.08891865,0.014782349,-0.037402947,0.22077608,-0.03483071,0.03201397,0.08531233,0.025190588,0.079282336,-0.112765856,0.034372285,0.025692172,0.10629647,0.07389392,0.14820033,-0.054061767,0.017732685,-0.05930548,0.1345552,-0.06374289,-0.028603872,-0.0003580835,0.20790818,0.28987446,-0.07713456,-0.1458796,0.039973494,-0.052447345,0.12152932,-0.026062232,0.06839338,0.020058282,-0.048390653,-0.033565383,-0.046680916,-0.011954729,0.023017857,0.030508636,-0.029960454,-0.1365582,0.06126765,-0.046262838,0.12431716,-0.069973,-0.05464692,0.07014022,-0.0020572818,0.36248392,-0.0919254,0.0024114845,-0.0978647,-0.11874241,0.07380897,-0.05553487,-0.027067335,-0.10215039,0.41676965,-0.058608554,0.031695053,-0.005890663,0.091032594,-0.027585134,-0.045171175,-0.23824017,0.028340867,0.041562516,-0.048365366,-0.054578286,0.32911026,0.07846408,-0.04470352,0.183913,-0.0065869754,-0.048686318,0.01103017,0.07132771,0.04866019,-0.008379509,-0.08674586,-0.084343046,0.16665052,0.042830788,-0.061158177,0.035995185,-0.043867722,-0.07946842,0.06485909,0.006635592,0.013411037,0.009252872,-0.07920468,0.031557024,0.058391493,-0.016552877,0.019039134,0.05022401,0.082510136,-0.066793144,0.1367234,0.021173988,0.07225034,0.021869266,0.08825375
0.020914864,-0.054213807,0.061127365,-0.027949713,-0.046592712,0.074737675,-0.023545906,-0.0361953,0.009381536,-0.071699396,0.11190525,-0.10808575,-0.03942173,0.043640207,-0.05251496,0.055943694,0.11392572,-0.079257935,-0.13898203,0.19759944,-0.020692453,0.13350138,-0.07158154,0.074514695,0.16094412,-0.06941059,0.074572176,-0.030233402,0.1394879,0.04561549,-0.022447659,-0.06640841,0.06911009,0.08733316,-0.05923158,0.015524442,-0.10293161,-0.040991783,-0.051067475,-0.008739573,0.09039047,0.07209919,0.082835615,0.12680775,-0.01628127,0.050553862,0.0110054845,0.09843843,0.05335281,0.0040478837,0.043147363,0.089201614,0.0080246115,0.0129318,-0.06898201,0.08803936,0.055193815,0.051832125,0.118910626,0.01022544,0.10028166,0.14759009,-0.02541136,0.1632938,0.09365223,-0.019184811,0.09019523,0.19310424,0.012411423,0.03883537,0.01106145,0.12869434,0.062287103,-0.048569594,-0.021131791,0.06787517,-0.032327462,-0.06588367,-0.07327668,0.08458284,0.044878364,0.076771624,0.015669223,0.07706281,0.037525766,0.078681424,0.039262585,-0.08232959,-0.035264537,0.18710752,0.012634928,-0.043129593,-0.02195136,0.14533973,-0.079224065,-0.050223634,0.014949068,0.016567297,-0.06248001,-0.045503065,0.10287666,-0.118966185,0.07938249,-0.12424791,-0.0020901344,0.059645973,-0.084448986,0.10771299,0.009950001,0.27736542,0.06330092,0.07606406,0.030137515,0.060183484,-0.027689788,-0.11115004,-0.031467825,0.045308087,-0.04537997,-0.018440377,0.032480326,0.2584489,0.108218946,0.080217965,-0.0059230346,0.043812368,0.055468675,0.11746723,-0.1094981,0.10132676,0.07568728,0.07077711,0.039244354,-0.11365029,-0.030718131,0.0610394,0.06544594,-0.0133936955,-0.16946241,-0.04713592,-0.08449422,0.020520283,-0.02780569,0.31929168,-0.09306796,0.023522586,0.20639703,-0.046800826,0.094413064,0.11110389,0.08478068,0.051918235,-0.03413567,-0.09333627,-0.112492666,0.06824454,0.08316028,-0.023213252,-0.072952956,-0.07483474,-0.021836136,-0.05019059,-0.06150947,0.036335684,-0.046110194,0.022383759,0.20890622,0.13270962,0.004699417,-0.058862906,-0.060734633,0.02448734,-0.042859297,0.021511704,-0.098576695,0.21074748,0.2849377,0.06231769,-0.10340825,0.005045528,-0.06452492,0.11309089,0.05751127,0.012066223,-0.1106731,0.043071758,0.32967815,-0.09258911,0.16438673,-0.11131242,-0.048003882,0.021988017,-0.10166041,-0.11221728,0.14112893,-0.096676394,-0.08637726,-0.03978833,-0.0043865996,0.01147937,-0.040543843,0.025372038,0.0041648657,-0.045041237,-0.02458768,0.0043660244,-0.007131801,-0.020615002,-0.12669845,0.04055304,-0.02804907,-0.0025566549,-0.12874097,0.10727644,0.048700403,-0.052660752,0.05905072,-0.21135485,0.087711565,-0.09924182,-0.0017770418,0.21897045,-0.0036110494,0.004526026,0.16841725,0.059814617,0.038664855,0.056145612,0.19000582,0.04588879,0.06698123,-0.07781348,-0.10015549,0.0956068,0.069564134,0.030312775,-0.09250922,-0.14809749,0.023584729,0.007954501,0.06251791,0.044172168,-0.13327366,-0.11826222,-0.050048918,-0.10516236,-0.027059197,0.046443585,-0.0327187,0.0039759614,0.06171504,-0.045946788,-0.0017022837,-0.060555983,-0.06984863,0.09555373
-0.18468848,-0.031622708,0.38498715,0.017231923,0.16509798,0.029460294,0.07806374,-0.08162024,0.04052866,-0.13630694,0.03803795,-0.084164605,0.056161426,0.9193078,-0.19956882,0.30182165,-0.04700724,-0.015430719,0.0021864343,0.047657344,-0.04673629,1.0850095,0.0033224267,0.16692962,0.24152452,0.05879628,0.48259774,-0.08482401,0.003999525,0.5352961,0.051201798,-0.13889456,-0.062021513,0.18851924,-0.0662978,0.12607703,-0.045150053,-0.04336806,-0.14179152,0.20735751,0.59062356,-0.09471,-0.12481906,0.036922257,-0.06800078,0.22639586,-0.19683644,0.31615403,-0.0892475,0.019840064,-0.11105251,-0.009559287,0.03454905,-0.15539533,0.06023893,0.21629766,0.016560959,-0.11084432,-0.06379261,-0.100727305,0.120983936,0.03362871,-0.010410734,-0.06022033,0.17084447,-0.075452395,0.016073348,-0.29276296,-0.19578202,0.906928,0.33440018,0.14042534,-0.066325374,-0.033708967,-0.029338619,0.008691401,-0.035240207,0.2508856,0.22147849,0.020476796,0.10517581,-0.08375973,0.00076033536,0.82563466,0.057035543,-0.028432846,-0.115249224,-0.022353584,-0.20970063,0.26279527,-0.13607082,0.084714755,0.0035822636,0.13802207,-0.038035277,0.09971659,0.7954178,-0.047735907,-0.047711987,0.022465723,-0.074786134,0.17820735,0.006137516,0.061116613,0.08575832,-0.08796145,-0.10399628,-0.10980337,0.3005126,0.14316095,-0.0072864997,0.21138905,0.03343468,0.31249273,0.7244867,0.1294236,0.041588333,0.02251605,-0.03852618,0.062298268,0.02959335,0.08303342,-0.08114039,-0.05389813,0.0048547275,-0.06145468,0.053656872,0.7581835,0.014545045,-0.10607607,0.15195204,-0.11839258,-0.03314538,-0.11051772,-0.091203995,-0.06428732,-0.20210344,-0.0037518104,1.2295228,0.008948962,-0.043961525,-0.04349125,-0.06828373,0.0101149455,-0.029803652,-0.019159727,0.006089691,0.06011463,-0.17524289,-0.02956612,0.43524858,0.7201275,-0.22908758,-0.04698276,-0.09145139,0.0028634623,0.067939475,0.78460616,-0.06901796,1.638919,-0.078428484,-0.039771233,-0.106283285,0.009511101,0.02207909,0.4722027,0.14651754,-0.13460325,0.0428898,-0.049679264,0.57329077,-0.14431041,-0.1510896,0.1168254,-0.041824844,-0.061741166,0.40847272,0.041503437,0.13158496,0.22766551,-0.13114758,0.020125251,-0.076931454,-0.71705997,-0.09678828,-0.049096327,0.15078013,-0.075718954,0.4771785,0.06841087,-0.0067192935,0.04674751,-0.07408022,0.616648,-0.056004867,0.7144867,-0.06918982,0.2875042,0.06568683,0.062130384,-0.08839315,-0.3891313,-0.077940434,0.060333032,-0.01807779,-0.35913333,0.9413661,0.5870158,-0.10151261,0.12141353,-0.01141236,-0.0824229,-0.06735677,0.077893645,0.08007512,0.86502594,0.0033253743,-0.15186736,-0.20775008,0.035974536,0.068449706,-0.094601534,1.7056117,-0.057907946,-0.07945555,0.019198624,-0.042460624,0.037622612,0.1633685,0.0002425825,-0.05021697,0.078820065,-0.082433805,0.090780415,0.0733842,-0.026624357,0.056860384,0.32029748,0.09616951,-0.056424506,-0.041848134,-0.037155062,-0.29454422,-0.09606441,0.035026636,0.02080715,0.09842518,-0.020855539,0.19664897,-0.13023521,-0.112131715,0.014139929,-0.06465648,0.8766007,0.14975248,1.3177083
-0.00091400923,-0.04766508,0.18978795,-0.023071833,0.048796628,0.04649044,-0.13694902,0.059911773,-0.018871091,-0.026801486,-0.073569976,-0.023981508,-0.017452834,0.1301677,0.4368576,0.06258662,0.5676683,-0.072985366,-0.12664491,0.17659178,0.051693693,0.699177,0.03522125,0.030405309,0.051220596,0.033802465,0.1787551,0.045017056,0.23343058,0.24162477,0.01682456,0.04749596,-0.0742011,-0.026862767,0.0002657362,0.20662636,-0.020391151,-0.041333634,0.042786323,0.41593328,0.53466046,-0.04960542,0.09008238,0.0709724,-0.043237437,0.064252354,-0.07622119,-0.004651233,-0.03355876,-0.070992686,0.031012475,-0.09129264,0.016101971,-0.023440374,0.3432452,-0.09664271,-0.099575594,-0.04176648,0.17000908,-0.04598616,-0.0968789,0.17271094,-0.022626236,0.065720804,0.17840567,-0.04887751,-0.0177748,0.09090108,-0.036334544,0.0128880525,-0.012207906,0.013261256,0.009817041,-0.022677949,-0.09508852,-0.07066016,-0.0741761,-0.031078048,0.030263077,0.06745871,0.037850056,0.0061181593,0.14493865,0.14732559,0.095619656,0.4899664,0.15078703,0.005228256,-0.018314943,-0.0004073518,0.061453275,0.05237255,-0.006573178,0.6327083,-0.029396255,-0.021695983,1.0392072,0.13772869,-0.09317651,0.014111445,-0.10153141,0.018034145,0.53560656,0.034229312,0.017889807,-0.08636877,-0.095330335,-0.010495106,0.06630741,0.19163857,-0.06475643,0.8144708,-0.04303526,0.3591781,0.09500068,0.0038998176,0.03516804,-0.0818747,-0.086022645,-0.009159606,-0.04340604,0.0424088,0.12329864,-0.022979857,0.056213614,-0.08160206,0.24861601,0.70324206,-0.1536414,0.043146558,0.039245166,0.050851174,0.023346554,0.026769126,0.013432421,-0.07662175,-0.085770704,0.0030582594,-0.15115969,-0.09652161,-0.030544547,0.08442907,-0.08412935,-0.051602613,0.039309878,0.033046354,0.10161878,0.032008126,-0.06781697,0.21397956,0.010956454,0.017481156,0.0009892437,-0.0200401,0.11204291,-0.068154186,0.2540171,0.021829003,-0.004683011,0.0075681433,-0.042689905,-0.023609513,-0.01986206,-0.06050859,0.02930264,-0.011731604,0.20713374,0.01767904,-0.09620453,0.057154104,0.1660865,0.28568,-0.03241174,-0.019744141,0.030244686,0.026092809,-0.008308745,-0.042642176,-0.022920012,0.039287295,-0.058502927,0.004536248,0.0614269,-0.021085344,0.04640268,-0.043059982,0.6529816,-0.035524797,0.27137783,-0.037634086,-0.011986392,-0.12096306,-0.05921884,0.03006453,0.0008571816,0.69260216,-0.05833411,0.1273606,-0.05970681,-0.06680825,0.098686144,-0.1568532,-0.037240278,0.02972721,-0.023308542,-0.1400734,0.1460112,0.0035885796,-0.043527085,0.07339587,-0.078987725,-0.05659068,0.05237579,0.28122026,0.017563842,0.38746867,0.08329233,0.03686787,0.061263625,-0.009864748,-0.045063283,0.64791507,0.2897973,-0.015747793,0.0029707686,0.10523628,-0.0016115417,0.040971667,0.20781004,-0.06476047,-0.023353579,-0.11215043,-0.042212933,0.13286309,-0.069311835,0.011447991,0.04519466,0.06548529,0.023294799,-0.015749332,0.052096657,0.036681604,0.13292162,-0.06266029,-0.048536286,-0.09396658,-0.08143842,-0.014892599,-0.05504123,0.15782423,0.29605955,0.1204506,-0.079609945,0.06903658,0.3297488,0.8155525
0.06167486,-0.053705182,-0.012805421,0.037198596,-0.05268602,0.042193376,0.08122547,0.021829253,-0.02209252,0.040855747,0.033727795,-0.06172285,-0.069444895,-0.062120583,-0.008507907,-0.06976521,-0.00773719,-0.06810443,-0.02831179,-0.0029050552,0.008420387,0.013994142,-0.0108391,-0.081678,0.10761068,0.062196232,-0.059700843,0.007927399,-0.015130542,-0.055979155,-0.05647417,0.030810656,0.06059224,-0.03169733,0.015785756,-0.08894394,-0.063166216,-0.010516549,0.04569427,-0.028302554,0.029378636,0.02986671,0.29519272,0.06065677,0.04720496,0.08583522,0.100860894,0.008423787,0.11893729,-0.03280212,-0.062068682,-0.05338488,-0.098363526,0.041603714,0.030914355,0.04467261,0.07227307,-0.06016303,0.074093476,0.12075376,-0.022253782,0.04674644,-0.070215136,0.011397789,-0.010125286,0.06137622,-0.048598107,-0.0761886,0.049966894,-0.032726303,-0.051556107,0.06506013,0.0025553463,0.089187376,0.053875115,0.05169996,-0.080772996,0.14905636,0.099355385,0.06301681,-0.04318344,0.049314283,0.056213167,0.046634763,-0.03240863,0.025415346,-0.054206364,0.0429316,-0.04663972,0.039782997,-0.015463846,-0.011024599,0.102304325,0.03169274,-0.0436186,0.019919185,0.080364406,0.0051204716,-0.03432093,0.0035807511,-0.00043972605,0.0018144419,-0.051804177,0.042386357,-0.02690672,0.07501703,-0.009338173,-0.08043705,-0.08290668,-0.07213519,0.074493654,-0.0349341,0.017318724,-0.034280162,0.031866513,0.10415081,0.048905306,0.05103577,0.057871494,0.004644057,-0.0040706526,-0.027924916,-0.06921569,-0.007750313,0.009001296,-0.065331034,0.0553928,-0.04369814,0.088661894,0.009684645,-0.012605519,-0.096204095,0.07286284,-0.0371926,-0.034670874,-0.044617474,-0.07685826,-0.025634974,-0.04933745,-0.00653369,0.014345215,-0.026481884,-0.04190714,0.057981085,0.072112076,-0.032920122,0.07426461,0.035467118,0.0022630384,-0.051789362,-0.024678571,-0.021128563,0.07184397,-0.07872867,-0.04840694,0.07901679,0.09140507,0.07077663,0.03444915,-0.044694394,0.04981023,-0.08522206,0.030893987,0.043237645,0.040681355,0.038854085,-0.0267434,-0.019740729,0.015062571,-0.04514689,-0.032174073,-0.07106412,0.12703897,0.06289674,-0.03529714,-0.027121644,0.074312866,-0.07793327,0.045744862,0.06782817,0.094045095,0.12484306,0.013998427,-0.028451419,0.052759692,0.011270034,-0.023570824,-0.027401876,0.054635555,-0.08961699,0.009719513,0.06280653,0.10872232,0.054698378,-0.02606252,-0.051316906,0.054647606,0.106397726,0.01982063,-0.06877735,-0.08862701,-0.06257465,-0.058760285,0.074930854,-0.021376587,0.14967762,-0.05169773,0.118999474,0.06325949,0.030212022,0.08016356,0.05932828,0.0047518513,-0.06295926,-0.0049040383,0.15611085,0.027952766,-0.056118686,0.071994446,-0.077670716,0.035826467,0.0010788797,0.03565148,0.046185993,0.028894765,0.077147506,0.04853747,0.030879933,-0.04911837,0.05628604,-0.011594597,0.026596772,0.016841292,-0.04986492,0.018903581,-0.022269338,-0.09513309,0.038632218,0.11268768,0.019495236,-0.08576304,0.007887838,0.028864864,0.039455254,-0.10792685,-0.008631501,-0.06797193,0.02339322,-0.04845564,-0.011739804,0.0041554626,0.16042484,0.08870475,0.075559005,-0.061558485,-0.06907325
-0.028736208,0.078035235,0.21392542,-0.0074545564,-0.038852442,-0.08918261,-0.05040916,-0.0015860068,0.059959926,-0.005524032,0.06273866,0.014004893,0.006966741,-0.033979494,0.3086183,0.09807802,0.035471708,-0.0030073165,-0.17607707,0.008872719,0.033398036,-0.059711337,-0.12511678,0.095129184,-0.002272298,-0.031401537,-0.0701907,0.015346058,-0.1113706,0.036779597,-0.06089905,0.03159654,0.01187862,0.023281608,-0.060901433,0.062143933,0.035298295,-0.0008097361,-0.06323486,0.11514498,0.03579793,0.031302005,0.105519146,0.08449283,-0.06320643,0.14092927,0.07036849,-0.06649071,-0.04038692,0.048358496,0.017160093,0.03277265,-0.011621583,-0.14348792,0.047339026,-0.07444369,-0.013907023,0.0764959,-0.033326045,-0.023188408,-0.09696414,0.18945768,0.014931528,0.068090476,-0.06730477,-0.037814017,-0.022139158,0.050264377,-0.08786522,0.017460063,-0.025652107,0.04869215,-0.110792525,-0.039531723,0.03519395,0.04687268,-0.100662686,-0.11782493,-0.0040642805,-0.08207521,-0.09669776,-0.10197417,-0.04346024,0.065331645,0.0016271162,0.034196466,-0.11239675,-0.00083258876,0.06457962,0.029294815,0.14208125,-0.030116688,-0.08785158,0.065063596,-0.10208161,-0.049374774,0.032317176,-0.081486285,-0.038328163,-0.049082763,0.051491685,0.2160434,0.10702572,-0.053114563,-0.015235677,0.058503807,-0.06776134,0.1171857,-0.034323115,0.006758336,-0.03233757,-0.07655518,0.07444026,0.010566467,0.16997692,-0.011340502,0.04248522,-0.117185585,-0.066523366,-0.13601777,-0.05050205,-0.03005575,-0.048524827,-0.07501049,0.058757715,0.004038542,0.18164846,-0.009006547,0.044964597,0.03383511,-0.025520766,-0.053879075,0.051760525,0.036985114,0.04078735,-0.0801928,0.026450753,0.06948443,-0.004457426,-0.0312613,-0.06610364,0.04345811,0.012835325,0.046807863,-0.11334832,-0.06595354,0.07786037,0.057511616,0.06564515,-0.014052934,-0.07312053,-0.10297348,0.005561535,-0.083067834,0.08438283,-0.090668544,0.13123216,-0.06129633,-0.036388937,-0.0031679133,-0.036933277,0.009745426,0.03793628,-0.030751418,0.011312246,-0.07705597,0.08620217,0.24066289,0.0031101052,0.009098294,-0.05565241,-0.0545122,-0.13754658,-0.0832306,0.014087125,0.1648178,0.09115912,-0.011787995,-0.08923458,-0.09058715,-0.011758328,0.11444563,-0.061717376,-0.16958947,0.0074437656,-0.1052694,0.0095490655,-0.07653091,-0.016752753,0.006873801,0.053820606,-0.07181385,0.060664125,-0.18695542,0.013117681,-0.0066411444,0.006903534,-0.030278679,-0.024212621,-0.08325237,0.16418181,0.017629392,-0.08202276,-0.010980033,0.089106485,0.033981144,-0.09934247,-0.09638954,-0.019014647,0.17174417,-0.0646756,-0.023866476,-0.0864184,0.05431089,0.09954376,0.05052359,-0.014696871,-0.020743256,-0.07037964,0.019674914,-0.11354445,0.025720451,-0.089725845,-0.007838625,0.097815506,-0.047876976,-0.009542654,0.0851749,-0.055278257,0.01175359,-0.110256866,-0.0010230638,-0.051596828,-0.044709273,-0.076985925,0.0009458052,-0.04838934,-0.071863085,0.13880102,0.036370214,0.03669836,-0.05564847,-0.12983891,0.108455084,0.054943528,-0.04179009,0.06541888,-0.05076223,0.102995135,0.14642157,-0.05174707,-0.081759036,-0.009759395,-0.025078427,0.07428056,-0.07705643
-0.013483223,0.0043593147,0.28304675,-0.058169566,-0.038301967,-0.016649783,0.055009123,-0.046274517,0.014382398,0.019483978,0.19443478,0.016062545,0.016710084,0.88974655,-0.0064038625,-0.20754136,0.42233792,0.21642722,0.09472571,0.15569505,0.22932287,0.46826264,-0.05328547,0.4231039,0.1202432,-0.016660206,1.2833655,0.03869088,0.08109652,0.31279755,-0.09735288,-0.033571348,0.07786876,0.05425317,0.030019373,0.66488504,-0.062300283,-0.09906508,-0.06900866,0.4613157,0.31422988,0.038755454,0.26441273,-0.042521477,-0.0090629,0.32136792,-0.029431237,0.4880924,0.03784939,0.04436071,0.21301556,0.21824643,-0.19327517,0.18497527,0.06877397,0.9056221,-0.040165387,-0.06396975,0.019606572,0.0066898772,0.1288532,0.10724027,-0.062272783,0.08763554,0.5148342,-0.0819004,-0.09313773,-0.25862953,-0.050264858,0.75700045,0.48152876,0.21076885,0.023746064,0.02002859,0.000421912,-0.094211765,0.046827063,0.12123141,0.7916038,0.06648716,0.023268944,0.015949748,0.048875816,0.6079962,-0.026541116,0.26755878,0.024565035,-0.040418357,-0.001498431,0.30416095,-0.099773295,0.07932893,-0.09298032,0.23343809,0.056642592,0.23653762,0.4305899,-0.017140023,0.07247482,0.06143917,-0.027052421,-0.13005318,0.3268007,0.46880314,0.0805335,0.077206425,0.110115066,0.021099607,1.4295906,0.24269576,0.010275291,0.3909364,-0.08304173,0.010727245,0.75318086,0.17282793,0.099824354,0.015293911,-0.053033214,0.014760605,0.16581823,0.20461883,0.13492714,-0.045961875,-0.0075580208,0.25447875,0.117594406,0.5106785,0.05195286,0.06663475,0.18517877,0.028998379,-0.009477459,-0.02228331,-0.10272462,0.0012371833,0.2906018,-0.05524755,1.0029808,-0.07017147,0.053290043,0.026147839,-0.09012976,0.08191659,0.09259539,0.0108000245,0.05772199,0.041166827,0.37464568,0.00266574,1.11186,1.0056936,0.030741207,-0.05941652,0.11178945,-0.050652746,-0.02824267,2.2503974,0.011006447,-0.27450937,-0.034297526,0.029342541,-0.053820413,-0.076592855,0.14190933,2.6287487,0.16308683,0.4553972,-0.05323474,0.022228483,0.13788368,-0.037433006,0.15436229,0.14200512,0.022738747,-0.02642417,0.19954997,-0.009803091,-0.09466673,0.2838029,-0.029384395,0.17362614,-0.07466672,0.68021905,-0.0067427205,-0.008223647,0.33064505,-0.03508839,0.106025286,0.112889916,-0.0147636095,-0.03529282,0.08045353,1.1879606,0.049855076,0.43192962,-0.042068932,-0.044866815,0.0094756195,0.07891507,0.021347953,0.45671633,-0.040270407,0.041937582,-0.029757364,0.005522144,1.3765506,1.557656,0.02822397,0.07889306,0.082946844,-0.045242175,0.078210406,0.01756836,0.026898127,0.31767648,-0.08956565,0.06683344,-0.061161034,-0.002794679,0.016959893,0.098479964,1.040996,0.0036008216,0.38619074,-0.0054704044,0.114166275,0.05996967,0.15020297,0.16085206,0.030550184,0.028458113,-0.053252675,-0.012993757,-0.056020077,0.0809787,-0.027046192,0.29435545,0.257286,-0.03829577,-0.04736526,0.037297867,0.618153,0.14448367,-0.017220572,-0.067433774,-0.006080672,0.021942673,-0.046102665,-0.015621245,0.15367201,0.16295093,0.16387312,-0.11433769,0.68361235,0.74313164
