0.139988884
0.002736343
-0.013087248
0.104242608
-0.020703854
0.60967201
0.020122839
0.02039489
-0.623669744
0.515203893
0.097277045
-0.687389493
-0.019680306
0
0.21581015
0.024084911
-0.027037798
-0.030708389
-0.022349104
0.044467796
0.198032975
-0.008517051
-0.119415894
-0.541379929
-0.718678236
0.045744009
0.38102898
0
-0.000571764
-0.033199944
-0.383621007
-0.341705352
-0.701534033
0.008769488
0.038665336
0.370387912
-0.019438041
-0.07848227
-0.70517838
-0.017566798
-0.258683711
-0.022065165
0.438416511
-0.044174548
0.011200933
0.005128058
-0.212211728
-0.165017441
-0.033876728
-0.154898435
-0.572026908
0.191502765
0.56481415
-0.054659817
0.080499955
-0.019814003
-0.645732045
0.053021427
-0.42169854
-0.235756218
-0.426129282
0.186163962
0.015859516
0.023275659
-0.642241359
-0.027466741
0.068235159
0.200647995
-0.630101025
-0.368865699
-0.505788028
0.102162696
-0.012754448
-0.05944192
-0.03583153
0.125992879
-0.035642967
0.008064541
-0.650100052
0
-0.711492539
-0.323919863
0.09912318
-0.020986162
-0.545408011
-0.043011393
0.103699558
-0.067469552
-0.020711068
-0.024608279
0.11398948
0.126992837
-0.076939404
-0.635284483
-0.070670128
-0.539167166
-0.223442257
0.226897761
-0.036669388
0.037985463
-0.041098077
0.187010303
-0.002165438
0.102878168
-0.240007117
0.289665639
0.081704237
-0.039621055
0.076867759
0.555155933
-0.328868121
-0.639938355
0.103648827
-0.080670409
-0.016531827
0.031955659
-0.017219268
-0.507853091
-0.045601282
-0.666375995
0.143024012
-0.059475422
-0.064363875
-0.443821073
-0.638759553
-0.077506349
-0.269255608
-0.519002497
-0.007448262
-0.014145757
-0.004361297
-0.095185474
-0.00423603
-0.020442098
0.016211612
-0.038205285
-0.007578309
-0.024385696
-0.024980556
0.046411049
-0.052806944
-0.009522021
-0.727845967
-0.051299237
-0.042540766
0.648114681
0.009400391
0.038587961
0.019723415
-0.537307382
-0.046360217
0.075173624
-0.053065196
-0.370495409
-0.005427215
0.281769157
0.067154072
-0.021708805
-0.082175352
-0.007783494
0.391259521
-0.023444546
-0.018060418
-0.031740047
-0.277093619
-0.299909711
0.192174718
0.381502807
-0.086420842
-0.027289467
-0.189529955
-0.00469869
-0.370110929
0.205297962
0.071282074
-0.043714516
-0.001300696
-0.031094749
-0.21577026
-0.191067219
-0.093320251
-0.66999799
0.033895809
-0.008673938
0.02678627
-0.02460652
0.230693072
-0.009706166
0.027656555
-0.019191669
-0.089332946
0
-0.009636199
-0.031431425
-0.154168397
-0.028028023
-0.675117314
-0.018996693
-0.302546352
-0.020491507
-0.022358235
-0.698227525
-0.020630971
-0.028365228
-0.022632057
0.161408186
0.423132867
0.282500684
-0.016081831
-0.274084359
-0.031584501
-0.328639299
0.411020696
-0.282720208
-0.004009228
-0.311937273
0.03522414
-0.012648604
-0.062376268
-0.096854553
-0.047524743
0.075140387
0.084954165
-0.008584307
0.268709689
-0.120926186
0.120784603
-0.052546371
-0.207406744
-0.236347035
-0.39085874
-0.153167725
0.268521696
-0.391040772
0
0.266668588
-0.051915579
0.02553512
-0.06557902
0.28014189
0.091825396
-0.003129048
-0.126052007
-0.016316079
0.148429528
0.27580744
0.10687086
0.190940514
-0.062037982
-0.290141136
0.009677467
0.03237449
0.156609014
0.01955086
-0.421738207
-0.120308779
0.04729199
-0.14089258
-0.006089828
-0.015920622
-0.020504702
-0.642571032
-0.49099797
0.257526308
0.099243611
-0.318936735
0.019883452
-0.156297565
-0.106355645
-0.537800789
0.212124333
-0.372288525
0.032045871
-0.452304751
0.17685549
-0.738607287
0.381146491
0.087458946
0.203372374
-0.739469349
-0.029817794
-0.012223967
-0.062509053
-0.179748535
0.033667162
0.312663168
-0.290616036
0.028312681
-0.144099087
-0.016686473
-0.050374147
-0.045540083
-0.367092371
-0.127750844
0
0.005366297
-0.002208212
0.01973263
0.742400229
-0.030960428
0.301609516
-0.649696052
-0.028715672
0.028353266
-0.718881667
0.047162462
-0.678214431
-0.66581893
-0.016371725
0.189257413
0.150988281
0.299399316
-0.151042551
0.049214318
-0.01423326
0.006091759
0.166403428
-0.007065396
-0.077041179
-0.015127732
-0.043041129
-0.609660447
-0.024739031
-0.368910283
0.044578645
-0.622961223
0.078706935
0.092951551
-0.309726805
-0.082939528
-0.017519575
-0.309142858
-0.677875161
-0.005527453
0.078007981
0.051157657
0.02347705
0
0.144406617
-0.08394976
-0.048205111
-0.05715638
-0.02441556
-0.035356022
-0.251218528
-0.10846474
-0.03523932
-0.037249856
-0.025853815
0.071521163
-0.139062539
-0.111722931
-0.029141627
-0.036102817
-0.028059153
-0.084572099
-0.031233173
0
0.035451144
0.011211619
-0.027402282
0.183793098
-0.01721023
0.024724035
0.006651511
-0.095169559
0.051304691
-0.023066349
-0.027727041
0.01152515
0
0.223996088
-0.016662149
-0.000403478
-0.690304816
-0.06828633
-0.168769568
0.073580787
-0.049131464
-0.007246465
-0.005862283
-0.035362393
-0.01101666
-0.018347265
0.015914608
0.045508295
0.036878336
-0.681973457
0.209943309
-0.076189444
-0.564206004
-0.044144001
-0.423771113
-0.550118864
-0.121759832
0.366259873
-0.034312397
-0.033339221
0.052401923
-0.007815104
-0.058033828
-0.12708123
0.004512866
0.20020996
-0.018523593
0.042208649
0.017628996
-0.01591748
0.092875905
-0.020149397
-0.25751093
-0.107782163
-0.021723619
-0.025221359
-0.018239852
0.002181252
0.013884326
-0.085616641
-0.030599471
0.162674636
-0.207874119
-0.016411262
-0.124649227
-0.029308338
-0.244559199
0.356709927
0.258688867
0.191673756
0.769700766
-0.009437667
0.063973941
-0.050126106
-0.152985036
0.337702662
0.008257442
0.157341406
-0.11274948
0.102971479
-0.015772725
-0.475032121
-0.11880362
0.053830646
-0.436078638
-0.049697641
-0.051480871
-0.036582138
-0.184920117
0.035966512
0.041090507
0.011180833
0.032033764
-0.473800093
0.102714784
-0.216370195
0.040804327
-0.143578783
0
-0.271731407
-0.034665231
-0.008366399
0.112678379
-0.032574289
0
-0.530304015
0.331849903
0.12317805
-0.67529124
-0.033877052
0.012172218
0.218751326
-0.046477959
-0.030506089
0.735046685
-0.466315448
0.327348679
0
0.127967626
-0.063776255
0.551451147
0.796025157
0.048641104
-0.030249823
-0.192671046
-0.377679318
0.012019673
0.104435608
-0.001453603
-0.042574596
0.026917994
-0.053551365
0.15527454
-0.245989114
-0.055724047
-0.615577281
-0.295591265
-0.351744115
-0.299076647
0.345556766
-0.018645309
-0.009752123
-0.037762139
0.082956158
0.120697498
-0.027314752
-0.034210801
-0.216155112
-0.058251783
-0.016106529
-0.379591823
-0.016330754
0.094391078
-0.007619676