0.053963177,-0.098301366,-0.038120009,0.118022054,-0.022487165,0.072072148,-0.108799331,0.000924287,-0.026684234,0.030371053,-0.084593684,0.075890459,0.072388895,-0.005083837,-0.028950831,0.064643838,-0.020822071,-0.091601081,0.054365549,-0.048664086,0.079148002,-0.115325764,-0.126853019,-0.035932351,-0.01633724,0.005899884,0.056059089,-0.089340329,0.020085827,0.054142442,-0.144269958,-0.079402193,0.093410648,-0.066761397,-0.028837837,0.128225625,-0.095035277,-0.056105562,0.022420062,0.032337092,0.051687766,0.005383541,0.145832002,-0.050071407,-0.027504662,-0.065329634,0.026183026,0.009986639,-0.076542459,0.021263981,0.002581245,-0.029994903,0.018982364,-0.102505624,-0.060749132,-0.055048287,-0.119921304,-0.147547737,-0.039901752,-0.041514695,-0.225347996,-0.114697069,0.037986815,-0.111855097,0.006072438,-0.049957041,-0.126294091,-0.166474044,0.012901601,-0.152662471,0.056394965,0.052329067,-0.123549223,-0.037611514,-0.141044095,-0.034997694,-0.127577528,0.093796246,-0.074107736,-0.031467475,-0.052396681,-0.22203213,-0.107884429,0.115117997,-0.005519643,-0.031159567,-0.164714277,0.017565528,-0.103251264,-0.09950541,-0.099980474,-0.154693663,-0.151274964,0.025909711,-0.1070076,-0.259176463,-0.075111389,-0.025532121,-0.031954493,-0.155933291,0.010222245,-0.049536239,-0.065347396,0.03049917,-0.061841253,0.113961004,0.019424178,-0.083752103,-0.125626728,-0.073909394,-0.115451314,0.031662766,0.015407436,0.007741458,0.085504666,0.038461059,-0.120604001,-0.048115656,-0.147177085,-0.02607842,0.018861523,-0.137343004,-0.066317268,0.015164484,0.022548914,0.019683018,-0.069581583,-0.096944109,-0.01653981,-0.072474778,-0.095626578,0.034115166,-0.12735267,-0.062063027,0.082892671,-0.037520658,-0.073572062,-0.113818526,-0.014860044,-0.040870182,-0.137129664,-0.059087608,-0.061490849,-0.032166746,0.003699911,0.077875279,-0.085654996,0.009653054,-0.102382489,-0.107632004,0.050990421,-0.096572012,0.041496269,-0.078745157,-0.065180078,-0.016957078,-0.233564571,0.022339981,-0.069679476,-0.053675484,-0.10628216,-0.094571546,0.093801677,-0.084308654,-0.027691247,0.016603041,-0.105545692,0.015242379,0.018520804,-0.001035436,-0.009141197,-0.090406641,-0.023279896,0.125425592,-0.027700223,-0.134180635,-0.094396718,-0.102957852,-0.037793938,-0.005243014,-0.116214559,-0.006769931,-0.123848669,-0.045888063,0.001487378,0.030343629,0.121060185,0.013763848,-0.041965343,-0.075042151,-0.068508066,-0.07728675,-0.010222388,-0.047814861,-0.017493542,-8.43E-05,-0.164559275,0.00304832,0.097614311,-0.039924301,-0.111823738,-0.195488453,-0.088888004,-0.120513089,0.023565007,-0.183527455,0.157476813,0.002521043,-0.110727385,0.031299986,-0.005891589,-0.015886057,-0.013563661,0.017751768,-0.09131901,-0.03046212,0.027011128,-0.122400522,-0.068168037,-0.052683462,-0.062586226,-0.042435259,-0.174182251,0.030067122,-0.089074887,-0.020679256,-0.177936792,-0.148986846,-0.002531742,0.021140752,-0.081417665,-0.030184902,-0.142600745,-0.026767509,-0.012602687,0.006699534,-0.111248918,-0.084636241,-0.111666575,-0.112576976,-0.149302974,0.076995693,-0.099999502,-0.016848568,0.040020749,-0.063355379,-0.017413871,-0.049034569,-0.111532919,-0.121602714,-0.103181854,-0.050072424,-0.127683699,0.054859076,0.106438346,-0.161136463,0.017340709,-0.019611429,0.032646969,-0.114843093,-0.00867264,0.052687597,-0.08901225,-0.078996241,-0.119246788,-0.088977046,-0.120788664,0.002169433,-0.116704568,-0.117008761,-0.088225313,-0.079637811,0.033569098,-0.251002699,0.009910147,-0.013097377,0.012463762,-0.011711545,-0.015952108,0.058023252,-0.094068967,-0.115006775,0.018562004,-0.174420685,-0.074732617,-0.122412369,0.041425947,0.053842586,0.024462665,-0.031846006,-0.143720418,0.0305706,-0.029823847,-0.053213097,0.10180372,-0.067001231,0.011088317,-0.102738977,-0.005451319,0.005217179,-0.024313934,-0.059451561,0.015861444,-0.074325882,-0.022923319,-0.12880373,-0.024330633,0.021777295,-0.076082118,-0.107164785,-0.023615478,0.030108249,-0.019318648,-0.073914155,0.001864404,-0.119585693,0.004044645,-0.051542927,-0.035890888,-0.008916654,-0.082177773,-0.017367249,-0.12995182,0.005209199,-0.074212402,-0.066534512,0.018837286,-0.052680496,0.023594311,-0.055566434,-0.041001651,-0.070585467,0.028057948,-0.031039989,0.059823949,0.069181673,0.096874982,-0.081339836,-0.131939367,-0.142928213,0.024952445,-0.017539367,0.038940337,-0.064703509,-0.0886705,0.07039237,-0.054927703,0.051064715,-0.036945734,-0.088491485,0.062932409,-0.131747559,-0.002508491,-0.078804307,0.054752696,0.063823499,0.020256007,-0.096290737,-0.0474752,-0.119932562,-0.13402693,0.009592013,0.025606887,-0.115805835,-0.024986656,-0.013493814,-0.094782546,-0.064349592,-0.0511402,0.08238548,-0.013652727,0.076104902,-0.050402727,-0.034868829,-0.071585096,-0.064701326,-0.097846694,-0.162452892,0.024660111,-0.097736158,-0.050791197,0.102229856,0.073219679,0.012631026,0.063281611,-0.077932008,0.022254676,0.003279789,-0.093975648,-0.255455405,0.025464308,-0.050721891,-0.048997488,0.010947171,-0.086668424,0.017834054,0.008995362,0.066490538,0.026031107,-0.09147124,-0.013373225,-0.058400296,0.127729192,0.014726769,-0.046216589,0.058560666,-0.01964793,-0.018847942,-0.145707309,0.049127709,0.03922024,-0.180579543,-0.093224421,0.025188366,0.056585942,-0.007235535,-0.064520143,-0.035904922,-0.115273044,0.044217546,-0.008478141,-0.018204521,-0.000965784,0.03958663,-0.057691462,0.016221581,0.136328057,-0.112579636,0.114494622,-0.095477946,0.009298013,0.006483464,-0.103244998,0.0151767,-0.162829161,0.100800179,-0.0046295,0.014667275,-0.094141521,-0.078066982,0.042213414,0.05139241,0.023388546,0.055650998,0.023025917,-0.094534785,-0.008475188,0.003174963,-0.076930039,-0.089646779,0.121896282,-0.062713943,-0.07693664,-0.070137017,0.018223383,-0.068017833,-0.02233614,-0.040712524,-0.006856921,-0.124368101,0.025402363,-0.098619744,0.04099758,-0.016663222,-0.045873258,0.021217246,-0.013844627,-0.117094748,-0.133130491,0.002418738,-0.038450204,-0.092282496,-0.039703518,-0.117575154,-0.111693151,0.005062975,-0.128202841,-0.113097563,-0.003560029,0.084496863,-0.007950325,-0.02513703,-0.118492998,-0.004909288,-0.017253762,-0.022112183,-0.050007377,0.022913223,0.050127894,0.005595503,0.000221412,-0.083337493,-0.077728204,-0.076762222,-0.114579655,-0.198685691,-0.022842486,-0.027532978,0.051953577,-0.065365218,-0.147191703,-0.031651143,-0.039007627,0.017932748,0.025471589,-0.081433751,0.021675179,-0.067477562,-0.017819205,0.085491315,-0.062749341,-0.021845985
-0.057092607,-0.094560988,0.081333295,0.056738462,0.078070611,-0.050659139,0.013871758,-0.009506741,-0.024004122,-0.195088238,-0.073373906,0.083148077,-0.081788659,-0.073200211,-0.003656547,0.044612251,-0.112187825,-0.092955738,-0.064881526,-0.071773529,0.098614827,0.017510338,-0.016389152,-0.005856307,0.128920779,0.013018685,0.091257714,0.060620606,0.006933083,-0.112989657,-0.194675803,-0.195279181,0.157376766,-0.067663446,-0.031815015,0.076438747,0.039381065,-0.082689114,0.114557415,-0.05707043,-0.131100282,-0.067279957,0.138621017,-0.128949657,0.035434201,0.105415925,0.02072219,0.081390366,0.084759757,-0.035533786,-0.167469204,0.008839283,-0.121547036,-0.114555694,-0.005725476,-0.110622197,0.125900954,0.036355775,-0.064032473,-0.043707214,0.015249399,-0.004437392,-0.032351717,-0.10687916,-0.005549452,-0.006329678,-0.099462301,-0.023852881,0.088996813,0.102150925,-0.263910681,-0.086442605,-0.050058659,-0.067107566,-0.188947484,-0.010750466,-0.053063426,0.01440971,-0.047977179,-0.085715957,0.0295275,0.066914909,-0.0218294,-0.067789897,-0.015194132,-0.096286699,0.018265197,-0.056166135,-0.114849314,0.061179046,-0.068280995,-0.030344991,0.047931057,-0.180120453,-0.05082123,-0.099106833,0.189616367,-0.072796948,0.028395793,-0.015023572,-0.073027298,0.035453022,-0.131806925,-0.089747295,-0.09954685,-0.026841123,0.063454635,0.057313327,0.145553365,-0.081400842,-0.153262779,-0.008835102,0.018980157,-0.126293719,-0.043696977,-0.025856199,-0.066240199,-0.099253044,-0.059800636,-0.090189487,-0.001806864,0.038285226,0.020477045,-0.153205439,0.100025713,-0.151413113,0.021714894,-0.054911647,0.075949438,0.015234671,0.041015349,0.026830418,0.039975785,0.000513928,-0.115632169,-0.065198906,-0.045732509,0.003021526,0.029643089,0.071959265,-0.101563558,0.060080051,0.200035408,-0.119867347,-0.047202472,-0.094209321,-0.072766051,0.003678179,-0.072713248,-0.130806118,0.035086948,0.037442587,-0.144401088,0.029677723,0.069415554,-0.107421443,0.126474023,-0.117409498,-0.153084204,-0.110089958,-0.044597179,-0.082721889,-0.079718076,-0.125078678,-0.004647375,0.044672966,0.057023905,-0.147000581,-0.168897808,-0.04155178,-0.009841139,-0.016024036,0.094872415,0.049425859,-0.203479156,-0.115190469,0.037570708,-0.046368077,-0.094460867,-0.167217255,0.008919673,0.080121152,0.07779564,-0.024946554,0.01573403,0.073099375,0.149248228,-0.034446713,-0.069897711,0.077953011,-0.079714142,-0.028234392,-0.102682926,-0.056918319,-0.077785395,-0.09531793,0.027267067,0.03238029,-0.13130042,-0.070911251,-0.151106596,0.135532409,-0.069868945,-0.10180296,-0.120297059,0.086107716,0.193697855,-0.066000618,-0.09741696,0.317345053,0.010856489,-0.183649659,0.058102213,-0.012880873,-0.077025861,-0.061944701,-0.051323414,-0.022267742,-0.081693798,-0.0816646,-0.018676376,-0.081681386,0.076563679,-0.001874342,-0.045857489,-0.045445263,0.014487404,-0.086959131,-0.091697604,-0.111043006,-0.098336294,-0.060620081,-0.078747466,0.015910411,-0.022592984,-0.011740902,0.001589073,-0.124165267,-0.04351034,0.071165599,0.066774011,-0.071195141,-0.039930634,-0.058301974,0.038791839,-0.057015538,-0.110542439,-0.012656851,0.00499553,-0.149543077,0.040440109,0.030704483,0.099485971,-0.108058706,-0.27007544,-0.007162863,-0.076680094,-0.091567583,-0.033973742,-0.133156672,0.015724002,-0.065532602,-0.112164475,-0.098375589,-0.029457176,-0.063620493,0.016284457,-0.005152307,-0.101839274,-0.303649038,-0.090246044,-0.032416306,-0.109395936,1.30E-06,-0.061593849,0.192113742,-0.146476865,-0.01560555,0.003760756,-0.018037669,-0.059606977,-0.092574708,0.000387402,0.019565715,0.067583121,-0.075901568,-0.003372279,-0.079883106,-0.087560348,-0.057992537,-0.140514597,-0.074515566,0.09923321,0.098214731,-0.018526226,0.038545352,0.081927687,0.05775325,-0.119361602,0.020517372,-0.052384615,0.229108468,0.044715829,0.020213297,0.030404355,-0.060367461,0.021839254,-0.071272202,0.05803353,-0.013726366,0.001698118,-0.063291475,0.006716152,0.060658328,0.03308693,-0.008629373,0.054364462,0.042083729,-8.17E-05,-0.055507474,0.064860568,-0.251771569,0.001073207,0.066431619,-0.078805007,0.001327583,-0.094292633,-0.042444803,-0.08748731,-0.081903964,-0.051188711,-0.04017498,0.100446649,-0.142383486,-0.094129175,-0.119079739,0.093089722,8.60E-05,0.039618883,-0.05678919,-0.144644842,-0.039526377,-0.117313057,0.030494181,0.079101689,-0.150722519,0.035562497,-0.101209633,-0.132033825,-0.022161918,-0.073762268,-0.108971484,0.048203491,-0.005219753,-0.020454126,-0.107404843,-0.056763798,-0.074858174,0.021645399,0.028499275,-0.107283451,0.012580355,-0.115268685,-0.012432835,-0.064948864,0.004882127,0.138501674,0.044782724,-0.135920733,-0.100345694,-0.072844476,0.000751437,0.045598228,-0.091478162,0.125029266,-0.056602616,-0.056051463,-0.057244435,-0.11217235,-0.003608905,-0.095940784,0.176627219,-0.038737346,-0.107197151,0.005021647,-0.025476204,-0.117025681,-0.050915502,0.007372739,0.172990203,0.08551383,-0.070563048,0.093592197,0.100421168,-0.117726155,-0.017664013,-0.010314362,-0.081254274,-0.059053782,0.071288347,0.002303754,-0.06755767,-0.029279994,0.020980429,-0.105375558,-0.005647583,-0.00300466,-0.066347815,0.024498167,-0.051107191,0.046328843,-0.102870338,0.0276726,0.022511693,0.046685662,0.022358896,0.002620898,-0.128743976,0.015161919,-0.02554157,-0.036454607,-0.068006031,-0.133072406,0.132747561,0.007731219,-0.044453703,-0.035043474,0.022149585,-0.041089378,0.04975462,-0.042092811,0.034406025,0.001901844,-0.029224487,0.026710084,-0.106722735,0.015810663,0.119624645,-0.00292139,0.058248635,-0.123589166,-0.025015842,0.071940318,0.026518375,0.083521046,-0.002242164,0.103943788,0.070452258,0.022341134,-0.058928806,-0.044877917,-0.073405616,-0.098110743,-0.03279607,0.027365286,-0.200102523,-0.084675923,0.040384311,-0.072954506,0.059983198,-0.013285371,0.018336818,0.023954853,0.009073455,-0.07445807,-0.063997597,0.168762416,-0.122121528,-0.027373623,0.078755997,0.003662465,-0.076444283,-0.054348838,0.043743186,0.019929573,-0.004474856,0.039569154,-0.078817472,0.006783798,0.035814885,0.051983938,-0.060998399,-0.168497354,-0.066963233,0.127343386,-0.118334599,-0.058915131,0.052740824,-0.05289682,-0.056521352,-0.004873171,-0.092550919,-0.147275776,-0.030949751,0.036564194,0.048029147,-0.106608361,-0.12136206,-0.047325812,-0.029527456,0.0510602,-0.112400636,-0.034614202,-0.043472987,-0.006503097,-0.021384548,0.034687344,-0.045552317,-0.178267404,-0.031060625,0.121933095,0.031914737
0.060827874,-0.114763461,-0.046479445,-0.099436052,0.001249006,0.131631568,-0.082717061,-0.081186347,-0.044667866,0.159937725,0.017285064,-0.01723416,0.019604115,-0.10399814,-0.189089149,-0.072643668,0.016352132,-0.051097516,-0.454354018,-0.205929086,-0.133139253,-0.15722473,0.034022946,-0.087466985,-0.094806664,0.001790225,-0.146375611,0.018336833,-0.236757994,-0.094317272,0.078291304,-0.102549829,-0.124146529,-0.071766652,0.087219685,0.199563161,-0.103475742,-0.13138783,-0.125359625,-0.021874555,-0.066347495,-0.074924417,-0.451921731,-0.04542679,-0.004093393,0.016996808,-0.022252975,0.028506393,-0.045792319,-0.118940115,-0.038177498,0.224240944,0.301115036,0.009998439,0.066085927,-0.088202074,-0.145728469,0.161563158,-0.134999335,0.015847925,-0.033926208,-0.373378277,-0.166888863,-0.099139683,-0.096796863,-0.098325811,0.058079053,0.121078774,-0.020316834,0.033422209,-0.175583899,-0.015251905,-0.114472807,-0.107070379,-0.162924081,-0.076402441,-0.088277154,-0.137114376,-0.146547541,0.03930378,-0.16738914,0.112907082,-0.091890037,-0.182385981,0.038793996,-0.003508201,-0.094001539,-0.058922112,0.042983178,-0.051966164,0.011701444,-0.167948917,0.080732971,-0.075673416,-0.014310012,-0.02485645,-0.035485461,-0.120745428,-0.112624064,-0.055452097,0.039641026,0.161065593,-0.015545154,-0.074440464,0.003448782,-0.086796455,-0.01411123,-0.132110551,-0.052172493,0.137399226,0.077113584,-0.095528871,-0.235938072,-0.067154452,-0.110828087,-0.095665239,-0.067218907,-0.200719088,0.030720836,-0.12222331,0.037308004,-0.136421964,0.014497942,-0.093733601,-0.071380898,-0.162961975,-0.004488523,-0.049877226,-0.069771305,-0.05585032,0.011415722,-0.068526126,-0.011952746,-0.009106946,-0.125347629,-0.090160139,-0.090336211,-0.016607333,-0.098979674,0.009377716,0.047704916,0.068989776,-0.073786818,-0.117867149,-0.114308596,0.155300722,0.03650935,-0.010566508,-0.098242305,0.000318303,-0.109935619,-0.035651848,0.034030665,-0.082372606,-0.068800874,0.052909154,0.035570506,0.049228568,0.009975459,0.056078509,0.290723532,0.063390359,-0.076070756,-0.126218021,-0.000778341,0.017143494,0.295694232,0.119734667,-0.065501966,-0.046009075,-0.002771139,-0.088150784,-0.054070368,-0.039611906,-0.14967823,0.002827052,0.075448751,-0.069328785,-0.079153888,-0.11042098,-0.040712021,-0.055143289,0.13013196,-0.16999127,-0.058259264,-0.052730721,-0.454655141,0.012214393,-0.123045981,-0.003589724,0.018767521,0.001473591,-0.08873231,-0.049465016,-0.076030187,-0.034139071,-0.096527003,-0.027614268,-0.147211358,-0.131180078,-0.013356722,-0.006065494,-0.039193712,-0.131484225,0.028657338,0.122384362,-0.508801282,-0.040653065,0.004620124,0.090451315,-0.125114888,-0.11154905,0.029588878,-0.099175297,-0.095174603,0.062619112,-0.118965067,-0.025541931,-0.109511465,-0.074232966,0.048339095,0.05648781,0.063328847,-0.139338985,-0.118887104,-0.032455176,0.030121174,-0.113815107,-0.046210852,-0.107487954,0.02171218,-0.066048235,0.097964123,-0.057478759,-0.083801888,-0.224365592,-0.068989582,0.097860627,-0.03443522,-0.311632574,-0.148401201,0.064791083,0.070151091,0.002159895,-0.181147277,-0.082309365,0.018660329,-0.021708529,-0.075318895,-0.086573437,0.046083521,-0.005265981,0.085373633,-0.134597614,-0.186145738,-0.047022589,-0.047113359,0.03535936,-0.028458457,0.023780787,0.072380059,-0.108134188,-0.074916467,0.008271695,-0.057412174,-0.077231787,-0.018104238,-0.028468011,-0.070358567,-0.153117091,-0.14701663,-0.028065663,-0.070309766,-0.071245395,-0.015440203,-0.204396278,-0.075160168,-0.076554872,0.053121731,-0.071757279,-0.115321897,-0.116028987,0.018059515,-0.163179845,0.070934229,0.134909704,-0.05587852,-0.020180138,-0.020628009,-0.0781307,0.012150487,0.01162999,-0.130633101,0.067034252,-0.078806728,-0.034713909,0.103662975,0.025148068,0.30533731,-0.006988113,-0.011443954,0.105416074,-0.135440186,-0.051380448,-0.15406397,0.014130362,-0.140210599,-0.070136391,0.040052544,-0.015993023,-0.061315067,-0.158308253,-0.030351551,-0.148474768,-0.000264597,-0.052481201,-0.165809244,-0.023645384,0.012398969,-0.073028095,0.050201509,-0.226250455,-0.127017051,-0.056860622,0.022641502,-0.009608247,0.043189656,0.018960167,-0.006392726,-0.002787595,-0.013794334,-0.023737047,-0.12853761,-0.085641548,-0.077643074,-0.034979262,-0.372177988,-0.004840814,-0.125286579,0.079697751,-0.120738007,0.017736368,0.011062504,-0.053608671,0.031862624,-0.009562017,0.027913772,0.072099246,-0.007012781,-0.093594268,0.065428063,-0.08582063,-0.124608867,-0.019505346,-0.013308734,-0.075622402,-0.116150796,0.026699722,-0.188240334,-0.061775953,0.068399929,0.066482365,-0.016927758,-0.006477506,-0.081815735,0.000905544,0.140783772,-0.109280251,0.03316674,0.060362876,0.017003149,-0.128318295,-0.049827389,-0.103845276,-0.097418994,-0.132126734,0.019927735,-0.13831605,0.016011963,-0.055702958,0.006016913,0.016119106,-0.048601151,0.079322353,0.083874293,-0.191696838,-0.049499501,-0.113876969,-0.048213985,0.150821373,-0.103707545,-0.024904298,-0.017431093,0.025364006,0.026709376,0.203537047,-0.055473439,-0.002780251,-0.066817425,-0.020753199,-0.045668278,-0.048660215,0.034602262,-0.111641161,-0.09808445,-0.069123887,-0.092238158,-0.077243991,0.051553015,-0.115285859,-0.120804288,-0.14796266,-0.049900282,-0.105751745,-0.144501835,-0.056276232,-0.030448819,0.030959364,-0.133941308,0.107696034,-0.034914322,-0.088846445,-0.017418701,0.112915233,-0.05171172,0.242023036,0.017590458,0.148960516,0.180236772,-0.090935312,-0.185909405,-0.016891414,0.053599261,-0.171101794,-0.099162221,-0.213796392,-0.103038825,-0.122058243,-0.017593226,0.008336125,0.044757303,-0.023971759,0.043916173,0.025346046,0.034412794,0.053604696,-0.097248092,0.078298025,0.030189224,0.001434882,-0.049187597,-0.077175729,0.054964323,-0.106573135,-0.34914735,0.01589595,0.075138226,-0.079635724,0.070662707,0.06503091,0.036829379,-0.029444756,-0.088266552,-0.147741303,-0.115680143,0.051308118,-0.062109225,0.068241619,0.025619259,-0.079488039,-0.069560252,0.005774363,0.196387336,-0.07922186,0.167516097,0.009870566,-0.104827315,-0.115596578,0.291777998,0.003294774,-0.074890859,-0.025318811,-0.139930636,-0.011113418,-0.058384769,-0.037603419,0.080939151,-0.091577582,0.080476664,-0.123149797,-0.129194409,-0.01191039,-0.138401985,-0.196341172,-0.001203185,0.071916863,-0.081151918,0.047059901,0.057610616,-0.071294166,0.037006319,-0.063047066,-0.084276877,0.058426093,-0.093552358,0.023037054,-0.074238651,0.054429025,-0.080347993,0.062201563,-0.173677936,0.031557348
-0.081305601,-0.124202117,-0.009282176,-0.076928504,-0.128249511,-0.206709653,-0.13543731,-0.050458685,0.059228871,-0.169229925,-0.064963333,0.372983724,0.071315095,-0.041056156,-0.141548976,-0.117164426,-0.001575377,-0.208498865,-0.169252262,-0.186579004,-0.210255161,-0.080011696,-0.007327306,0.221217156,0.305576116,-0.043960568,-0.153736696,0.037379697,-0.165223867,-0.065628789,0.075210273,0.033442639,0.344898939,-0.127304167,-0.116200946,-0.200817362,0.006062627,-0.107939966,0.270087808,-0.030082254,0.060622089,-0.012061191,-0.15323171,-0.039783575,-0.036241584,-0.19214572,0.006245907,0.004400451,0.020338444,0.059664086,0.232437968,-0.085499287,-0.139969036,0.033225678,-0.114433512,0.01249083,0.431723684,-0.068724096,0.15298599,0.046076771,0.150912434,-0.38041687,-0.130922422,-0.067132801,0.269785821,-0.105328605,-0.060346853,-0.077015042,0.322452307,-0.041682832,0.264542252,-0.063702226,-0.0489848,-0.016678102,-0.078836888,-0.201170027,0.081781529,-0.130857453,0.513309062,-0.057904046,0.471407443,-0.54107511,-0.191856414,-0.149018079,0.015462629,-0.025968354,-0.13218984,0.016652418,-0.120931655,-0.032152981,-0.12674889,-0.091471784,-0.032408163,0.214376703,0.011573326,0.359557718,-0.228453755,-0.277532399,-0.112688243,-0.072774835,0.038040306,-0.154418111,-0.066714868,-0.150375173,0.015432028,-0.181513608,-0.163300648,0.059868593,-0.177895546,-0.27050367,-0.175698549,0.258953244,-0.355994463,0.040655419,0.081317961,-0.133608237,0.056587521,0.189268529,-0.088493578,0.382749498,-0.164479911,0.03118402,-0.050705295,0.079906017,0.404428333,0.064024851,0.021831989,0.13876459,-0.062253941,-0.092543349,-0.044272684,0.042601239,-0.026626462,0.012167889,-0.089885958,0.058700483,-0.040268995,-0.12927565,-0.012995361,-0.087046318,-0.089976117,0.018709526,0.336231977,-0.137593463,-0.076109208,-0.358031541,-0.144581348,-0.192316249,-0.181946516,0.314446807,-0.114944406,-0.074466616,-0.114879049,0.081661142,-0.167369321,-0.215558007,-0.142517701,-0.101705127,-0.066542454,-0.038771056,-0.22532174,-0.013640547,-0.000307024,-0.004293096,0.048611004,0.09023574,-0.077653118,-0.184499368,-0.162679941,0.055319533,-0.013889587,-0.01213896,0.155463487,-0.172285497,-0.083417803,-0.080899462,-0.109274611,-0.014436005,0.132835299,0.024624724,-0.07290107,0.134719282,0.006555688,-0.122645371,-0.076363355,-0.128222063,-0.184105113,-0.063390024,-0.056481041,-0.011952998,-0.077315927,0.051013142,-0.016312853,-0.23020868,0.1141214,-0.083711468,0.35075596,0.028526282,0.195597336,0.037144434,-0.040182963,0.18916887,-0.062695533,0.034848996,0.039286193,-0.132362798,-0.186062947,-0.187757015,0.060110819,-0.211679176,0.020533774,0.090877004,-0.230170682,-0.008208619,0.070010938,0.197646573,-0.073474214,0.037660584,-0.003899344,0.096186101,0.062390201,-0.058781892,-0.190072045,-0.155428082,-0.1522374,0.035994243,-0.131337166,-0.19859685,0.100639492,0.105830379,0.025961684,0.062163826,-0.155996636,0.085548915,-0.069542259,-0.216614544,-0.147875786,-0.072967261,0.091510415,-0.255497694,-0.322123259,-0.095925421,0.052817766,0.031206643,-0.168313161,-0.117684722,-0.058142792,-0.194001824,-0.155073449,0.138728112,-0.090137251,-0.003516102,-0.085014321,-0.19185248,0.394987077,-0.060678426,-0.067430548,-0.090215966,-0.073157102,-0.012127347,-0.165539295,0.301558912,0.185982183,-0.158235773,-0.29658097,0.066020981,-0.006874144,0.073739201,0.013247225,0.305235595,-0.167277306,-0.048697744,-0.066519544,0.266001016,-0.164719015,0.476552993,-0.269043058,-0.268572718,-0.171993792,0.378635228,0.010701158,-0.065890804,-0.045695219,0.139383331,0.002634687,-0.196300611,0.085156947,0.006286849,0.093332663,-0.073709428,-0.048486132,0.037400939,0.231508851,0.004761077,-0.031214334,-0.069619626,-0.132864744,-0.033179697,-0.379528344,-0.101314969,-0.189369634,-0.05619641,-0.106940679,-0.056107752,0.458138585,-0.14003706,0.324943811,0.297810346,-0.07879363,-0.10769587,-0.19879356,-0.209897965,-0.048196431,-0.077404767,-0.030481705,0.015778212,-0.124755845,0.013531266,-0.031093573,-0.016179564,-0.033755697,0.51821065,0.025863677,0.087083586,-0.06008184,0.02212039,-0.062487859,-0.110318013,0.131265342,-0.060641293,0.00528397,-0.020636072,0.428411603,-1.73E-05,-0.01224321,-0.194385067,-0.258717388,0.027166963,-0.228741318,-0.001492302,0.004147533,0.01713199,-0.150504679,-0.028190645,-0.33153373,0.061333917,-0.122929983,0.042357653,0.017717602,-0.258369535,-0.004039212,-0.061135802,0.007147346,-0.145806849,0.0680383,-0.06007383,-0.005605406,-0.100650743,-0.215349197,-0.02609486,-0.114034332,-0.187539831,0.006434455,-0.010485606,-0.01653835,0.039199598,-0.104743868,0.020351267,-0.060113084,-0.063359201,-0.020444818,-0.223594368,0.040741153,0.003305613,0.409698337,0.018318269,0.070212215,-0.152890667,-0.101433493,0.061810896,0.002299262,-0.116701528,-0.031381104,-0.094869748,-0.133398309,-0.18975462,-0.077853918,0.371072084,-0.229583845,-0.553766489,0.410469204,-0.065586031,-0.020522572,-0.150434151,-0.015937684,-0.286709279,-0.161432922,-0.016894531,-0.053040084,-0.092685357,-0.045287132,0.133438513,-0.011969015,-0.127872616,-0.09189079,-0.127638117,-0.012215924,-0.24798739,-0.148286998,-0.073027998,0.013556008,0.077009425,-0.089040242,-0.014551085,0.001269253,-0.152295619,-0.059770614,0.002434771,-0.115730591,-0.143325567,-0.171834305,-0.054001883,0.026981603,-0.06437882,0.072849304,-0.158004522,-0.147672966,-0.262045115,-0.305977613,0.011686464,-0.152339488,0.064742826,0.072519541,-0.253910303,-0.183400199,-0.310451657,0.019318033,-0.275084436,0.026509354,0.082254358,-0.14337796,-0.118508168,0.144282594,-0.009187506,-0.119646989,-0.00519109,-0.033265524,0.009102125,-0.116387092,-0.174785838,-0.11039646,0.2081334,-0.120523527,0.032718454,-0.08778812,0.118314467,-0.05118838,-0.086415246,-0.07938686,0.006224277,-0.134195939,-0.075936481,-0.013403453,0.5310601,-0.201958537,-0.097685628,0.397948712,-0.138590664,0.002707878,-0.217438176,0.022345631,0.016519101,-0.293529689,0.13639532,-0.208792374,-0.088999838,-0.093313992,-0.028633241,-0.12007314,-0.335714459,-0.061256405,-0.049265873,0.049635429,0.377164125,-0.200004533,-0.151898727,-0.072940834,-0.012366044,0.017888904,0.008751326,-0.20656383,-0.041529678,-0.021561097,0.520081461,0.029561115,-0.415408522,0.118903585,-0.312758625,-0.027571751,-0.09151236,-0.082465112,-0.117644884,-0.186534971,0.030872351,-0.076586977,0.079784446,0.014333488,-0.031005515,0.180098221,-0.065244101,-0.141165674,-0.072524101
0.042187996,-0.088921383,-0.121197142,-0.045962628,-0.048799504,0.067600526,-0.010484466,-0.241735041,-0.116349638,0.169875532,0.109358013,-0.056150921,-0.099100553,-0.100328498,0.117970251,-0.006836237,0.009690084,-0.030491544,-0.10303206,-0.219558314,0.022287825,-0.049963687,-0.016955841,-0.109319575,-0.094947554,-0.085016713,0.08545129,-0.106117286,-0.164006859,0.061827879,-0.133638308,-0.024315378,-0.07744877,0.026281402,-0.092161499,-0.083498851,-0.050313223,0.048246764,-0.040931635,0.03038992,0.005444211,-0.034357898,0.014875653,-0.163880542,-0.119318254,-0.117639154,-0.027647993,-0.004273637,-0.152816922,0.023038765,-0.124553829,0.021128541,0.273112953,0.024196036,-0.061305456,0.084477507,-0.165034369,-0.243063048,-0.104421772,0.017760065,-0.1650507,-0.028023955,-0.152093336,-0.015694475,-0.101086438,0.098877884,0.07395082,-0.094462171,-0.089592151,-0.052113861,-0.135778606,0.12304429,0.003419014,0.048955843,-0.144223616,-0.137557566,-0.02252976,-0.159275413,-0.174907044,0.091439113,-0.219018713,0.35013634,-0.173562199,0.069892742,-0.013455602,0.053509705,0.065917529,-0.018958382,0.038989205,-0.121189229,0.023587778,0.053889487,-0.176970825,-0.149505615,-0.125764608,0.017160008,0.038704284,-0.066004753,-0.014865484,-0.044470843,-0.012237092,-0.188820452,0.050076902,0.014212941,0.017174644,0.367275685,-0.10906969,0.002802582,-0.10325896,-0.155957907,0.157299429,-0.097780719,-0.407957643,-0.030082785,-0.093082465,0.060598787,-0.055928234,-0.168809146,0.064372517,-0.104064807,-0.015779389,-0.174526364,-0.116928674,-0.028526606,-0.117298409,-0.091848545,0.036373992,-0.127263039,-0.102054685,-0.071667664,-0.06392023,-0.065989144,-0.009372237,-0.00122204,-0.019440403,0.091873094,-0.084213123,-0.074908599,-0.147318512,-0.077198751,-0.018111866,-0.146001935,-0.078156471,-0.13423042,0.016515728,0.265614778,0.043152798,-0.209108576,-0.161869034,-0.097732648,-0.107799679,-0.002776701,-0.103457958,-0.202607453,-0.131475717,-0.065916657,-0.462504745,-0.06674666,-0.089963414,-0.101815045,0.159049332,0.05434132,0.067159995,0.005762325,-0.088625357,-0.028516276,-0.196431413,0.185272783,-0.207271874,-0.062768363,-0.008459603,-0.11883574,-0.087678276,-0.033367481,-0.022999667,-0.060260374,-0.033684626,-0.04393464,-0.031729817,-0.095199913,-0.029945403,-0.101130389,0.004818547,-0.111302301,0.042691842,-0.097740918,0.12545532,-0.078787111,-0.05893606,-0.110421605,0.070958525,-0.100884236,0.042311035,-0.12015564,-0.013632384,-0.081044868,-0.118770748,0.051185772,-0.087676577,-0.054216463,0.022579439,-0.078847662,0.080227383,0.061273184,-0.117315553,-0.25844121,0.262063801,0.019686107,-0.100372866,0.097836405,-0.119163886,0.022101268,0.22129865,-0.037640531,-0.024021529,-0.118754827,0.034995709,-0.027099576,0.012259793,0.034851916,0.036931131,-0.116786428,0.021703268,-0.002974146,0.065712936,-0.11212711,-0.207159847,0.03074217,-0.124846757,-0.066241466,-0.063008301,-0.015319508,0.06081273,-0.10895244,-0.063035026,-0.019555312,0.041039582,-0.112284266,0.040939983,0.145469844,-0.18038711,-0.060294624,0.043446273,-0.031843524,-0.101334579,0.183465987,-0.01954468,-0.178444147,-0.045153413,-0.054575175,-0.058458913,-0.05540112,-0.014785555,-0.117696226,-0.21451731,-0.069876425,-0.026125951,-0.084505342,-0.038236801,0.043039441,0.08200296,-0.079538599,-0.165869147,0.099048369,-0.166811079,-0.117999375,-0.002835505,-0.02326758,-0.101665713,-0.082222201,-0.069476798,-0.019537414,-0.071665473,-0.035276298,-0.013207139,-0.123841144,0.007029814,-0.30507499,0.06321957,-0.190421552,-0.023508012,-0.090350553,-0.099194624,-0.044187944,-0.104373112,0.053092133,-0.072063342,-0.052883528,0.028590288,0.032310378,0.054016646,-0.038058329,-0.026158532,-0.149338365,0.021460399,0.036439911,-0.132982433,-0.085365586,0.073106021,-0.062320121,-0.193382248,-0.004085645,-0.043325611,-0.172391415,-0.194900125,-0.142063528,-0.150656164,-0.073260717,-0.017286217,-0.094994299,0.03365846,0.10188356,0.027240902,0.00026037,-0.090104371,0.001383475,0.05527956,-0.095366232,0.016644336,-0.120481469,-0.045853134,-0.186825514,-0.009986693,-0.035411559,-0.070121884,0.037594758,-0.131451383,-0.048259266,-0.146008328,-0.091800578,0.006713903,-0.036143865,-0.099552967,0.008296841,-0.057417415,0.041390654,-0.100323796,-0.077106401,-0.137649044,-0.009911252,-0.15291357,-0.061485469,-0.039500393,-0.147122577,0.082252532,-0.013813869,-0.057495512,-0.0482147,0.038320854,-0.108587474,-0.012381868,-0.04629007,0.087169863,-0.084462948,-0.029847039,-0.124815725,0.040417884,-0.065627538,-0.203367546,-0.018589614,-0.063149877,0.026038075,0.026744474,-0.026307782,0.005274388,-0.053155478,-0.203643024,-0.074132182,-0.007444444,-0.094228633,0.00313437,-0.051400892,-0.120326452,-0.004762243,-0.137947619,0.041624811,-0.094477378,0.100604937,0.030504782,0.000925502,0.031468101,-0.105294071,-0.021384139,-0.095932074,-0.103337839,-0.031520404,0.001124145,-0.082973845,0.016956346,0.305864692,-0.10496904,-0.048276164,-0.063657619,0.024664721,0.004576356,-0.42904824,-0.043667276,0.072529145,-0.095164061,-0.08013732,-0.118690103,-0.138114527,-0.151526928,-0.002219525,-0.089352109,-0.034809254,0.058041953,-0.129536867,-0.235678792,-0.090157479,-0.099395566,0.083832391,0.021531967,-0.126657739,0.103640243,-0.089768089,-0.006509153,-0.022272382,0.012292779,-0.210871235,-0.062778935,-0.105260477,-0.038832124,-0.077203192,-0.027067058,-0.085767202,-0.047059309,0.088272229,0.088483542,0.066181794,-0.133667126,-0.119783565,-0.035348084,-0.066042423,-0.011149013,-0.048759602,-0.025551317,-0.034617353,0.036816087,-0.013440799,-0.029490685,-0.073951893,-0.092536524,-0.029964605,0.007549352,0.026054604,0.052809067,-0.323123545,0.02362087,-0.119749986,0.070571162,-0.106741294,0.121062145,0.023417583,0.051954832,-0.048331715,0.005623914,-0.006820668,-0.056565546,-0.097886719,0.016893026,0.052558195,-0.006080739,-0.146480218,0.064663231,0.002057919,0.008237336,-0.125688091,0.003062779,-0.018978551,-0.016349491,-0.101915449,0.043437228,-0.111869142,-0.092931576,-0.017681368,0.042305797,-0.14972201,-0.852785885,-0.047324024,-0.127595097,-0.024304634,-0.024870209,-0.236731872,-0.067743309,0.05883047,-0.084475428,-0.027726598,-0.17210938,-0.04335596,-0.162243843,-0.01614091,0.018508086,-0.236797839,0.006397328,0.293554515,-0.035899423,0.037560508,0.019209316,-0.037124731,0.059877496,0.116710633,-0.088293314,-0.137696669,-0.144012868,-0.045621578,0.018428726,-0.049718816,-0.086344272,-0.047177669,0.039407153,-0.065088272
-0.103713274,0.0254151,-0.050943032,-0.010587166,-0.106225371,-0.023416042,0.016140487,0.027896419,0.152165711,-0.155922025,0.018825647,0.14548941,-0.091352873,0.075739294,-0.084598474,-0.06364359,-0.02169068,-0.040945191,-0.065101318,0.042422418,-0.158524707,-0.045382537,-0.093678057,-0.108018369,-0.047975723,-0.128380179,-0.044192139,0.036059424,0.002263462,-0.028277045,-0.02927688,-0.038078047,-0.042543437,0.018922811,-0.11564792,0.132746145,-0.085997261,-0.129326478,-0.087036051,-0.100150697,0.01112644,-0.113910243,-0.076752089,-0.105851166,-0.094981611,0.030867819,-0.133158624,-0.197260946,0.014484655,-0.054494917,0.093573839,0.081393361,-0.042308349,-0.092786379,-0.019257631,-0.026811663,-0.080562502,-0.049297102,0.023583468,-0.106594406,-0.102159679,0.092296824,-0.070348017,0.081442237,0.018026665,-0.068102747,-0.111846753,-0.124531768,0.22573714,-0.108669564,0.010553108,-0.007078436,-0.107931048,0.052944914,0.036270987,0.003274407,-0.011175122,-0.084125161,0.099928439,-0.068150356,0.239123941,-0.276171327,-0.015300022,-0.092334025,0.161729366,-0.105349153,-0.118905485,-0.063252404,-0.100336693,-0.090118982,0.002500512,-0.03192097,-0.054295011,0.222770423,0.005890629,0.088122577,0.027872907,-0.136048213,-0.080760203,-0.083873011,-0.144542545,-0.052265,0.038494643,0.007789103,-0.086437739,-0.001332237,-0.122069731,-0.023895325,-0.063122809,0.017594971,-0.192768857,0.009352984,-0.111563116,-0.127424374,-0.040649198,-0.021206869,0.058370162,-0.322024733,0.004119841,0.091125898,-0.15079625,-0.178212792,-0.16294305,-0.079937823,0.181426868,-0.206824407,0.028703928,-0.119243868,0.003149265,-0.096064568,-0.102294281,0.014469924,-0.171526,0.024275575,0.043112274,-0.006662018,0.044214036,0.038807146,-0.121468023,-0.107569985,-0.108849391,-0.132102892,-0.060091164,-0.109851964,-0.055442486,-0.138191581,0.01965804,-0.069755495,-0.003800121,0.039605372,-0.160642549,-0.102508754,-0.014622284,-0.015925152,0.00426656,-0.034118354,0.060098887,-0.093775019,0.1184754,0.066243462,-0.059958875,-0.01251972,-0.065771967,-0.093934946,-0.074794956,-0.245836347,0.000361107,0.049426716,-0.100179568,-0.057064127,0.045914497,0.032317616,-0.112547509,-0.178113535,0.045714676,0.036461294,-0.123659313,-0.098214865,-0.05278647,-0.048960034,0.021173673,0.071710222,-0.030232018,-0.152459949,-0.09682247,-0.119171098,-0.121177509,0.095744625,-0.007922852,0.026886996,-0.032458082,-0.091766775,-0.054196231,0.056333575,-0.025562137,-0.132204458,-0.006128902,-0.052126922,-0.182033151,-0.000801379,-0.137140557,-0.081214145,-0.037510943,-0.012647011,0.062071461,-0.080433674,-0.032419086,-0.04011799,-0.039592966,-0.274095982,-0.021055017,-0.033150196,-0.033776511,-0.138244718,0.025377149,-0.261835605,0.050841749,0.056983169,0.029796245,-0.041063283,-0.146066353,-0.020376217,-0.00779433,-0.073308215,-0.051915757,-0.168690845,0.015130444,0.197300375,-0.185230061,0.037451431,-0.057064936,-0.101575904,-0.017747203,-0.157856658,-0.063868478,-0.052822057,0.059536938,-0.070000455,0.0019482,-0.01819025,0.061082237,-0.009698782,-0.143784955,-0.031263351,-0.007392733,-0.139438883,0.039922532,-0.123477079,0.053559724,-0.032487433,-0.08046636,0.012558851,-0.000684128,-0.128976822,-0.289894372,-0.084152803,0.0352217,5.87E-05,-0.109565951,-0.051147349,-0.020748952,-0.177029476,-0.00877089,-0.070919044,0.157440379,-0.022132201,0.032480523,0.04384508,-0.098101452,0.134768337,-0.03946406,-0.091407724,-0.091517873,0.038314026,-0.057832401,-0.150526002,0.04302815,-0.049290597,-0.05049045,0.072291985,-0.118760593,-0.053380396,-0.037945826,0.017012054,-0.053765826,0.043638505,-0.128347069,0.073226683,-0.085214466,-0.076308094,-0.031853639,-0.15163286,-0.114191622,0.001476182,-0.058747586,-0.060501955,-0.055208921,-0.10188093,-0.036906052,0.070312575,-0.125268847,-0.047628187,0.060520548,0.063066579,0.057749655,-0.068516806,0.110360593,-0.133676186,-0.010503098,-0.079200909,-0.122350328,0.016817836,0.00944578,-0.091576159,-0.110193126,-0.084690191,0.00024909,-0.052171569,-0.160644218,0.038044576,-0.100525066,-0.029918812,-0.077730626,0.075190418,0.003073007,0.20870097,0.014942743,-0.083216742,-0.052174456,0.035086859,0.035906009,-0.144436255,0.051082347,-0.026860911,0.029308323,-0.022669923,-0.001493896,-0.08583533,0.023157829,-0.076825909,-0.044358317,-0.067946851,0.090964608,-0.147148788,-0.054778256,-0.042427708,-0.026491832,-0.040861655,-0.060059242,-0.026265957,-0.047924023,0.01386107,-0.115845613,0.053804576,-0.070685901,0.016005158,-0.029857714,0.002204493,-0.117003568,0.058382437,0.072743043,-0.074601345,-0.061377816,-0.084471561,0.045978744,-0.142194405,-0.035015911,-0.107119292,-0.157470405,0.002521311,-0.094983466,-0.022357427,-0.069595762,0.076567158,0.149086356,-0.079954363,-0.16502659,0.063748084,-0.127920985,-0.106565811,-0.031057172,-0.040121045,0.013136976,0.079055026,-0.089644186,-0.031004278,-0.084060758,0.089304335,-0.036349006,-0.202190608,-0.065708287,0.032980133,-0.234104797,0.025008217,0.003549779,-0.066635341,-0.060909789,0.035573233,-0.081533447,-0.052943494,-0.082646757,-0.07174214,-0.096314877,-0.097018428,-0.055537578,0.033262443,-0.062947385,-0.026762325,0.028709322,-0.040259689,-0.021603344,-0.093670063,0.06661661,-0.093173787,-0.155896559,-0.126468375,0.133362994,0.060854673,-0.132163018,-0.04935237,0.02300288,-0.030236946,0.041981977,-0.090582624,-0.04082698,-0.142277107,0.044139389,0.192473084,-0.022128902,-0.054661829,-0.026268352,-0.030634664,-0.013355436,0.002465107,0.081013337,-0.197913244,-0.10229367,-0.053240296,0.020597084,-0.26192075,-0.012413941,0.058854275,-0.194980636,-0.054375067,-0.031199371,-0.102134302,-0.079126485,-0.037410654,-0.039493039,0.002201214,0.119494744,0.04528505,0.022202723,-0.055924911,0.027896941,-0.055286605,0.058148846,0.061262082,0.047016762,-0.100445606,0.073578678,0.02695746,-0.068426855,-0.142859474,-0.078021064,-0.10305164,0.155759215,0.038880281,-0.118179478,0.036038954,-0.010667567,-0.024188237,-0.039251559,-0.020311495,0.013079118,-0.075988092,-0.079014555,-0.038619094,0.17179139,-0.023219584,-0.116595373,0.036558364,-0.091109633,-0.184525564,0.015919441,0.031234264,-0.02489055,0.03103538,-0.063852012,0.000194591,-0.084677056,-0.002434553,-0.007020509,0.100964658,0.069988735,-0.268783689,-0.154086813,-0.156016991,-0.024426354,-0.040753081,-0.057012145,-0.063653663,-0.149757713,-0.108946033,-0.053014737,-0.106710047,-0.078714855,0.082565315,-0.017827679,-0.028058553,-0.064368434,-0.093873523
-0.069555454,-0.087068126,0.057518199,-0.054299649,-0.046584871,0.146333292,-0.021739926,-0.102234438,-0.105280228,-0.120150738,0.010263746,0.056543466,-0.166996732,0.024024591,-0.140275687,-0.017052531,-0.021380436,0.028566828,0.002034463,0.035377994,-0.075376265,-0.019542512,-9.59E-05,-0.035124719,-0.002825669,-0.068879023,-0.13465941,-0.105256997,0.103674166,-0.094743066,-0.13149257,0.00232399,0.034239907,-0.134180978,-0.092877016,0.106590465,0.073751904,-0.024146222,0.046844672,-0.121299587,-0.061911363,-0.009429685,0.001315608,0.004156948,0.022983657,0.00565721,-0.057132945,-0.004649222,0.014774991,-0.106758796,-0.063943587,-0.020645477,-9.94E-05,-0.038845666,0.012625559,0.059276,-0.0038507,-0.079698294,-0.081986077,-0.062456876,0.034885507,0.117990419,-0.101838619,0.105550945,-0.032698326,0.019687012,0.018549131,-0.118887425,-0.033435099,-0.062190939,-0.087986589,-0.165398881,0.071908981,-0.061403323,-0.000874681,-0.00921089,-0.104698479,0.007432981,-0.017885773,-0.083664313,-0.079502836,0.108423047,0.042779204,-0.141279504,-0.109261751,-0.037793309,-0.090299733,-0.000668903,0.044393059,0.063938782,-0.014549743,0.011721452,-0.128441498,-0.108603664,-0.037164148,0.012023458,-0.195218563,0.059181143,-0.000491869,0.044998847,-0.085693404,0.062587544,0.02503174,-0.030515503,-0.026099728,-0.212578639,0.034253389,0.035536621,0.155143172,0.053787611,-0.07759887,-0.053676821,-0.082492195,-0.043361887,-0.001177903,-0.065738566,0.037933145,0.062438112,-0.043735635,-0.126793519,-0.001396323,-0.020331472,-0.019436752,-0.022543207,0.07285104,-0.109013751,-0.163932949,-0.011012504,0.044753578,-0.084296726,-0.067740008,-0.078397743,-0.06885159,0.018092291,0.023365548,-0.084136255,-0.065997593,0.039292935,-0.018878598,0.081409983,-0.015477219,-0.115059555,0.049111217,-0.033296008,-0.01128811,-0.120258816,-0.019900635,0.082519852,0.021531694,-0.076577134,-0.050673831,-0.10510058,0.023483776,-0.051608995,-0.023952166,0.033124983,0.117060632,-0.040618032,-0.105440818,-0.039448846,-0.101666741,-0.103771232,0.091991864,-0.090543643,-0.079678029,-0.041322507,0.027870104,0.206118539,0.024633812,-0.088473409,-0.124007076,-0.107021801,0.050378215,-0.175753579,0.054262549,-0.048524078,-0.031628225,-0.123851813,-0.153010234,-0.12412066,0.024361767,-0.013220005,0.030315356,0.048366152,-0.088000827,-0.005478633,0.099730998,-0.005354746,-0.061566435,-0.014449813,0.025014894,-0.018983677,0.069867581,0.016639441,-0.006603403,-0.06192648,-0.037707888,-0.100656956,0.016688798,-0.123226672,-0.011758905,-0.000218031,0.030601529,0.002354119,0.072176978,-0.028440408,-0.090735301,-0.126157805,0.012132153,-0.278827429,0.03173092,-0.141038492,-0.020442089,0.08678776,0.034355048,0.087406829,-0.137189403,0.017996702,-0.02883991,-0.094978504,-0.035065498,0.093377113,0.090721928,-0.128366098,-0.016258907,-0.081010878,0.045922663,0.048981331,0.001805217,-0.03833219,-0.1279089,-0.016026491,-0.009843279,0.034646042,0.026361376,0.019106073,-0.018289089,-0.054328412,0.009457992,0.024336031,0.150021687,-0.102396987,0.031439249,-0.036115672,-0.093521826,-0.239976302,0.079453148,0.01527213,-0.065447591,0.021812692,-0.02244241,-0.086270824,-0.159768149,-0.057846211,0.076622449,0.000836134,0.038143713,-0.124396965,0.061640136,-0.00386092,-0.125158399,0.041953903,-0.137762874,-0.04125094,0.03192164,0.042909659,-0.010778163,-0.136434197,0.052198842,-0.087035686,0.074874274,0.030775381,-0.066176616,0.000637059,0.054262601,0.060661111,0.029158728,-0.120094024,-0.130233884,-0.056527067,-0.013321896,-0.037346769,-0.060012326,-0.021431966,-0.109822273,-0.011266573,0.043992337,-0.071553193,-0.173931599,0.075477652,-0.066719495,-0.090258807,0.039265566,-0.154649854,-0.099142306,0.05308925,-0.068492994,0.022794794,0.065213613,-0.036789924,-0.116472542,0.021543862,0.075074419,-0.14605692,-0.012985377,-0.134083286,-0.085296683,-0.094092391,-0.139320478,0.084767081,-0.154378802,0.029043701,-0.121237151,-0.025241567,0.049310889,-0.123566382,-0.094035998,-0.011005568,-0.038016751,-0.078111067,-0.009895841,0.029897867,-0.121111833,-0.140217722,0.000302427,-0.048920963,-0.153389305,0.016937694,-0.026242901,-0.022630343,-0.097197041,0.02460774,-0.014744907,0.009130898,-0.077739537,0.057154018,-0.068397321,-0.083150029,0.122982271,-0.135548919,-0.095352255,-0.004999506,0.057472955,-0.020641504,-0.133718461,-0.090579651,-0.051930834,-0.0953089,-0.015469055,0.077199526,-0.094016977,-0.028344026,-0.104349345,-0.078622907,-0.092646696,-0.124666065,-0.095298968,-0.097363122,0.014733931,-0.078661956,0.079269633,-0.117653571,0.045064338,-0.052954901,-0.059734903,-0.073828824,0.054139432,0.001704303,-0.036195576,-0.02156679,-0.080952629,0.025943773,0.065885685,0.003654604,0.060803931,0.027343754,-0.068547867,0.03439847,-0.028946459,0.012296886,-0.005139389,-0.071626559,-0.048384339,-0.01490196,-0.161086023,-0.067272171,-0.132943228,-0.059003215,0.089479186,-0.087574445,0.070068613,-0.070417449,-0.074760735,-0.072031215,-0.145797148,-0.222644746,0.0366924,-0.068864644,0.073856503,-0.074975066,-0.067557745,-0.206619084,-0.188843772,0.040095896,-0.142503455,-0.06672135,-0.081864603,0.059944797,0.144469544,-0.130144253,-0.032588739,-0.118624866,-0.118623488,0.082161762,-0.224304974,-0.167920306,0.018276721,-0.006910642,0.039472975,0.03068885,-0.043910556,-0.072585352,0.041162893,-0.205154866,0.04603884,-0.276236296,0.209105194,0.054634139,0.121855378,-0.11140231,-0.083106384,-0.02955067,-0.103043258,0.037384275,0.001240135,-0.011257532,-0.070318244,-0.092704177,-0.017515695,-0.00620637,-0.027980527,-0.03985294,-0.086966962,-0.126482368,-0.027143577,0.012330586,-0.099023975,-0.163728237,-0.087628558,0.096147135,-0.017600358,-0.05788675,-0.060286969,0.010713503,0.013689558,-0.111829028,-0.092052601,0.022405241,0.006236356,-0.063573659,0.017698702,-0.069344491,-0.070149794,0.071885482,0.076177336,0.026462095,0.090002157,-0.100960888,0.041900653,-0.052434053,-0.094542667,-0.061762262,-0.019583952,-0.149099782,-0.101691119,-0.080697388,-0.053670395,0.019652749,0.048048191,0.166486725,-0.009220105,0.007780119,-0.106377482,0.040975131,0.018216124,0.020516289,-0.031433292,-0.134543672,-0.045218416,-0.088361494,-0.072617017,-0.021806141,-0.0491983,-0.125423238,0.004823354,0.032264963,-0.015237377,-0.037453298,-0.050203506,-0.013593212,-0.066355899,0.062655807,0.006418982,0.033341561,-0.029479485,-0.068154447,-0.058348842,-0.042404916,-0.011479842,-0.134787187,-0.094713815,0.051591929
0.059746489,-0.104058497,-0.020699808,0.151896611,-0.046267375,0.030553063,0.036763307,0.041546907,0.003631729,0.018436112,-0.018163754,-0.055631749,0.042177767,-0.081063114,-0.03505053,-0.164385691,0.021220611,0.048179191,0.164889097,-0.021474827,-0.17924498,-0.022668628,0.00505565,0.022758033,-0.114172608,-0.131905049,-0.085222006,-0.091940463,0.146321952,-0.00945965,-0.168560311,0.008666891,0.028300088,-0.107885204,-0.07433477,0.061921284,-0.034592629,-0.02970889,-0.007619724,0.013578291,0.02708694,0.066510201,-0.053490792,-0.054050561,0.068098545,0.096299544,0.04316105,0.045223549,-0.09369576,-0.153270423,-0.082337894,0.030139152,-0.031241611,-0.133425415,0.005735985,-0.092271753,0.080131792,-0.141032949,-0.037516397,-0.081606768,-0.028483123,-0.047065012,0.012269152,-0.017275982,-0.023202924,-0.042015165,-0.186223239,-0.062984891,0.048013117,-0.175810903,-0.004744086,0.064713985,0.070786618,0.011227688,-0.056104574,0.027374448,0.028114798,-0.03678555,0.057426699,-0.061421529,0.031337738,0.125592947,0.057653468,0.032902613,-0.075187266,-0.088905416,-0.192805708,-0.131376326,-0.016981289,0.001533206,0.021085875,-0.070611276,-0.035254616,0.123252489,0.010682424,-0.017740889,-0.427458376,-0.126898482,0.016457645,0.037210703,-0.119192407,-0.061720274,-0.117602795,-0.073762447,-0.144580692,-0.092022404,0.011585609,0.010345151,-0.049106225,-0.007214377,0.062964387,0.014607198,-0.059629727,0.003553598,-0.076831497,-0.014866022,-0.142093346,-0.04701142,-0.011568059,0.05214053,0.022561658,-0.10763558,0.053463042,0.17892471,0.085614473,0.062199328,-0.050408732,-0.103190154,-0.098919556,-0.029390181,-0.139756784,-0.031978779,-0.117021121,-0.128449932,-0.072641432,0.011135535,-0.036663234,-0.13227953,0.053020448,-0.029660896,-0.10095568,-0.028687177,0.062511787,-0.006944441,0.047455464,0.053110395,0.039756347,-0.067346394,-0.00041112,-0.186700225,0.044852115,0.063692704,0.007960773,-0.133535057,0.014312209,-0.025857234,0.085783988,-0.079481728,-0.082703702,-0.056468736,0.013399188,0.043418031,-0.042008799,-0.041401919,-0.00647425,-0.029525416,-0.181612998,-0.057601836,-0.015007949,0.030521777,-0.117339991,-0.060656928,-0.176413894,0.05390808,0.042209622,-0.037322667,-0.190683559,-0.033131883,0.060817048,-0.033315167,-0.087987021,0.057971366,-0.080012009,0.048299804,-0.100567497,-0.022610897,0.020624999,-0.115665413,0.000392989,-0.044011764,-0.07326933,-0.075526193,-0.0662008,0.068767861,-0.089938983,-0.008999371,-0.107285544,-0.055160318,-0.0306029,0.004942372,-0.009209748,0.040979739,-0.05053024,0.014848758,-0.055187363,-0.24498409,-0.085497275,0.007676631,0.018788315,-0.265562564,-0.093576148,0.071566775,-0.188606709,-0.199700624,-0.08706861,0.066444926,-0.05009808,0.072099485,0.056102242,0.048497435,-0.073119395,-0.150913596,-0.023736447,-0.060692456,-0.022640009,0.033937834,-0.031464014,0.041591484,0.06358622,-0.089928232,0.029625943,-0.008127118,-0.042310912,0.037896514,0.010704227,-0.051033165,-0.000296982,-0.081517398,-0.114432201,0.077994719,-0.004290954,-0.109780654,-0.04234403,-0.102297977,-0.077725016,-0.148754537,-0.11781311,-0.13737002,-0.126855955,-0.034154721,-0.04582946,0.004260186,-0.022360833,-0.099928848,0.092101015,0.005717208,-0.051052626,0.06387464,-0.102706544,-0.098123118,-0.106366374,0.119582564,0.019596031,-0.008623988,0.050455842,-0.0186428,-0.01522652,0.01226098,-0.010424838,-0.026162405,0.027046708,-0.05235583,0.084812962,-0.148638755,-0.11786817,0.015785329,-0.092079938,-0.099729478,-0.0028219,-0.065022893,-0.007300784,-0.025846558,-0.003520583,-0.08516074,-0.038695827,0.129760474,-0.066829979,-0.020163782,0.013529558,-0.072256967,0.011330232,-0.056513738,-0.173208997,-0.282485634,-0.074317962,-0.145787522,-0.127152339,-0.006399801,0.160349041,-0.087251172,-0.056283146,0.001732367,-0.01981038,0.05526644,-0.063830733,0.071542107,0.045739364,0.071324751,-0.048102055,-0.036425892,-0.064823255,-0.025152085,-0.058034189,-0.079271495,-0.051603749,-0.113276519,-0.027411208,-0.023839777,-0.115813524,0.022480553,-0.088903815,0.115768746,-0.021080826,-0.047904529,-0.006203844,-0.048615668,-0.057462737,-0.000936756,-0.144705519,-0.091964819,-0.013579563,-0.089076333,0.122725464,0.067786068,-0.051400121,0.142258197,0.092201628,0.078093514,-0.004084706,-0.085215487,-0.062057484,-0.034439761,-0.22878395,-0.00554541,-0.051960271,-0.121804304,-0.021806058,-0.146942467,-0.112471931,-0.119202882,-0.118376695,0.040470518,-0.116702259,-0.01257953,-0.095450647,-0.093650281,-0.020913461,-0.02788315,0.028720679,0.009407614,0.025133019,-0.204141334,-0.087700114,-0.072328351,-0.082719274,0.048506085,-0.049239781,-0.135164127,-0.058091201,-0.028436644,-0.061778691,-0.120089591,-0.09213616,-0.052332431,0.055199985,0.006831616,0.016527997,-0.081303015,-0.076657556,-0.09373828,0.027325025,-0.05828632,-0.000683772,0.021520909,-0.164881572,0.065093756,0.009406788,0.033762299,-0.092169739,-0.110103771,0.102358706,-0.18703796,0.065280482,0.02561019,0.044808913,-0.11477381,-0.147845492,-0.072256334,-0.046969384,-0.044416983,-0.034063358,-0.140451685,-0.081550218,-0.018602606,0.051612537,-0.038659357,-0.079359248,-0.21552895,-0.101293147,0.049747072,-0.129328594,0.018176153,0.091280244,-0.106543444,-0.222864449,0.157926902,-0.137635604,-0.05897129,-0.075054936,-0.085938767,-0.071223088,0.032231603,-0.040521108,-0.170297459,-0.047971081,-0.037058882,0.098086059,-0.027727338,0.040878661,-0.068085529,-0.002171304,0.022862418,-0.056129366,-0.020516761,0.054772392,-0.198996797,-0.134673908,0.005780519,-0.001869099,0.024649566,-0.011720538,-0.113239467,-0.16829288,0.025102079,0.078362092,-0.103339367,-0.00761605,0.032517266,-0.019488391,0.070030905,0.106774621,-0.055887453,0.021792838,0.06386359,-0.143126965,-0.147125065,-0.086104937,-0.099061407,0.015071596,-0.094526522,0.227987766,-0.101456732,-0.045068912,0.080902092,-0.091659166,-0.053292744,-0.03266513,0.069314539,-0.000764055,-0.032587092,-0.099962004,-0.07732071,0.086099096,-0.207252458,-0.070653647,-0.066515632,-0.028995674,-0.089754723,0.007971725,0.079601526,0.016644515,-0.11298839,-0.12954466,-0.027168997,-0.100748211,-0.169108123,0.055322737,-0.081653222,-0.01160748,0.032746833,0.048506223,-0.057707503,-0.118150175,-0.017126931,-0.111407809,-0.001855401,-0.004350723,-0.040640425,0.07518927,-0.112347372,-0.018044207,-0.074738771,-0.109951459,-0.16600126,-0.125719965,-0.107386932,0.017727679,-0.062780194,-0.07121703,-0.052280158,-0.031388756,0.012805699
0.000283711,0.077463478,-0.067149624,-0.181721494,-0.121556237,-0.169617415,-0.000784812,-0.087941445,-0.039436236,-0.335355431,0.184512198,0.055606835,-0.091101736,-0.086330093,-0.082757324,-0.034035023,-0.090208858,-0.027569473,0.091901749,0.097631045,0.072555304,-0.022466123,-0.065632619,-0.038636848,0.004860685,-0.007497058,-0.181636751,-0.088121913,0.10043712,-0.063219227,-0.003348705,-0.049594905,0.001147849,-0.063605905,-0.073357038,-0.187806547,-0.065391183,-0.037825789,-0.048987877,-0.037999593,0.031082638,-0.084698342,0.068454869,0.044724599,-0.01025105,0.026916361,-0.006528665,-0.123803131,-0.005886918,-0.108647421,-0.042378049,-0.151181355,-0.043339424,0.056090724,0.024030067,-0.109844394,-0.078293711,0.009845988,-0.037843939,-0.058192268,-0.072684385,0.043523062,0.05304715,-0.073336497,-0.106908269,-0.126047075,0.083731256,-0.115429767,0.071355075,-0.028638262,-0.025735073,-0.095697485,-0.030746844,-0.016909469,0.181706965,0.0708621,0.023399143,-0.055271782,-0.031230984,-0.070825644,0.008228304,-0.049530488,0.020867791,-0.00880676,0.083696902,-0.010675145,0.065725289,-0.046058785,0.038502757,0.019498006,-0.065548413,-0.096300781,-0.026110752,-0.012384586,-0.120765105,-0.092589796,-0.108100861,0.195145175,0.059574053,-0.021319883,-0.007968698,-0.099347509,0.054562546,-0.133655891,-0.102483049,-0.222358659,-0.050977226,-0.11463178,0.073601708,0.088103525,-0.182529852,-0.031863876,0.186373994,-0.004147545,-0.112419374,-0.098824762,0.013047214,-0.108466044,-0.117963426,-0.092615642,-0.040753115,-0.17561464,-0.009506104,-0.020633422,0.080754913,-0.111988239,-0.091082819,-0.061163083,-0.090122715,0.012761094,-0.037278075,-0.098501317,-0.004760572,-0.047587872,-0.026894217,0.007063058,0.046426881,-0.138777226,0.013126427,0.076835096,-0.125807375,-0.126600653,0.033503082,0.035168231,-0.039878149,0.026276233,-0.107753478,0.087729253,-0.197078183,-0.009449442,-0.039996784,-0.003340231,-0.091254666,-0.068982147,0.071068347,-0.04910868,-0.224855274,0.055477209,-0.063312247,0.089116797,-0.101205543,0.02473768,-0.065791823,-0.032022361,-0.051628418,-0.084106058,-0.263040096,0.188278869,-0.006513502,0.085916966,0.015115701,-0.005201793,-0.097752467,-0.083114699,-0.140393615,0.061542865,-0.065038033,0.017974032,-0.036892679,-0.001223618,0.048802763,0.020565966,-0.115642853,-0.019930104,-0.025094997,-0.013850888,0.137565389,-0.074428543,0.030063942,0.025358493,-0.050826207,0.080431074,-0.012045785,-0.015244884,-0.031419244,-0.018846162,-0.063186981,-0.076131038,-0.053756613,-0.066450737,0.107126445,-0.073678203,0.007025663,-0.095008701,-0.111324169,0.123303548,0.142518237,-0.128617793,-0.062837511,-0.124477543,-0.102810167,-0.183998853,-0.244884357,0.108418807,-0.069423966,-0.001707291,0.064861201,-0.050736982,0.00889876,-0.00366306,-0.13037622,-0.076555289,-0.150974363,-0.148172468,-0.100230306,-0.072615065,0.057855383,0.066838935,-0.107791342,-0.029007798,0.017393248,-0.056755781,-0.103684366,-0.106953673,-0.059352782,-0.163508877,-0.015240721,0.019378843,-0.027500371,-0.08993569,0.081620775,0.005809445,-0.138786346,-0.104161523,-0.119858719,-0.0797593,0.068229325,-0.118136801,-0.030616911,-0.109192565,-0.053880937,0.046478685,-0.18838118,0.051777594,0.010392022,-0.054653529,-0.041684356,-0.068846747,-0.093583018,0.039145488,-0.078142189,0.015370581,0.05372595,-0.098551184,-0.061631825,0.030933986,-0.037039537,-0.05453568,0.026865508,-0.135882437,-0.060335297,-0.046965532,0.00552296,-0.071328543,-0.187091902,0.004758417,0.008076906,0.102260254,0.009742339,-0.081661053,0.061183766,0.02380587,-0.103945777,-0.056314226,-0.091020368,-0.215588629,-0.042283461,0.002517078,-0.101396769,0.036269248,0.000214619,0.029924911,-0.136527434,-0.147955373,-0.063407265,-0.04593752,-0.113540895,-0.007637125,0.08720357,-0.034887031,-0.024780788,0.024634585,-0.068225451,0.048279621,-0.001544962,0.026000539,0.072141066,0.046689667,-0.144515112,0.061085958,-0.171177223,-0.038705338,-0.145415679,0.054520931,-0.129504472,-0.087824218,-0.009818297,-0.090249635,0.011408249,0.057144746,-0.140252233,-0.025967108,-0.08613167,-0.081690475,0.040736731,0.098876678,-0.194613397,-0.038105905,0.034722425,-0.049652495,-0.090621531,-0.03473356,0.022308495,0.025105434,0.030668967,0.103950039,-0.077948928,0.01733879,0.008904839,-0.007458443,-0.132598668,-0.094501525,-0.139417067,-0.124046184,-0.025458122,0.008157323,0.022432292,-0.12912941,-0.039914001,0.116259843,0.02670951,0.02242413,0.001943868,-0.05771789,-0.058269363,-0.001254372,-0.118538939,-0.048801228,-0.030159732,0.07568334,-0.121762224,-0.163315818,-0.12215174,0.034744717,0.007272893,-0.043400951,-0.070711695,-0.000391746,-0.023259334,-0.099663533,-0.035266407,0.009092681,-0.182984069,-0.059112471,-0.023566084,-0.036486905,0.066481426,-0.126796216,-0.085241623,-0.022907391,-0.131879911,-0.093448699,-0.05894601,-0.013131874,-0.055674233,0.004945937,-0.048512396,0.011200663,-0.201688573,-0.139558986,0.122984178,-0.109797426,-0.201897606,0.046141837,-0.049131315,0.133564517,-0.073487662,-0.005518103,0.037690111,-0.058606874,-0.107648313,-0.048710726,-0.028115552,-0.128916502,0.062896028,-0.132810935,-0.073660344,-0.017064879,-0.186936826,-0.045015398,-0.001786724,-0.104488418,-0.049427662,-0.031525023,-0.144433171,-0.013220332,-0.02536336,-0.006363554,-0.133398905,-0.183178708,-0.049363349,0.02204605,-0.011601746,-0.181399047,-0.121738017,0.096392117,-0.221669585,0.021466743,0.048644487,0.015167138,0.048428282,-0.088194743,-0.116425321,-0.016538978,0.017887516,0.060291402,0.03300773,-0.025497783,-0.040427871,0.150712669,-0.049175479,-0.06517899,-0.045413405,0.06521479,-0.044837382,-0.110804014,0.001638361,-0.02426531,-0.009647804,-0.028944908,0.05410577,-0.07102216,-0.084795006,-0.022035169,0.000896704,0.031760719,-0.095640682,-0.066240966,-0.026610829,-0.072972983,-0.13524273,-0.018501909,-0.049471919,-0.077096805,-0.033311084,0.013505136,0.013030449,0.025919542,-0.035267167,-0.047250614,-0.100813083,-0.066775911,0.146951124,-0.08011467,-0.103648193,-0.07689286,-0.135028198,-0.101753309,-0.004997882,0.253545284,-0.029231308,0.055176985,0.07507468,-0.119408362,-0.045977898,-0.03181481,0.010514324,0.007224914,0.018115412,-0.085918888,0.089657992,-0.060073376,-0.090023004,0.038938738,-0.105001837,0.01379456,-0.111291289,0.142784804,-0.026396753,0.046642609,-0.08905039,-0.098012753,0.086984091,0.0795421,-0.109068371,-0.017192597,-0.087960601,-0.089737706,-0.052278318,-0.140756071,-0.088491589,0.08785826
-0.044169162,-0.08719305,-0.103549287,-0.148752198,-0.074720688,-0.140009463,0.003953453,-0.047931086,0.062171094,-0.200458303,0.06971477,0.145085692,-0.000107363,-0.093749717,0.01596861,-0.02661683,0.068583652,0.034830093,0.081771605,-0.092426397,0.088967487,-0.037465856,-0.055697259,-0.17868498,0.10164085,0.056027077,-0.082624055,0.042378098,0.099182509,-0.084681317,-0.207952038,0.005834168,0.075361878,-0.035569839,-0.143819675,-0.051286727,0.062517449,0.028763836,0.062680766,-0.086541146,-0.013104959,0.024067083,0.015407031,-0.134263024,-0.032477066,0.012689733,0.035132635,0.052922241,-0.03061855,-0.013167938,-0.002609887,-0.049875204,0.031822179,-0.060737215,-0.037357576,-0.025677467,0.175343126,0.004023363,-0.00128073,0.013305729,-0.049062792,-0.016358033,-0.038951263,-0.07433328,0.224631548,-0.065492474,-0.019757738,-0.128045306,0.123327173,-0.032431502,-0.038561191,-0.035781059,-0.095374808,-0.006187066,0.065179281,0.055200916,-0.094572991,0.083788082,-0.13286145,-0.037304699,0.013814863,-0.034923703,0.015686149,0.052813042,-0.270475447,-0.151825488,0.05860411,-0.021215942,-0.109830983,-0.090019688,0.014365169,0.051638745,-0.103053846,0.083205514,-0.071294293,-0.053715434,-0.108342364,0.091753341,-0.020494089,0.023309425,-0.10394942,-0.107905194,-0.013310675,0.02395658,-0.091653034,-0.076087162,-0.010241381,-0.070126616,0.097550675,0.011386895,-3.80E-05,0.181596577,0.054427166,-0.070978515,-0.00676398,0.015167289,0.004356087,0.044205871,-0.042725515,0.052812789,0.005468434,0.092034645,0.073403105,0.029396607,0.03534805,-0.13139759,-0.124974296,0.006162038,-0.072176516,0.057679951,-0.025501983,-0.066674039,0.090079941,0.066774316,-0.135083184,-0.144201323,-0.035769243,-0.000809546,-0.048757628,-0.03097124,0.051074281,0.011547621,0.122090697,0.026978841,-0.011060078,-0.084953912,-0.122332245,0.100153126,-0.183513716,0.015910212,-0.15149653,-0.012428414,0.012922334,0.033707071,-0.062382355,-0.028482029,0.006503645,-0.075899303,-0.175284281,-0.008099907,-0.028208591,-0.038596798,-0.046559572,-0.024544871,0.002663776,-0.06354259,-0.066772059,0.234095007,0.035341475,-0.090531245,0.012315819,0.049447425,0.010973422,-0.000580526,0.022155559,-0.031519827,0.041725721,-0.134866759,0.057645153,-0.017745204,-0.069082715,0.080245905,-0.110314794,-0.024405437,-0.112190627,-0.049107969,0.204071,0.099490501,-0.138860196,-0.061761133,-0.130127966,-0.07665126,-0.031742919,0.033258468,0.014951462,0.04117427,0.040366884,0.006123507,-0.138740838,-0.022417629,-0.079405479,0.161918491,-0.119520813,-0.064137869,-0.044713687,-0.141803294,0.034727216,-0.053879336,0.09019351,-0.297722489,-0.10949795,0.015668433,-0.087918878,0.004831946,-0.024424639,-0.181124792,-0.019841509,-0.131622046,-0.079593763,-0.095337562,-0.017445296,0.032249529,-0.107777603,0.000622283,-0.030778254,-0.050876945,-0.04232084,-0.140841767,0.0301424,0.020302365,-0.166975007,-0.15608643,-0.075022794,-0.003554492,-0.044938121,-0.1260636,-0.125225291,-0.032400794,-0.121036038,0.146164864,0.050645057,-0.035579689,-0.077607974,0.013690821,0.005660868,-0.093701482,-0.069753811,-0.073044166,-0.066029929,0.099026628,0.053027194,-0.019935865,-0.089029133,0.085631624,7.76E-05,-0.049642634,-0.125316545,-0.061747298,0.07041385,-0.006409612,-0.015117306,0.006686538,-0.148979962,0.028026452,-0.044327747,0.010570999,-0.107372165,-0.13888903,-0.049202815,0.256678373,-0.029668767,-0.063790381,-0.002842503,-0.067870632,0.076025091,0.052099731,0.029970245,0.071406744,-0.042997271,0.194017485,0.004751626,0.002965516,-0.009871158,0.038442638,-0.006444132,-0.077153124,0.038354132,0.025121212,-0.103031583,-0.0964128,-0.092885777,-0.045663808,0.075452283,-0.057824325,-0.003224567,-0.046217416,-0.048089147,0.029867521,-0.09333346,-0.074784726,-0.104272418,-0.03392458,-0.096310653,0.032313593,0.006940422,0.008128,-0.210380331,-0.06293118,0.035747692,-0.081922531,0.082816392,-0.05507654,-0.182746798,0.010921246,0.021317398,0.029919064,-0.151161298,-0.080932975,-0.069347642,-0.036442734,0.029684516,0.148974657,-0.010136909,-0.110585667,0.039652951,-0.179058895,-0.015583505,0.015806543,-0.004200785,0.056439105,-0.043613188,-0.074670196,0.125816986,-0.015806865,-0.032314148,0.078480154,-0.044738859,-0.088253722,0.114148341,-0.01370947,-0.057706539,-0.058072344,-0.240613639,-0.0273971,-0.158371449,-0.114035085,-0.131660655,-0.144758716,-0.023891632,-0.087273113,-0.108377077,-0.0443566,0.042623103,-0.028484048,-0.053159397,-0.071396761,-0.116893351,-0.010053843,0.075786516,-0.053916406,-0.146014422,0.050743144,0.076151006,-0.038160816,-0.045054253,-0.069552176,-0.097313568,0.037484553,-0.106584057,-0.068590008,-0.079023421,0.053720832,-0.025929736,0.054412596,0.053735398,0.018877832,-0.160859376,-0.039908279,-0.035561632,-0.091611944,-0.041728638,-0.063093446,-0.065719329,-0.074971668,0.006647985,0.020424848,0.014073771,-0.128211141,0.007952331,-0.252867788,-0.303619504,-0.025103984,0.036588568,-0.015300788,-0.115871385,-0.052552074,-0.040615723,-0.015564098,0.034087982,0.003227724,-0.140717939,-0.060647413,0.011032909,-0.047239903,-0.00484718,0.05267071,-0.077646017,-0.102449969,-0.136094049,0.047837723,0.055509429,0.083451755,-0.019126115,-0.112029664,0.042493608,-0.071844764,-0.084833674,0.005336846,0.027635571,-0.015971532,-0.121524066,0.005101929,0.033667605,-0.170935109,0.033756211,-0.072854057,-0.09156543,0.04347134,0.034636192,-0.07571321,0.019118231,-0.012867828,-0.107523866,-0.065682165,-0.069742344,-0.152733356,-0.003107635,-0.088036306,-0.057946671,-0.470877439,-0.077343732,-0.051332895,-0.030026697,-0.123549812,-0.154263079,-0.053036612,-0.084699869,0.107942365,0.003727373,-0.005915662,0.051900551,-0.041404016,-0.139117077,-0.121522591,-0.132629514,-0.094900504,-0.044279173,-0.023435781,-0.041106921,-0.067455918,-0.143472433,0.026699768,0.056324467,0.145224571,-0.061093409,-0.016248491,0.153549105,0.000170935,0.031495329,-0.06323579,-0.08379703,-0.010052055,-0.024354704,-0.080217391,-0.071603119,-0.087788664,0.012979469,0.053238262,-0.004889738,0.029158248,-0.034056753,0.021738512,-0.055700969,0.141983926,0.255483449,-0.080646694,-0.011684408,-0.051656775,-0.045596711,0.046471324,-0.038237892,-0.131929159,0.105968669,-0.133413538,-0.011209631,-0.158089325,0.029213684,-0.045585185,-0.134029016,-0.081946887,-0.085629381,0.015222054,-0.063112788,-0.085343242,-0.068398051,0.022593463,0.075207099,-0.02227247,-0.095420145,-0.013137917,-0.003682509,-0.099493109
-0.117010392,-0.068768509,-0.116127491,0.042215005,-0.128206581,0.196413055,-0.104806826,-0.038382292,-0.194254667,0.329398334,-0.144346416,-0.103009589,-0.121863104,-5.21E-05,0.00026402,-0.025462601,-0.076091573,-0.131086409,0.052270845,0.096979439,-0.002226993,-0.022797175,-0.046748687,-0.027900193,-0.104068935,0.042809762,-0.047356799,-0.088394925,-0.057186134,-0.07950405,-0.026920484,-0.04815631,-0.153371126,-0.163364351,-0.162272975,-0.001841031,-0.062683083,-0.040939424,-0.152769327,0.026975445,-0.014882353,0.035470136,-0.090317145,-0.052769914,-0.069807656,-0.082904086,-0.068090245,-0.130631298,-0.065072775,-0.010400622,0.000298733,-0.046818789,-0.036262412,-0.039862115,-0.151647329,-0.044043984,-0.058305387,-0.055685822,-0.057511944,-0.020630833,-0.047576081,0.198674053,0.088820331,-0.081893288,-0.160533637,0.040469445,-0.025760926,0.035276674,0.008526784,-0.10711813,-0.007769746,0.061256342,0.046908643,-0.112049878,0.002091675,-0.096458733,-0.095827848,0.035218347,-0.043458138,-0.088617109,-0.071204774,-0.146269694,-0.014565073,0.00478928,-0.164520249,0.019705355,-0.090851955,-0.089164414,-0.067587823,-0.003428753,-0.021149389,0.0692636,-0.133425936,-0.218726695,0.020261882,0.078721531,-0.117483087,-0.248897374,-0.008304779,-0.076541469,-0.101530112,-0.090245523,-0.200437069,-0.100838319,-0.073783547,0.27258867,-0.153721526,0.028379178,0.080094673,-0.354951084,-0.197578922,-0.197028846,-0.2316733,0.034649078,0.039634105,0.040081043,0.005983625,-0.000994429,0.046284787,-0.110132158,0.034269091,0.0549764,-0.05784535,-0.21497035,0.005218607,0.01600905,-0.070446514,-0.02752188,0.086072341,-0.065202698,-0.031243095,-0.006629375,0.087971233,-0.04483847,-0.059693277,-0.096567333,-0.09515655,-0.014105225,-0.10156887,-0.091810547,-0.138351992,-0.033091281,-0.078196496,-0.082429998,-0.141331375,0.267431796,-0.100181766,-0.168219075,0.057386737,-0.037310727,-0.074783586,-0.000708454,-0.06094721,-0.129674524,-0.16906181,-0.041843243,0.141369328,0.006309937,0.015204148,-0.07538826,-0.207289204,-0.062757619,-0.029983459,-0.082440093,0.003988328,-0.08035437,-0.107743524,-0.685130715,-0.094038576,-0.004891831,0.03144807,0.088767849,-0.047907129,-0.071052939,-0.05265148,-0.01308901,-0.175559953,-0.027484432,0.029114984,-0.035188362,-0.006711762,-0.202559218,-0.044365637,0.045982022,-0.049268946,-0.021395136,-0.055066582,-0.097053938,-0.119392045,-0.058494609,-0.096425623,-0.010007739,0.014629971,-0.071461722,-0.164914072,0.064190231,-0.032905914,-0.067701623,-0.095051266,0.047803205,0.036774248,-0.107224099,-0.054051846,-0.024518963,-0.108216927,0.103204966,0.282927781,0.147040337,-0.044618148,-0.226767018,-0.015978541,-0.20376657,0.158534572,0.061328229,-0.018509626,-0.079340532,-0.000919202,-0.122069664,0.045730453,-0.026747868,-0.128286079,-0.02812798,0.043905467,-0.028101219,0.188397765,-0.130999416,-0.009940511,-0.190700471,-0.076655343,-0.039706249,-0.109904178,0.005898883,-0.170502439,-0.108398713,-0.077840529,-0.135001674,-0.089076236,-0.05777828,-0.065569148,-0.196639448,0.022697449,0.039881483,-0.036475882,0.080577031,0.091610394,-0.042813979,-0.034951683,0.044459354,0.012314572,-0.016842065,0.000122251,-0.1405195,0.161934212,-0.050309431,-0.046824772,-0.020865826,0.030638143,-0.085243307,-0.110646173,0.07334923,-0.154091835,-0.208663791,-0.013001875,-0.111649849,-0.2576392,-0.04674609,-0.062693887,-0.100107864,-0.137025803,-0.01393786,0.020847581,-0.132386863,0.033550099,-0.012164646,-0.039120928,-0.103767738,-0.015919562,-0.339862198,-0.158462718,-0.108047031,-0.083281338,0.027410174,0.058386277,-0.008059935,-0.063374661,-0.08310733,-0.090966761,-0.006897606,-0.049131159,0.080736883,-0.138195038,0.046607826,-0.091012962,-0.083896197,-0.013013937,-0.115738839,-0.144182071,-0.085858412,0.08090096,0.011089811,0.075714164,-0.157949179,-0.146924153,-0.101723485,-0.056466319,-0.043083198,-0.116118275,-0.104796708,0.012990325,-0.047695015,0.107908964,0.154261753,-0.092358306,-0.020051301,-0.001433055,0.066464394,0.023488276,-0.047305826,-0.041301072,0.036461711,-0.010076699,0.017136158,0.057228841,-0.069633879,-0.11561431,-0.130838499,-0.00744626,0.039161328,0.007167425,-0.055451911,-0.059223324,-0.075869314,-0.116878592,0.00848545,0.012451507,-0.019533861,0.059668418,0.063287154,0.125483483,-0.033704784,0.056452256,-0.062286004,-0.029656462,0.007454888,-0.053137936,0.037843861,-0.001143104,-0.070761293,0.044775378,-0.005426711,-0.016731057,-0.083356008,-0.12751475,0.05754194,-0.061388452,-0.007315008,-0.09556444,-0.082152367,0.129694641,0.068835042,-0.04175327,-0.432955235,0.0037037,0.029086124,0.001751519,-0.091862865,-0.05353817,-0.065549031,-0.002354626,-0.107047632,-0.023507997,-0.072714701,-0.042156111,-0.098617606,-0.070803307,0.013319488,0.017938016,-0.283524841,-0.072407782,0.01465596,-0.111760445,-0.062201969,-0.037966169,-0.124647677,-0.107316077,0.096880831,-0.151168808,-0.135569125,0.166729033,-0.17511633,-0.079111166,0.018470267,-0.183393762,-0.160321698,-0.113767803,0.100342035,-0.033527661,-0.021401851,-0.00503883,0.082089186,-0.022833277,-0.001539678,-0.089550309,-0.093858615,-0.051979359,0.015545013,-0.053708784,-0.021417793,-0.034033474,0.007874961,-0.045744296,-0.052685428,-0.051392701,-0.134931296,0.050787102,-0.12590304,-0.125631422,-0.135572016,-0.063553169,0.062452395,-0.092147373,-0.03291199,-0.080916241,-0.143605635,-0.126381367,-0.105719827,-0.146134421,-0.2615349,0.046943318,-0.061209027,-0.003116813,0.014285808,-0.089086086,-0.065185674,0.07021042,-0.163774028,0.007455785,-0.164090231,-0.059599273,-0.244327739,0.029770097,-0.079455242,-0.008357428,-0.091879979,-0.078263827,-0.115367718,-0.029418344,0.037001468,-0.090929873,-0.014217781,0.005764656,-0.070212483,-0.247240409,0.010301527,0.083274558,-0.097458243,-0.066881388,-0.036808573,-0.005489777,-0.118359737,-0.073610008,-0.069707081,-0.034156889,-0.007833932,0.050715949,-0.076950185,-0.02713625,-0.130436838,0.006008807,-0.227965921,0.04347647,0.053282552,0.118034005,-0.118534379,0.058580305,0.000453487,-0.012809833,0.052008461,0.128874838,0.125504106,0.074817099,-0.103483632,-0.0994967,0.137698993,0.028505754,-0.175928578,-0.037761711,-0.001985492,-0.046119191,-0.113919728,0.046704978,-0.009725052,-0.115510844,-0.024549769,-0.012303732,-0.219471201,-0.008287061,-0.27222383,-0.076100938,-0.064992584,-0.028532568,-0.153590083,-0.027540509,-0.149943382,0.013220033,-0.066959918,-0.109309346,-0.064221352,-0.104093991,0.030361079,-0.013278592,0.007941879
-0.074234866,-0.029103927,-0.042908683,-0.216031581,-0.041604299,-0.271446198,-0.024057645,-0.184040636,0.405972302,-0.123782784,-0.041621268,0.402667165,-0.149232149,-0.050834138,-0.141721204,-0.022235725,-0.069036022,-0.046583235,-0.154092714,-0.16597639,-0.195257828,-0.062364124,-0.09639021,0.176669866,0.355860591,-0.176177189,-0.215667591,-0.083947137,-0.164483726,-0.099422731,-0.034529589,0.125853881,0.358695686,-0.019059675,-0.151823074,-0.154831022,-0.122440063,0.07883735,0.36338976,0.032341,-0.000500665,-0.130578756,-0.1820779,0.057531394,-0.139877334,-0.127824858,0.038881939,0.01438777,-0.132286832,-0.036253624,0.280886352,-0.170977026,-0.211955935,-0.066161692,-0.116602808,-0.065222278,0.109714195,-0.045690335,0.101013906,-0.027962787,0.116934434,-0.133434519,-0.032053545,-0.167547926,0.415911049,-0.076380208,-0.089711577,-0.120175704,0.36402151,0.103855491,0.157221854,-0.108367778,-0.127614498,-0.006308428,-0.255125225,-0.233919248,-0.107027143,-0.153521404,0.160090849,-0.02184844,0.172754034,0.391274959,-0.194308549,-0.09374588,0.461589158,0.021013467,-0.12674664,0.039472688,0.025755663,0.03315486,-0.065260388,-0.128101766,-0.140972063,0.494064242,-0.01120364,-0.020111725,0.183212996,-0.234826312,-0.051791228,-0.077377737,-0.076391287,-0.087848336,-0.087047026,-0.038983397,0.057599478,-0.175859571,-0.148461044,-0.024523057,-0.218682945,-0.241824195,0.296999425,0.435719669,-0.218789384,0.019604752,-0.034412555,-0.096723348,-0.090687819,0.104142599,-0.008911825,0.30396542,-0.071356498,-0.006493363,-0.080164328,0.308585703,0.301909,-0.134100229,0.038787834,0.184082404,-0.07752531,-0.012882257,0.036580917,-0.095697045,-0.073017336,-0.103707828,-0.123768754,-0.111962512,0.075623147,0.055962652,-0.0424315,-0.063666962,0.028615331,-0.041457821,0.330803096,-0.034492903,0.024995914,-0.284480959,-0.051683333,-0.27552563,0.016963394,0.25617668,-0.119350806,-0.082328707,0.013022783,0.071564578,-0.096676476,-0.207458407,-0.095233329,-0.035132013,0.010623478,-0.094101317,-0.197878078,-0.093797706,-0.069259383,-0.084608123,0.049990337,-0.039184701,-0.314403564,-0.154068679,0.01113557,-0.05059354,-0.001694956,-0.074535415,-0.047950931,-0.183847383,-0.172914654,0.020741442,-0.169054732,-0.021579281,-0.296742231,0.077469468,0.032249209,0.502907753,-0.053662576,-0.075687304,0.009957573,0.028222641,-0.092607185,-0.081976838,-0.133871153,-0.05730135,0.044228058,-0.006715819,-0.021880193,-0.178898096,-0.184633628,0.042811036,0.107387409,-0.064624116,-0.296213001,-0.130855158,-0.018840909,0.430600971,0.050817937,0.008959623,-0.066902228,-0.181320682,-0.144863635,-0.150518388,-0.101607077,0.237272307,-0.106178224,0.066510618,-0.195939243,0.176441386,-0.023115533,0.054190569,-0.093656242,-0.050142337,-0.011041435,-0.199557021,-0.080908813,-0.143530652,-0.145487294,-0.048691195,-0.219872549,-0.048318975,-0.148508415,-0.162252069,-0.089444436,-0.084902652,0.21664542,-0.054795127,-0.126715809,0.082490094,-0.00588847,-0.28648904,0.050768055,-0.042722356,-0.144476354,-0.060769748,-0.265645385,0.006119127,0.023800192,-0.032178171,-0.115619399,-0.215746597,-0.23663339,-0.191893056,0.107634708,-0.164127886,-0.006509388,-0.086799145,-0.174462721,-0.055748906,0.225242332,-0.011780387,-0.06758447,0.095023021,-0.055845048,-0.041383591,-0.228591383,0.428824127,0.148239717,-0.151001871,-0.156068251,0.106249742,-0.141102642,-0.107293196,0.056465134,0.188189596,-0.16426073,0.182541162,-0.125787795,-0.10028293,-0.101780735,0.18445158,-0.257315457,-0.12045192,-0.193305925,0.27529043,0.00925917,-0.124385878,-0.03166014,-0.138838261,-0.055198357,-0.193763554,0.005411389,-0.097409003,-0.11191576,-0.060948473,0.014391351,-0.14589648,-0.051081896,-0.077022627,-0.060278438,-0.087051824,-0.130007058,-0.07148777,-0.274282455,-0.083981402,-0.245759085,0.528156519,-0.050722521,-0.025289692,0.196898773,-0.131162405,0.259505838,0.346829116,-0.016068641,-0.181023136,-0.105496787,-0.257119119,0.013312144,-0.103077658,-0.045730505,-0.142347202,-0.117177114,0.046836164,-0.117222235,-0.00709915,0.045538835,-0.059353415,-0.013504769,0.105926894,-0.15557915,0.491772562,-0.091386437,-0.035784684,0.005604794,0.067001693,-0.118447788,0.096701928,0.347920656,-0.048156779,-0.10783264,-0.23703374,-0.13805674,-0.014479846,-0.228830069,-0.033426739,0.051269162,-0.0998699,-0.201542363,-0.046105351,0.143400624,0.001893153,0.052309144,-0.085979171,-0.077308208,-0.176838279,0.015242524,0.081452027,-0.097199224,0.003622145,0.029486179,0.054563653,0.053332672,0.103110626,-0.098891966,-0.037439406,-0.055908822,-0.14647989,-0.051191621,-0.061211266,-0.098563619,-0.063725703,-0.123571597,-0.113458283,0.005236902,-0.043824822,0.101947054,-0.136514679,-0.163830459,-0.062049083,0.32904309,-0.150861621,0.022550007,-0.092422165,-0.013100903,-0.040045079,-0.11553701,0.026235791,-0.071671695,0.058705363,-0.155807614,-0.097943977,-0.022005742,0.408768058,-0.149339065,0.255797625,-0.160982892,0.013587844,0.173085019,0.605539441,0.018014982,-0.118271574,-0.012123568,-0.021681065,-0.066327252,-0.036486648,0.016334156,0.231077552,-0.179841995,-0.167161822,0.009871426,0.005300154,-0.098560251,-0.114175186,-0.048444055,-0.03652589,0.014766106,-0.144662574,-0.063954227,-0.004036891,-0.15587236,-0.143797591,-0.102888882,-0.080344163,0.036442261,-0.108141564,0.103189178,0.01052094,-0.048956811,-0.162096813,-0.005500491,-0.289383024,-0.245202169,-0.178397074,-0.229050487,0.065039225,-0.101490296,-0.098100983,-0.027971249,-0.164121032,-0.150890634,-0.105913013,0.016660869,-0.143150121,-0.050012216,0.40210253,0.044753451,-0.127816066,0.231638119,-0.055785995,-0.181919634,-0.120433137,0.005656953,-0.218923137,-0.032879319,-0.064359866,-0.214472041,0.156455785,-0.109778911,0.026953809,0.005261473,-0.182492256,-0.089305893,0.087067217,0.047485538,-0.062027447,-0.184322372,0.054607105,-0.037190996,-0.152393088,-0.235709444,-0.090405375,0.398103952,-0.082371809,-0.096421666,-0.203371555,-0.025513072,-0.071213223,-0.272752911,0.23877731,-0.228137374,-0.039689645,-0.099948488,-0.002247347,-0.050963685,-0.28246212,-0.122658618,0.010060642,0.014652201,-0.25002256,-0.093612738,-0.074272744,-0.057417426,-0.030771874,-0.204595074,-0.003290949,-0.186961457,0.089631535,-0.082362771,0.091898337,0.058812924,0.417704046,0.052947551,-0.299406886,-0.066158794,-0.013796311,0.067381144,-0.037712816,-0.0456536,-0.162999347,0.035045434,-0.004226093,-0.074587077,0.043932539,0.108249418,-0.026943293,-0.251318306,-0.091845617
-0.038161997,-0.126276091,-0.051529106,0.042289168,-0.041544072,0.084703997,0.006265468,-0.131788731,-0.14166081,0.1582084,0.078046016,-0.117644399,-0.040297378,-0.059136547,0.014083128,-0.131653056,0.013793804,-0.049771663,-0.195485726,-0.154879108,-0.035403401,0.04846248,-0.014034184,-0.114581138,-0.154246703,-0.020234514,0.387110233,-0.102656484,-0.041446127,0.016520932,-0.17064473,-0.083749421,-0.176043496,-0.056318119,0.065794878,0.111666083,0.044887453,0.069955863,-0.193613455,-0.034390759,-0.146630243,0.04283993,0.291700125,0.067089088,-0.134279162,-0.132886961,-0.036925394,-0.067674227,-0.12522471,0.011040295,-0.135587037,-0.185742915,-0.51332134,-0.001785764,-0.026627591,-0.140881687,-0.044593781,0.187456936,-0.087313972,-0.044327553,-0.055322211,0.009438435,-0.020884642,-0.12256743,-0.177894697,-0.023244087,-0.09929727,-0.02257642,-0.034621161,-0.091409169,-0.122699849,-0.103269354,-0.12796317,-0.084649153,-0.274120629,0.040891305,0.007255941,-0.039808195,0.007266362,-0.027987152,-0.135116622,-0.090751618,-0.126085416,-0.186659783,-0.190677911,-0.069961906,0.060777225,-0.035746455,-0.127368122,-0.076588646,0.059261158,0.009194835,-0.153348729,-0.130804092,-0.098921776,-0.093554169,-0.068252713,0.075966127,-0.027103961,-0.006971196,0.008898203,-0.033817597,-0.040685732,0.036003951,-0.004945461,-0.436028093,0.059684444,-0.093809217,-0.189165637,0.081685051,-0.045244061,-0.159579247,0.295432448,0.006193404,-0.077962793,-0.030408492,-0.004159581,-0.073208988,-0.123486579,-0.095814407,-0.139734402,0.05896372,-0.197107881,-0.102012262,0.028170662,0.083791159,-0.098087743,-0.158396438,-0.000554972,0.007162564,0.04226505,0.002485317,-0.159161732,-0.122367993,0.090773195,-0.022484461,-0.021094708,-0.044360649,0.056273464,-0.068020016,0.019811599,-0.076541871,-0.059736338,0.032972425,0.019675462,0.188692153,-0.064775974,-0.100207768,0.05170957,-0.083189972,-0.189875767,0.057624526,0.02620141,-0.033030305,-0.136468962,-0.031610437,-0.330588043,-0.033232715,-0.096439488,-0.047208257,-0.119505592,-0.010168573,-0.087733276,0.065252647,-0.059329551,-0.149821833,-0.357099026,0.129164636,-0.16104424,-0.026902363,-0.018123316,-0.145995826,-0.066062391,0.065856449,-0.192995802,-0.09968026,-0.028383795,-0.057101086,-0.000305791,-0.009519924,-0.021543508,-0.186909184,0.01914232,-0.019156771,0.033930529,-0.004984746,-0.143700615,-0.038701884,-0.039437011,0.067220062,-0.00482166,-0.087023966,0.004062339,-0.150380582,-0.187372819,-0.08782699,-0.131027922,-0.052742481,-0.079401501,0.006015648,-0.132218733,-0.17539002,0.000693128,0.001462351,-0.046659414,0.009956422,0.043970726,-0.071283929,-0.111084804,0.031740468,-0.009189735,-0.089907929,-0.501665175,-0.074777491,0.005369062,-0.052945301,-0.148888812,-0.091002069,-0.111510411,-0.020175794,-0.009641291,-0.03149024,-0.23692742,-0.035870526,-0.459594786,0.057874754,-0.087640837,0.082943201,0.032309685,-0.02172181,-0.092752412,-0.072328359,-0.000394903,-0.013425546,-0.052368905,0.04710713,-0.044658948,-0.00988852,0.037706427,-0.438560039,0.005379971,-0.103341579,-0.138292164,-0.028199635,0.071198568,-0.018150723,-0.193352684,-0.093959659,-0.074161738,-0.020119382,-0.063568682,0.094499216,-0.349713743,0.030179497,0.062774666,-0.020758629,0.061513595,2.96E-05,-0.016636886,-0.099731781,-0.173726529,-0.112749323,-0.103238031,0.042393051,-0.070006512,-0.056634128,-0.02438328,-0.078652993,-0.017655866,-0.06287095,0.0376838,-0.08908917,-0.127803132,-0.062948607,-0.228526935,-0.098094985,0.074108765,0.224102572,-0.140516847,-0.059942257,0.043463532,0.014894324,0.010965587,-0.009881886,-0.026799068,0.171458036,-0.076421425,0.008275437,-0.04706417,-0.082313053,-0.114154644,0.05010638,-0.087074578,-0.039546683,-0.077079564,-0.084945202,-0.080055147,0.002382939,0.150117353,-0.132029831,0.001715329,-0.170259908,-0.100837529,0.01376755,-0.14366293,-0.007688656,-0.12031816,-0.062798277,-0.039177824,-0.091541201,-0.124594629,-0.197361469,-0.007754933,0.068658613,-0.031949624,0.020660417,-0.047183015,-0.014298078,0.040745225,-0.082494386,-0.113264799,0.101369336,0.022014564,-0.110460766,-0.101547383,-0.228516117,-0.01524929,0.046777111,-0.032285351,-0.000992371,-0.099458121,-0.181587786,-0.063809551,0.035319358,0.028466256,-0.0042468,-0.113583885,-0.093702316,-0.029088197,0.062724538,-0.111904122,-0.135088354,-0.305344313,-0.028397186,0.024414219,-0.084874004,-0.044831641,0.029132355,0.03397711,-0.137370914,-0.079472333,-0.014954353,-0.094294444,-0.154131517,-0.113711774,0.033105485,0.014250134,0.01080779,0.006026717,-0.104740538,-0.099435292,0.16430752,-0.046942446,0.013681157,-0.119020253,-0.053896703,-0.064660773,0.0555874,-0.00888684,-0.088008769,-0.066555634,-0.039147981,-0.060601492,-0.04003137,-0.090167292,-0.038848653,-0.018050162,0.074746124,-0.000862841,0.074979827,-0.019359158,0.125922158,-0.159466878,-0.116964936,-0.13417986,-0.186360776,0.031964701,-0.133002222,0.046046384,-0.004305301,-0.012024271,0.029250244,-0.069650896,-0.244890884,0.022341441,0.216183573,-0.100782856,-0.121371903,-0.07091447,-0.108874328,0.045409009,0.093771078,-0.144633979,-0.026904736,-0.067358106,-0.071336612,0.007170612,0.004461377,-0.13429533,-0.060568143,-0.066568688,-0.065533392,-0.129700542,-0.090561144,-0.150013357,-0.025648365,0.043876704,-0.115834042,-0.134413168,-0.10682264,-0.052282255,-0.060506005,-0.131439254,-0.013625718,-0.1029673,0.16447264,0.06880185,-0.116151363,0.16662994,-0.08341001,0.039219022,-0.12806949,-0.069951698,0.181148037,-0.10787832,0.233129919,0.013881444,0.095270038,0.030059071,-0.090435572,-0.076823801,-0.00856102,-0.074591711,-0.070078567,-0.015386877,0.014317345,-0.051831603,-0.089107573,-0.033440325,-0.074411474,-0.104976669,-0.146163017,0.09303043,0.028092992,-0.070673361,-0.03401874,0.071107268,-0.069759347,-0.086449936,-0.040379062,-0.162541613,-0.130270183,-0.033873737,0.138362065,-0.039425682,0.040920358,0.033865284,0.045153339,-0.101310805,0.137480259,-0.022764029,-0.081594862,0.314000666,-0.111650534,0.053693011,0.007336922,0.040755197,0.057810813,-0.162860215,0.107504025,-0.077921443,-0.014894563,-0.025069634,0.091785073,-0.009530029,0.126017854,-0.011730697,0.022588957,-0.016512973,0.00107665,0.022767192,-0.012323571,-0.006290715,-0.038845684,-0.087281957,-0.050595455,0.007760303,0.083987929,-0.093595505,-0.022728091,-0.029614382,-0.048743241,0.080731846,-0.03403477,0.012502379,0.02173193,-0.079730392,-0.109198049,-0.071886279,-0.115092985,0.172025681,-0.054851323
-0.094554968,0.084674776,-0.006586221,-0.113947287,0.017087583,0.071022108,0.003103278,0.127362281,0.01981058,-0.102996029,-0.0593311,0.016081004,0.020969899,-0.046038665,-0.022869822,-0.107313827,-0.007315604,0.05819346,-0.037232455,0.058298141,-0.016494932,0.011941073,0.028178757,-0.001534615,0.150834322,0.096535876,-0.108714774,-0.009371869,-0.054614887,0.018392202,-0.031011552,-0.148887873,0.116730042,-0.028173214,0.059191637,-0.112808764,0.016555756,-0.062182099,0.079570182,-0.050972104,0.015862586,-0.073152483,-0.099731825,-0.035188396,-0.028434908,-0.134330705,-0.148618996,-0.012944486,-0.137173861,0.011508481,0.012920657,-0.242199779,0.112818942,-0.142366216,-0.075212605,0.053863172,-0.103345849,0.228747577,-0.039360128,-0.12658143,-0.218287364,-0.075634413,-0.120175384,-0.026267694,0.105628334,0.054830261,-0.070363022,-0.082806096,0.098514855,-0.053126805,0.060026106,-0.165195197,-0.108199969,-0.04382205,0.074863091,-0.009387096,0.037036754,-0.060299303,0.294272304,0.106140643,0.048657782,-0.014599024,0.104341924,-0.068673588,-0.022991216,-0.076883778,-0.094891928,0.069091402,-0.057584696,-0.133884385,-0.024819339,-0.200017169,-0.011852224,-0.045384497,0.006644104,0.111201502,-0.251896799,0.065039381,-0.121625938,-0.117146529,-0.035136785,-0.094635934,-0.028444998,-0.045842759,-0.006505892,-0.000805282,-0.071481071,-0.113074772,-0.034594145,-0.04427655,0.081194192,0.047349304,0.194160447,-0.116650127,-0.086051412,0.023372298,-0.125056118,0.119306631,-0.026437737,0.083750367,0.016746266,-0.124469489,0.091101319,-0.131257802,0.066992499,-0.014677704,-0.045517236,-0.096046656,0.002800695,0.005143611,-0.033637989,0.008633618,-0.048034288,0.047910452,-0.043902293,-0.100763649,0.097155385,0.01514478,-0.027410245,-0.097124927,-0.02093916,-0.104095541,0.092128485,-0.047790032,0.023285069,-0.064056769,-0.027883103,0.09034916,-0.036508683,0.131601036,-0.055929523,-0.011702669,-0.08470954,-0.259304494,0.041970618,0.035999414,0.009143428,-0.045379531,0.092728242,0.061405394,0.013050839,-0.06629575,-0.112017207,0.016012713,0.032776743,-0.00090418,-0.047444738,0.01472588,-0.059996516,-0.096446157,0.076570496,-0.016022954,0.005226902,0.131167904,-0.134900644,-0.101772361,-0.028528517,-0.099938087,-0.120586224,0.053810608,-0.046204206,-0.104134508,0.007996534,-0.119791016,-0.032431118,-0.050108798,0.085584395,-0.055444721,0.029242454,0.010484551,0.006730657,-0.081432149,0.038549699,0.033440858,-0.012651024,-0.048893817,0.085364386,-0.064696766,-0.052926242,0.001938054,-0.098581098,0.202836499,0.013653725,-0.013692247,-0.080864623,0.004717472,-0.017992048,-0.026569003,-0.123179853,-0.207025811,-0.09427242,0.047169771,0.127359942,-0.186579794,-0.041552685,0.047487859,-0.028637344,0.056808122,-0.025986515,-0.074922033,-0.016359059,-0.007916882,0.057396848,0.032782231,-0.043319121,-0.015530998,-0.100734115,0.131783247,0.016472844,0.009164313,-0.184316889,0.082746714,-0.033053178,-0.0255726,0.065152243,-0.103680179,-0.006358142,0.003550122,-0.078581616,0.216574475,-0.103963286,0.012317653,-0.126128092,-0.082061686,-0.076761559,-0.084134132,-0.122171201,0.009490364,0.002826328,0.035434894,-0.03963564,-0.125796273,-0.004270038,0.11795298,-0.219789818,-0.000983825,-0.107416265,-0.076366894,-0.052614901,-0.029413229,-0.008476371,-0.035194874,-0.161725789,-0.003203414,0.072314367,-0.147071928,-0.157433122,0.042080585,0.043197203,0.133736119,-0.005151714,-0.007703434,-0.028080974,-0.179904938,0.035025336,0.04314404,-0.121727474,0.24435629,-0.016322035,-0.11999508,-0.119179525,0.078990899,-0.054170378,0.026690982,-0.074059971,0.163756236,-0.064697266,-0.07427907,-0.041622035,-0.082469322,0.029483097,-0.136108279,-0.017343877,-0.152396992,-0.041829146,-0.088009462,0.045975409,-0.084247306,0.013833261,0.050920926,-0.100034989,-0.245734662,-0.041421358,0.049676467,0.050579604,-0.088421039,-0.170922935,-0.029584402,-0.026324738,0.023128446,-0.010395388,-0.112881064,-0.075501479,-0.035604999,-0.109821059,-0.030606739,-0.014876243,0.022138709,-0.110500403,-0.016666232,0.014676638,0.048055086,-0.137208581,-0.17389968,-0.048326068,0.065534212,0.026412172,-0.073564366,-0.081151828,-0.128463522,-0.054802839,-0.049467478,0.140659422,-0.089865498,-0.046433058,-0.058253434,0.124040388,0.006782658,-0.11071448,-0.046493419,-0.152387977,-0.112478077,0.122042,0.050516941,-0.1233394,-0.016607005,-0.038103443,0.01782443,0.026091727,-0.00067187,4.61E-05,-0.091731735,-0.090712175,-0.002473174,-0.014816886,-0.123555653,0.022386758,0.011742547,0.016135635,-0.099814475,0.068462744,0.048935387,-0.008068305,-0.088319272,-0.028983077,-0.061405059,-0.156684071,0.056777977,0.059568938,-0.072689854,-0.038258828,-0.017989423,-0.160785496,0.016406369,0.055171706,-0.087735184,-0.121245414,0.165492475,-0.076931715,-0.051201236,-0.108316287,-0.089317121,-0.135851592,-0.103049509,-0.079876885,-0.092478313,-0.013613671,0.032926198,0.049923956,-0.13196817,-0.0299433,-0.088257507,-0.202848882,0.081201211,0.056340095,-0.051805366,0.030442895,-0.053522486,0.012273853,0.053637113,0.051786453,0.025778839,-0.141051784,-0.109456159,0.053137168,-0.10400895,0.029286165,0.112456031,0.0060177,0.00602084,0.01462757,-0.00909706,-0.110590249,-0.054077786,-0.14412941,0.089575015,0.024476307,0.043507781,-0.070705906,0.006066758,-0.067168199,0.031017261,0.057482008,0.116396204,-0.105532929,-0.038872115,-0.018223777,0.175481871,0.043107528,-0.04691359,0.005638882,0.057697147,-0.043312017,-0.064687818,-0.070644796,0.050999481,-0.038348682,-0.047319271,-0.095042199,0.107882813,0.005931895,-0.180560947,0.041915514,-0.125051916,-0.135652363,0.021551831,0.025573183,0.008395847,-0.094453946,-0.078049526,-0.321196884,0.07519076,-0.157680973,-0.148126349,-0.089209542,-0.123808406,-0.098343596,-0.084124938,-0.100174025,0.00273111,-0.017945858,-0.10109476,-0.028338291,-0.16340211,0.020942146,-0.116083175,0.168777004,-0.13234359,-0.037695933,0.019529523,-0.104855351,0.058541674,-0.100381605,0.078552604,-0.047843028,0.038972035,-0.006171231,-0.119927719,0.049611025,0.103647925,-0.10022413,-0.094781473,-0.005561765,0.142328933,-0.176292747,0.061289836,-0.002464274,-0.05915165,-0.082243376,0.009857494,-0.044671852,0.017372591,0.035414662,0.145130113,-0.063087434,-0.000123284,-0.121624783,0.052003369,-0.059501361,-0.068290211,-0.060080223,0.027708778,-0.082329653,0.011453303,0.052416939,-0.104269408,0.020247579,-0.117668413,-0.04723572,-0.019103164,-0.049030706,-0.032493968
-0.068550587,0.098853484,-0.045487545,-0.187633544,0.072438091,-0.085272513,-0.018072322,0.109695353,0.016440693,-0.067226157,0.079557978,-0.004742972,-0.047152944,0.0797593,-0.124511205,0.03185432,-0.109513961,-0.050668888,-0.171332285,0.066733755,-0.060242649,-0.090439864,-0.122967675,-0.034417145,-0.069990747,-0.022274923,-0.043047011,-0.028255589,-0.172338069,-0.080604814,0.004330305,-0.03726827,-0.045332223,0.08202403,0.049597405,-0.024126271,-0.091728114,-0.111602038,0.006992651,-0.03695216,-0.035004094,-0.028420728,-0.268462032,-0.054819081,-1.50E-05,-0.024927622,-0.042535435,-0.139811114,0.07256525,-0.014710991,-0.058382571,-0.089203313,0.085017979,-0.134502277,-0.077969253,-0.090060763,0.08872474,-0.025771914,0.001980845,-0.023093483,0.028374042,-0.09178061,-0.076077215,0.028825821,-0.034681439,-0.14538376,-0.154408634,-0.017598743,0.03322034,-0.068306506,-0.080138199,-0.191475973,0.055029199,-0.118695952,0.148728162,-0.144395649,0.022215124,-0.122023411,-0.120109879,-0.055513743,-0.0337703,0.000127852,0.065976717,-0.032393053,0.003845983,-0.067983508,-0.042962868,-0.00909529,0.052528083,-0.145747006,-0.053289861,-0.048043706,-0.031240357,0.0476541,-0.120418012,-0.134376138,0.0332384,-0.046311092,-0.13071692,-0.007117462,-0.115732081,-0.060143862,-0.016171884,0.039280806,-0.080791101,0.072629616,-0.011000163,-0.080295324,-0.090712071,0.061838396,-0.04478395,0.014591756,0.038251869,0.027499275,-0.014539082,-0.02098966,-0.120991103,-0.150895581,-0.145489797,0.030570615,-0.126471952,-0.099962451,-0.093279228,0.047182553,0.02519967,0.096369505,-0.125801832,-0.039837275,-0.02735891,-0.010278986,-0.066887491,0.004045581,-0.0166611,-0.003202787,-0.086682484,-0.124194995,-0.112193018,-0.096072629,0.013791584,-0.083398953,0.024260631,0.054515254,-0.117476627,-0.041608978,-0.111960568,0.122615002,-0.02790867,0.066506207,0.008576787,-0.120319523,-0.034499504,-0.063457966,-0.107346468,0.058713947,-0.035923772,0.094461672,0.104646809,-0.081106424,-0.039169196,-0.063039862,0.192489952,-0.098175578,-0.094316036,0.051770661,-0.008543079,-0.129724741,0.205162257,-0.123901933,-0.018585431,0.017218424,-0.122123532,-0.065222837,-0.101310492,0.164568216,0.042677801,-0.144965857,0.050259989,-0.007866557,-0.096303158,0.028033903,-0.0751082,0.051967748,-0.212518558,-0.10934639,-0.084826604,-0.05637084,-0.103924446,-0.019118276,0.036130022,-0.111949004,0.004658397,-0.037363969,-0.03650998,0.056542017,-0.025409196,-0.117173508,-0.147984117,-0.013920424,-0.001896103,-0.0109614,0.028937794,-0.102335535,-0.110331692,-0.10115476,-0.10964258,0.066829503,-0.203519866,-0.009281324,-0.013527378,0.162726268,-0.002090268,-0.062464923,0.298751324,-0.127085209,-0.037235715,-0.155993342,-0.133114904,-0.096873656,-0.070552371,-0.075823523,-0.116985165,-0.040860489,0.131715313,0.016058397,0.009770289,-0.122883417,-0.039074361,0.073307775,-0.103876658,-0.009084215,-0.071210869,-0.013362596,-0.053290542,0.015087291,-0.070596069,-0.022197718,0.005041057,-0.040346626,-0.063860782,0.00920614,-0.023379291,0.007052967,0.068470635,-0.078454077,-0.050752863,0.239462346,0.01302294,0.095003299,-0.070776939,-0.038204193,-0.062697917,-0.167737454,0.024042942,-0.0740273,0.202358693,0.009512852,0.006335722,-0.021376457,-0.020207154,-0.130854279,-0.049563419,0.04514261,-0.151415944,-0.076353736,0.111706644,0.039461192,0.040307861,-0.046913989,-0.008583463,-0.19148472,-0.018762641,-0.066337451,-0.073197328,-0.121121518,0.033529624,-0.020416571,-0.014626782,0.090967275,0.049458511,0.027963119,0.054219227,0.009666689,-0.118496284,0.037722893,-0.032556582,0.082903102,0.043575164,-0.138090059,-0.013097406,-0.052119874,-0.005052893,-0.069127582,-0.02834761,-0.061085731,-0.081073381,-0.089695007,0.056761976,-0.007854055,0.195805892,-0.122375026,0.061493907,0.040066265,-0.093154982,-0.084249996,-0.040007796,-0.018968811,0.047405016,0.057549764,-0.025197383,0.048148543,-0.08222314,-0.189541772,-0.133899972,-0.056884594,-0.047781956,0.038955275,0.06333109,-0.08834134,0.011571645,0.054719996,-0.148696631,-0.003112948,-0.03887805,-0.12984626,-0.070323549,-0.108523056,0.013778916,-0.053864386,-0.061008483,-0.00752901,0.039498873,-0.010127305,-0.035894692,-0.089218453,0.005964573,-0.001769772,-0.09780404,-0.006473377,-0.190994114,-0.082893387,-0.143086404,-0.012684948,0.11405842,-0.09638422,-0.103814952,-0.068161577,-0.056576077,-0.073479027,-0.070102215,0.029482231,-0.005742871,0.032626797,-0.086743377,-0.113652162,-0.085160576,-0.078152552,-0.065357186,-0.06580095,-0.082746409,-0.06205526,-0.025597546,0.123735718,-0.098868325,-0.013449218,0.026501628,-0.127906278,-0.216504902,-0.066988848,0.013032682,-0.027505456,-0.088483706,-0.176147789,0.044348661,0.008477056,0.006742066,-0.126943335,0.007609834,-0.170101553,0.037170649,-0.041578118,-0.014773793,-0.168762818,-0.117382474,-0.010995675,0.14132604,-0.007807993,0.060096491,0.025976591,-0.154082403,0.085519858,-0.014650263,0.056920048,0.034444634,-0.057744294,0.054410175,0.040927526,0.114850484,-0.061618157,-0.020147728,-0.040248048,-0.108995192,-0.089408726,-0.077908851,-0.069419593,-0.057177726,0.022720642,0.0060618,0.092722699,0.032442231,-0.124840327,0.024384823,-0.153679296,-0.120080099,-0.062743463,0.058544595,-0.020050231,-0.111652829,0.019050323,0.008516963,-0.018129304,-0.063031323,0.012042192,-0.098417938,0.060660966,0.008483573,0.007994908,-0.071903653,0.117743433,0.019907845,-0.101884417,0.034810156,-0.030650603,-0.071339116,-0.191959471,0.028177043,-0.030066436,-0.07982228,0.030430935,-0.035178948,-0.019717183,-0.070819058,0.200848267,-0.080740243,-0.037793618,-0.178009227,-0.030018847,0.024478095,-0.048236385,-0.092435852,-0.09267731,-0.298540652,-0.060324814,-0.212961838,-0.124957643,-0.133118272,-0.072293304,-0.090332277,-0.030778505,-0.009449758,0.022191042,-0.207567021,-0.099943072,0.026381671,0.118511602,0.016377036,-0.040609855,-0.08231882,-0.081626006,-0.048361652,-0.148791611,0.055968486,-0.084087066,-0.056335475,-0.145771593,-0.155694619,-0.10203106,-0.071785994,-0.08620622,0.072112292,0.168668732,0.014103936,-0.002689516,-0.036469452,-0.182970569,0.090111114,0.009935513,0.001716486,-0.10488455,0.076420538,-0.012619492,0.079400748,-0.020325759,0.113522373,0.052836817,-0.111129984,-0.071571633,-0.091568008,-0.190880239,-0.117415264,-0.06741292,-0.06266287,-0.10772296,0.004833255,-0.098261014,-0.01199287,-0.047720049,-0.065140002,0.013374792,0.038334221,-0.003764345,0.041984398,-0.060605012
