0.23802929,-0.03094266,0.43735403,-0.03408338,-0.5483066,0.2056556,-0.268643,-0.06482951,-0.067436375,-0.05509903,0.3966317,0.01043891,-0.16071098,-0.17108098,-0.059749458,0.29450172,0.4954699,-0.12926915,-0.040159754,0.20707299,-0.27019936,0.9567943,-0.1576103,0.3763389,0.40582225,-0.036342565,0.8447258,-0.05619589,0.027630333,0.50127214,0.04998114,-0.04346535,-0.059862148,-3.7218947,-0.059494767,0.6238822,-0.06413084,-0.14078157,-0.022894055,0.63111037,1.1192458,-0.06201041,-0.022353128,-0.04229473,-0.014023717,-0.19736335,-0.025716804,-0.22857039,-0.05519192,-0.60651624,-0.2546643,-0.18517809,-0.42709687,-0.6762783,-0.09001717,-0.105672926,-0.109556094,-0.12703836,0.3458869,-0.065846324,-0.14407554,-0.070370175,0.013827404,0.21020855,-0.5406102,-0.051596712,-0.08763094,0.007729708,-0.09409717,-0.32074472,-0.17974223,0.29940137,-0.050530735,-0.039805394,-0.04476805,-0.06953258,-0.0419545,-0.276677,-0.5351074,-0.031272814,-0.22110026,-0.0675167,0.093731605,0.6495846,-0.05406111,1.3150795,-0.03350106,-0.2584112,-0.69273555,0.5613957,-0.20887676,-0.03186845,0.037676655,0.19175668,0.17380571,-0.35463932,0.85693955,-0.049164888,-0.04300468,-0.023863686,-0.01595052,-0.1811337,0.275951,-0.3477863,-0.04310143,-0.017795239,-0.041786615,-0.02707446,0.12739801,0.4207172,-0.05680804,0.40284854,-0.060875356,0.1474373,-0.5179986,-0.12674728,-0.052746493,-0.054592226,-0.09352188,-0.2234016,0.14972551,0.48752278,-0.32372507,-0.067069136,-0.026678044,-0.0007101591,0.15773378,0.4794536,-0.050954856,-0.36608967,0.1600125,-0.080591016,-0.031156108,0.0009331666,0.06751739,-0.057546068,0.059098817,-0.037026107,-0.78844184,-0.040761,-0.039929576,-0.14197956,-0.059745032,-0.009488649,-0.06073205,-0.03759988,-0.04509551,-0.09127617,0.309872,-0.13414523,-0.48232773,-0.4316457,-0.20731708,-0.04823417,0.0532295,-0.05172408,-0.08450583,-0.7321844,-0.044898722,-0.8044149,-0.042969365,0.0063043227,-0.033562273,-0.01519409,-0.030791372,-0.8445522,0.19813801,0.3549692,-0.04464071,-0.034043018,-1.1270974,-0.11216592,-0.029934926,0.010761671,-0.06321107,0.14716394,-0.0051606395,-0.061814703,-0.299967,0.56640434,-0.108426936,-0.06196476,-0.04878482,-0.8989199,-0.3716438,0.12386456,0.5816987,-0.036565565,0.46914586,0.053779095,-0.061998624,-0.06317655,0.09619006,0.4855883,0.062729016,0.82872754,-0.032482386,-0.8154026,-0.041492347,-0.038099587,0.006402773,-0.95632094,-0.07480668,-0.057227015,-0.14023153,0.28936902,0.785008,-0.09627924,-0.05894361,-0.13156174,-0.05818307,-0.03695293,-0.06712781,0.5452621,-0.06641222,5.501339,-0.3491654,-0.38990417,-0.31509224,-0.018228937,-0.50404334,0.063681975,-0.4501735,-0.029382464,0.2661123,-0.18815877,-0.16590656,-0.07156992,0.46888062,-0.029072221,-0.09603985,-0.07568269,-0.043192968,0.30485183,-0.044897724,-0.023704216,-0.045634672,0.33524236,0.01400273,0.1590589,-0.07000801,-0.0493838,-0.5169791,-0.0994869,-0.17544095,-0.08363003,-0.062157404,-0.082138665,-0.07390679,-0.086675495,-0.3417771,0.22122756,-0.004090211,-0.5269499,-0.642232,1.1512305
