0.084904335,-0.15974885,-0.07136027,0.014968233,0.069402486,0.06622053,-0.11940156,0.024701903,-0.040856976,0.182505,0.37465003,-0.060059648,0.08173283,0.25596175,-0.069695435,-0.09748153,0.050171122,0.026004674,0.012083741,-0.95046866,0.04079745,-0.13405122,-0.32460466,0.20152046,-0.18261755,-0.06441324,0.09559713,0.021873191,-0.057842024,0.0031678048,0.7454145,0.14863324,-0.13002478,-0.3288113,0.42856643,-0.14484562,0.20141988,0.0821295,0.03559913,0.05038918,-0.30924368,0.13329087,0.009256622,0.028944166,0.04484697,-0.13306092,0.5382794,0.16045466,-0.070279926,-0.6921075,-0.466948,-0.031532563,0.22655156,-0.2561848,0.13155441,-0.07415955,-0.5758966,-0.42264825,0.08854404,-0.37358108,0.15244646,-0.005449029,-0.09456641,0.032207195
-0.00061011454,0.085804835,-0.13773383,-0.08625296,-0.12779233,-0.11335191,-0.050364904,-0.0044811014,0.123137854,0.008124027,-0.0045236526,-0.023969477,0.035930865,0.022664852,0.036022928,0.07447477,0.117087156,-0.09200358,-0.099247314,-0.13068432,-0.07656788,-0.052791372,0.09835865,-0.066277854,-0.08829414,-0.034169417,0.029503928,-0.0016130002,0.078661904,0.022357577,-0.090410635,0.09973779,-0.049080424,0.3327152,0.12019275,0.036356755,-0.055499706,0.008032815,-0.03594131,0.025634915,0.014896947,-0.05197247,0.08570708,-0.04874736,0.0062902067,-0.06257436,-0.024607057,0.09946726,-0.062364154,0.08131981,-0.14543232,-0.07533586,-0.13038859,0.081913196,-0.1070403,-0.017040309,-0.064963534,-0.14026842,-0.1212941,-0.030869082,-0.062575944,-0.10469134,-0.0023588093,-0.10488248
0.7513347,-0.42350438,0.15819184,1.3616132,-0.31558153,-0.08844515,-0.2516413,0.8945555,0.27505422,0.93378484,0.23370703,-0.17419049,0.21993545,1.5022775,-0.04981394,0.021850709,0.053975135,-0.77299625,-0.08238311,0.06379353,0.36625135,0.18334675,-0.31387737,0.0633906,0.7238954,0.1100088,-0.040037807,-0.14622825,-0.08433264,0.40775958,-0.41710693,-0.00021034833,0.6224641,-0.5448342,0.18660295,-0.15829821,0.8507508,-0.13058546,0.8353966,0.29190814,0.059945893,0.7798204,0.51704466,0.4613017,-0.07124767,-0.05463634,-1.198797,0.029141625,-0.01833167,-0.20507517,-0.3046757,0.5331068,1.6266471,0.24002714,-0.18483785,0.8528708,-0.18737763,0.022108575,0.4826693,-0.5821303,1.1175951,0.65195847,0.016238667,0.13666914
0.11747431,0.022676364,0.11107428,0.08379897,0.030660283,0.00081378076,0.07773176,0.0021084342,0.060841948,0.022019958,-0.11632001,-0.12409395,-0.03829512,0.071125016,0.0067307088,0.09848207,0.14712313,-0.018267808,0.026550114,0.0105169155,-0.033691183,-0.12006875,0.055683047,0.038359344,-0.0022108734,-0.022533283,0.04325156,-0.04027738,-0.043171786,0.12119805,-0.09079098,-0.04475854,0.07478823,-0.05303495,0.026166862,-0.06113217,-0.07307968,0.07406042,0.051105853,0.037893955,0.088901445,-0.023023045,-0.100119494,-0.026185958,0.11881312,0.026409237,0.05642182,-0.012888469,0.054153584,-0.027072988,0.12847134,0.066121265,-0.028224846,-0.07521947,0.100207716,-0.029008137,0.08547862,-0.014174338,-0.041274164,-0.010943619,0.0057692425,0.09617148,0.043434806,-0.093116514
-0.26447886,-0.14784034,-0.17726254,-0.2499654,-0.06256983,-0.1949872,-0.15749836,0.19042209,-0.35175067,-0.29536408,-0.12256268,-0.17043371,-0.2985619,-0.5964343,-0.19636378,-0.06983784,0.04814011,-0.21731423,0.021972317,-0.45860034,-0.25138357,0.24486513,-0.16245675,-0.12151663,-0.06214539,-0.16557096,-0.13965169,-0.11634188,-0.10409985,-0.12389869,0.16121967,-0.3608485,-0.28381482,-0.33156464,-0.1413259,-0.055762313,-0.029347116,-0.0139839025,0.00011807353,-0.32373565,0.14246449,-0.131294,0.051332917,0.16143285,-0.1222637,-0.21243572,-0.23905063,-0.18197247,-0.066514134,-0.0077141644,-0.050660837,0.075069934,-0.3760509,-0.117204376,0.06639005,-0.4923299,0.11604801,-0.014447695,-0.41401827,-0.3170342,-0.16564088,-0.3850661,-0.13279597,-0.24668942
-0.13182014,-0.11938424,0.09311793,-0.05567549,-0.056391157,-0.041582547,0.08984643,-0.027152916,-0.048085477,0.058029365,0.006662299,0.03482401,-0.2370006,0.044752423,0.10541359,-0.11915924,0.13608114,0.05716449,0.097098,0.052668806,0.05389119,-0.03305689,-0.019890264,0.090891294,-0.05674435,-0.076258324,-0.1057953,-0.058905814,0.012797619,-0.07588759,0.014976245,0.05352285,0.11943022,-0.020999933,-0.13963793,-0.22978604,0.045117527,-0.030370442,0.056257155,0.014496063,-0.07601977,0.027790057,0.020292178,-0.04306164,-0.13959959,-0.029011358,-0.09614027,-0.13841823,-0.076558895,-0.09612712,-0.08011866,0.038005665,-0.008925837,-0.007414611,-0.09525387,0.043468386,0.17492482,0.28720075,-0.13032551,-0.011897302,-0.051625665,-0.061575808,0.003915624,-0.006546724
-0.032235574,0.037176672,-0.17008021,-0.08785358,-0.10376911,0.098435916,0.048382167,-0.06596565,0.0014284385,-0.05638864,-0.22015701,-0.08048049,-0.0584018,-0.2922856,0.11911794,-0.05138518,0.008185095,0.036210112,0.04638993,0.011630503,-0.28643972,-0.20599344,0.037911583,0.07372469,0.07593668,0.1211131,-0.14585344,-0.06924251,0.045437627,-0.13760088,-0.08474434,-0.0999898,-0.025699344,-0.022190819,0.0007561188,-0.014063718,0.032939196,-0.09864652,0.010013986,-0.03477857,0.0011387081,-0.103046015,0.03340348,-0.13633189,-0.07532215,0.03567999,-0.17799546,-0.039900836,-0.007940687,0.07280374,-0.10567507,0.047141712,-0.013081647,0.017117675,-0.19532423,0.077636406,0.008982603,0.0005773641,-0.05080738,-0.24895534,-0.018836835,-0.007233142,-0.014138204,-0.1252228
0.043648306,0.1585416,0.04731664,0.05865505,0.050179787,0.011384849,-0.07457063,-0.0035152175,0.0004768851,0.03840367,-0.13637087,0.1152654,0.037013844,0.07866574,0.035958905,-0.07076383,0.06661559,-0.06629308,0.062094912,0.00676165,-0.11541666,-0.082111046,-0.044771664,0.11970553,-0.057861567,0.12426254,-0.07617015,0.12978764,-0.06596629,0.07686011,-0.08277674,-0.09406175,-0.07242402,-0.086465605,0.11943091,0.106233105,0.042139012,0.017863104,0.0877344,-0.042141896,-0.078292914,-0.031562056,0.052253515,0.056590457,-0.0038031791,0.10214151,-0.04969046,-0.121925615,-0.1040673,-0.023524566,0.093375534,-0.05832806,0.033914577,0.13868792,0.11029664,0.08808955,-0.05295713,0.05394399,0.08359149,0.031897727,-0.06711026,0.052885316,0.00054485607,-0.08813206
-0.11198784,-0.22600064,-0.057642616,-0.0864505,-0.11626448,-0.025579019,-0.026009807,0.00544333,-0.036388904,0.02356062,0.05248087,-0.041730464,-0.1832351,0.06553197,-0.075900935,-0.09414633,0.028037963,-0.107397534,0.0942132,-0.01921495,-0.13601007,-0.13131042,-0.058655296,-0.057341587,-0.0088868495,-0.09020061,-0.016152836,-0.063181534,-0.06623983,0.01711664,0.1452701,-0.14517267,0.08963303,-0.18450049,-0.14663897,0.03182235,0.021339089,0.13624416,-0.13451807,-0.12553394,-0.056151405,0.15611416,0.059357196,-0.008990966,0.112146676,-0.2415264,0.058798004,0.06376283,-0.017629238,0.10291998,-0.038242947,-0.048049938,0.08274829,0.03203794,-0.08969789,-0.03562358,-0.026186349,-0.021060893,-0.06783324,0.03755587,-0.022341544,-0.035743985,-0.06119387,0.09333954
-0.11964717,0.066296406,-0.013415635,-0.03960805,-0.1335376,0.013652955,0.004335175,0.025579013,0.093415804,-0.06746387,-0.12586726,0.068789445,0.06619514,-0.007556768,0.16165575,-0.018896258,-0.012304409,0.052266095,0.017264932,0.074695684,0.0036009036,0.007213753,0.11597837,-0.096374005,-0.27960914,0.036621846,-0.06318113,0.10391964,-0.02018912,0.43719304,-0.07577622,-0.07972192,0.11039923,0.009248564,0.0035837567,0.14229032,-0.0309736,0.13950081,-0.059861246,0.12944815,0.05999636,-0.022136264,0.08561307,-0.026694931,0.3279863,-0.014621199,0.040186267,-0.032481063,0.099883884,-0.013463446,-0.025645074,0.071994446,-0.08626676,0.0981196,-0.045668416,0.014348708,-0.043940485,-0.0040159845,-0.17049344,-0.13510291,-0.106441036,-0.03111903,0.1110612,0.06648389
0.18917127,0.17251556,-0.20878574,0.12416367,-0.11726754,-0.18941578,0.030288344,-0.15295826,-0.23477504,-0.13145176,0.70152014,-0.10107217,0.01576823,0.0033155503,-0.050467163,-0.051466443,-0.11008411,0.2276169,-0.06561968,0.009177209,-0.0812115,-0.04372843,0.3072163,-0.097685106,-0.10063533,-0.02107051,-0.16349395,-0.086625464,0.33977595,0.4891912,0.08275209,0.026355287,-0.09925279,0.0015227932,0.89330643,0.33420512,-0.20208393,-0.024556588,-0.33864358,-0.03363082,-0.073018834,0.21086365,-0.10484374,0.28972495,-0.11225399,0.04130428,0.359472,-0.2052383,-0.10642246,0.3857846,0.117950544,-0.115255,-0.038638826,-0.12110638,-0.06734268,-0.12728244,0.1395426,-0.10104564,-0.12622508,0.2987884,0.0465507,-0.036476985,-0.14740795,0.011994496
0.038604926,0.0621829,0.066918716,0.09516656,0.057689197,-0.038153425,0.09979893,0.06501285,0.109633066,-0.07401295,0.010148381,0.014975863,0.05603552,-0.04714056,0.06420862,-0.09056114,0.07245055,0.051994782,-0.08151905,0.08449731,-0.01106982,0.13303275,-0.035094317,-0.06251636,0.08889172,-0.03463773,0.11030366,-0.085502565,0.017803099,-0.12792407,0.021309411,-0.018269759,-0.07027022,0.09243643,-0.11449413,-0.058327224,-0.0472703,0.040615804,0.04269287,-0.08490748,-0.13901468,-0.053840537,-0.08274277,0.04799312,0.059276905,0.059905987,-0.15099274,-0.03696534,-0.020557,-0.11767726,0.041107826,0.095046274,-0.03988131,0.10596994,0.049282886,0.11577112,-0.13043419,-0.037711218,-0.103040814,0.103797816,-0.08227993,0.088079005,-0.081811704,-0.09662827
0.008356244,-0.07571661,0.089092985,0.069198884,-0.023489868,0.019409316,0.0020577833,-0.022304455,-0.089939296,0.06120257,0.017216595,-0.12360529,0.0697574,-0.10272905,-0.09711536,-0.09162151,0.03023521,-0.09077285,0.050080895,-0.094842225,-0.08288858,0.10968242,0.06391928,-0.113852225,-0.11552741,0.0848055,0.12659593,-0.16003376,-0.025576426,-0.07831115,0.06517172,-0.052086346,0.039989702,0.0918671,-0.0021471295,-0.039341304,-0.035368364,0.09295889,-0.011272933,-0.06899325,-0.06244357,-0.07172272,-0.057386573,-0.07363225,-0.086266555,0.09417111,-0.07167568,0.014784891,-0.043538786,-0.12998225,-0.12511708,0.043520156,-0.024846587,0.058113974,0.06247058,0.049657054,-0.14494634,0.014600398,0.15458152,0.119103216,0.08156366,-0.07839542,-0.11489925,0.04509172
-0.009300563,0.120889574,-0.26294336,-0.060272854,-0.12875387,0.016608683,-0.053459045,-0.12167375,-0.105982326,-0.15523645,0.10171297,-0.07688616,-0.28844908,-0.20952544,0.12136972,-0.10908747,0.091045335,0.053531997,-0.06972168,-0.24904542,-0.18392467,-0.23674765,-0.2109032,0.10072597,0.0008014789,0.040164314,0.4639986,0.07500804,-0.09833674,0.040168036,0.36870247,0.17530453,-0.045576066,-0.28570113,-0.16946054,0.10340996,0.06760689,-0.056532085,0.036339127,0.035097905,0.08671641,0.26126406,-0.45550543,0.09773074,-0.13339439,0.1124399,0.36382353,0.103702754,-0.12166607,-0.09571121,-0.15339004,-0.123051025,0.108624,0.43210799,0.08130886,0.20973945,0.23175018,-0.1643394,0.3409803,0.103395,-0.4179308,-0.12978058,-0.21065737,-0.13534239
0.085864365,-0.26577917,-0.1172096,-1.2528086,0.2961445,-0.21550758,0.021242274,0.12224522,-0.1563614,0.16177143,-0.7220055,0.25677705,0.18073072,0.47398826,0.20624876,-0.030307896,0.027890898,-0.1047547,-0.16531888,-0.9612935,0.07465705,-0.27385405,-0.032985546,0.026379319,-0.3888073,-0.11475448,-0.11576057,0.059481226,0.23512384,-0.19848026,-0.58151853,0.47955337,0.14744057,0.5492368,-0.99975574,-0.35024902,-0.046837468,-0.017927192,0.027510915,0.18544747,0.021760907,0.32398558,0.14610296,-0.20680803,-0.19103546,0.062318213,0.23945501,-1.4428984,-0.018022146,-0.21893732,-0.97821856,0.18200065,0.40321606,0.0904279,-0.12850666,0.17504431,0.112659864,0.12086213,-0.120056905,0.075127594,0.18180414,0.34798554,-0.09408859,-0.09217012
-0.28192386,-0.7421416,0.021582272,0.5424341,-0.12411452,0.07378624,-0.047478996,-0.09653986,-0.2994162,0.047456566,0.17966746,0.21203558,0.017774217,0.54431534,0.23715447,0.034648232,0.027403723,0.1698511,-0.48807776,0.19914992,-0.11348584,-0.15219846,-0.30021885,0.057485126,0.5209494,0.3450324,-0.15107109,-0.11427426,1.411386,0.18929408,-0.4196181,0.041057084,-0.108209334,0.3349274,0.6197218,0.84103394,0.105836526,0.025408007,-0.040883366,-0.18376854,-0.16690646,0.900127,-0.1445636,-0.570376,-0.040354654,0.049620308,-0.019402789,0.69855386,-0.04756418,-0.24723393,0.1330934,0.066736154,0.1420266,-0.065364465,-0.17276047,-0.055804435,-0.16295478,-0.030306216,-0.6922375,-0.12005066,0.16327871,-0.0020234934,-0.12444188,-0.3124085
-1.3565655,0.20000888,-0.58971465,0.053639088,-0.018080052,-0.0037619541,0.37431577,-0.055821054,-0.06629272,-1.4872205,0.42545253,-0.90152305,0.29644838,0.39280698,0.021768186,-0.056498017,0.082170494,-0.037695672,0.029033165,0.46785638,-0.18008429,-0.2570564,-0.5954048,-0.0749799,-0.094469704,-0.27934912,-0.07089545,-0.09976644,-0.14001934,0.3328148,-0.26318428,-0.747597,0.14605992,-0.48311043,-0.031018721,-0.081790365,0.2176213,-0.07561955,-0.42824608,0.06489902,0.00019171623,-0.20312001,0.01554018,0.14159778,-0.031473212,0.031243231,0.36221603,0.16573024,0.057755727,0.061081663,0.030223722,-0.37230566,0.4838105,0.27563393,-0.09752363,0.030905874,-0.24623053,0.01964984,-0.039433006,-0.40573162,-0.06713183,-0.015588583,-0.21748894,0.2669886
0.09172156,0.11278795,-0.058115087,0.07837532,0.03577592,-0.19804056,-0.029517837,-0.07204512,0.079120934,0.030528108,-0.0015980977,0.054346953,0.13839829,0.19288796,0.18666449,-0.120952964,0.08419602,0.05135068,-0.050721914,-0.061269995,0.12406289,-0.046465006,-0.055105835,-0.04470242,-0.016148694,0.10187337,0.17698155,-0.06638582,0.11884557,0.02602037,0.0028682314,0.073864415,-0.06654287,-0.14340122,-0.05230915,-0.07572899,0.04816272,0.018427715,-0.005773115,0.06037894,-0.03561212,-0.03479907,-0.075486474,-0.22004597,0.07947791,0.101846345,-0.11242894,-0.051948708,-0.09678452,0.012813373,-0.06673783,-0.15049061,0.012616397,-0.09931542,0.022359991,0.20610894,-0.066464245,-0.09553681,0.04249794,0.04733345,0.110611446,-0.0004399161,0.05769366,-0.105996154
-0.04370237,0.22579108,-0.12827933,0.011252543,0.10399809,-0.10384168,-0.06722214,-0.030283635,0.095344044,0.06141859,-0.09028337,0.019428289,-0.024246592,0.12989819,-0.09807241,0.088278055,-0.03668067,0.061063576,0.090903014,-0.07854919,0.007834906,-0.11376875,-0.038925745,-0.043041095,-0.061393198,-0.09276419,0.023549369,-0.024374444,-0.08446612,0.11433621,-0.11924641,0.13805275,-0.042632896,-0.017389458,-0.16177632,-0.043567263,0.109815024,0.064745665,-0.15022545,0.08226179,-0.109821685,0.13543285,-0.072501324,0.08527783,0.01624228,0.11618571,-0.050876938,0.00010059478,0.041596632,0.030804288,-0.060173724,-0.035977967,0.08441544,0.10624543,0.0929162,0.13779254,0.0031264666,-0.06833469,-0.02679088,-0.0127621265,0.1745529,-0.010147448,0.01728691,0.05805988
0.47017592,-0.15626465,0.015095238,-0.09210889,-0.0013629677,0.07884892,-0.008956933,0.051885817,-0.2285478,0.015822176,-0.10437226,0.07526737,-0.10775812,0.26708037,0.09047832,0.036769766,-0.12903993,-0.21862146,0.12503743,-0.17696042,0.059925467,-0.17442974,0.033607677,-0.12707669,-0.9026178,-0.08186439,-0.10349771,-0.04401924,-0.12735803,-0.037421342,-0.05722888,0.17033775,0.02273954,-0.0419806,0.34744233,0.013011801,0.041575275,-0.10122537,-0.19723675,-0.071871296,-0.022372492,0.19854967,-0.094973326,0.5913824,-0.14404073,0.02987027,0.38695452,-0.06956704,-0.058462717,-0.43812007,0.08111473,-0.09206082,0.06585048,-0.22282085,0.041520983,-0.12933113,-0.10643907,0.15256967,0.17207569,-0.57878697,-0.06985865,-0.1833757,-0.042537645,-0.044208
-0.0774063,-0.057922788,-0.12352335,-0.09047344,0.101882175,-0.06286234,-0.013182855,0.037265994,-0.087181605,-0.10714002,-0.116270326,-0.13638318,-0.20559743,0.19993503,-0.0898585,-0.12883362,0.049585193,0.06463254,-0.09009244,0.04009458,-0.10186711,-0.0120358635,0.13153854,0.06689928,0.048310637,0.052879997,0.08970444,-0.10492496,0.06289651,-0.111016214,-0.34353402,-0.09014706,0.038304497,-0.12787628,-0.057843428,-0.051021002,-0.05905577,-0.0083908355,-0.06337278,0.08874937,-0.14229223,-0.26743948,-0.16140872,-0.0020120349,0.042597383,0.057439376,-0.094567195,-0.12159156,-0.077117704,0.0794149,-0.060310483,-0.07638319,-0.57328516,0.123392195,-0.090584286,-0.047272358,-0.022040064,-0.19592158,-0.20495108,0.023900462,-0.032699935,-0.002103582,0.02393378,-0.05030115
1.3640454,0.64089984,0.89124525,1.6226567,-0.13524564,0.03830762,0.09396112,1.1613135,1.0501957,1.0725467,-0.13018107,-0.16097789,1.1985629,0.8941294,0.071861245,-0.1149097,-0.068989076,-0.33551824,-0.19566488,-0.090620816,0.9648461,0.31407094,0.14211948,0.06818756,0.27423182,0.4895222,-0.056244466,-0.27899995,0.11622952,-0.53027874,0.65595394,0.14222872,1.3908168,1.7072293,-0.3370733,-0.80121034,0.017630251,-0.1339023,0.9205279,0.41599435,0.058324136,0.11958706,1.0942587,0.058595818,0.08631685,-0.12916204,1.6358806,0.04035148,-0.022458158,-0.6180108,1.2278788,0.87657833,0.71124035,-0.21645004,-0.096750915,1.6017954,-0.26874986,0.17694673,1.0881563,0.46602818,1.75778,1.0895569,0.08939047,0.2336626
0.14547087,-0.038408205,-0.101086184,0.017949708,0.05176149,0.090763375,0.02766961,-0.046877604,-0.108303554,-0.057416238,0.10269491,-0.036232065,0.001852061,-0.0154360635,-0.017995011,-0.0677617,-0.10435992,0.01810836,-0.13511401,-0.041894753,-0.06753667,0.09315039,0.06940048,0.053504195,-0.09104878,0.013641537,-0.00032608456,0.034493826,0.05408342,-0.08505913,0.056605473,-0.13424926,0.10868856,-0.08968674,-0.08705985,0.0601546,-0.0724585,0.12081862,-0.11582712,-0.052665066,0.076430164,-0.14386405,0.090844736,-0.008202916,0.065319516,0.0937629,-0.01321512,-0.11645006,-0.08719957,-0.12882693,-0.102699585,0.06156138,0.14536063,0.08006355,-0.031653706,0.03978005,-0.056063913,-0.11587975,0.122657396,0.100011446,0.1404735,-0.118915334,-0.078358926,-0.12790202
0.10716543,0.23181127,-0.09151014,0.18729499,0.026107443,0.08252267,-0.2698618,0.020114983,0.115131035,0.109807365,0.29421267,-0.058658607,0.16278999,0.09245437,0.09872885,0.015510233,0.042859804,0.058006298,-0.057458773,0.26918346,0.16661748,-0.17302136,0.24928358,-0.3579992,0.2008347,-0.50106454,-0.31531376,-0.06914057,-0.47535494,-0.07963673,-0.21102986,-0.12074087,0.08381949,-0.19390516,0.844237,0.13103224,-0.22647001,-0.05758721,0.0943344,0.16448289,0.12913823,-0.056914084,-0.064933896,0.96004045,-0.19291164,-0.15498532,0.3487059,-0.6771239,0.13104348,0.27106428,-0.09173923,-0.054925065,0.098121695,-0.14242676,-0.00788045,-0.070841394,-0.21793576,0.04615021,0.63676715,0.00471812,0.072090626,0.13468255,0.061853126,-0.0396912
0.40675616,-0.038234904,0.08659856,-0.06159339,0.003281664,-0.007632155,-0.18401971,-0.0813445,-0.037639484,0.078744024,0.19386469,-0.15400428,-0.093043275,0.07946746,-0.06012972,0.015292732,0.101378284,0.29158363,-0.09713548,0.12481299,0.10294455,-0.029299222,-0.22979693,0.011707143,0.36608675,-0.13929887,-0.19037981,0.05653533,0.1375279,0.68598163,0.425349,-0.049296677,-0.12865843,0.0517314,0.025074767,0.22369392,-0.26382297,0.041494485,0.10179527,0.008222746,-0.24299344,0.05133159,-0.13105898,0.055963144,-0.22209567,-0.08091599,-0.026124021,0.3003257,-0.054379426,0.07405435,0.15883736,0.74281716,-0.045669332,-0.13922243,0.023423959,-0.13278757,0.21808052,0.08106232,0.011354822,0.10998192,-0.112352096,-0.12934512,-0.082568265,-0.02479448
0.13458383,0.052620396,-0.076147184,-0.086627655,0.026317218,-0.08386032,-0.031552516,0.112493694,-0.037537605,0.064667754,0.10083541,-0.10720115,-0.025227562,0.03370517,0.103593834,0.015754055,0.0013050125,0.09944066,-0.11909795,0.010830978,0.09555099,-0.05016706,-0.14073129,0.07595529,0.089444,-0.104383126,0.12745403,-0.0051552504,-0.15162474,-0.046016194,-0.06557448,-0.009523696,-0.04695263,-0.097543515,0.00065874093,0.09552187,-0.04290018,-0.0741856,0.0005149386,-0.029309168,-0.017878532,0.0050448393,-0.066997364,-0.08576903,-0.052591957,0.09529774,-0.12472005,0.054635648,-0.05564426,-0.07642992,0.0030639044,0.00039752052,0.07806602,-0.009660453,0.058027357,-0.08404234,-0.119216025,0.022237577,-0.105254516,-0.07261095,-0.050329216,-0.08006972,0.010309666,-0.021644196
0.516089,0.008359317,0.11497513,0.5264937,-0.1287389,-0.10657712,0.38179234,0.2560069,0.40632874,-0.40251422,0.8059776,-0.7001173,0.139894,0.6199058,0.08859975,-0.05840635,-0.10170587,-0.021671187,0.051596437,0.014108796,-0.05806803,-0.50629467,-0.14866821,-0.37890103,0.45013887,0.020172855,-0.34742463,0.114558235,-0.13166195,-0.036282185,-0.12121154,0.78179693,0.29140422,1.1885036,-0.3359144,-0.1687416,0.62483823,0.056061674,0.16382705,-0.04419483,-0.089851506,0.117426835,0.42567644,1.2321423,-0.2435452,-0.12986399,-0.035198398,0.45166072,0.1307724,-0.34756806,0.088846244,0.39367843,-0.36710498,0.21709056,-0.0021368102,0.57380736,-1.0284191,0.11821356,-0.3424359,-0.68168545,0.47055876,-0.22526246,-0.029743047,-0.67708504
-0.092741795,-0.035906434,-0.14614274,0.0044613853,0.12406683,0.05299565,-0.08277621,-0.08003845,-0.061940007,-0.054805778,0.077826984,0.11168207,-0.041298233,0.013330732,-0.021588376,0.074875355,-0.05441895,-0.007111892,-0.09213478,0.10504094,0.027730895,-0.080206916,-0.11634371,-0.042050526,-0.12978472,-0.05041811,-0.00038236115,-0.06406501,0.043385208,0.100407004,-0.043524913,0.089058734,0.056315336,-0.01426988,0.07146608,0.10126647,-0.02639794,-0.09060251,0.02535179,-0.03891392,0.029054403,-0.054884225,0.026606558,0.12905227,0.09760184,-0.03721441,0.10951494,0.01701553,-0.16538937,0.0805683,-0.001166848,-0.045121584,-0.09839751,0.01889384,-0.09893961,0.063194305,0.041384768,0.06347552,0.08643181,-0.005430526,-0.09562616,-0.0048899036,0.082606986,0.08254815
0.29580528,0.03715669,-0.018534563,0.1950516,-0.115903415,-0.16362965,0.020155037,0.057813358,-0.020583967,-0.0816219,0.3781896,-0.04414279,0.14030553,0.44212943,-0.064641714,-0.10465206,-0.028844522,-0.2454265,-0.095007055,0.09887842,0.12433625,-0.14918463,-0.04972852,0.021383595,-0.42375514,0.54301995,0.12761824,-0.116289824,0.20040216,0.15799089,-0.80490136,0.168019,-0.16338643,0.7039929,0.67947716,0.7176576,0.10892831,-0.12706031,0.0050647603,0.019718062,0.0067935614,0.51894313,-0.076517045,-0.44140142,-0.1077731,-0.040052786,0.8659557,-0.06990746,0.10211251,0.32350877,0.22596465,-0.049333412,-0.061688468,0.08985406,-0.058836907,0.0947611,0.021597266,-0.04849135,0.29863894,-0.13794254,0.04303092,0.12840946,0.008592833,0.18544082
-0.9528345,0.05875728,0.40772825,0.27750668,-0.35429966,-0.0099723935,0.1091271,-0.11316864,0.06669541,-0.29129764,0.23284109,-0.70035356,-0.15736839,0.5928203,-0.055549026,-0.015332491,0.016282331,0.06651027,-0.09039404,-0.41676158,-0.07513782,-0.20260353,-0.5714109,0.027578164,1.3486173,-0.7947059,0.15370217,0.16732648,0.60447717,0.108359136,-0.5327214,0.55357486,-0.03772667,1.279468,0.06478046,0.21820796,-0.7662534,0.006473581,0.3423943,0.17218591,0.02382167,0.34278828,0.23112486,-0.4765046,-0.16689935,0.02424199,1.0632848,0.44771767,-0.028392915,0.13664286,-0.920763,-0.48490113,-0.98701763,-0.52380496,-0.14829786,-0.102851026,-0.37053758,-0.07427653,0.14510961,0.47873524,0.22626506,0.16900241,0.055389237,-0.13766861
-0.057352427,0.1749904,-0.14870787,0.13114084,0.08181023,0.016532382,-0.01901036,0.08175061,0.054113097,-0.056026928,0.018399155,0.03080548,-0.09776047,0.039992433,0.10671662,0.11615498,-0.031845935,-0.073213145,0.025383413,0.019348769,0.009121549,-0.09694075,0.03260693,0.06350164,-0.10145371,0.054911688,0.09578219,-0.0908165,-0.11997435,0.089784265,-0.08729896,0.09147465,-0.030854873,-0.07138504,-0.08414588,-0.03737191,0.035031848,-0.044273034,-0.020829976,0.06365609,0.07818699,0.12759224,-0.055627827,-0.073615886,0.08834815,-0.013851036,0.38843933,0.010829971,0.13516924,0.14442195,-0.039672635,-0.145772,-0.047475427,-0.14390941,-0.11787354,-0.06343359,0.03526536,-0.0026895828,-0.13502015,-0.07732192,-0.0951926,-0.2477809,-0.09831395,0.07638697
0.06548529,0.031622242,-0.032470327,-0.072044306,0.09606642,-0.059452422,0.083230875,0.11267863,-0.072622605,-0.03442282,0.018077724,0.119557954,-0.09167369,0.077940576,-0.057571396,-0.04849925,-0.0009629803,-0.23576829,0.044172734,0.05495196,0.04952195,0.16520932,0.024746602,-0.06374597,-0.1765168,0.111385815,-0.077795126,0.071254134,-0.057427965,0.04279597,0.10385842,0.04572538,-0.1723664,0.16101436,0.046110466,0.109742366,0.0039196312,0.0069979704,0.02202553,-0.055470183,0.00257548,0.124750495,-0.05766193,0.004188019,0.05440718,0.04893925,0.0024738424,-0.10196412,-0.07480102,0.058516275,0.08102391,-0.025238818,0.12876913,0.032912906,-0.12851703,0.009432183,0.01877581,-0.081629775,0.08866652,0.07351414,-0.029374562,-0.14665522,-0.08127944,0.103396855
0.029116804,-0.093668506,-0.10522749,0.0011844508,0.0021729465,-0.08194354,-0.056039337,-0.030129047,0.08112002,-0.09991975,0.072654806,-0.024865706,-0.089086376,0.039922763,-0.007035228,0.026155025,0.009237589,-0.12297835,-0.063092835,-0.08912474,0.09244061,0.026648568,-0.061910227,0.06288184,-0.09136728,0.005018151,-0.12414293,-0.03985044,0.08987015,0.07270841,0.12616742,-0.06735333,-0.13378443,0.06896147,-0.04065799,-0.08226687,0.046394475,0.11866022,0.06539627,-0.03859669,-0.025743186,0.06140394,0.06906703,0.0997457,0.06783153,0.083359145,0.020104084,0.08714187,-0.046796944,0.117260866,-0.11207845,-0.122664124,-0.050100826,0.05411583,-0.041546233,-0.009268255,-0.105345406,-0.14466877,0.10374656,0.016292088,0.08874958,-0.089621566,0.01568354,0.03294164
-0.27780783,-0.3832483,-0.56762767,-1.1947609,-0.055307385,-0.1142769,-0.49538088,-0.38023505,-0.21774143,-0.6831237,-0.24708287,-0.1849169,-0.93466157,-0.36797968,-0.11725743,-0.18276232,-0.1166036,-0.016871208,-0.116779655,-0.1834111,-0.19308615,-0.30427125,-0.2754974,-0.11315383,-0.44014314,-0.23334756,-0.55739737,-0.31601968,-0.28637823,-0.27049363,-0.30476457,-0.6430375,-0.3008608,-0.72523177,-0.3070912,-0.3548196,-0.33586776,-0.21253736,-0.5127558,-0.12155179,-0.11231864,-0.10273744,-0.67886937,-0.11071418,-0.25092098,-0.2246912,-0.066475324,-0.3093264,-0.057784222,-0.25809202,-0.2584683,-0.57732487,-0.11899347,0.09209376,-0.16911831,-0.32501975,-0.060635515,-0.025294742,-1.2046188,-0.13482377,-0.5691243,-0.44799227,-0.121635355,-0.16917704
0.029251873,-0.01877726,0.05900845,0.0059892666,-0.08347768,-0.09170856,-0.024964087,0.071218856,0.0069832997,-0.09943582,-0.085971355,0.05274812,0.10804774,0.07106071,0.0041458923,0.08785888,-0.11990524,-0.13278003,-0.0224801,0.07813278,-0.0949623,0.12433356,0.039023273,0.001308091,-0.05409656,0.080010906,0.053252995,0.0042397715,-0.03150494,-0.061794907,0.0882954,-0.12025714,-0.09490642,0.0134248575,-0.108163,-0.007587313,0.010731476,-0.12635179,0.109062925,-0.05295086,0.019824043,0.110628374,-0.01282292,0.045327663,0.044469625,0.1542165,0.112724215,0.004768383,0.08843464,0.050323397,-0.014012272,0.0594827,0.063278876,0.025256205,-0.10773487,0.07286748,0.016711127,-0.085826956,-0.10390515,-0.0035574227,0.09398546,0.101997964,-0.05151727,0.09926486
-0.32597926,0.91814214,-0.20026402,-0.18247987,0.53216577,-0.09661088,-0.22901884,-0.029348223,0.084397174,0.68947345,0.2884625,0.28013802,0.39444703,0.49612454,0.06107074,0.053528804,-0.07664461,-0.10723154,0.009727247,0.14626864,0.15583971,-0.14425978,0.17517552,-0.1469189,0.01655352,-0.77891237,-0.18975045,0.0015114489,0.6711154,0.0431941,-0.7547926,0.07876604,0.11260608,0.6154378,-0.56307524,0.53836805,0.36833304,0.122113235,0.30065748,0.05704296,-0.11975235,1.0874631,0.06927461,0.2899601,-0.25135243,-0.011476012,1.7192785,0.16606492,0.22931959,-0.10046871,-0.77143866,0.37661603,0.5949427,0.08951813,-0.15667003,0.54253745,-0.40556774,-0.041271236,-0.055896085,-0.40985462,0.20632862,0.4846171,-0.20563154,0.8066742
-0.0111805415,0.06597085,0.06790119,-0.029140161,0.038997587,-0.05986418,-0.063409165,0.056676477,0.09162682,-0.103990875,-0.07215117,-0.131192,-0.09891911,-0.09161255,-0.12816063,-0.07595669,0.029444678,-0.021784546,-0.08122259,0.0095964605,-0.085120276,0.013709164,-0.08517125,-0.08776109,0.0806038,0.019193405,-0.062921375,0.109416686,-0.062283207,0.13496433,-0.15122408,-0.04701305,-0.095576085,-0.07232778,-0.039682593,0.047134023,0.021094307,0.057197724,-0.12248353,0.16120024,0.027522266,0.09623875,0.0780806,0.006480804,0.09368354,-0.080833286,-0.074159846,0.12724793,-0.10992329,-0.014973107,0.11225742,0.09207445,-0.054660607,-0.09496605,-0.0695268,-0.079368636,-0.071740486,-0.0031643503,-0.009194274,0.0026222,0.016831495,-0.042545613,-0.06818545,0.04606847
-0.062978685,0.11627178,0.060414534,0.13634717,-0.08142678,-0.0023116444,0.056575302,0.08288987,0.03576092,-0.14281255,-0.035655074,0.013463312,-0.026851278,-0.06480649,-0.054792844,-0.07192799,0.022830155,-0.13723212,-0.048285186,-0.0369729,-0.07257087,-0.13095105,-0.15806568,-0.0904242,-0.11842479,0.03760513,0.020937873,-0.103383206,0.125334,-0.037593767,-0.092170976,-0.03455951,-0.06673631,0.05295861,0.123189494,-0.049066596,0.062234968,0.06941713,0.0031370437,-0.09691845,-0.044021696,0.13273174,0.022400742,0.06421252,0.045509104,0.043048635,0.045556493,4.6511104e-05,-0.040441245,0.025782404,-0.0059328643,0.022863846,0.09831815,-0.1403792,0.04188653,0.06358755,0.08798533,0.052930687,0.023594342,0.033301882,0.0037513953,0.11719327,-0.015898433,0.07298199
-0.32770658,0.03191137,-0.111339666,0.08328933,-0.14880079,-0.08457104,-0.06584235,0.026182542,0.05495865,0.095830664,-0.16917367,0.05355108,-0.090419866,0.06195522,-0.010333946,-0.00030688394,-0.05553013,0.14740956,-0.031982765,-0.07883084,-0.12632915,0.0783167,0.09324046,-0.1491509,-0.21678202,-0.058364738,0.3742585,0.061863195,-0.31781855,-0.06044218,-0.004059246,0.06925139,-0.059563555,-0.11611754,0.5279657,-0.08336248,0.07900648,0.020950453,-0.017930184,-0.014914921,-0.027335541,0.26517767,0.03264484,0.14053,-0.11157726,-0.025761118,0.1752434,-0.03554338,0.035554726,-0.005880733,-0.30439964,-0.12929611,0.053888433,0.04348421,-0.092579454,-0.008579012,-0.038415488,0.013364752,-0.44221398,-0.32511693,0.07318735,-0.025325699,-0.08642686,0.07786365
0.3983972,-0.104520954,-0.18029478,-0.030514475,-0.21063757,-0.105435744,0.02389605,-0.027208814,0.001374665,-0.10017376,0.34395543,0.2846261,0.00020213473,0.23100384,-0.08511459,-0.040196978,-0.103472054,-0.21045113,-0.2590004,0.5493263,-0.022057617,-0.14020872,-0.31103593,-0.14047536,0.025935048,0.25889394,-0.38589388,-0.15394263,1.2528248,0.24099562,0.52345526,-0.20466368,0.009306544,0.072897896,0.030547466,0.10907296,-0.2037813,-0.10516152,-0.03535632,-0.116542846,-0.19062561,-0.28672382,0.014585079,-0.17540464,-0.16142133,-0.01012774,-0.0419575,0.60734016,0.036066048,-0.05834519,0.5938521,-0.14537063,-0.04608909,0.036132727,-0.19965474,-0.18881854,0.0318766,-0.030001799,-0.07585907,-0.32280457,-0.072514854,-0.11819438,0.12027501,-0.07719239
0.17898971,-0.12870906,1.0527534,1.309396,-0.14399065,-0.06911697,0.70669806,0.5917285,0.4447113,0.44208336,1.0711982,1.1524097,0.5865839,-0.64511657,-0.00057453214,-0.12705006,-0.1472583,1.3216816,-0.2600068,1.1240962,0.5355714,0.3540357,-0.4911835,-0.1170611,0.7653718,0.26638943,-0.5126337,-0.31676117,0.101271324,0.11299223,-0.1773782,1.4706737,0.589177,1.3857113,-0.044042278,-0.017441405,0.23195748,-0.05286151,0.17477217,0.12712446,0.02774432,0.98910195,0.6262872,-0.29711318,-0.0056992453,0.025026552,0.7637063,1.0856344,-0.028714778,-0.5183087,0.09391399,0.7071887,-0.59032,-1.1302915,-0.19318533,0.83821946,-0.23158681,-0.04491735,0.8278275,0.3443929,0.47155848,1.4832506,-0.09069178,0.92327946
-0.014552559,0.013870806,0.002506689,0.12709951,-0.10252241,0.01580621,-0.059334457,-0.04039678,0.024187066,0.15817149,0.024972681,-0.042417087,0.11460292,-0.046134528,0.05360918,0.060047925,-0.08352875,0.0122719,0.106554165,-0.014769556,0.02162589,0.017273098,-0.08348259,-0.082938015,0.10193429,-0.12828879,-0.085557655,0.05181776,0.040011194,-0.1273393,-0.08060188,0.05827316,0.079098225,0.026113756,0.091835216,0.05151543,0.021468101,0.12883845,0.01608197,0.062019188,0.119956315,-0.13346884,0.12366784,-0.020669058,-0.05108413,0.042558804,0.112871215,0.06430301,-0.047626693,0.07531641,-0.03905756,0.08621077,-0.110158056,0.005086073,0.008474037,0.15208697,-0.098511204,-0.01452167,0.056177743,0.10960585,0.06324329,0.1508726,0.101124965,0.01468248
-0.010804724,0.10065038,-0.100867964,0.17102873,0.055228375,-0.11241829,0.02953122,-0.01493849,-0.1986766,-0.06490083,-0.034710888,-0.027741894,-0.09666464,0.05406588,0.07722204,0.08055532,-0.15623888,-0.09519515,0.012900516,0.06904474,-0.1415754,0.09874646,0.042084526,0.03025882,-0.19797418,0.0008659482,-0.014661529,0.038578857,0.028167184,0.100196816,-0.02204811,0.092711575,-0.053132676,0.115609504,0.088760644,-0.0051645227,0.068752125,-0.0022172886,-0.08990016,0.047450747,-0.24349265,0.041349087,-0.06470593,0.024316149,1.0904003,0.043682933,0.014171753,-0.12744509,-0.03039687,0.2532092,-0.05327702,0.04916622,0.09073864,-0.06541818,0.119253166,0.0055984985,0.009812417,0.43443742,-0.12908062,0.08283614,-0.076943696,-0.19108878,-0.05683873,-0.17440712
-0.09403226,-0.032104205,0.045718446,0.04657702,-0.07396317,0.1075667,-0.03768871,-0.22407408,0.025257181,-0.13708465,-0.010421821,-0.03418503,0.10830932,-0.041388776,-0.05522676,0.061248258,0.02734578,0.031940624,-0.12876865,0.09993207,-0.16703615,0.05087656,-0.11651983,-0.07834127,-0.13020326,-0.12691918,0.043955266,-0.011474389,0.0425979,0.106105916,-0.035583008,0.012444029,-0.031622525,0.047705904,-0.026902454,0.036864106,0.23569757,0.012713555,-0.054043565,0.016272148,-0.09186244,0.1722064,-0.015550286,-0.14309895,0.46394196,-0.08647964,0.13184413,-0.09465922,-0.02229033,-0.545824,-0.09012129,-0.1812994,0.19714898,-0.016667945,-0.115581885,0.1035416,-0.21611358,-0.583974,-0.028345037,-0.110088564,0.07819151,-0.1458709,0.05482669,-0.24133849
0.08533794,-0.08549714,0.01775937,0.10010807,0.090892345,0.122632004,0.12760971,0.10725506,-0.06609519,0.012203453,0.0035572196,0.030301377,-0.10151597,-0.10566045,-0.10142483,0.104225986,0.03741161,-0.11852691,-0.08131164,0.04022131,0.12158062,-0.00575725,0.123184554,0.011900992,0.022254955,-0.039201237,-0.0009081152,0.041670237,0.061793752,0.047901057,-0.037655994,0.10455351,0.019299032,0.017495556,-0.13315807,-0.09153912,-0.097161084,-0.0027692704,-0.09823116,-0.0050312243,0.10114098,-0.0079953475,0.110200934,-0.11014366,0.027226197,-0.0010233521,-0.017175581,-0.11230839,-0.06930474,0.03861776,0.09189869,-0.019207539,0.028033493,0.0036909422,-0.07956963,-0.07829366,0.009308724,-0.09022957,0.024709841,-0.14575,-0.07638376,-0.049375568,-0.09431534,-0.12818053
0.20798847,0.21659434,0.04591577,0.16579221,0.0009752846,0.041714247,-0.120145634,-0.1001568,-0.16746926,-0.13439316,0.20379099,-0.13356122,-0.013636801,-0.27113804,-0.14653404,0.017665612,-0.14356108,-0.09086801,-0.063508645,0.05136211,0.18395941,0.002760137,0.07893942,0.083646275,-0.08960357,0.12496176,1.1211697,0.11923688,0.01628988,0.03350781,0.2976543,0.19483979,-0.09496611,-0.113198176,0.15903917,0.14192672,0.037824094,-0.013881482,0.17469706,-0.023312412,0.07129172,0.36830366,-0.0046339515,0.17588294,0.092447706,0.16528574,0.2802059,-0.08746496,-0.113506794,0.033628132,-0.16390586,0.25723085,-0.124366045,-0.02972718,-0.019456672,0.111121744,0.102984,0.077297226,0.113457575,-0.02961022,-0.18510598,-0.04788562,0.049728505,-0.07212551
-0.08075047,-0.0070332736,-0.055910323,0.074892126,-0.051076785,0.015567211,-0.024426108,-0.0993961,-0.18922633,-0.0734264,-0.045276422,-0.13274153,-0.017669754,0.055980146,-0.028858194,-0.0153873265,-0.10513038,0.0829444,0.040781677,-0.13630776,-0.0013629139,0.03386519,-0.100094855,0.12333625,0.1711893,0.15892874,0.0890675,-0.036701232,-0.064679764,0.042843,0.1705276,-0.14821522,-0.12015249,-0.07241797,-0.051227883,0.02136141,-0.022935608,-0.016031696,-0.007371376,0.16586109,0.12624395,0.062234566,-0.019268608,0.048660688,0.5831662,-0.07692293,-0.054088663,-0.07480625,-0.03592261,0.07326067,0.04759925,-0.11354764,0.018471442,0.0957314,-0.04071354,-0.022445448,0.15304522,0.06366277,-0.036304552,-0.054035973,0.045434833,0.007958351,-0.019486306,-0.14612722
-0.1761826,-0.038725503,-0.19222037,-0.10872687,-0.048847117,0.042058345,0.114669204,-0.025007827,0.069916636,0.067952976,-0.008739496,-0.036655296,-0.10871329,-0.0428217,0.020937838,0.12259714,0.029033434,0.3136657,-0.1285556,0.0066185966,-0.12373892,0.55320984,0.060110237,-0.08524562,-0.14109118,0.35865313,0.37434918,0.036184352,0.112313665,0.13877328,0.10451201,-0.3197358,-0.2713558,-0.1633327,-0.15383033,-0.16327104,0.06380172,-0.10418456,0.19384825,-0.17732148,0.042197186,-0.16132022,0.14605132,0.11583486,0.07890355,0.1144644,0.036065828,0.062179476,-0.07863472,0.07874569,0.116524175,-0.0819883,0.1429621,0.21809101,-0.0027796377,-0.40780592,0.17501622,-0.027926816,-0.04527008,-0.06303029,-0.17195508,0.114488855,-0.21848859,0.088851616
0.16375658,0.27976847,0.19995953,0.0600974,0.009647048,-0.09092005,-0.02288878,-0.058323562,-0.11737823,0.1435376,-0.020666547,0.06856737,0.13225923,0.16777365,-0.015231387,-0.07531128,0.1389767,-0.18554103,-0.065633014,0.00381368,-0.07306311,-0.073496565,-0.01450617,0.16102137,0.11092928,-0.030496575,0.24439065,0.10122975,0.037280828,0.2074964,-0.12356877,-0.048228018,-0.035869654,0.011355308,0.07686427,-0.12534344,-0.03764874,-0.06984821,-0.023026608,0.03971442,-0.12608182,0.0404438,-0.10848199,0.095730305,0.028800704,0.13943325,0.17468397,0.08958712,-0.04485984,-0.0519484,-0.10205558,0.10254535,0.14922953,-0.033389207,-0.072248645,0.0301136,0.0423463,-0.0062885527,0.10742807,0.18073322,0.03512809,0.030965311,-0.033557076,-0.09668875
0.007660695,-0.114906475,-0.050175164,0.08177134,-0.064380825,-0.19052732,0.030972326,0.038368136,-0.23573549,-0.33848205,-0.042576622,-0.069119275,-0.09977188,-0.31947917,-0.059910726,-0.12009524,0.0421187,-0.114183165,-0.13268372,-0.31398168,0.0006555203,-0.08236787,-0.16245253,-0.047535013,-0.45935398,0.026421247,-0.09481518,0.021721145,-0.071793474,0.067511566,0.057367846,-0.21081026,0.058914594,-0.25831357,-0.250702,-0.18019934,-0.14000723,-0.10402808,-0.03723923,-0.0455212,-0.08243825,0.010770083,-0.37974706,0.020585699,0.047899187,-0.19579323,0.0127297435,-0.10361348,-0.07137553,-0.059539083,-0.20435339,-0.16905221,-0.44994473,-0.005157113,-0.07150842,-0.56160164,-0.3311445,-0.12884402,-0.32307425,-0.14676951,-0.5764516,-0.15512975,-0.03953003,-0.108757526
0.076952495,0.027319921,0.073000014,0.08225274,0.041391764,0.01880905,0.014903866,-0.036182072,-0.05447763,0.05504595,-0.06035762,-0.14942369,0.04583068,-0.0754348,0.09041901,-0.06862515,0.08898534,0.05338797,-0.16263871,-0.040219896,0.20993169,-0.7053928,-0.03163421,0.039389227,-0.09737729,0.06671326,-0.23382552,-0.026875973,-0.050601274,-0.16433889,0.75918424,0.15319462,-0.010062434,0.0929817,-0.04294795,-0.01683217,0.12957942,-0.13883813,-0.14608504,-0.039938405,-0.11418117,0.0367122,0.104378596,0.031830177,0.11993931,-0.07853412,-0.096549965,-0.39836216,0.106380984,-0.09873603,-0.049443368,0.0783427,0.12555002,0.03703283,-0.11245034,0.090767905,0.435111,-0.09033668,-0.04740164,-0.23824681,0.2683728,-0.15829287,-0.20901653,-0.15985271
-0.005950448,-0.12112735,-0.113796845,0.05640419,-0.0827371,0.11896352,-0.14310342,-0.10947565,-0.060774144,-0.07829895,-0.070745446,-0.11515626,-0.20380248,0.28773856,0.16886222,-0.12496399,-0.07593125,0.018957172,0.13559765,-0.07739671,0.05026235,-0.26187587,-0.035464045,-0.082497574,0.03965927,0.16374263,0.2740699,-0.13303687,-0.036972325,-0.11311912,-0.029879972,0.003061339,0.036227465,0.08078464,-0.12995565,-0.05446095,0.04856445,0.082739264,0.14712952,-0.1220047,-0.11453719,-0.031901427,0.119519725,0.19539194,-0.027800849,-0.065198086,0.09199587,0.005116094,-0.03693227,-0.09587703,0.06841094,0.011330754,0.043673016,-0.09517144,-0.010978073,0.05323285,-0.027823653,-0.052303866,-0.110527016,-0.15653855,0.049215432,-0.17397685,-0.043287743,-0.0048320144
-0.14872503,-0.122553736,-0.1938956,-0.1671024,0.10337883,-0.016527995,-0.19619374,0.12929063,0.07130609,0.09475264,0.14244162,-0.030693743,0.091603234,-0.11270052,-0.044359982,0.027855631,-0.112621605,0.07151068,0.03447347,0.11637531,-0.16754559,-0.075123854,-0.049065217,-0.055279437,0.003858232,0.08478787,-0.20947874,0.0029428643,-0.022395622,-0.16136795,0.13794138,0.15312871,0.02167308,-0.33350426,-0.041612074,-0.015304093,0.04706797,-0.071013264,0.04545089,-0.026639216,-0.09290782,-0.22359878,-0.05181961,-0.16153769,-0.08918296,-0.11825715,-0.20654961,-0.016435191,0.0036858702,-0.17795917,-0.057302527,-0.012090017,-0.17975272,0.026400106,-0.119960584,-0.072928295,0.13609861,0.121236116,-0.055084236,-0.06360679,0.14880568,0.06459633,0.15253359,-0.094516814
0.0008744695,-0.13956246,-0.2687111,-0.17913876,-0.05632072,-0.15351671,0.04271952,-0.25048843,-0.318341,-0.28222764,-0.2113702,-0.08480718,-0.1262044,-0.29877922,-0.16008438,-0.12593378,0.07676103,-0.20979145,-0.13475898,0.11996218,0.076558925,0.254725,-0.17405097,0.07435844,-0.16347736,-0.36777568,0.14842772,-0.14490211,-0.046751827,-0.0052692606,0.6132042,-0.22353992,-0.12262733,0.009477144,-0.09177702,-0.007513728,-0.12816615,-0.1082241,0.07319928,0.028837219,-0.069941364,-0.10864532,-0.19474779,-0.11346239,-0.1486355,-0.18741888,-0.22833905,-0.15455759,-0.09243616,-0.147681,-0.056537297,-0.30426854,-0.33202863,0.076193206,-0.1819447,-0.44564527,-0.16434897,0.0054741283,-0.07074279,-0.21837904,-0.45094588,-0.13523991,0.08916969,-0.01732852
-0.03515155,-0.03613632,0.050274402,-0.01350142,-0.11024761,0.1509234,-0.027050188,-0.0985061,-0.1336033,-0.13560557,-0.12306505,0.11546351,-0.04490969,0.124448925,0.08077803,0.019213505,0.041659236,0.05189404,0.046519518,-0.007326238,-0.12567103,-0.03188932,-0.08201199,-0.03759748,0.00019055954,0.0072862217,-0.09345769,0.005671801,0.005750198,0.14649351,0.0356369,0.1327233,0.00032550012,0.109118715,-0.112970226,0.101509206,-0.13294797,-0.00028374142,0.05227369,-0.080474205,-0.09884117,0.124939196,0.054848682,-0.0014218354,0.06404862,-0.041923743,-0.0411896,0.1574243,-0.0027186745,0.22596182,0.08331987,-0.11963461,0.18949394,0.07069702,-0.032977507,-0.004665235,-0.114226006,-0.11145469,0.036273625,0.024220837,0.0351992,-0.03552966,0.08205346,0.0025575762
0.06924852,-0.086812526,0.33062622,0.017809836,-0.11635799,-0.009299133,-0.013185693,0.13740009,0.06039637,0.31995636,0.043877505,-0.4489703,0.04808778,0.35442197,0.007845131,-0.102398574,-0.116812855,-0.014178625,-0.0672578,-0.22189067,-0.20812187,0.18150482,0.16031656,-0.005241266,-0.13672921,-0.074188694,0.105306335,-0.08557514,-0.052625272,-0.18381052,0.5405383,0.50258744,0.13167167,0.15260527,0.08527147,0.027431173,0.059487317,-0.094519734,0.18263862,-0.14289209,-0.1640127,0.4957588,0.62303644,0.6261562,-0.042859387,0.18288492,0.07227756,-0.1704296,0.049726043,-0.09573634,0.12489752,0.3636903,0.03541952,0.05271039,-0.0642899,-0.010729,0.34807098,-0.021933349,-0.025142806,-0.078424074,0.15071212,0.21038812,-0.13599738,-0.004704045
0.07823429,-0.10526856,0.12245781,-0.0965218,0.046423253,0.0038522433,0.083959945,-0.029184692,0.10237511,0.012932626,0.12610137,-0.018878708,0.032246027,-0.015816253,0.09807501,-0.005055556,0.032641124,-0.008102132,-0.019554034,0.033892598,-0.040267874,0.0036408512,0.08593188,0.049006183,-0.020820927,-0.012332877,-0.0217022,0.09462885,-0.03933892,-0.074436754,-0.009475614,-0.15970764,-0.12031348,0.11581892,-0.0760488,-0.0941428,0.076561384,0.01812563,0.06034547,-0.032394193,0.061354697,0.030700965,0.059082046,-0.09177471,-0.07334574,-0.02743884,0.037268106,-0.06474271,0.06127256,0.038338948,-0.023807982,-0.07578774,0.047898795,0.008525185,0.030159825,0.023420438,-0.056123067,0.13304381,0.060547117,0.08014768,0.07102087,-0.039053805,-0.024259415,-0.086130455
-0.101635076,-0.12778643,0.035966247,-0.011288353,0.0800453,0.100745484,0.010026454,-0.06282681,0.04305083,0.029357303,0.033711422,-0.04078061,-0.11950149,0.17416757,-0.084548436,-0.05481619,0.037913833,0.010013871,-0.07517539,-0.037067864,0.030222058,-0.14331752,-0.030394383,-0.12797616,-0.012994953,0.041866228,0.09048105,-0.0047645345,0.1333271,-0.02844005,-0.09447855,-0.11616308,-0.063157044,-0.03013938,-0.109553754,0.013000189,-0.10922095,0.11084064,-0.034055304,-0.054709475,0.021302568,0.20207022,-0.06979978,0.01442393,0.08129758,0.14146374,0.12700202,-0.048689492,0.17418206,-0.009636693,0.104304895,0.05349344,0.19495392,0.017111912,0.010857298,-0.036854867,0.042276204,0.054833487,-0.038196526,-0.008003105,-0.050737407,-0.13828175,0.04094553,0.070739396
0.18745069,-0.36254475,0.036133986,-0.12201168,-0.030709103,0.015009388,0.030326476,0.045554336,0.12869845,-0.067883275,0.14051582,0.10943846,0.092859365,0.099783145,0.05744372,0.08464156,-0.0015681974,0.20228617,-0.06270783,-0.13588929,0.24896032,-0.03606798,-0.16724108,0.039602783,-0.0155523885,0.047931604,-0.20934474,0.060739677,0.18772332,0.054440185,-0.054394864,0.08530288,0.031677186,0.16834919,-0.15133505,-0.20038211,0.08814421,-0.12723304,0.0909963,0.17936409,-0.111744665,0.12453332,0.09643249,0.44372353,0.14162497,0.115072004,-0.026726138,0.037835326,-0.012110542,-0.10851379,-0.31516308,-0.11254369,0.24743518,0.006778605,0.045310356,0.057667077,-0.06338452,-0.068138994,-0.066713065,0.0025115553,0.12820916,0.032288097,0.023761341,-0.097250104
0.015125684,-0.060630757,0.026163196,0.03514372,-0.047141213,0.07604249,-0.16409421,0.03228414,0.069629095,-0.076635055,0.10690328,-0.11236663,0.16784954,0.092759885,0.03670498,0.03141235,0.017751336,-0.008265912,0.05503142,-0.052070018,0.07391587,-0.048229404,0.027829798,-0.040592123,-0.013094103,0.023316642,-0.025994308,0.08867326,-0.054560777,-0.1346006,0.06999862,0.041947316,-0.05409058,0.022811906,0.0015498495,0.0036517421,-0.02502664,-0.040731438,-0.041031968,0.04256996,0.13245566,0.09358264,0.11042608,-0.14383215,-0.11802966,0.1864599,-0.014873937,0.08028889,-0.07873291,0.008797579,-0.10789131,0.03830667,0.12570791,-0.0026779762,0.057502072,0.029892176,0.0041833995,-0.052871708,0.040776826,-0.105582766,-0.027568439,0.0097171245,0.03248603,-0.024801621
-0.0975747,-0.18964866,-0.03254051,0.031335935,0.1108193,-0.055510633,-0.15795983,0.013169392,0.020513536,0.041970585,0.09221541,-0.12021867,0.062092498,0.0143446345,-0.09820889,0.07167606,-0.05992826,-0.050014433,0.09265521,-0.11151898,0.041557495,0.38720283,-0.101130426,0.097779766,0.014768895,0.22051759,0.038371325,0.0784494,-0.0738404,-0.1299047,0.27951548,0.20036337,-0.040921744,-0.010394205,-0.262012,0.077065215,0.10076398,-0.08854449,-0.11220943,-0.080627486,-0.0028991671,0.23149502,0.016861621,-0.22336581,-0.024092318,0.10143343,-0.01716351,-0.019363811,0.108584024,0.02831541,0.00652656,-0.029203907,0.10789179,0.14200549,-0.15170942,-0.25826204,-0.15198782,-0.0040081325,-0.019286495,0.08099435,0.10679645,0.07901301,-0.19034004,0.06403622
0.060225382,0.15577805,-0.0711137,0.07840984,-0.14214605,-0.06197119,-0.011341186,0.06388982,0.03025219,-0.085409276,0.092118315,0.013830857,-0.14827316,-0.05171886,0.045406237,-0.018843383,0.01743436,-0.047506526,-0.0036997579,-0.109526664,-0.041845735,-0.038623657,-0.061170153,-0.01432503,0.04217,0.10966227,0.18385153,-0.1312685,0.22537601,0.07228787,-0.09611812,0.042727415,0.019995842,0.61684877,-0.04854604,-0.014575457,-0.079141885,-0.12720597,0.059010673,-0.0831628,0.029191405,0.20493656,0.14552304,-0.11537661,-0.035507306,-0.04873471,0.1561163,0.07520434,0.009135438,0.31810373,0.07721568,-0.046091523,-0.08354472,-0.14495045,0.11155814,-0.050505813,0.12843703,-0.028888183,0.028767703,0.22113235,0.037063442,0.045581657,-0.035978917,-0.06353562
0.070488684,-0.00029928162,-0.034992646,0.042342413,0.04355157,0.11767892,0.0410797,0.003768238,0.04461652,-0.02291479,-0.092781775,-0.12509556,-0.024067027,0.19211975,0.15212928,-0.10337147,0.101149805,0.045699332,0.08008107,-0.013500649,-0.024034804,-0.07575659,0.06695451,0.08482569,-0.058895677,0.12695885,-0.15146723,-0.13199289,-0.20902461,-0.081419714,0.10410223,-0.1208317,-0.07637482,-0.23012114,0.09068196,-0.15820983,-0.030995032,0.12801632,0.043781318,-0.164524,-0.0716814,0.07495892,-0.012586269,-0.088591665,-0.105683796,0.10342373,-0.14680067,-0.056959033,-0.038879596,-0.017536905,0.1699143,0.0545062,0.23591077,-0.13472937,-0.1635732,0.016397532,0.08068284,-0.007740948,0.06881696,0.13664885,0.12311597,0.1610204,-0.055939883,-0.00911404
-0.119828604,0.038635407,-0.056876235,0.069361545,0.07808633,-0.057303946,0.037788574,-0.02348976,0.047042426,-0.12652475,-0.08499402,-0.03445566,-0.20149007,-0.030781189,-0.073675334,0.06901257,-0.029847234,-0.004129026,-0.11863455,0.0736986,0.09378988,-0.19601692,-0.014192433,-0.02371301,-0.18014354,0.10957882,-0.10765422,0.08780102,0.009380403,0.100767925,0.00043094592,0.03390071,0.056683745,0.08022889,0.112890385,-0.011355314,0.01604705,0.044946246,0.0059749503,0.064202644,-0.0075663147,0.115907654,0.101935156,-0.11495727,0.12899551,-0.15126947,0.07839153,-0.10071954,-0.09121617,0.119612426,0.02691437,-0.09572637,-0.09996584,-0.08919021,0.098936714,-0.030022439,0.34906036,0.004130909,-0.12263491,-0.07523465,-0.0644422,-0.018395534,-0.16596699,-0.048251726
-0.2250681,-0.02287829,-0.11489488,0.046881843,-0.013345741,-0.121181265,-0.25565213,0.14123741,-0.22243297,-0.23483081,-0.20378152,-0.1915991,-0.0972989,-0.6810832,-0.105306275,-0.15344484,-0.19855076,-0.12835813,-0.110376805,-0.04901307,-0.08276205,-0.46723476,-0.075718515,-0.11178149,-0.191243,0.16816916,-0.23417053,-0.068093166,0.007670002,0.066917114,-0.6319351,0.004872108,-0.07628893,0.31435096,-0.09926416,0.028956689,0.1342879,-0.105745,-0.056208346,0.08733371,-0.12915318,-0.5271569,-0.044732902,0.1828107,-0.12516001,-0.19621123,-0.53658265,-0.1693693,-0.025072027,0.019740472,-0.102168255,-0.14507419,-0.36150515,0.023171866,-0.18135463,-0.02568167,-0.17806043,-0.027699316,-0.16952467,-0.59220403,-0.49639693,0.046766825,-0.053767897,-0.13374446
0.10823316,0.040379666,-0.0869626,0.06707376,0.088564396,0.10418938,-0.060729463,-0.011781558,0.0027023794,0.115443245,-0.04663834,-0.12429045,-0.11504139,0.02817723,0.09124219,-0.060865965,0.01089805,-0.036502242,-0.11735173,-0.09016841,-0.089631826,-0.048927065,-0.12864144,-0.024193339,-0.046654243,-0.04141065,-0.019202413,0.12144248,0.14226708,0.11614362,-0.07028562,-0.02908529,-0.049186803,0.05202659,0.009903814,-0.0605368,-0.07152792,0.090722896,-0.041800674,-0.08509887,-0.02272195,0.19322237,0.033638775,0.105287276,-0.13680877,0.06069102,0.06599993,-0.052213803,0.08335761,0.07854072,0.042556193,0.018897504,-0.051007323,-0.02169556,-0.12012306,0.098103546,-0.083279535,-0.09045928,0.10666571,-0.1209926,-0.082810655,-0.10795037,-0.081004985,-0.10146088
0.081566885,0.02359722,-0.102606714,0.05296145,0.09779171,-0.12000441,-0.022456938,0.055991884,-0.0085044475,-0.037913147,-0.098922916,0.11248332,0.061655022,0.03778891,0.1296934,-0.077357724,-0.07366821,0.08457864,-0.12871704,-0.07071316,0.061805848,-0.12814641,0.024188759,0.028155023,0.09821779,-0.11508805,-0.14075576,0.10242174,0.0025025227,0.121265374,0.06869198,-0.019477045,-0.006259191,-0.016511707,-0.13194577,-0.091167755,0.09620198,-0.057553586,0.046361014,-0.00024621873,-0.0747316,-0.0621396,-0.06925419,0.02096793,0.14073622,0.041349713,0.022421857,-0.08585883,-0.1223431,0.016326075,-0.0011471001,0.032275613,0.1351308,0.0565312,-0.06572844,-0.05209253,-0.05497249,-0.119751796,-0.015273233,-0.15523352,0.020390216,0.13883898,0.04854823,-0.13607751
0.23583587,-0.12441011,0.093533725,-0.0002613881,0.11880814,-0.09355977,0.15426299,-0.13782756,0.007851013,0.043002985,0.24049729,0.007747239,0.12135076,-0.009926278,-0.07911366,-0.19363922,0.043858577,-0.052284803,-0.08203005,-0.11338801,-0.065168925,-0.096532516,-0.1274982,-0.018443806,-0.072361596,-0.14486422,-0.17644373,-0.08022419,0.36384332,0.10785621,1.0845519,0.1017745,0.07195855,0.5635132,-0.034841012,-0.061443515,0.22120354,-0.06637606,-0.12655269,-0.06395057,-0.014726644,-0.09161848,-0.05511682,-0.098199256,0.015648944,0.0015179445,0.27224922,0.3796303,-0.086579144,-0.113994405,0.17172794,-0.12998861,0.10149132,-0.09147267,-0.16417845,0.12308299,0.04558965,-0.21080695,0.09359839,0.28757283,0.004602665,-0.100957565,-0.030813897,0.08709383
0.0108255595,0.03009722,-0.039935075,0.055475157,-0.11237694,0.083121724,-0.020469837,0.14726241,-0.04823366,0.07941506,0.19574268,0.075584196,0.08849263,0.08469226,-0.11365055,-0.046433333,0.0992066,0.04701385,-0.091573775,0.12432815,-0.07706391,0.04425851,-0.0053188666,-0.099778146,-0.06335257,-0.033452895,-0.0069651823,-0.10014072,0.041219935,-0.06984843,0.09328617,0.11411861,0.04038072,0.016371278,-0.09059067,-0.095680416,-0.08520068,0.09542906,0.020302642,-0.03547692,0.048572898,-0.10779654,0.1910664,-0.10720313,-0.090877324,-0.059645217,0.21522704,0.12099367,-0.026206085,-0.046886012,0.0068525844,-0.055210233,0.104385965,0.0038842938,0.06493111,0.016461298,-0.041790638,-0.11876906,0.31047633,-0.008465843,0.10164026,0.05701683,0.037166983,-0.06412862
-0.2207464,-0.13569954,-0.59001195,0.26398724,0.06916943,-0.007456695,-0.030832212,-0.35457554,-0.1515309,0.020073688,-1.4416355,0.087886944,-0.29079968,-0.18836102,0.18264112,0.10033738,-0.050888427,-0.0771818,0.13042212,-0.02893718,-0.33266217,-0.22182171,0.09354209,-0.01949909,-0.34452176,0.24774623,0.9801896,-0.027721578,-0.15375136,0.043027833,0.79993194,2.1952045,-0.23953992,2.3922043,0.033731736,0.018050713,-0.5801946,0.046231136,-0.76446325,-0.31463644,-0.093104735,0.20787619,-0.31820032,0.16893406,0.04231531,0.10301674,0.056261826,0.22016837,-1.093126,0.08311133,0.0106820585,-0.63355345,-0.75082254,0.16638203,-0.097314686,-0.4588722,-0.27133417,-0.043692224,-0.15682004,-0.08276614,-0.4975275,0.07799629,-0.37252462,-0.20201184
0.0508321,-0.16705981,0.15037966,-0.07112794,0.03536822,-0.0822793,-0.07518419,0.017136013,0.029778969,0.05490442,-0.016129248,-0.052169275,0.056375127,0.098469466,0.12290603,0.0764216,0.105658166,0.21964541,0.09321484,-0.06474839,-0.090856016,-0.5437499,0.065538384,-0.039769117,-0.013060324,0.37105805,-0.20975326,-0.11363112,0.08631009,0.08771782,0.6665754,-0.08463056,0.06433344,-0.107655965,0.061320864,0.026043322,0.07828693,0.09887688,0.17005326,-0.020766148,0.03563373,0.02886731,0.2661342,0.45293963,-0.13887419,0.13136402,-0.04110714,-0.11115769,-0.17590189,0.022371834,-0.033402916,0.027127214,0.26353338,0.21472067,0.12212575,-0.06736329,0.0659848,-0.09141089,0.18727173,0.049154073,-0.005323249,0.101453744,-0.25809893,0.027626546
0.19519997,0.028378483,0.52178854,0.35864335,-0.014801143,-0.0125127025,-0.05675885,0.09831987,0.007881863,0.5910534,0.23078611,-0.13146368,0.25739163,0.16188668,-0.020736959,-0.097070456,-0.0012882178,-0.19922526,-0.1560805,0.028929196,0.12104848,0.031457335,-0.13647923,0.10831721,-0.57544243,0.088261545,0.23715499,0.04041997,0.06788144,0.06623994,-0.059990678,0.44786286,0.036567282,0.2102026,0.36762586,0.14654538,-0.08492788,-0.02008232,0.06406026,0.1730264,0.030150397,0.24918649,0.14253198,0.45003098,-0.051989328,0.04301003,0.5418827,0.36672202,0.089123785,-0.26395088,-0.15575433,0.39539403,0.2711548,0.05754815,0.05328374,0.5165679,0.18479663,0.082854345,-0.07472863,-0.249668,0.10543911,0.17550482,-0.040584642,-0.173191
-0.0236188,-0.06320359,-0.07941565,0.032749034,0.019014483,-0.13865648,-0.053695206,0.10627119,-0.039666574,-0.09424826,-0.06598507,0.0928962,-0.036922917,0.07996083,-0.113537535,0.01785693,0.1201746,-0.025020681,-0.11315534,-0.028547917,0.0099917045,0.036288902,0.013675728,0.01146563,-0.09489208,0.05767986,-0.08639462,0.014385585,-0.08986633,-0.082604,0.090256564,0.11060733,-0.03300581,0.060570575,0.08243025,-0.1524394,0.0018031661,-0.021758107,-0.029919123,0.08893845,-0.08973008,0.015683351,-0.06037121,0.034120724,-0.10394079,0.13861804,-0.073737584,-0.06951941,-0.018415777,-0.06789977,0.11904176,0.07339722,-0.0663254,0.117302544,0.0032220867,-0.093414746,0.047366574,-0.03946554,0.057194922,0.10983223,0.041249603,-0.19377914,0.004405167,-0.017824186
-0.06443131,0.018907044,-0.07522242,0.109126754,-0.06465278,0.08348259,0.0052654985,0.134779,0.028523792,-0.11487651,-0.009123866,-0.13524698,-0.14920168,0.055345703,0.09073915,-0.12727371,-0.02076544,-0.048210762,-0.13206448,0.08374466,-0.0150391655,-0.006343493,0.007282746,-0.09808104,0.07044471,0.09773012,0.05002945,0.02452252,0.10439496,0.122008644,-0.022945449,0.044808745,-0.12199924,0.1897659,0.08114475,0.048691265,0.08888781,0.008085085,0.013468949,-0.035711303,0.124898665,0.21005492,0.057857525,0.051902875,-0.15020601,-0.103950955,0.22124575,0.118851945,-0.07469331,0.104598075,-0.013859319,-0.061404273,0.071345516,0.051536098,0.03754029,-0.10061689,-0.13152377,0.049082614,0.04916359,-0.06391239,0.06330218,0.052994214,-0.021409756,-0.13570392
-0.21903266,-0.033616617,-0.03913944,-0.08567357,0.1010397,0.057377845,0.0877177,0.01138577,-0.024673596,0.062021576,-0.08657948,0.105727054,-0.0415774,0.04107101,-0.15215412,-0.111392565,-0.028543124,0.09039362,0.107344896,0.023637922,-0.14880846,-0.034782145,-0.0050392235,0.1262573,0.059894815,0.0068345037,0.1283641,-0.11322696,-0.114634536,0.10496527,-0.16638811,0.09262071,-0.044242024,0.07943558,0.06252816,-0.019272972,0.008008441,-0.12849131,0.048264816,-0.033927478,-0.13968486,0.076936804,-0.12044571,-0.04945354,-0.060563177,0.07733941,0.2547617,0.10688895,0.075103916,-0.076314315,0.13257466,-0.15746886,0.06295741,-0.11405568,0.12902287,-0.06366166,-0.039133098,-0.004304707,-0.08969567,-0.0395279,-0.13042074,-0.09499515,0.01876742,-0.058163617
-0.12060133,-0.11449753,-0.12388871,-0.07457573,0.122217454,0.15485959,-0.0013954822,0.10270613,0.023270838,-0.1263453,0.01352088,-0.060158417,-0.05463873,-0.059166398,-0.07584513,0.028023956,-0.088427626,-0.21033138,-0.02127155,0.096650116,-0.12458353,0.12542391,0.10456966,-0.1294703,0.1073275,-0.01519714,-0.10556457,0.02487368,0.16351335,-0.020723179,0.10884602,0.23428218,-0.008167012,-0.29340202,0.11343758,0.057494335,-0.05847973,0.11749641,-0.00013158332,0.028444672,-0.07823559,0.034684453,-0.06615414,-0.06024951,-0.065436274,-0.021143096,0.023771117,0.0934969,-0.08083482,-0.43603712,0.120285526,-0.1561502,-0.06505647,-0.26351324,0.029446922,0.070056155,0.08095932,-0.011640224,0.17116466,0.07206158,0.06576514,-0.10874584,-0.035629548,-0.0061339447
0.05384892,-0.08248204,-0.12128985,-0.0031508,-0.10637624,-0.10571158,-0.062459286,-0.1784809,0.0804362,-0.08942744,0.078093104,-0.056477793,-0.012279836,0.07198022,-0.11700572,-0.041820697,0.012105603,-0.057025984,-0.011063442,0.024911935,0.050628982,-0.11242745,-0.09819354,-0.08796598,-0.12032195,0.007828502,0.011444214,-0.012497392,0.11816751,0.0019242968,-0.10255291,-0.06436747,-0.15064827,0.05776063,-0.06819682,0.07750703,-0.09235079,-0.08093536,0.044761118,0.08054005,-0.04635998,0.054738227,-0.01980458,-0.12630142,0.083251484,0.09019604,0.124797255,0.037680224,-0.1077055,-0.11319011,0.07124187,-0.026850818,-0.14540927,0.013788643,0.031128049,0.018872857,0.044580758,0.08653457,-0.03481314,0.0777216,0.003627236,-0.06124364,-0.072629414,0.057123568
0.10627393,-0.048808,-0.14241512,-0.06832814,-0.08170657,-0.03312867,-0.06791037,-0.09062848,-0.18738706,0.025364166,0.06032087,-0.13476086,-0.14860179,0.24544197,-0.07713567,-0.043385897,-0.06547134,0.06787396,0.06922543,-0.22578637,-0.05558663,-0.009548348,0.07417863,-0.13279878,-0.26494452,-0.005452487,0.013372147,-0.07017396,-0.016464286,-0.01215201,-0.12768224,0.021567678,0.024093082,0.040417396,0.05719322,0.06471282,0.08984642,0.01761638,-0.18177573,-0.07769944,0.04345592,-0.04287434,-0.0838622,-0.08302731,-0.11048903,-0.11818394,-0.04964755,-0.049729086,0.11268637,0.042336226,0.05550911,-0.21132694,0.13349265,-0.06742446,-0.12454839,-0.25196233,-0.10483395,-0.0636599,-0.12124374,-0.077704035,-0.12891509,-0.08761032,0.03363909,-0.0415002
0.20833491,-0.00981126,-0.025815146,0.039245494,-0.1912821,-1.1042783,0.15771936,0.16039264,0.12022382,0.19160089,0.06496969,-0.13060984,0.106688984,0.50405157,-0.07483962,-0.021553064,0.044281334,-0.07939717,-0.061100535,-0.2525951,-0.3294855,0.5438104,-0.19141215,-0.06839325,0.14012508,-0.05865638,2.1038218,0.028494637,-0.8759342,-0.21294044,-1.81734,0.36922508,0.14079201,1.6573551,-0.01584086,-0.08836427,-0.3101109,-0.0056815986,-0.08265321,-0.17504577,-0.086305946,-0.053660527,0.2530058,-0.13771966,-0.012891025,-0.16107576,0.5522919,-0.12154457,-0.08205266,-0.18100785,-0.08417257,0.4172915,0.36168954,0.15952758,-0.017848806,0.31997636,-0.10147985,-0.12982817,0.09258339,-0.5075839,-0.9734226,0.26897383,-0.15357238,-0.11378616
-0.1183059,0.054623876,-0.013831928,-0.06595516,-0.0017893931,-0.029171318,0.06883496,0.13641548,0.08676888,0.024759734,-0.113898866,0.118413575,-0.023046538,-0.05549536,0.03356916,-0.0955487,-0.010168028,-0.09841221,0.11153731,-0.10477867,0.029340094,0.035786103,-0.12663624,-0.04530608,0.022961829,-0.12078785,-0.01954579,-0.07833853,-0.09383929,0.01807941,-0.06526353,-0.038963255,-0.04441692,-0.08466593,0.09579699,0.071342595,0.023721492,0.07615767,-0.06370754,-0.0061557414,-0.096971095,0.019037789,0.0072936444,0.020995783,-0.1394507,-0.15889919,0.057018787,-0.045445744,0.02165983,0.00864986,-0.054813046,-0.09653854,0.1031756,-0.03182783,-0.11340409,-0.10417441,0.115599684,-0.11811957,-0.029686667,-0.12132669,-0.08257126,0.008615058,0.11482096,-0.042648274
-0.0047806576,-0.016185647,0.24927601,0.0013192077,-0.09730071,-0.0720252,-0.10243306,0.08126475,0.113846235,0.25449777,0.7100948,-0.090683974,0.21363147,0.5684422,0.12045151,0.03635308,-0.033279046,-0.017520322,0.024274662,-0.0695439,-0.0218221,0.014121772,-0.038628303,-0.05076643,0.025604123,0.09112081,0.2666243,-0.06432669,0.16720459,0.11018272,-0.15508446,0.41877678,0.028526193,0.004513549,0.019023977,0.06646842,0.11145895,0.054722976,-0.08663395,0.033945184,-0.02085978,0.951932,0.014805799,-0.0018334228,-0.10773247,-0.0058080615,0.80302,-0.08578338,-0.17598768,-0.21373913,-0.031436782,0.27257335,0.5123526,0.05615672,0.1046771,0.27771735,0.041060597,0.01676953,0.30577096,0.18729772,0.35821483,0.18927275,0.10894215,0.14769675
-0.102545016,0.06582056,0.09545268,-0.08592733,-0.122672595,-0.088369906,0.11509699,-0.06758861,-0.097360775,-0.036251195,0.03891701,0.009331535,-0.08639166,-0.00022019395,0.069279864,-0.026587011,0.024110483,-0.017415492,-0.13123998,-0.10628997,0.10670586,-0.07244155,-0.033650436,-0.09134959,-0.13221751,-0.05865324,-0.034330104,0.061738756,-0.11047238,0.05688774,0.11785344,-0.14224228,-0.04153957,-0.0047958335,0.07516919,-0.13247582,-0.07298054,-0.124596074,-0.06680085,-0.019478418,-0.06295221,0.10107261,-0.06991428,0.09323694,0.046022616,-0.17688376,0.16419691,-0.055063397,-0.08767637,-0.02806005,0.03808517,0.028502675,-0.075056225,0.013481303,-0.044963337,0.09994717,0.030925015,-0.11953766,0.056996394,-0.037638064,0.13898788,0.12621959,0.09110052,0.003382279
0.090617225,-0.08783513,-0.15027468,-0.044953782,-0.0121280365,-0.021918697,-0.13643853,-0.14458302,-0.029541874,-0.021703176,-0.12159776,-0.15330629,0.022930183,0.09723839,0.18021707,-0.050143808,-0.096424386,-0.02135401,-0.12328239,0.063353226,-0.07788093,0.05902086,-0.16118103,-0.13236497,0.04767038,-0.01561411,-0.12541145,-0.050254688,0.14711179,-0.003158649,-0.021121163,0.13618778,-0.028607225,-0.113287546,-0.16136274,-0.07229525,0.0005889136,-0.04948682,0.10588778,0.102930576,-0.010828308,-0.065200634,-0.07067492,-0.007236582,-0.029968303,-0.13793181,-0.12231701,-0.0135399,-0.028404841,0.08814902,0.054148097,-0.14165749,-0.015368128,0.014318849,0.03825455,0.05775428,-0.10664643,0.098603904,-0.032769907,0.110990755,-0.13055582,-0.049936865,-0.09296938,-0.10025127
-0.21442172,0.12754425,0.77779514,-0.5670649,-0.25428897,-0.013923191,0.12634405,-0.076784216,-0.10625535,1.3073628,-1.4393221,-0.25193533,0.86212707,1.0664753,-0.029807026,-0.08349269,-0.15294081,-0.13299814,-0.08314828,-0.07736211,0.05070742,0.10013284,-0.022351708,-0.048533086,-0.08920429,0.13468911,-0.34438375,0.47547978,0.24743856,-0.60035974,0.0818052,1.3122584,0.17658532,0.21178582,-0.6824201,-1.0320147,-0.3893273,0.047917455,0.6523251,0.09163221,-0.13100728,0.94009304,1.2300562,-0.06182203,0.018718487,-0.10604819,0.8955922,0.57036394,0.046854623,-0.37838486,-0.1368519,1.0670402,1.2975526,0.0914534,-0.13030213,0.14113863,-0.25303376,0.13261296,-0.011229035,0.16840921,0.9546747,0.8112569,-0.050607443,0.9540691
-0.1409491,0.0045090723,-0.10437905,0.08770761,-0.07663556,-0.010745863,-0.071864165,0.02050054,0.0033782835,-0.17629291,-0.1329507,-0.0005850643,0.020499596,0.1365792,-0.09638126,0.13523242,0.019806087,0.16097204,0.00598605,0.11755081,0.035243843,0.01792096,-0.06445015,-0.05296462,0.015303644,0.07928879,-0.11541381,0.080225885,-0.09862458,-0.065418415,0.047397994,-0.050794557,-0.11416117,0.23560406,0.0153043615,0.04406893,-0.07783374,0.046137296,-0.024991611,-0.11432074,-0.072648786,0.20134231,-0.0017813991,0.09989883,0.107729405,-0.041046992,0.07397567,0.016101371,0.069329314,-0.06116776,-0.30588228,-0.09447823,-0.12194539,0.0174079,0.0113592595,0.07038841,-0.031625368,0.0826442,0.083258316,-0.073569626,0.08503802,0.08921303,-0.017217005,-0.08432402
0.20676498,-0.04271763,-0.648232,0.17200248,-0.17568961,0.04099009,-0.054400448,0.22467326,0.13612653,-0.095818885,-1.4003931,-0.08694632,-0.020941375,0.12484188,-0.3017381,-0.10243104,0.09381212,-0.08191863,0.05125871,-0.086364456,0.14703713,-0.1348753,0.22257338,-0.39407423,-0.4100295,-0.5072397,-0.30108657,0.010321621,0.0073175775,-0.92733127,0.09030256,0.19200887,0.15966764,0.63843757,-0.09359818,-0.69050765,0.14350007,0.050741345,0.026092071,-0.046570525,-0.2411047,-0.8078795,0.061323605,-0.102978505,-0.10177584,0.07813324,0.31707785,0.107169755,0.20915061,-0.5238664,-0.49422407,-0.48829296,0.3898536,0.4323848,0.032880228,0.159337,-0.040966872,0.031592425,-0.14281999,0.54296803,0.27754742,0.19256677,-0.12852088,-0.04799925
-0.1327502,0.19407696,-0.035408862,-0.09716359,-0.1043586,-0.01572254,0.059691396,-0.08188725,0.12415655,-0.08036676,0.04991535,-0.069078594,0.078408375,0.085400574,0.054684773,0.0767706,-0.06344205,0.18910128,-0.066920005,0.056222927,-0.051662587,-0.00887454,0.041402213,-0.08989775,-0.07295867,-0.066354714,-0.10644878,-0.03492537,0.036363374,-0.057120297,-0.09027972,0.075828366,-0.15879388,-0.01269962,-0.10361284,-0.12690656,0.16799049,0.022994842,0.011171863,0.07291714,-0.06590087,0.036414698,-0.10606088,0.025998129,-0.111738116,0.13003519,0.28759927,-0.09584056,0.08207343,-0.14224514,-0.07129273,0.053765617,-0.04543062,0.012662576,-0.100324824,-0.05002429,-0.03840785,-0.2489025,0.014177597,0.15429725,0.085763626,0.041064013,0.034267858,0.016198
-0.16340818,-0.07252741,-0.2067108,0.037296485,-0.01884956,-0.083397515,-0.08897948,-0.11423797,-0.018869935,0.01736292,-0.007777703,-0.14515465,-0.096986786,-0.008271493,-0.0130650345,-0.057390615,0.029183637,-0.12758987,0.002982935,0.035723846,-0.11987112,-0.034087338,-0.17120604,-0.08451349,-0.020546349,0.041995723,-0.08895231,-0.041237276,-0.074881054,0.11154083,-0.113784224,-0.1450002,0.13413224,-0.23143102,-0.008384781,-0.15236387,0.043930262,0.086761214,0.104866676,0.019060927,-0.2114069,-0.17052354,-0.052809577,-0.0071951007,0.08499531,-0.10234284,-0.15029383,-0.12584053,0.097994275,0.21209471,0.09301718,0.06595881,-0.012999675,0.035118435,-0.061278418,-0.019083895,0.069845654,-0.020365806,-0.19383347,-0.13003665,-0.13596123,-0.04000046,-0.05631724,-0.1461256
-0.3571426,-0.26534984,-0.34914127,-0.214254,-0.13127932,-0.06472131,-0.119510755,-0.4480276,-0.27971917,-0.19903606,0.021015614,-0.13459268,-0.5858005,-0.5873313,-0.080297366,-0.0390039,-0.14640705,-0.17489342,-0.097620405,-0.0695808,-0.36060652,-0.238266,-0.053408314,-0.06748928,-0.16317393,-0.04005341,0.16345967,-0.1912922,-0.03395688,-0.12475126,-0.09817027,-0.2896683,-0.4359362,0.9258702,-0.13884886,-0.13089874,-0.051892787,0.032163166,-0.15658145,0.0017460827,-0.007394927,-0.07435084,-0.29862803,0.4754622,-0.057078227,-0.15657425,-0.9112627,0.09278458,-0.26237673,-0.24628071,0.07250379,0.11905168,-0.76787394,-0.25162125,0.07392015,-0.6760246,0.23767444,-0.13850881,-0.18363729,-0.21227132,-0.583997,-0.63444036,0.049370077,-0.07962017
0.72833997,-0.17445053,-1.2031687,0.9089476,0.04371181,-0.25847873,1.250179,0.84458816,-0.035793804,-1.01971,0.96347445,-0.082266346,0.21998657,0.5799842,-0.07850261,-0.011690482,-0.059445582,-0.3868116,-0.07797881,0.40175417,0.37074295,0.15373775,-0.66262275,-0.0550716,1.3863764,-0.24851768,-0.4420001,-0.10212792,-0.0069130664,0.38401127,0.55107796,0.03396134,0.6141883,-0.2917043,0.60414004,0.4789476,-0.583774,0.058523566,-0.032878924,0.18212515,0.05696302,0.7327778,0.45153224,1.190273,-0.03685097,-0.15890376,-0.17047547,1.170617,-0.16325778,-0.459663,0.37375295,-0.17031172,0.60513836,-0.08012989,-0.050483793,0.33316115,-0.32233092,0.033238914,-0.9644121,-0.48445377,-0.31744614,0.69857305,-0.038396336,-1.7445048
-0.02317612,0.1303193,-0.08637745,-0.11078945,0.017546033,-0.007571573,-0.20143954,-0.20140581,-0.013972877,-0.08177448,0.0036173759,-0.09477898,-0.10240227,0.23620939,0.086315416,0.052586496,-0.010159217,0.09362445,-0.05738601,0.039029166,0.0104044825,0.12997252,-0.030705597,-0.047301296,-0.20455928,0.16286223,-0.053907443,-0.081706636,0.07762672,-0.071574,0.14508627,0.27205548,-0.22281344,0.22104178,-0.13077585,0.05272602,0.04700601,0.010564636,-0.009534162,0.0057666283,-0.016472423,0.25175956,0.008174523,0.04497957,0.6300313,0.33271194,0.08080235,0.11870014,-0.13463978,-0.3251954,0.029823098,-0.23800915,0.053239003,-0.096072316,-0.096773535,-0.055570494,0.107223175,-0.80240786,0.12132067,0.34343946,-0.019217556,-0.062700175,0.08474499,0.15629157
-0.05814569,0.04754895,0.05620763,0.014130605,-0.007533659,0.005073948,0.0827264,0.12652215,0.0054911063,0.05577819,-0.12080107,0.08687877,-0.0028186834,0.018392658,0.1284545,0.051692225,0.028956609,-0.026766222,-0.07664932,-0.08924287,0.044797502,0.11682073,0.08755866,-0.01750946,-0.002063284,0.104445025,0.12519526,-0.13052353,-0.067391105,-0.10523855,0.07809248,0.09294513,0.056428008,0.16286059,0.01089403,0.015999122,-0.106922224,-0.0054464145,0.04548781,-0.01681232,-0.10164189,0.03338281,0.13829638,-0.022422858,0.118094064,0.14391954,0.0010170218,-0.0592933,-0.078348644,0.06611602,0.042290386,-0.012441068,0.050190557,0.031977687,0.04165881,0.11977814,0.024092685,0.09485492,0.0022681572,-0.114826836,-0.12591697,-0.043509856,-0.09130448,0.063780256
0.030704837,-0.0807148,0.049700387,0.10367031,0.032933045,0.15387274,-0.024099221,-0.007670416,-0.086725906,-0.030782945,0.089431934,0.045839276,-0.020554367,-0.11922626,0.028473338,-0.09027904,0.03503746,0.059352588,-0.119579226,0.09296455,-0.022458801,-0.0033042254,-0.08862281,0.02183758,0.024990419,-0.0389739,0.10596953,0.0020837116,-0.0817301,-0.052262258,0.049631618,-0.09705618,0.10283971,-0.13175969,-0.0011981528,-0.1311746,0.12982807,0.10642475,0.09237584,0.08574029,0.050401237,0.084391825,-0.09519454,0.11968178,0.102375396,-0.21065891,0.17814279,-0.00010202895,0.09368652,0.031465143,0.16280465,-0.12277491,-0.11963968,0.023275677,-0.07679277,-0.011735453,0.07029939,0.012582789,-0.1592664,0.00789955,-0.09377766,-0.115979426,-0.08240765,0.104351304
-0.1634289,0.055111397,-0.10085199,0.041124307,0.11146255,-0.120762564,0.13312708,0.1437647,0.18201011,-0.14961554,-0.34465685,-0.32449517,0.202195,0.22485927,-0.07547028,0.055441614,-0.13131276,-0.12354101,-0.13194071,0.10889296,0.11903768,-0.056898564,-0.100407794,0.085633956,-0.27285114,0.20243502,-0.0013894896,-0.045437634,-0.56014305,-0.0065698666,-0.15256166,0.14534101,0.12561795,-0.19356452,-0.16568907,-0.08607025,-0.23477449,0.091443606,-0.18733498,0.1532011,-0.04069903,0.039951984,0.45699438,-0.2808822,0.040819585,-0.2642803,0.41025794,-0.17956465,0.10732264,0.17090808,0.1848192,-0.01988479,-0.06443056,-0.12547538,-0.1411415,0.09697056,-0.60886747,0.1060938,-0.26997516,0.54983485,0.46596804,0.2608676,0.029697038,-0.06521616
-0.18930939,0.052976083,0.05013857,-0.05958468,0.07535768,0.012712588,-0.03157958,-0.030888323,0.050329342,-0.107980296,-0.116724044,-0.1579104,-0.050159495,0.0942363,0.04809585,-0.04650896,0.14548615,-0.104393326,0.011415876,0.028248806,0.090222135,-0.076896794,-0.01375133,-0.15517311,-0.053086188,0.04680756,0.0015033424,-0.095981464,-0.09197267,0.0702056,-0.031756315,-0.013633263,0.073160976,-0.01609232,0.09660133,-0.050535534,0.044621926,-0.04572161,0.028160742,0.12282558,0.016311413,0.039068993,-0.04110139,0.13805996,0.06622523,-0.15619946,0.11585172,-0.008371053,-0.076146625,0.13681287,0.089144394,-0.16507348,-0.09831256,-0.06581212,0.043137904,-0.068902045,0.1380159,0.0009269621,0.048765384,-0.0417496,-0.06819868,-0.13379882,0.05297207,-0.0708893
-0.21137126,-0.00854233,-0.069278985,-0.020367445,0.058345195,-0.12148767,0.077308066,-0.14657326,-0.022289697,0.028864942,-0.069338895,-0.14357573,0.029040977,0.10418178,0.040838856,0.095205516,0.047605164,0.035306666,0.053175747,-0.13678102,-0.1331062,0.16156572,0.07157978,-0.012305353,0.028855849,0.09639622,0.077447385,-0.08571458,0.039463177,-0.20355456,0.3543214,0.20824885,-0.06644503,-0.05229675,-0.044328436,0.065910935,-0.053474817,-0.089491926,0.04668684,0.070450455,-0.10409169,-0.06440136,-0.04870061,-0.007715163,-0.022053862,0.062359344,-0.05493988,-0.064950615,-0.10568783,-0.123332776,-0.10922989,-0.0639371,-0.74224293,0.023243483,-0.1358406,-0.23021606,0.067456625,-0.1719133,0.03321424,-0.24536748,-0.008616318,-0.19095369,-0.3346101,-0.11877057
0.1943157,0.07857433,0.815207,0.0964157,0.5342986,-0.12824282,-0.31836733,0.9149306,1.0374395,0.26202512,-0.690715,-0.55912334,1.3142719,-0.32016593,0.03231674,0.0069663622,-0.026748851,0.939996,0.016665086,0.38821295,0.24903788,0.36312425,0.12489165,-0.048966687,-0.47434992,-0.2238378,-0.64299136,0.15159948,0.12662143,-0.95985526,-0.43249807,-1.0828146,0.967372,-0.025516912,-0.07703364,-1.725238,1.1785616,-0.022227952,-0.68870133,-0.0063552395,-0.014604111,0.19333555,0.3256349,-0.6428741,0.028097486,-0.05506719,1.086365,1.0056589,0.061999194,-0.57334036,0.2735925,1.4252678,-1.7711608,-0.76674277,-0.014221015,-0.15812801,-0.04515177,0.12195515,2.493837,0.55261433,0.56432617,1.2093993,-0.09070519,0.8575052
-0.12831192,-0.17673944,0.06816362,0.042494986,0.050164465,-0.06557596,-0.042771906,0.040814027,-0.08187735,0.059473716,0.018054549,0.069752455,0.04948008,-0.052090943,-0.13342746,0.036834307,0.09516852,-0.038415715,-0.10790505,0.056882896,0.03434356,-0.008850086,-0.11866357,0.09071337,0.040292047,0.022102294,0.26545846,-0.104954846,0.025105529,0.32508633,-0.10368823,0.24433352,-0.017443998,0.21310133,0.08644983,0.12454744,-0.13558604,-0.082108445,-0.060660228,-0.11878188,-0.12708843,0.1406378,0.02871316,-0.060245857,0.030689187,-0.09148825,-0.12428161,0.021342637,-0.03241072,0.2694866,-0.19807178,-0.114954084,-0.12194465,0.018945096,0.0021213293,-0.024457438,0.010779688,0.029342305,0.109878935,-0.37436694,-0.037437826,0.1063246,0.07660273,0.07753185
-0.16928893,-0.17361788,0.07316642,-0.14549986,-0.17289127,0.012431584,-0.05620048,-0.10725446,0.0019752202,0.10137654,0.11942983,0.13105333,-0.10898128,0.234827,-0.06445621,0.031656116,0.04114464,-0.05606909,-0.11932794,0.1724444,-0.08126125,-0.006572094,0.090406194,-0.13238963,0.053643934,0.12238173,0.041382734,-0.032785654,-0.0033950899,-0.04100211,0.15694158,0.10657188,0.032049723,-0.041377053,-0.0011082648,0.0058404207,0.10324943,-0.09567946,-0.12038753,0.0073374873,0.065087155,0.04565374,-0.008967665,-0.08225221,0.085573666,-0.09412242,-0.02775218,-0.053885385,0.06787441,-0.14507148,-0.09281004,-0.10591153,-0.1832044,-0.05405011,0.12002081,0.166069,0.029951736,0.027960973,-0.036850013,-0.0047775474,-0.011783248,0.08771666,-0.02960305,-0.06430479
-0.047366172,-0.09868551,0.00900849,0.06389326,-0.05287534,0.0433631,-0.095889166,-0.063074596,-0.067543894,-0.02506945,0.11556858,-0.12481912,0.084182434,-0.12305259,0.02705582,-0.03513426,-0.04463143,0.033008356,-0.011847958,-0.03476261,-0.062594265,0.086766206,0.012922224,-0.12961072,-0.14441542,-0.07254211,0.13506362,0.0535502,-0.06688243,0.0065097203,0.016703928,0.12992659,0.011685473,-0.1118977,0.0759645,-0.116229154,-0.03194112,0.106871404,0.12235878,-0.024376865,0.1214108,-0.002607928,0.014422524,-0.0413971,0.056207217,-0.105547786,0.1279824,0.088219896,0.06561961,0.123076424,0.09256757,-0.07255136,-0.01961669,-0.029433664,-0.11486119,-0.04621036,0.0037647777,0.017600225,0.111830175,0.13278393,0.094814785,-0.0024315638,-0.07672726,0.09569858
0.0971379,0.05850622,0.12336017,-0.014403743,0.041498847,0.05789293,-0.046086222,-0.05354939,0.09883535,0.06100501,-0.093131915,0.06197764,-0.090832554,0.057207204,-0.027817737,0.08933606,0.09519679,-0.036490176,-0.020830724,0.04194993,-0.022501916,0.0110069495,0.008727439,0.08930832,-0.069491714,0.16507466,0.062320817,-0.09272459,0.028511325,0.03504729,0.121438265,0.10763678,-0.028272396,0.065322906,0.0691792,0.06209339,-0.0904865,-0.11079601,0.035046607,0.062071387,-0.13431637,-0.06467577,0.04779365,0.10259774,0.1373842,-0.08589445,-0.04746182,-0.07319203,0.0006793146,-0.041063283,-0.08132063,-0.09590893,0.035851486,0.09385356,-0.04403712,-0.050077353,-0.04395298,0.112507075,0.09829045,0.027759602,0.0016590713,-0.084715754,-0.033638563,0.060796402
0.09961015,0.121751286,-0.10147093,-0.050543,-0.0090934755,-0.12273224,-0.083501436,-0.2014242,-0.04825753,-0.01214331,0.13068219,-0.1877778,-0.10952338,0.46093473,0.03309573,0.051491007,0.013276383,-0.0975593,-0.07455434,-0.10906011,0.040094398,0.10336259,0.21066779,0.08575093,-0.1260846,-0.05549292,0.13540913,0.0952897,0.28791523,0.26213527,0.8097566,0.13386147,-0.21674958,0.35349852,-0.096626826,-0.09575027,0.06534673,-0.0076960702,-0.11661809,-0.07561437,0.0036847885,0.145502,0.14092839,0.083155036,0.20631585,0.012189125,0.15393241,0.12225571,-0.017483087,-0.045860697,0.34299982,-0.23906213,0.111562155,-0.096838616,-0.13630794,0.20449361,0.1976923,0.18603046,0.077948205,0.08812585,-0.11879243,-0.20121063,0.15731227,0.02297326
0.8507754,0.23053983,0.12597731,0.046315808,0.32136673,0.0040919874,-0.010414724,-0.0015425549,-0.12006111,0.3151201,0.044647705,-0.06561107,0.23539762,0.28681424,0.17773369,-0.11214324,-0.12181812,-0.08999375,-0.17663263,0.032675844,0.18610491,0.05848874,-0.030504124,-0.17899795,-0.29156753,-0.05513722,0.016129551,-0.07561263,0.12844487,-0.061005346,-0.40839797,0.16723877,-0.13389166,0.08262117,-0.1430572,0.04589447,-0.11647053,-0.022728868,0.5077077,0.038789716,-0.12247012,-0.5045889,0.070603386,0.17301808,-0.045879114,0.07359484,0.021080142,-0.5368964,-0.12198522,-0.38073835,-0.70891625,0.30668548,0.54972875,-0.07271813,-0.13053863,0.30183372,-0.61820674,-0.0052368706,0.108490705,-0.5236139,0.019976908,0.23826368,0.07267284,0.2721218
-0.03368209,0.0076393825,-0.17212443,-0.03363544,0.049207944,-0.039098382,-0.15306947,-0.3194087,0.027605498,-0.29633993,-0.104585335,-0.1325861,-0.109458774,-0.12053643,-0.0062206844,0.059339542,-0.10869481,-0.10120047,-0.07579835,-0.010401144,-0.18232219,0.06655937,-0.028565735,0.06258083,-0.19139566,-0.22266643,0.64719206,0.07664144,-0.05044321,-0.09429822,1.6526022,-0.16237396,0.17879102,0.103892274,-0.042975027,-0.18653122,0.012589875,0.0046347547,-0.29592362,-0.105511494,-0.021786636,-0.014694017,-0.023222884,0.09022065,-0.11263254,0.059493545,-0.4286091,-0.1080851,0.08550327,-0.22539042,-0.001639223,0.02820953,-0.4176359,-0.030284984,-0.032435223,-0.46969548,-0.7750548,-0.0044436143,-0.52813447,-0.11245534,-0.092692524,0.12450788,0.11711714,0.038213383
0.05340391,-0.09411207,0.02890791,-0.07601342,0.01462998,-0.049143236,-0.11210777,0.0427084,-0.014821529,-0.06678343,-0.084836125,-0.11070847,0.12479866,0.13540666,-0.12892379,-0.124171585,0.04072026,0.10959905,-0.06833722,0.025048241,0.01818058,-0.09675028,0.04038192,-0.060570605,-0.00058825867,0.05834407,-0.13280147,0.0442697,-0.009456188,-0.047113318,-0.07269727,0.31869867,0.026603753,-0.014474632,-0.089609824,0.13447331,-0.12188717,0.1079129,0.06047991,0.071719915,0.13168022,0.25887528,0.1800453,0.06561549,0.105373204,-0.15975918,0.0039617075,0.13425684,-0.0944935,-0.07812962,-0.05540197,0.03753799,0.23072986,0.002497975,0.14064626,0.06671463,0.03408661,-0.14618042,0.04507215,-0.203596,0.16345188,0.105030745,0.038958017,0.14489971
-0.091187224,-0.055498138,-0.05598192,0.08941131,0.03341219,-0.104302004,-0.00096396124,0.0060801,-0.09357299,0.03097924,-0.13300788,0.09315395,-0.01783059,-0.086354986,0.027719399,-0.09337063,-0.107347734,0.08807885,-0.007826641,0.0033775067,-0.011491794,0.060556367,-0.09233889,0.105801284,0.07434668,0.08953447,-0.12284694,-0.06990276,-0.094186276,0.104473844,0.039374884,-0.102061406,0.09783115,0.07177009,0.037401393,-0.088664845,-0.017412612,-0.08894633,0.0068609854,0.07952703,-0.0785716,0.12701106,0.043961454,-0.058409125,-0.036349386,0.058654994,0.06474538,-0.026876293,0.05968876,-0.026338497,0.10752683,0.06690144,-0.012774356,0.10121328,-0.09971811,-0.13249496,0.14751923,-0.13495715,-0.042068727,-0.12506667,-0.0561887,-0.10717403,-0.1361148,-0.06979796
0.0800773,-0.061048266,0.00069082715,0.09011999,0.03371681,-0.06908578,0.14662126,0.11222423,-0.10846146,-0.05727266,0.08949417,0.012047699,-0.035189632,-0.10388792,0.106582925,0.015024558,-0.049358808,-0.096096866,-0.02460783,-0.088281386,-0.077308826,0.0856811,0.00014638316,-0.06719383,0.11924659,-0.1347835,0.04028401,-0.08201548,0.09236263,0.08532169,0.056302417,-0.040970813,-0.08593157,0.0735077,0.06666782,0.067477375,0.022853022,-0.024417335,0.04541138,-0.027677028,-0.06080296,0.1502414,0.13480833,0.13017677,0.070434436,0.043908898,-0.092654735,-0.08183971,-0.06595755,-0.099339634,-0.09383758,-0.12274574,0.089927465,0.016601868,-0.13089608,0.075038135,0.097406074,0.025937187,0.10609826,-0.13034765,0.008606665,0.12655412,-0.033846077,-0.12717418
-0.12837622,-0.14784686,0.07061159,-0.06231992,-0.0032060256,0.11661706,-0.11439514,-0.038031656,-0.16527504,-0.17259157,0.021113023,-0.053634215,-0.0075928266,-0.007075277,0.12515321,-0.04024344,-0.0030716413,0.15108736,-0.06276447,-0.065077595,0.056779876,0.08326339,0.0094243605,0.12412011,0.0058187963,0.054063726,-0.05579258,-0.12406717,0.07090073,0.104400985,0.060743682,0.042645175,-0.1755877,0.13552266,0.046359252,-0.06866229,0.18843001,-0.11405301,-0.018931806,0.0645553,0.033205055,0.18747279,-0.017512916,-0.08655528,0.15237786,-0.05519207,0.098808214,-0.10751593,-0.0508466,0.1389083,-0.07444464,-0.050768778,0.02156037,-0.031308778,-0.09427227,-0.027037703,-0.052919835,-0.08942709,-0.039888773,-0.04562496,0.07517281,-0.016556943,-0.05009625,-0.0723346
-0.08322653,0.15277377,-0.49513507,0.1727384,-0.055299155,0.016421502,-0.01950922,0.20499957,0.010622562,-0.23532501,0.025339179,0.06660949,-0.13755699,0.24731271,0.017501619,0.12877262,0.09332381,-0.2397986,-0.009545898,-0.13513583,-0.06804751,0.006099743,-0.18817738,-0.10278786,0.07242614,-0.018820332,-0.47974488,0.0019404975,-0.3114658,0.006005539,0.3350442,0.113972485,0.19792274,2.2764287,-0.19787219,0.28046244,-0.36968455,0.070668034,0.1331952,-0.046527985,-0.08085729,0.026340341,-0.04927946,0.8655036,-0.100584745,0.07151989,-0.0668736,0.23566616,-0.13539064,-0.050616495,-0.1446367,-0.3434331,-0.3211602,0.34971955,-0.034521986,1.1700467,0.2980634,-0.09856333,0.26315054,0.047751784,-0.30971998,-0.16808355,-0.6245836,-0.22321928
-0.1328715,-0.3301683,-0.093513675,0.07259536,-0.17027341,-0.087243535,-0.44344372,0.102201834,0.08032504,0.16684857,0.44562382,-0.19721638,0.08317454,0.20257413,-0.032731403,-0.10594887,0.026707849,-0.35240108,0.017958904,0.16413234,0.042150974,-0.06753109,-0.80363727,0.17472255,-0.54125386,-0.035972416,-0.10568675,-0.116772294,-0.12931898,0.08006283,-0.05272527,-0.020770077,0.061226115,-0.06308865,1.1106582,0.33553368,-0.14211494,-0.07614668,0.13755986,0.041592706,-0.13392445,0.34498125,0.20407449,0.6895293,0.0788112,-0.10041022,-0.082306474,-0.36784485,-0.02269745,0.050368086,-1.2742363,0.19060248,0.18675797,-0.12145339,0.011242553,0.13321163,-0.029295657,0.021475865,-1.0605009,-1.1310277,0.037069414,0.21898356,-0.11389104,-0.058298077
-0.13143934,0.041939255,-0.00536266,-0.06943592,-0.10305043,-0.118559375,-0.13226563,-0.0046155755,-0.13634689,-0.12166353,-0.0063379193,0.07661762,-0.05607682,0.14186434,-0.113555074,0.06886422,0.016049076,-0.016693935,0.101560995,-0.08298721,-0.020039624,0.0058843354,-0.11507443,0.051183835,0.007915123,0.002509528,0.017144281,0.0034433044,-0.08973038,0.037164185,-0.060876995,0.08170575,0.010381933,0.09784145,-0.045027137,0.13834853,-0.08287986,0.05380479,0.015389343,0.06328001,-0.11515902,0.2164257,-0.066807054,-0.009381281,0.014026593,-0.07275622,-0.0071219057,0.085694715,-0.04212298,0.09665183,-0.076966554,-0.060532216,-0.029085115,-0.0019108201,0.06709551,-0.046018433,-0.13199265,-0.14282528,0.049440954,-0.074909724,-0.113205515,-0.12644655,0.0044969274,-0.041540936
0.0054406645,-0.48927873,-0.6326754,-0.06296544,-0.22477247,0.023176182,0.26769477,0.1909223,0.04542927,0.25696942,0.09740266,0.19552107,0.2107116,0.1570697,-0.082829416,-0.03728187,-0.07058294,0.7213022,0.06871362,-0.862935,0.134203,-0.055225298,0.06264227,0.06063178,-0.25400856,-0.25055763,-0.21984395,0.059040077,0.70878106,-0.7050174,0.83361673,0.47079033,0.06469337,0.10451682,-0.1425665,-1.4432193,-0.17945099,-0.03567636,0.26730046,0.13287795,-0.073215984,-0.27272266,0.24684055,0.6944079,-0.20431308,-0.024713844,0.5562895,0.33946088,0.08461833,0.26874518,-0.037935086,-0.076954514,0.72168297,0.0032056912,-0.023957541,0.30289322,0.23967473,-0.013736596,0.04975629,-0.11915488,0.12410989,0.25399125,-0.28631338,-0.12633888
-0.0041847704,0.028210513,-0.07785342,-0.08573352,-0.0567399,-0.0116382195,-0.066060305,0.088178635,0.033073653,-0.04095433,0.09155037,-0.0035925494,-0.0022332147,-0.100458,-0.055643465,-0.094003215,0.105926804,-0.021441126,0.064822584,0.11583005,-0.058614515,0.001447731,-0.047375474,0.046188593,-0.11788214,0.11372147,-0.11248469,-0.0144018615,0.029223537,0.068200365,-0.09147139,0.042420954,-0.09532752,-0.06916538,0.04898583,-0.10454267,0.05550769,0.06565217,0.12578708,-0.06481752,-0.1026151,0.16501246,0.07946071,-0.10707384,0.12005879,0.07341685,0.056462456,-0.031533983,-0.025678184,0.12210962,-0.019286165,0.04730174,-0.0669388,-0.06424577,0.01724477,0.107287854,0.13989611,-0.06535699,0.054252457,0.09036562,-0.12197611,-0.013614097,0.026129726,0.13420571
0.56508756,0.14575256,0.07875005,0.24003367,-0.14255798,-0.06781914,0.1111977,-0.076468065,0.046876714,-0.009791113,-0.3132691,-0.04738987,0.2009512,0.55907434,0.11755208,-0.03638216,-0.05859806,-0.03108105,0.40042037,-0.25881058,-0.00032932177,-0.08891957,-0.11040948,-0.01800076,-0.25835428,0.0926264,-0.010194715,-0.0517432,0.51733434,-0.43815762,-0.9610247,0.13064855,-0.05040266,0.6603495,-0.87165964,-0.29942814,0.13109553,0.0512017,0.104002476,0.058321297,-0.08871546,-0.79697376,-0.018538816,-0.67903966,-0.06769711,-0.0869355,-0.5804657,-0.701572,0.024765715,-1.3173859,0.64628583,0.28474307,0.27583838,-0.036299348,0.027315767,0.12151508,-0.8277256,-0.28454772,-0.30194667,0.17069069,0.051979486,0.0627925,-0.07232897,-0.14588687
-0.17807588,0.059282534,-0.2812952,-0.090985246,-0.032099586,0.22628401,-0.09905092,-0.19216225,-0.26469782,-0.39444807,0.1476135,-0.024139633,-0.22060068,-0.27793667,0.06873364,0.0962043,-0.052250348,-0.28058043,0.11963692,0.07831701,-0.16778947,-1.3109487,-0.035499483,-0.07560794,-0.37595153,-0.057064198,1.9196669,-0.18799345,-0.21495347,0.072108075,0.88977754,0.032161444,-0.1425173,1.9172163,-0.039865497,-0.0433547,0.11525119,0.12088684,-0.0625648,0.008622587,-0.04500468,-0.022251759,-0.30049935,0.048873894,-0.14393261,-0.03071085,-0.51630276,0.060314395,-0.39148572,0.08705512,-0.05717169,-0.11729239,-1.1234512,-0.110030726,-0.073631,0.4977521,0.49121782,-0.039749105,-0.12470132,-0.14318858,-0.69745505,-0.83333015,-0.2618117,0.06609272
0.2447713,-0.13807976,0.12804438,0.25065,0.12817842,-0.06129555,-0.14542082,-0.11929232,-0.2570172,0.16736162,0.18029796,-0.06942102,0.24310726,0.029525463,-0.047605056,-0.025274223,0.08363678,-0.087848194,-0.1335028,-0.08030452,-0.0011620822,0.2959783,0.053064212,-0.034209967,0.016260656,-0.1763526,0.06689252,-0.115387015,-0.09801261,0.005867939,0.1864545,0.3339765,0.04253496,-0.21871774,-0.1252404,-0.12371678,-0.002176649,0.08375538,-0.11180951,0.13803464,-0.1334416,0.1572807,-0.32137975,-0.11408851,0.021156924,0.10036834,0.11601595,-0.16534694,-0.024770081,-0.017834004,0.047271058,-0.040341046,0.20816983,0.032745723,0.07275576,0.13374498,0.24154648,-0.13248318,0.030076703,-0.13675173,0.024685413,0.006523247,0.06611881,0.061471276
-0.11845298,0.15602559,-0.016298598,-0.135291,0.048414897,-0.03900715,-0.12409962,-0.09408323,0.004593313,-0.077768765,-0.017796107,0.027469322,-0.12779759,0.029331686,0.12099228,-0.07545497,0.04608797,0.067420736,0.034381434,-0.044908095,0.009402944,0.03982593,-0.003293366,-0.010081723,0.12419433,-0.07158494,0.07426146,-0.08741576,0.084506474,0.12684315,0.059074774,-0.10028302,-0.017755385,0.14689271,0.059604924,0.083806254,-0.090838104,0.08322846,0.10727944,-0.016886804,-0.06845301,0.17685215,-0.0910118,0.013417978,0.13002528,-0.10661199,0.10772366,0.011494746,0.014794947,-0.25408038,0.12587121,-0.13895895,0.021419216,0.0316802,-0.096245244,0.08810424,0.07912022,-0.02122062,0.015893072,0.002051999,0.0917731,-0.0005041629,-0.038128085,-0.103601955
0.002787147,-0.012965461,0.08241845,0.0007541812,0.019122006,-0.014033668,-0.10429818,-0.03370397,-0.08748661,-0.111847885,0.02060602,-0.11782364,0.0015090693,0.10551627,0.057588764,0.014966637,0.12508446,-0.09964395,-0.02972544,-0.07166342,0.098570794,0.004821125,0.0763193,0.09357372,0.00886013,-0.013137215,0.09887057,-0.040812403,0.055715933,-0.10494622,-0.094804674,0.05732346,0.10184349,0.06672967,0.09896979,0.044155505,0.09385725,0.061357733,0.022093982,-0.02164089,0.027613042,-0.0019763513,-0.17038205,0.045708258,0.026386887,0.01811615,-0.06806172,-0.08046439,0.095580846,-0.093660876,-0.07306262,-0.13537776,0.021426534,0.16097073,-0.0061468333,0.07508578,-0.07316331,0.12206008,0.15217279,-0.07977682,0.08312911,-0.051875904,0.106372714,0.083285086
0.040557243,0.09017314,0.08247496,-0.09916338,-0.058032308,0.039067555,0.12163539,0.0061973576,0.06775311,0.055682793,-0.14602233,0.06501998,0.017574549,0.11626993,0.084957555,-0.14400384,-0.03623436,0.054948565,-0.035892226,-0.0008066322,0.08851416,-0.12342257,0.028911315,-0.14100459,-0.06598286,-0.05699705,0.11801483,-0.07177709,-0.06466912,-0.13523367,-0.031970356,0.048225764,-0.092061706,0.1412589,0.020769358,0.113089845,-0.024700392,-0.025178175,-0.015225645,-0.107397005,0.06979356,-0.06690817,-0.12462454,-0.015124233,0.063533686,-0.016499765,0.091160454,0.1057172,-0.06699265,-0.09537407,-0.04918048,-0.041319218,0.023165615,-0.106492795,-0.07689021,-0.04318262,-0.07625915,-0.0773937,-0.032604594,-0.0797706,0.027801752,-0.022402503,-0.006384022,0.07873189
0.00053089095,-0.10847702,-0.09624357,-0.00022489605,0.047333222,-0.026758263,-0.108200796,0.15922798,-0.1924897,0.006038535,0.16250141,-0.07841549,0.12389658,0.13524069,-0.07129941,0.03528617,0.015281322,0.12891188,0.08132392,0.11813499,-0.086330295,0.111345984,0.03524884,-0.011731535,0.009753361,0.13998798,0.045204755,-0.109986246,0.1651385,-0.07585084,0.05044062,0.31988165,-0.1951576,0.32175547,0.053031735,-0.09718603,-0.0051869056,-0.040338513,-0.13327762,-0.029693343,-0.039183173,0.35044765,-0.11597093,-0.013855325,-0.0074624033,-0.13625996,0.34464464,-0.12702018,-0.0849946,-0.151025,-0.039146256,-0.10269507,0.20787542,-0.08850681,0.025369521,-0.012751213,-0.21372643,-0.3845162,0.14782795,0.1995836,0.08509611,-0.19034015,-0.09337264,0.0627024
0.06692918,0.00027495783,-0.21044214,0.10780542,0.09840203,0.038770612,-0.23524365,-0.13778003,-0.04123255,-0.09805049,0.16915429,0.04271041,0.13924062,0.06412734,-0.08516468,-0.07821038,0.11394975,-0.025625361,-0.18061924,0.056454416,-0.19404846,-0.044320066,0.17329758,-0.10084368,0.43403536,-0.082435764,0.012116996,-0.054735497,-0.23749346,0.1884789,0.21532813,0.024692021,0.019954836,-0.4936592,0.84776205,0.34152937,-0.13464387,-0.053235624,0.053746548,-0.097429276,-0.08219305,-0.092460945,-0.035432663,0.29268992,-0.28886423,-0.123419195,0.29099828,0.43712854,-0.024646387,-2.2948544,0.17263056,-0.269072,0.089539096,-0.03285572,0.04197126,-0.027481494,-0.11994631,-0.19140306,0.40147328,0.90060437,-0.09344355,-0.027708745,-0.14799939,-0.10381907
-0.34402022,-0.07813252,0.044272095,-0.105438,-0.084224634,-0.09174914,-0.019341538,-0.07940246,-0.21202485,-0.09516712,-0.064332925,-0.20256358,-0.18567704,0.69649005,-0.15607826,-0.12446477,0.01504677,-0.15674907,0.10509765,0.7838072,-0.15361737,0.04132633,-0.5328621,-0.31837732,-1.2124941,-0.06586589,-0.25284865,-0.13173513,0.14211413,0.07130924,0.4538239,0.17768373,-0.11586317,0.49801126,-0.41488412,0.36028653,-0.31087032,0.00031348044,0.15271375,0.0008323234,0.015080854,0.57050675,-0.09290083,0.9103304,-0.052743148,-0.12076268,0.94890463,0.1864068,-0.07747463,-0.058653668,0.0002872363,-0.06086197,-0.055388015,0.07393615,-0.05816994,0.072281905,-0.31392667,0.15766583,-1.1112515,-0.16148813,-0.15371113,-0.15371516,0.056392945,-0.1370204
0.11260971,-0.16793896,-0.07570737,0.07142883,-0.16586332,0.026982034,-0.12501815,-0.034238126,-0.14719081,0.10527132,-0.14961809,0.008497807,-0.10719256,-0.016319802,-0.0029315404,0.05012407,0.0622656,-0.12865172,-0.09805959,-0.10614307,-0.024132578,0.6856256,-0.090455495,-0.054010667,-0.172741,0.0004447982,0.22302283,-0.002809835,0.09224841,0.028829742,0.25989416,-0.08095031,0.023638744,-0.111487545,-0.06591564,0.06450456,0.06529733,-0.078443825,0.0634112,-0.17303124,-0.04337241,0.106437616,-0.31171876,-0.13839895,-0.088686585,0.005714348,-0.16601579,0.0004217789,-0.023075406,-0.13392183,-0.05794322,-0.11434469,0.019090308,-0.012667503,-0.040627893,-0.39765418,-0.08735556,-0.005570544,-0.2241343,-0.1540468,-0.2091293,-0.20705514,0.055897664,-0.041909996
0.09102365,-0.076313354,-0.067128584,-0.11394198,0.045604095,-0.024079416,-0.058529187,-0.057056893,-0.019071842,-0.068062864,-0.010730776,-0.12545581,0.11317915,0.1151468,-0.037462045,0.046672568,0.12678044,-0.047627404,-0.11060674,-0.09942804,0.09873697,-0.098603316,0.12545538,-0.09763326,0.070132405,0.103074305,0.09653516,-0.025347907,-0.08805934,-0.03819491,0.025944864,0.093725674,-0.09507448,0.25323823,0.019747572,-0.12186711,-0.051417626,-0.009060949,-0.013808848,0.008546011,-0.072935976,0.27653822,0.10019336,-0.062344898,0.100693084,-0.11858776,0.093384646,-0.021091351,-0.04258333,-0.030194394,0.094604544,0.0879501,-0.033345517,0.1305175,0.0926014,0.045322757,0.124806024,-0.07043036,-0.13372006,0.025890088,-0.08668111,-0.096429035,0.06551804,0.0071148216
0.04247479,-0.008303217,0.08297708,0.1327816,-0.077395245,0.049615804,-0.023761787,-0.01760515,0.16972741,0.056428347,0.111235276,-0.07560655,-0.06653432,0.07257509,-0.007147279,-0.030631717,-0.006805114,-0.02341296,-0.01872719,-0.04679378,-0.008716494,0.0494615,-0.10462746,-0.0036094391,0.08466038,0.05789568,-0.07985825,-0.10391286,0.15221171,-0.006452679,-0.0118114045,0.16489741,0.03496559,0.20099032,-0.14170997,-0.1168358,0.012065905,-0.03058567,0.10363092,-0.023680786,-0.04483775,0.41254622,0.11883171,0.0032693804,0.027806103,0.07764944,0.110528216,0.08352591,-0.07400494,-0.09107516,0.14354388,0.034142092,0.04273244,-0.02994054,-0.004255896,0.047771588,-0.016566113,-0.04134607,-0.012174566,-0.0678835,-0.030196775,0.0011941011,0.08689252,-0.06376333
0.062195834,-0.02141706,0.036696326,-0.091560006,-0.028737983,-0.14371134,-0.28890824,-0.22346349,-0.02578031,-0.037652705,0.06958971,0.047465432,-0.0018769739,-0.19688323,0.013173808,-0.160471,-0.15939854,-0.11926466,-0.33977747,0.20168805,-0.08802807,-0.15994921,0.0071326965,-0.073791504,-0.019919623,-0.0026124155,-0.098817565,-0.042511307,0.21190791,0.0013713855,-0.10437248,0.19880402,-0.17176259,-0.05423558,0.4270718,0.06632485,-0.18252277,-0.09627711,-0.13903153,0.1598947,-0.26593578,-0.16612855,-0.1765304,-0.027741112,-0.11305001,-0.16060887,0.19071825,-0.06487528,0.024731876,-0.13847636,0.16096985,-0.11162434,-0.25031316,-0.36494914,-0.043567687,0.006194079,-0.19541942,-0.28837165,0.023819912,-0.5366966,-0.18217574,-0.08972849,-0.16612549,-0.0353163
-0.15223652,0.0037905355,0.013216515,0.05279599,0.011884762,-0.098091036,0.080663055,-0.08081661,-0.027790148,0.028264098,-0.16561298,-0.19681272,0.12205566,-0.079212174,0.067645006,0.08093983,0.0077076564,-0.026397958,-0.056217674,0.21259397,0.03517624,0.02321518,-0.0736315,-0.08919906,0.22962989,-0.15536685,0.030783094,-0.03874004,-1.016274,-0.12530695,-0.16722882,-0.052917045,0.02926739,-0.21816401,0.11829735,-0.051648322,-0.0065706032,-0.0441964,-0.123610176,0.009222878,-0.23068297,-0.14475167,0.007756498,0.6870578,0.067781955,-0.008661426,0.007182851,-0.042545147,-0.031717833,-0.4867282,0.1782739,-0.036184672,-0.12932597,0.04010119,-0.030642767,-0.046351116,-0.12519936,-0.0070839827,0.066692725,-0.19034053,-0.08310799,0.021938171,0.00923332,0.0044890475
0.35092673,-0.05006679,0.23104465,2.1862364,0.0065404624,0.020702401,0.13916565,0.77564776,0.73347735,-0.11588686,-0.20568113,0.1594289,0.83067274,-0.012915947,-0.0008371035,-0.07094994,0.023959015,-0.21747722,0.0035369757,0.072776094,0.14411095,0.019858401,-0.16088784,-0.24619617,0.44271323,0.010014725,-0.06564105,0.013820403,-1.5484312,-0.37384218,-0.6091637,-1.1196734,1.3627678,0.6780044,-0.0036526383,-0.971352,1.1274749,0.094638824,0.13759686,0.058057584,0.041936364,-0.19693913,0.9007154,0.06661054,-0.16862477,-0.007098379,0.026355848,0.35933095,-0.28541028,0.08969659,-0.6516805,0.15934177,1.7573475,-0.3526199,-0.11258921,0.70722234,0.25306737,0.23228472,2.1318243,-1.493617,0.6979562,1.3018124,-0.07012181,0.499804
-0.106154166,0.08526409,-0.0011724418,0.0038836119,-0.053778555,0.036746886,-0.12164936,0.07517542,-0.06784001,0.17127779,0.119934596,-0.13767418,0.094807066,0.030018454,0.0060845483,-0.07597517,0.11957822,0.08147289,-0.10798164,-0.026682261,0.05455378,-0.12361301,0.010283322,-0.08639443,0.11663121,-0.06959544,-0.04023418,0.045638606,0.000379797,0.12363751,0.12220711,0.116035976,0.023093577,-0.046713047,0.08114068,-0.012158145,0.059725255,0.053693984,-0.05409214,0.048289698,-0.09399881,0.054057237,0.11357922,-0.09909194,0.014275758,0.038393542,0.12232715,0.13079941,0.011032322,-0.08527111,0.027077226,0.111835815,0.10269285,0.12091986,-0.047147427,-0.021709636,0.09540861,-0.24488333,0.12162239,-0.128674,-0.049335998,0.11020864,0.050684657,-0.059390288
0.07316683,-0.0555577,-0.049961794,-0.074531786,-0.11659392,0.084751084,0.022486126,-0.17962798,0.050325245,-0.15361197,-0.056336317,-0.10652801,0.13503602,-0.17147706,0.03795143,-0.14982897,-0.12807158,0.073698595,0.060945943,0.09784339,-0.1909912,0.14967205,-0.14566152,0.09472164,-0.16647907,-0.15726946,0.015237602,-0.037452705,0.03473611,-0.0022174416,-0.01695767,0.0509558,-0.105742544,-0.09959964,0.10262527,0.034017246,0.026588187,-0.02989015,-0.03124507,-0.17095527,0.07966325,-0.13622399,-0.0028897135,0.012200333,-0.021979587,-0.14366102,-0.16422217,-0.13874765,-0.15229265,-0.14314023,-0.05556526,-0.17568175,-0.0603404,0.09083209,-0.005160994,-0.13925137,-0.103129685,0.005119869,-0.1037141,0.07954943,0.104567036,-0.13156752,-0.1021622,0.052148238
0.3380781,0.05904385,0.025192283,0.069674574,0.03948515,-0.034376595,-0.011839011,-0.07748428,-0.013723672,-0.00031126183,-0.15148668,-0.10963937,0.099145964,0.16857775,-0.036338642,0.095776685,-0.03451752,-0.052388407,-0.11349024,0.065667935,-0.051563427,0.009119996,-0.22981563,-0.052574765,-0.118525274,0.119146734,-0.18922226,-0.085684516,-0.076713555,-0.11049584,0.23666124,0.06702545,-0.11003167,0.15914404,0.12514451,0.02564963,0.21847731,0.040495455,0.16792786,0.11787499,0.07535538,0.26486158,0.16226836,0.03141917,0.13609503,-0.02964088,0.12505306,0.16660686,-0.008438447,0.0008021493,-0.12607563,-0.13515574,-0.1616057,0.13143499,-0.08035026,-0.0233404,-0.12721579,0.13156663,0.105807595,-0.10632249,-0.017657861,-0.031125572,-0.017556129,0.047241542
-0.005302293,0.14529866,-0.0024495763,0.0131541565,-0.07840261,-0.057334732,0.10985089,-0.0059744064,0.0024157492,-0.061598737,0.036398053,-0.013017406,0.121970415,-0.13809887,0.13807356,-0.09254171,-0.004188631,-0.12480724,-0.11602774,-0.12574741,0.07477386,-0.014627671,0.08521145,0.039965164,0.100417085,-0.0796687,-0.04885455,-0.15018158,-0.047665913,-0.023546712,0.039114166,-0.0049668783,0.050201066,0.036849756,-0.083003104,0.10018127,-0.11385848,0.122574866,-0.092149146,0.08630001,-0.001479494,0.027673107,0.0267595,0.093118586,-0.094211966,-0.094153985,0.116692916,0.0024082214,-0.016362399,0.08998111,0.1437528,-0.051174097,0.11900181,0.0887329,-0.09089515,0.02323554,-0.052117787,-0.08922524,-0.062217195,0.028715665,-0.04853168,-0.11787801,0.017532248,-0.11557502
